4
layer
-0.486284 -0.0860918 0.352413 0.461208 -0.950631 -0.143189 -0.0473014 0.599613 -0.775099 0.689372 -0.818918 0.01559 0.923111 -0.878401 -0.772906 -0.174575 -0.310263 -0.306643 0.556531 -0.288094 0.449992 0.419287 0.25577 0.465348 -0.033664 -0.762803 0.0953133 -0.0810408 -0.888435 0.952385 0.461007 -0.0207852 0.88027 -0.884766 0.49805 0.317514 -0.316154 -0.146486 -0.373767 -0.311415 0.800187 -0.844317 -0.777905 0.153588 0.670826 -0.650332 -0.337326 0.980769 0.673914 0.253825 -0.963673 -0.526301 0.865291 0.267157 -0.381427 0.0956145 -0.700492 0.223303 -0.589815 -0.862532 -0.888507 -0.427805 0.115541 -0.520602 0.52793 0.833346 0.735677 0.548474 0.400587 0.853453 -0.761344 -0.649263 -0.494552 0.503929 0.23381 0.135211 -0.104998 0.967063 0.874704 0.247957 -0.630432 0.688054 0.33749 0.33522 -0.689489 0.734559 -0.436643 -0.69979 -0.727933 -0.438908 -0.567582 0.539217 -0.864762 -1.03982 0.808226 -0.696766 -0.0690614 0.444697 0.0504078 0.453181 -1.06009 0.603258 -0.921732 -0.625414 -0.509426 0.554117 0.104658 -0.683482 1.19014 -0.238154 -0.787492 -0.701515 0.71554 -0.671201 -0.904323 -0.558137 -0.331869 -0.168052 0.214671 0.295097 0.691174 -0.481682 -0.370214 0.887575 -0.649393 -0.266914 0.641032 -1.05291 -1.21645 0.0154103 -0.285952 0.471472 0.678518 -0.593853 0.310614 -0.185111 0.787524 -0.0355503 -0.813845 -0.386765 0.0366225 0.41948 -0.581847 0.816501 -0.357611 -0.718948 -0.155537 0.72455 -0.125979 0.553345 0.203067 -0.112199 0.893659 -1.1785 0.564927 -0.118985 -0.906364 0.636993 0.0509623 -0.697843 0.716364 -0.33122 0.436501 0.961698 0.11109 -0.161513 -0.670802 -0.850783 -0.536125 -0.155712 -0.738667 -0.850641 0.897873 -0.0917213 0.680868 -0.683652 -0.487054 0.137339 -0.53234 -0.125167 0.616427 -0.310428 -0.269713 0.395368 -0.715954 0.0125271 0.623224 -0.996294 1.11956 -0.598499 -0.609667 -0.0642772 0.221215 -0.670128 -0.370618 0.402806 -0.536635 -0.0811521 0.748173 0.254094 -0.274433 0.200535 0.520714 -0.0422754 -0.457971 -0.366619 0.707358 -0.309817 0.637962 -0.573567 0.788469 -0.620805 0.396425 -0.374573 0.565665 -0.372177 -0.864682 0.344308 -0.406476 0.27914 -0.750941 0.688918 0.906092 0.221132 -0.781539 0.749229 -0.53867 0.0680254 0.788075 -0.166929 0.991739 0.956102 0.287329 0.624399 -0.30697 0.272897 0.812769 -0.632793 0.554452 0.295535 0.076891 0.0862789 -0.417115 0.40072 0.696247 -0.249434 -0.636388 -1.01659 0.229324 -0.0585772 -0.896948 -0.354245 0.305485 -0.720396 -0.948568 0.104858 -0.519406 0.417403 0.454277 -0.451469 0.744568 0.302924 -1.16422 0.184373 0.590632 -0.282249 -0.03005 -0.141456 0.531751 -0.702874 -0.945671 -0.958962 -0.527448 0.349424 0.940315 -0.278764 0.532006 0.117323 0.0233938 -0.347174 0.498359 -0.527764 -0.634562 -0.681992 0.207487 -0.758076 0.583484 0.782231 -0.300542 -0.37018 0.206318 -0.663082 0.529815 0.770709 1.18219 0.739584 0.896747 0.680293 -0.327044 0.428451 -0.945683 0.200281 -1.02347 -0.378258 -1.15946 -0.66203 -0.511772 -0.123828 -0.0428959 0.0606281 0.240013 -0.146234 0.335648 -0.387679 -0.217356 -1.2989 0.0776364 0.0897164 0.192975 0.767811 0.00205832 0.670806 0.00595538 1.07169 0.577928 0.000263238 0.489948 0.884947 -0.652433 -0.643705 -0.335658 0.437928 -0.10138 0.507927 -0.104186 -0.884015 0.84081 0.0421697 0.132164 0.609753 -0.69186 0.0587603 -0.834692 0.102191 0.781018 0.604994 0.667426 1.1329 0.667571 0.680939 0.471425 1.5959 1.35231 1.2547 1.19212 0.543477 0.490208 -0.386767 -0.730174 0.963469 -0.527146 0.172182 -0.172897 -0.438503 -0.300714 0.437265 0.346738 -0.296407 -0.89908 0.383499 -1.29936 -0.985727 0.640033 1.18923 0.81252 1.38841 1.2534 0.419274 0.734235 1.48662 0.833014 0.0969319 -0.187393 -0.376255 -0.0645942 0.474108 -0.312068 0.500768 -0.59447 0.571868 0.506779 0.738239 -0.233402 0.919821 0.0151563 0.117049 -0.110614 -0.688389 -0.305906 -0.169304 0.432766 -0.594704 0.064779 1.0561 1.30072 1.27957 0.650129 0.76004 1.03947 -0.0118869 1.42421 0.882044 -0.202046 -0.562957 -0.271831 0.501157 0.0755616 0.388988 -0.850685 -0.389479 -0.349969 -0.787966 0.0139889 0.903611 0.0898092 0.110469 -0.348882 -0.0219002 -0.0245093 0.824903 0.232078 0.375863 0.438341 -0.383838 0.455483 -0.7421 0.805084 0.514883 -0.635269 1.21691 0.739447 0.637777 0.358262 -0.56497 -0.463602 0.297143 -0.837267 -0.126597 -0.250655 0.462864 0.432432 -0.05028 0.141075 0.433656 -0.355247 0.0167246 -0.521297 0.801248 0.496892 -0.358291 -0.830087 0.804639 -0.192812 -0.576144 -0.0672657 -0.140996 0.712392 -0.487927 -0.347745 0.773875 0.451544 0.413711 -0.123568 0.476418 0.542097 -0.3796 0.914819 -0.89848 1.04386 -0.476987 0.0428218 0.0988508 0.230424 -0.0840633 0.358006 0.0162821 -0.613056 -1.25155 -0.00436416 -1.152 0.899928 -0.99438 -0.544986 0.408162 0.930036 0.664415 -0.320554 0.696952 -0.248671 0.522717 -1.03576 -0.103839 0.431126 0.850979 0.172494 -0.350307 -0.116537 -0.674336 0.625244 0.11083 -0.474713 0.869187 -1.07538 0.2213 -0.731098 -0.286611 -0.785858 -0.416179 0.633092 0.546548 -0.53254 0.254262 0.129822 -0.437139 -0.31953 0.0824111 0.0825961 0.278114 -0.725397 -0.795538 0.148519 0.42785 -0.308148 -0.338296 -0.696945 0.870498 -0.320417 0.216694 -0.55657 0.356772 0.124787 0.101086 0.268841 -1.29431 -0.0883839 -0.454781 -0.169327 -0.599335 0.696925 -0.892948 1.05113 -0.22594 0.884225 -0.809899 -0.359096 0.43628 -0.693409 -0.213182 0.840625 -0.78428 -0.736228 0.897264 0.956638 -0.0238008 0.681839 0.564067 -0.154497 0.503312 0.523112 -0.992153 0.604817 -0.409833 -0.740578 -0.904902 -0.56807 0.0899545 0.437256 -0.0630509 1.02441 -0.213121 -0.0935388 0.311228 -0.691824 0.683538 0.64449 -0.35259 -0.881613 -0.161044 0.088116 0.0132374 0.637651 0.822669 0.847522 0.0838922 0.375373 0.0648852 -0.603179 0.619166 0.025093 -0.284397 -1.04155 0.268433 -0.354452 -0.0315783 0.283921 -0.0364309 0.992543 0.283952 -0.733123 0.515428 -0.0217145 0.560447 0.633489 0.140692 0.654814 0.460926 -0.402096 0.360405 -0.477925 0.665672 -0.420182 -0.77827 -0.430286 0.794353 -0.418878 -0.0490164 -0.651574 -0.769824 -1.0977 0.106338 0.521377 -0.00456647 0.44058 -0.514005 -0.513853 0.33164 0.0816695 0.462522 -1.16892 -0.770747 0.631604 -0.52789 0.607093 -0.348172 -0.302926 -0.567069 0.439288 0.902037 0.247286 0.211035 0.432353 -0.188411 -0.686434 0.384413 -0.415883 0.203261 -1.16116 -0.430999 -0.0313263 -0.624442 -0.19492 -0.090427 -0.165774 -0.0271876 -0.196342 0.493917 0.507474 0.13775 -0.120287 0.690218 0.923287 0.642502 0.682113 -0.513989 -0.307872 -0.721019 -0.171212 -0.609281 0.0721968 0.313867 0.726446 -0.546044 0.294745 0.715751 0.0410592 -0.76663 0.90258 -0.599959 0.882729 0.408357 0.782497 0.432797 0.791371 -0.367386 -1.04716 0.613686 -0.816307 -0.343629 0.49458 -0.941007 0.293892 0.803454 -0.89921 -0.740719 -0.0176041 -0.0898028 -0.213343 -0.827853 0.464 0.847235 -0.504408 -0.545981 0.145858 -0.198437 -0.623754 0.107137 0.207703 0.341341 0.36321 0.702698 -0.774435 0.961929 -0.514861 0.833739 0.508157 0.24952 0.727943 -0.128815 -0.0937692 0.496731 0.123604 0.229214 -0.798777 -0.414307 -0.459585 -0.679884 0.41007 -0.73358 0.845353 -0.399325 0.537208 0.776805 0.579492 -0.120634 -0.310075 0.319457 -0.128215 -0.0652825 -0.58728 0.245395 -0.305316 0.122962 0.092762 0.367653 0.582791 -0.940969 0.177017 -0.648756 0.194114 0.818942 -0.673622 -0.617433 -0.658615 -0.00788539 -0.911752 -0.736993 -0.665259 -0.109854 -0.736019 0.703111 -0.244834 0.66493 -0.148125 0.364708 0.221223 -0.0409857 0.30543 -0.928027 0.279294 0.19179 -0.475427 0.438956 0.736347 -0.487296 
-0.480753 -0.948121 -0.221511 0.127644 0.836887 0.325991 0.838293 0.150315 0.7784 0.639259 0.396312 0.696204 -0.731525 -0.0666644 0.378459 0.446725 0.229046 -0.861275 -0.255028 0.258052 -0.363427 -0.381562 0.383998 0.974589 -0.529665 0.112425 0.409223 -0.822586 0.355842 0.464312 -0.891934 0.742087 -0.93652 -0.4486 0.610078 -0.724767 0.341513 0.0586139 -0.0335749 0.00916029 -0.608487 -0.251057 0.678602 0.122497 0.699661 0.514257 -0.895843 0.34838 -0.684528 -0.835034 0.463184 -0.0150113 -0.424558 -0.054152 -0.926888 0.00113992 0.00905855 -0.202197 -0.611359 -0.254499 0.857606 0.32976 -0.563573 0.282031 -1.05047 -0.679392 -0.442184 -0.0538268 -0.88746 0.673798 -0.320389 -0.147161 1.14503 1.08282 -0.10932 -0.421961 -0.466845 -0.212659 -0.641129 0.402372 -0.461461 0.576485 0.866316 -0.555047 0.502898 -0.781276 0.667494 0.0804404 0.831749 -0.724939 0.969534 0.574533 0.0819472 0.655754 -0.834632 0.0415459 -0.61835 0.120831 0.752668 0.865943 -0.326068 -0.654952 0.202914 -0.440495 0.0122247 0.440368 -0.898828 0.325989 0.124683 0.598584 0.732382 0.110207 -0.889513 -0.450469 -0.356049 -0.0911599 0.252072 0.643333 0.404509 0.110715 -0.847557 -0.691258 -0.326534 0.992054 0.174178 1.15246 -0.285976 -0.699796 0.392539 -0.0343513 0.0124606 0.710676 0.706485 0.982668 -0.586633 -0.224893 -0.172239 -0.245681 -0.946483 -0.378266 -0.0354753 -0.626533 -0.224245 -0.646312 -0.49764 0.895844 0.869283 -0.616198 0.744091 -0.221108 -0.866737 0.203471 0.911168 -0.188777 0.771153 -0.930686 0.263747 0.471698 0.0140524 -0.762363 0.611739 -0.216265 -0.0419876 0.0648454 0.777385 0.634937 -0.605811 -0.907914 -0.305467 -0.948829 -0.662199 0.277772 0.500211 0.757051 0.0569227 -0.320596 -0.115498 0.269029 -0.397045 -0.399584 1.09054 0.325457 0.0366378 0.882514 -0.470952 0.0768561 -0.619453 0.642558 -0.587553 0.326017 -0.583938 0.335051 0.587633 0.593388 0.708782 -0.543724 -0.413752 -0.746225 0.620739 0.451222 -0.00181672 -0.390527 0.407549 0.993224 0.0119617 -0.00227021 -0.498751 0.276808 -0.0378984 0.180807 0.121848 0.799279 0.580168 -0.789322 -0.109787 0.493421 -0.536625 -0.85216 0.715337 -0.201308 -0.493286 -0.17822 -0.475087 -0.358242 -0.817154 -0.839252 -0.639694 0.499294 -0.0420429 -0.249682 0.742677 0.571282 -0.451127 -0.0292084 -0.22826 -0.229357 -0.240015 1.23814 0.337228 0.311866 1.0914 -0.33767 0.745236 -0.604712 1.00035 0.0849543 -0.564466 -0.399412 -0.253485 -0.889764 0.140372 0.913334 -0.375264 -0.996665 0.133776 0.355572 -0.233042 1.1863 0.785673 -0.627828 -0.76084 0.179923 -0.298172 0.59254 0.468458 0.203953 -0.219121 1.15902 0.934726 -0.355346 0.359595 0.662911 -0.798773 0.55094 -0.0630828 -0.185881 -0.369457 0.20772 0.551626 -0.0546922 0.532554 -0.574116 1.05144 1.05333 0.0347868 0.643032 -0.200415 0.555933 0.916995 -0.54462 0.796768 -0.356456 0.526746 -0.386805 -0.613748 0.366024 0.983913 0.060957 -0.419673 -0.205236 0.603078 0.156801 0.318305 0.323128 -0.537948 0.613211 0.42339 -0.141043 0.118797 0.281757 1.05202 0.49635 1.34042 -0.363579 -0.270767 0.619001 0.831438 0.0418279 -0.69663 1.04609 -0.563977 0.030418 0.882577 0.4782 0.0194102 0.309502 0.608568 -1.02567 -0.283361 -1.18503 -0.226521 -0.11287 -0.395113 -0.52525 -0.14507 0.74678 0.455302 0.930192 0.22042 -0.0977381 -0.240211 0.742009 0.284952 0.843239 0.043916 0.383311 -0.841232 0.0867339 -0.135101 -0.421186 -0.178871 0.915465 0.317695 0.607918 -0.78227 0.231977 0.532423 -1.0598 -0.908827 -0.253674 -0.490013 -0.184737 0.390765 0.0924971 0.123039 0.942645 0.127409 -0.00329437 0.873113 0.416256 -0.151418 -0.615617 -0.468886 -1.13959 0.579435 -0.866386 0.963514 0.321683 0.661796 -0.746814 0.657944 0.717586 -0.0946533 -0.149775 -0.0473287 0.623839 0.638895 -0.226823 0.314708 -0.0544316 0.391604 -0.91272 0.868203 0.825998 -0.35764 -0.358494 1.03844 1.03591 -0.560978 -0.521593 -1.07524 -0.517533 -1.41829 -0.998739 0.527326 -0.158053 0.79208 0.25275 -0.58596 0.548146 -0.50286 0.520462 -0.711469 -0.851079 -0.6788 0.121749 0.334367 1.00721 -0.408266 -0.0665069 -0.377783 0.922474 -0.454481 1.28665 0.30716 0.383038 -1.01186 0.350765 -0.0725957 0.135375 -1.25204 -0.105432 1.02161 -0.4337 0.191387 0.395188 0.838192 -0.0118849 0.437094 -0.49524 0.242054 0.667403 -0.730077 0.00294698 0.808993 0.0118173 0.0872968 -0.642545 -0.283029 0.347238 0.521564 0.900145 0.869585 -0.169133 -0.526341 -0.0776766 -0.346176 -1.07358 -0.4921 -0.662103 0.673117 -0.286045 0.879681 0.601204 0.491974 0.0688701 0.23737 0.0384551 0.474397 0.424154 0.624552 -0.0725243 -0.518697 0.557587 -0.559463 -0.422458 0.702707 0.160819 0.774504 -0.163654 0.547695 -0.117422 0.666965 0.38364 -0.69401 -0.730974 -0.178186 0.0266275 -0.348947 -0.22538 0.956771 0.82868 -0.362462 -0.429073 -0.581952 0.603528 0.349011 -0.905916 0.746223 0.686204 0.415999 1.12962 -0.876539 -0.779967 -0.990099 0.63474 0.685487 0.629177 0.285093 0.0329031 -0.647894 -0.107852 -1.00212 -1.16379 0.0718396 -0.91965 -0.464636 -0.505597 0.502411 -0.532267 0.983584 0.293784 -0.603876 0.846309 -0.725576 0.806774 -0.2401 -0.118553 0.954738 -0.457218 -0.0254224 -0.887523 0.0233552 0.0575521 1.14638 -0.190707 -0.331688 0.849552 0.537979 0.742497 0.237632 -0.0946365 -0.334423 -0.876357 0.165093 0.30403 -0.837138 0.829113 -0.301571 1.06861 0.632069 0.407206 0.85977 0.88234 -0.400062 -0.60308 0.365698 -0.264792 0.201929 0.491649 0.818198 -0.486684 0.769537 0.72548 -0.17919 0.697275 -0.583242 0.421085 -0.663809 0.00337458 -0.88815 -0.4986 0.131716 0.131655 -0.656179 0.31354 0.685483 0.829344 1.12654 -0.533891 0.077147 -0.796241 1.02882 0.175554 0.884309 -0.624923 -0.665029 0.111431 0.249688 -0.249296 0.74033 1.00812 -0.165048 0.0514353 0.187439 0.526583 0.412026 0.749958 0.185069 0.725274 0.460681 -0.986059 -0.416002 -1.38399 -1.05154 0.649169 -0.47823 -0.585022 1.07362 0.792438 0.382804 0.19521 -0.720917 0.307865 -0.646467 -0.162937 -0.207636 0.821556 0.287433 0.483849 0.628326 0.840381 0.588512 -1.17808 -0.584616 0.0327359 -0.411997 -0.427295 -0.902709 -0.332158 -0.346747 -1.08817 -1.46663 0.140629 0.0153602 -0.754318 0.448107 0.0366995 -0.523937 0.622481 0.273725 -0.971504 -0.344269 0.280344 0.998292 -0.234232 1.08588 0.231125 0.466958 -0.0954497 -1.14814 0.384337 -0.480619 -0.0426196 -0.773459 -0.611414 -1.2968 0.296598 0.202817 -1.37414 -0.692815 -1.06564 0.210496 -0.472292 -0.00585361 -0.931528 0.856831 -0.607208 0.78927 0.14585 -0.149968 -0.984805 0.884476 -0.458124 0.433699 -0.543393 -0.141685 0.0895993 0.341138 -0.171749 -0.662424 -0.375134 0.0769517 -0.320619 0.385366 -1.28706 0.176488 -0.741243 0.31804 -0.407059 -0.531287 0.0939692 -0.0931921 -1.15419 0.0987663 -0.98844 0.604137 -0.960851 0.599106 0.054246 0.183698 0.705373 -0.0947266 0.6 -0.674626 0.942658 0.230375 -0.341479 -0.491766 -0.54363 -0.690065 -1.11253 0.526569 -1.01948 -0.760052 -1.05855 -0.338856 -1.14295 -1.3304 -0.117093 -0.90596 0.454261 0.508424 -0.531276 -0.565707 -0.932465 -0.286892 0.32771 0.190756 -0.940063 0.668799 -0.733335 0.458001 -0.459426 -0.6212 -0.549294 -0.838392 -0.331482 -0.843451 0.38545 0.487125 0.251137 -0.77317 -0.77372 0.220827 0.26469 0.427787 -0.110189 -0.299746 -0.0877548 0.957807 -0.280355 0.0664885 -0.388302 0.664233 -0.713101 -0.474199 0.989834 -0.417146 0.740631 0.109399 -0.146077 0.992337 0.651714 0.0920616 -0.786789 -0.385893 -0.0688554 0.993484 0.674585 -0.828077 -0.655616 -0.238257 0.833945 0.803467 0.150116 -0.055047 0.510252 -0.275082 -0.570985 0.0965268 -0.936512 -0.0816605 -0.360671 
-0.566511 -0.820535 0.211081 0.251308 0.525679 0.575843 0.540056 -0.0959988 -0.509661 0.355323 -0.507135 -0.733177 0.610534 -0.0765031 -0.569126 0.326861 -0.0546885 -0.300577 -0.403209 0.915636 0.00347542 0.194153 0.549516 -0.330373 0.719235 -0.425854 0.555905 -0.214212 -0.427754 0.671548 0.740507 -0.945402 -0.107807 -0.507804 0.334981 0.573512 -0.0603705 0.153005 0.148051 -0.884196 0.425231 0.692766 -0.791498 0.344353 -0.905421 0.932462 0.596329 -0.347467 0.222657 0.850696 0.595369 0.409371 0.181803 0.933681 -0.420188 -0.21113 0.631011 -0.523965 -0.284505 -0.177454 -0.900092 0.448357 0.187349 -1.02276 -0.480719 -0.146555 0.434874 -0.472154 -0.0959021 -0.516902 0.488287 0.975728 -0.261226 -0.396867 0.756 1.04106 -0.220831 0.723137 -0.292479 0.658538 0.688857 -0.115701 0.90798 0.253517 -0.226423 0.996251 -0.383863 0.310697 -0.748891 -0.559648 0.219751 0.605742 0.438483 -0.65807 0.378917 -0.394097 -0.212815 0.229995 0.519168 0.206231 0.651252 0.84758 0.806888 -0.333567 -0.95112 0.689559 0.162015 -0.16896 -0.764113 -0.730806 -0.516522 0.316174 -0.886722 0.884078 0.0748702 -0.580505 -0.709708 -0.817906 0.741024 0.581367 -0.768271 0.476757 -0.204537 -0.40603 -0.24926 0.945045 0.519915 0.277353 1.02939 0.863496 0.881782 -0.204353 -0.696806 0.295646 -0.676965 -0.687964 -0.991396 0.362676 -0.474498 -0.426433 -0.485281 0.32703 0.442525 -0.862289 0.0103777 -0.342609 0.233939 0.716249 -0.210896 -0.56042 -0.754529 -0.222308 0.0476793 0.244373 0.16752 -0.285016 0.814276 0.920065 0.600121 0.841093 0.30743 -0.0248379 1.03156 0.534538 0.134162 -0.82768 0.602273 -0.387848 0.505464 0.985697 -0.541751 0.10741 -0.191996 0.918264 -0.352563 -0.133003 -0.631889 -0.745564 0.132011 0.945363 0.227813 -0.19196 -0.585807 -0.418146 -0.0156475 -0.348347 -0.562708 0.774241 0.692912 -0.0191521 0.586442 -0.521608 -0.0541098 -0.498899 -0.386816 0.300606 -0.0140087 -0.692789 -0.903746 0.224538 -0.361197 -0.213537 0.408303 -0.644145 0.406033 0.148943 -0.776297 0.527224 -0.644144 0.31385 0.784548 0.119138 -0.521539 -0.108676 1.04977 0.00167199 0.708971 0.728241 0.0588319 -0.234162 -1.51251 0.470754 0.521607 0.0412224 -0.260286 -0.0983656 0.32971 -1.28527 -1.16817 0.182052 0.668843 0.529218 -0.690382 0.945445 0.522162 -0.146799 -0.596746 0.473043 0.253543 -0.0961333 0.0932346 -0.39339 0.0651326 1.12661 0.527287 0.0349943 0.993233 -0.306959 -0.527619 0.24044 0.363174 0.391391 -0.614043 -0.229661 -0.260365 -1.10464 0.263734 0.759198 -0.516114 -0.236236 -1.04091 0.452908 -0.303723 0.893211 -0.116061 -0.259783 0.884475 -1.02554 -0.431082 0.414467 0.0683522 1.38539 0.264115 0.376329 0.423745 -0.724446 -0.715434 -0.252215 0.0604483 0.0748015 -0.828736 0.10895 -0.114863 -0.578145 -0.41337 -0.508069 0.41872 -0.423075 0.435795 0.477215 -0.127811 0.262013 -0.311272 -0.47843 -0.772929 0.709534 -0.131908 -0.626388 0.451682 0.510605 1.38067 1.10653 0.540039 -0.66712 -0.0403254 -0.980544 -0.436788 -0.860946 -0.569709 0.814312 0.627707 -0.870731 -1.06501 0.0438544 -0.993812 -0.177825 -0.352109 0.426264 -0.432355 1.35889 1.39793 -0.04699 -0.204014 -0.0517441 -0.742961 0.988191 -0.46826 -0.282724 0.876253 0.363613 0.823032 -0.505064 -0.0544752 -0.634017 -0.380489 -0.0229318 0.882939 -0.541546 0.450523 -1.17752 0.0313422 0.0809155 -1.03136 0.181885 0.484227 -0.0283898 0.332273 -0.35165 -0.127455 0.147131 0.0737595 -1.02348 -0.618986 0.597035 -0.725892 1.24636 0.921306 0.764844 -0.269807 0.533556 -0.534284 -0.792949 -0.153677 -0.769643 0.503994 -0.983979 -0.592899 -1.13195 -1.51609 0.199795 -0.680864 0.944403 -0.355267 0.466041 -0.338624 -0.420384 0.69814 0.647654 0.551264 0.0903777 -0.629906 0.453979 -0.200485 0.341729 0.377901 0.655172 1.01052 0.564083 0.291014 0.263875 -0.987942 -0.392516 0.90594 -0.704045 -1.30017 -1.63954 0.0923136 0.335913 0.383011 -0.789792 0.0474047 0.460931 0.536894 -0.864244 0.0839675 -0.349014 -0.515755 -0.193719 0.869982 -0.977989 -0.350463 -0.609907 1.23149 1.13039 1.2785 0.468102 -0.270587 -0.908005 -0.234381 0.586761 0.55804 -0.988011 -0.449084 -0.282406 -1.22058 0.560788 0.685425 -1.38779 0.396942 0.454204 1.00484 0.267645 0.0958391 -0.583887 -0.830453 0.233305 0.978754 -0.442508 0.391823 -0.757181 0.472494 -0.14883 1.54118 0.437198 0.217784 -0.226836 -0.966853 -0.378153 -0.713489 0.493355 -1.01709 -0.199115 -1.11943 -1.10514 -0.128418 -1.49713 0.309922 -0.252223 -0.320017 0.169795 -0.340195 -0.131702 -0.882365 -0.0689532 0.761308 0.291328 -0.380084 -0.576346 -0.158373 -0.1514 1.24821 0.937628 -0.55087 0.500422 0.428259 -0.597379 -0.510338 0.636416 -0.391673 -0.118759 -0.721939 -0.62626 0.308325 -0.528015 -0.434203 0.320203 0.433318 0.442578 -0.326331 -0.782883 -0.104529 0.113505 -0.154258 0.804416 -0.341376 -0.639166 0.194817 0.847745 0.284991 1.25724 0.708876 0.29613 0.45926 -0.939689 -0.0888931 0.0859215 -1.19467 -1.02905 -0.918219 0.0811965 -0.312104 -0.83068 -0.799482 -0.136254 -0.506236 0.765333 0.263851 -0.487723 -0.205996 -0.826463 -0.798244 -0.177944 0.748901 1.17949 -0.603841 1.14186 -0.134179 -0.74354 0.696548 -0.508336 0.830722 0.143807 -0.720577 -0.953441 -0.730517 -0.19113 -0.100956 0.752397 0.275383 -0.334524 -0.742165 0.630508 -0.285731 0.584925 0.134876 -0.169362 -0.683583 -0.920236 0.536386 0.971724 -0.016345 0.693471 -0.5785 0.539754 1.21937 -0.269125 0.702284 -0.358525 -0.972842 0.654025 0.437603 -0.400421 -0.848751 -0.763923 0.403447 -0.745605 0.441788 0.41578 -0.639736 0.358236 -0.798752 -0.0786992 -0.218097 -0.256683 0.486799 -0.530325 0.14909 0.199794 0.316804 0.769769 1.37834 -0.467419 0.254804 1.18789 -0.0251511 -0.808276 0.609434 0.897657 -0.69966 0.498889 -0.531273 -1.12211 -0.349906 0.723702 -0.767746 -0.780965 -0.158916 -0.365782 -0.0635508 0.424562 0.510841 -0.649199 -0.212174 -0.682281 0.638793 -0.494547 0.12605 -0.182207 0.801118 -0.160394 0.0197454 -0.394057 -0.518705 0.771545 -0.439475 -0.883764 0.292563 -0.983213 -0.984651 -0.555604 -0.941428 -0.697484 -0.00679565 0.386209 0.215156 1.17528 -0.143255 1.15238 -0.390035 -0.0941686 -0.0504164 0.675267 -0.329595 -0.382372 0.12226 1.04743 -0.332744 -0.105122 -0.356254 0.364427 -1.03171 -0.761894 0.994983 0.115327 0.432568 0.971172 -0.890863 -0.330547 -0.20859 -0.341205 0.108838 -0.772771 -0.311534 -0.265695 1.10078 0.499481 0.299989 -0.672705 0.959939 0.00928117 0.794386 0.888486 0.895672 0.175705 -0.117305 1.14458 -0.665421 -0.867297 -1.00098 -0.0851246 0.697912 0.711765 0.67784 0.852653 -0.682715 0.48431 -0.0184871 0.585837 -1.18945 -0.981296 -0.107746 -0.277852 -0.365192 -0.0102122 0.669312 -0.395359 -0.195054 -0.670229 -0.397389 1.06168 -0.367917 0.175305 0.170513 -0.351836 -0.208644 -0.61361 -1.178 -0.181591 0.500431 0.775777 -0.222717 -0.919496 0.115841 -0.220595 -0.86433 -0.653142 -1.01818 -0.363375 0.630873 -0.947321 0.107791 -0.832166 0.31418 -0.559267 0.873043 -0.177225 0.316193 -0.331031 0.754241 -0.684465 0.702274 0.881111 -0.231972 0.633146 0.228665 0.899803 0.364166 0.629009 0.840025 0.0660486 -0.882787 0.672551 -0.467601 -0.881545 -0.353834 -0.22673 0.139761 0.136384 -0.0346584 -0.773942 -0.832002 -0.429664 -0.00596209 0.356975 0.596939 0.858482 0.657167 0.207858 -0.848328 0.906124 -0.264061 -0.175937 -0.476337 -0.60949 -0.966787 0.214455 -0.280863 0.576329 -0.787898 -0.25624 0.00519058 0.552186 -0.445677 0.522841 -0.406902 0.0411001 -0.656356 0.442837 0.425099 0.135248 0.690343 -0.487517 -0.999765 0.526328 -0.552138 0.413768 0.472864 -0.966823 -0.199205 -0.540586 -0.218763 -0.964414 0.334224 -0.192201 
0.510666 0.0782949 -0.930549 0.0265631 0.585681 0.810388 0.942424 0.905402 -0.526493 -0.470879 0.298664 0.955919 0.943386 0.712238 -0.722664 0.223932 0.506452 -0.610959 0.67378 -0.0505178 -0.908031 0.446787 -0.936138 0.642348 0.723259 -0.504864 0.646355 -0.863604 -0.340366 0.00486747 0.974964 0.930921 -0.95099 -0.0807631 0.207017 0.305109 0.204281 -0.607694 0.176618 -0.00981764 -0.206478 0.858623 -0.337458 0.55855 -0.258657 0.656532 -0.260869 -0.889802 -0.397282 -0.711889 -0.200353 -0.950937 -0.206469 0.00201286 0.732284 -0.352488 -0.256873 -0.862025 -0.351722 -0.607527 0.743693 0.126069 0.447265 0.172977 1.02348 -0.00104269 -0.837115 -0.378935 -0.425534 0.326231 0.724124 -0.5083 -0.806911 0.597834 1.01669 0.517516 -0.310567 0.971354 1.00933 0.474534 -0.426516 -0.813811 0.076729 0.397182 0.890247 0.286538 -0.339748 0.641722 0.754643 0.822045 0.360119 -0.0288859 0.509996 0.752791 -0.252774 -0.380639 -0.299754 0.546967 0.900476 -0.877765 0.943306 0.171774 0.441308 -0.680806 0.152665 -0.158796 0.485202 -0.234645 0.401733 -0.741543 0.523055 0.879156 -0.596479 0.832466 -0.504671 0.527968 -0.149003 -0.539282 -0.41945 0.266391 -0.386491 -0.850858 0.257874 -0.550882 0.678463 0.578017 0.236534 1.00468 -0.865025 -0.0829393 -0.539899 -0.323515 -0.357469 0.839173 0.143364 0.744536 -0.105597 0.864362 0.278698 0.539115 0.265027 0.78295 0.582842 1.17458 -0.683624 0.584842 0.411353 0.0251129 0.609897 -0.0855379 0.288465 -0.814283 0.170891 0.334594 0.823754 -0.169465 -0.700252 0.601463 0.707174 -0.707672 0.559448 0.10253 0.140584 0.593465 -0.531619 0.243904 -0.354129 0.758267 0.613327 -0.409844 -0.631221 1.19024 1.10627 0.377671 -0.579722 -0.78245 0.193448 -0.296903 0.0421288 -0.569571 -0.286829 -0.27503 1.52355 -0.451939 0.891774 -0.217074 -0.120776 -0.157345 0.259183 0.338027 -0.668826 0.713248 0.0679933 1.16615 0.393862 0.702789 -0.898127 -0.928591 -0.873027 1.0367 -0.0790385 1.1746 -0.0264036 -0.156789 0.0958878 -0.0932681 -0.645727 -0.396663 -0.61415 0.582851 1.07566 1.20783 0.291581 -0.495934 -0.76945 -1.18776 0.0605878 0.676286 0.565746 0.452487 -0.0901901 -0.193507 -0.294646 -0.809597 -0.308223 -0.960904 1.03241 -0.240187 1.04637 -0.16448 0.145818 -0.281744 0.652233 -0.539606 -1.04228 -0.891075 -0.24683 0.412527 1.35605 -0.0944415 0.816759 -0.448224 0.000443527 0.479013 0.235994 -0.490999 0.967137 -0.0944488 1.22581 -0.535 0.198347 0.888736 0.951094 0.794283 0.335905 0.33843 -0.0191216 0.746272 -0.850767 0.00241294 -0.027063 -0.47277 -0.0998002 -0.416601 0.356006 -0.207801 0.380563 0.404305 0.388684 0.992579 0.691833 -0.75974 -0.362008 -0.0571701 0.206 1.13937 -0.406488 -0.497881 -0.646166 0.353818 -0.0555011 -0.659128 -0.0407931 0.0480022 0.281533 -0.50928 0.276961 -0.425132 -0.679637 -0.670645 0.281069 0.596055 -0.534408 -0.11001 1.14717 0.0830939 0.37102 -0.0341201 -0.996419 0.38426 0.16661 -0.0330366 0.989413 0.856506 0.239369 0.0279787 0.152612 -0.249506 0.506303 -0.849696 -0.433701 1.39757 1.03164 0.0993703 -0.675568 0.361384 -0.656763 0.206735 -0.0332802 0.192988 -0.316324 1.25566 -0.222037 0.749707 -0.315275 -0.260546 -0.890673 0.66999 0.685293 -0.572234 1.34941 0.824083 -0.00908221 1.24522 0.875242 -0.327635 0.767874 0.885695 0.64746 0.551483 -0.405719 0.834649 -0.15975 -1.1887 0.29471 -0.161478 -0.35968 0.370278 -0.153426 -0.160107 0.533816 -0.412347 0.51175 -0.757272 -0.257364 0.23904 0.735727 -0.656195 0.213005 -0.366219 0.66069 1.12624 0.323557 -0.154432 -0.863368 -0.898339 0.510709 0.0560259 0.0390933 0.152186 -0.792524 -0.134517 -0.742498 0.436163 0.126843 0.549842 0.246983 -0.116057 0.259087 -0.348192 -0.753653 1.07008 -0.184814 -0.613558 -0.649939 1.0615 1.14014 0.326155 1.15113 1.30126 -0.221807 -0.0471037 0.604867 0.465877 -0.103299 0.802341 0.570063 -0.459037 -0.322423 -0.152961 0.418056 0.011512 -1.23614 -0.249996 -0.364713 0.0651153 0.472547 0.611887 0.243553 0.18426 -0.532566 -1.12622 0.543335 -0.330034 0.205242 1.45517 0.169931 0.743147 0.66893 -0.388932 -0.266675 -0.194702 -0.17745 0.596742 -0.764651 -0.443005 0.32426 -0.456913 -0.985825 0.459098 -0.649846 -0.25344 0.793519 -0.670351 -0.393461 -0.177659 -0.205629 0.541696 -1.25976 -0.237443 -0.0693573 -0.073267 1.28747 -0.0224333 1.22433 1.09502 -0.465708 -0.656108 -0.881303 -0.243918 -0.319386 0.699201 -0.232086 0.263138 -0.728583 -0.176394 -1.01629 0.165376 0.376079 0.766938 0.694595 -0.605995 0.404017 -1.02374 0.236841 -0.407185 -0.0123493 -0.996303 0.688967 -0.222644 -0.324129 -0.184991 0.549977 -0.336613 -0.712943 0.135437 0.480119 0.145 -0.277217 1.11995 -0.190816 1.08771 0.532166 -0.910125 -0.0475468 -0.564723 -0.845036 -0.18326 0.167918 0.911939 0.9975 -0.53321 -0.0815068 -1.08036 -0.382926 -0.579002 -0.476057 -0.698199 -0.335871 0.240793 0.985151 -0.431103 0.858944 0.0497694 -0.771259 0.68211 0.976774 1.30514 0.617349 0.696459 -0.447741 -0.0604619 -0.107261 0.238284 -1.07368 -0.230067 -0.67649 -0.338498 0.190535 0.0926699 -0.669471 -0.447659 -0.09868 -1.21071 -0.0475349 0.795257 0.955687 0.394114 0.794564 0.892817 -0.119225 0.765893 0.514089 0.961589 -0.191107 -0.151381 0.798977 -0.397168 0.304566 0.272237 -0.964318 0.310485 0.573534 0.388006 0.0911434 0.929282 -0.179357 0.740199 0.412113 -0.0262388 0.158137 -1.00063 -1.0981 0.138125 0.0193403 -0.225732 0.140995 0.377103 0.888476 -0.854655 0.0123295 0.849202 0.944365 -0.393971 0.199791 -0.261543 -0.882302 -0.621929 -0.176294 -0.635769 -0.745373 0.392303 -0.793541 0.0240779 -0.195554 -0.507283 -0.420065 -0.988348 -1.11832 -0.0280783 0.377418 -0.230758 -0.371088 0.00899572 -0.940843 0.651678 -0.479009 0.878678 0.906368 0.26829 -0.389192 1.23481 0.391511 -0.39463 -0.651307 -0.203685 0.238438 -0.326112 -0.0529376 -0.132543 -0.208182 0.511425 0.672651 -0.550827 0.131696 -0.735689 -1.17696 -0.746609 -1.37326 -0.554265 0.184982 0.345459 -0.769497 0.579702 -0.225703 0.337895 -0.2533 -0.18025 -0.129016 0.0115672 -0.14234 0.71121 -0.274388 0.0497769 0.0771375 0.48378 0.876599 0.415934 -0.313682 -0.155243 1.0903 0.351462 -0.0833013 -0.930622 -0.733465 -1.0933 -0.806273 -0.475251 -0.662996 -1.51518 -0.877456 -1.02492 0.361496 -0.564691 0.750096 0.00610343 0.653629 -0.667629 -1.00236 -0.19903 0.0323323 0.640381 0.630078 -0.163848 -0.337377 0.747313 -0.0425768 0.263862 0.867889 0.032369 -0.554409 0.0963332 -0.608616 -0.341635 -1.32316 -0.801599 -0.5622 0.172761 -0.49569 -0.663064 -0.42319 0.00915237 0.793989 0.456899 0.565079 0.100908 0.406113 -0.248082 -0.401208 -0.392153 -0.160456 -0.273374 1.27503 1.23016 -0.257638 -0.0876067 1.02614 -0.485084 0.0612439 0.317714 0.131252 -0.420073 -0.848515 -0.553293 -0.234098 -0.782218 0.368197 0.628416 0.957305 -0.728477 0.79828 -0.113405 -1.00631 -0.433895 -0.729914 0.31747 -0.0649085 0.895258 0.879447 0.781874 0.215405 -0.382839 -0.0275852 1.04524 -0.214428 -0.07276 -0.938547 -0.399891 -0.697365 0.174631 0.497015 -0.605162 -0.688138 -0.851629 -0.457141 -0.443669 0.342646 -0.168179 -0.0566027 0.903714 -0.601506 -0.00736211 -0.203513 -0.193553 0.00119612 0.162876 -0.393023 -0.662287 -0.778523 0.544246 0.446228 0.528716 0.672823 0.506253 0.754743 0.636086 0.352402 0.63532 -0.181091 -0.686056 -0.85213 -0.8693 -0.216823 0.312565 -0.280633 0.0309899 0.62835 0.0548629 0.056423 -0.0362501 0.40244 0.659584 -0.705213 0.150832 -0.187517 0.255828 -0.681721 0.257387 -0.698549 0.427917 0.185817 0.488707 -0.549253 -0.985195 -0.901551 0.78318 -0.570086 -0.77025 -0.221195 0.193178 -0.938595 -0.548325 -0.935298 -0.798917 
0.544325 0.755438 -0.379444 0.122864 0.978662 -0.10934 0.587266 -0.521573 0.100186 -0.088308 -0.892212 0.736466 -0.337414 -0.169504 -0.454986 0.0286392 -0.207531 0.506903 -0.150959 0.652302 0.679206 0.0596782 0.587835 0.859273 -0.884863 -0.161259 0.11201 -0.237984 -0.967417 -0.00405162 0.956554 -0.0194137 -0.123628 -0.855866 0.497134 0.512118 0.566383 0.229217 0.66071 -0.487552 0.106103 -0.222104 -0.46163 0.198066 0.290786 0.758148 -0.490953 -0.619683 0.438189 0.285353 -0.362803 -0.260229 0.703482 0.257155 -0.375227 0.66223 -0.365654 0.980393 0.0445643 0.866705 0.251423 -0.526828 0.0223201 -0.715872 0.455534 -0.334073 -0.19314 -0.629153 0.856474 0.555148 -0.45609 -0.609729 0.987261 -0.263967 0.668488 -0.952773 -0.46312 0.869745 -0.518985 -0.669569 0.699581 -0.128234 -0.585707 -0.292201 -0.402065 -0.3089 0.555301 0.0280664 -0.338564 0.366446 0.716486 0.11378 -0.55457 -0.372949 -0.551177 -0.512448 0.0581597 0.750751 0.970503 -0.739154 -0.337428 -0.981823 0.492428 0.121607 0.336637 0.815553 -0.439837 1.03999 -0.551304 -0.703237 -0.543892 -0.0316707 -0.0510142 -0.481216 -0.0681727 0.664536 -0.518193 -0.661993 -0.0339374 0.49788 0.515346 -0.00964915 1.03865 -0.72316 0.109534 0.183996 0.505316 0.17329 0.144314 0.806735 -0.917531 0.888721 -0.892963 0.823483 -0.939396 -0.0115412 -0.292033 -0.55237 0.357062 -0.774935 -0.959578 -0.95831 0.114789 -0.772315 -0.488518 -0.641053 1.02919 1.03061 -0.56142 0.366782 0.551931 0.0039182 0.409678 1.01251 0.734405 0.120941 -0.200067 -0.788962 0.257698 -0.717207 0.160314 0.670869 -0.907769 -0.100147 0.413437 0.371361 -0.524378 0.602193 -0.583565 -0.0173814 1.01224 0.166552 0.573801 -0.218832 0.515223 -0.312492 -0.887961 -0.060406 -0.479062 0.414429 0.800318 -0.625884 0.835889 0.586114 -0.0439526 -0.46254 -0.488965 -0.318096 -0.267265 -0.6524 -0.687368 -0.611842 -0.775537 0.817515 0.525757 -0.376751 0.869942 0.301619 -0.361868 -0.434013 -0.389303 -1.01494 0.145945 -0.447928 0.727417 0.855624 0.852443 1.19922 0.133047 -0.377166 0.700967 0.995671 -0.54958 1.09894 0.669536 0.311921 -0.508018 0.644662 0.41956 0.23407 0.483252 -0.525688 -0.157048 -0.51293 0.690146 0.148679 -0.0812835 0.064594 0.954614 0.907567 -0.867909 -0.144664 0.592523 0.0935501 -0.791283 -0.342558 0.520626 -0.659956 -0.233672 0.833063 -0.381163 0.298045 -0.342173 0.861081 0.385636 0.32951 -0.088266 -1.09833 -0.356528 0.351365 0.565233 -0.0534813 0.892009 -0.709654 -0.501188 -0.640461 -0.190327 -0.0919737 0.608138 0.541349 -0.704979 -0.192467 0.057602 0.524833 -0.037834 -0.663504 0.273455 0.943888 -0.0624864 0.280413 0.590321 -0.808109 0.420764 -0.420974 -0.56572 0.134338 0.609953 -0.201985 -0.6527 0.610708 -0.790632 0.748292 -0.0113704 1.32916 -0.796008 0.561523 -0.388623 -0.607336 -0.436575 -0.489377 -0.15685 0.274443 0.27022 -0.0129847 -0.318236 -0.231219 0.684621 -0.181971 0.88844 0.559929 0.240519 0.670378 -0.454799 -0.0839865 0.467805 -0.508664 -0.119107 -0.281076 -0.334544 0.142588 0.745036 0.143428 0.923335 0.672101 -0.156175 0.761479 0.446691 0.381641 -0.862603 0.327342 -0.287131 -0.0968809 -0.42275 0.305334 -0.128055 -0.462548 -0.268293 0.470597 0.179398 0.340068 -0.829517 -0.58526 -0.851696 0.62937 0.141755 -0.28931 -0.878408 -0.286187 -0.891332 0.889115 0.00953828 -0.307509 -0.660805 -0.477959 0.35465 0.0118951 -0.91162 0.832486 0.105592 -0.148402 0.599821 0.848727 -0.239942 0.959857 0.759277 -0.210371 -0.0509429 0.29615 0.383833 0.401159 0.734184 0.178219 -0.727546 -0.723282 -0.327992 -0.273975 -0.0324809 0.728052 0.481601 1.04078 0.139638 0.00563113 -0.33815 0.618456 -0.664778 0.273545 -0.349869 -0.693585 -0.478627 0.877077 -0.221433 -0.193197 -0.699191 0.412427 -0.949046 0.886499 -1.03702 -1.04801 -0.942719 -0.786095 0.498919 -0.812242 -0.995886 -0.354908 0.0182429 0.664389 0.937083 0.447706 -0.270927 -0.38356 0.505916 0.667565 -0.776264 -0.230185 0.706332 0.141439 0.733506 0.299297 0.193256 -0.129123 0.168014 -0.653903 -0.147242 -0.3497 -0.887237 0.688533 -0.609477 0.462402 0.137761 0.740743 0.0706929 -0.985562 0.775637 0.784587 0.763547 0.828983 1.1895 0.773602 1.1189 0.959652 1.21816 0.139011 0.862552 0.99413 -0.0218585 0.285753 -0.265957 0.240368 -0.66475 -1.10107 -0.602091 -0.350381 -0.0526475 -0.782891 -0.367548 0.697465 0.57147 -0.459967 -0.743527 -0.319681 0.0328731 0.689307 -0.294388 1.37756 1.43396 1.30973 0.182606 0.97194 0.949147 1.23364 0.188155 1.29305 0.827445 1.39122 0.771151 -0.475127 0.429849 0.373702 0.14172 0.932948 0.0622163 -1.06792 0.553371 0.242272 -0.245055 0.654756 -0.074515 0.470357 0.727746 0.721842 -0.195172 -0.232096 0.53444 1.16548 0.862573 -0.131326 1.50316 0.897054 0.841418 1.25907 1.14906 -0.112723 0.680879 0.905445 -0.851997 -0.230226 -0.130525 -0.711127 0.0445686 -0.756385 -0.421732 -0.333804 -0.415831 -0.699379 0.460322 0.358289 -0.918905 0.459627 -0.672206 0.701091 0.523187 0.573702 0.625036 1.07065 1.11809 1.414 0.420313 0.952051 0.339205 -0.274116 0.24837 -0.904369 -0.12617 0.669943 -1.09253 -0.0397665 -0.840354 -0.993013 0.652405 -0.978386 0.277968 0.179773 0.658591 -0.885856 -0.192385 0.611262 -0.195884 -0.637689 0.00432732 0.743354 -0.488182 -0.60516 -1.16228 -0.327892 0.682677 -0.395847 -0.667319 0.542498 -0.61533 0.114408 -0.0378408 -0.935503 0.42357 -1.02275 -0.0913206 0.350407 0.717939 -0.548138 0.777164 0.00218708 0.655282 -0.959248 0.319902 0.524518 -0.692312 0.639933 -0.201135 -1.03387 -0.157042 -0.89835 0.40446 0.524644 -0.0423302 -0.646603 -0.499057 0.346582 -0.253011 -0.0462729 0.446061 -0.155071 -0.627841 0.348489 0.984336 -0.108545 0.19383 -0.345084 0.34945 -0.860987 0.0067514 0.11184 -0.819781 0.545298 -0.385943 -0.237111 -0.76938 -0.656808 0.0412788 -0.458447 -0.747054 -0.171845 -0.0520701 0.18259 -0.419914 0.232736 0.930964 -0.307383 -0.57152 0.164249 0.196249 -1.05976 -0.33903 -0.314118 -0.10519 0.638331 0.87045 0.219519 -0.600661 0.880676 -0.0624578 0.412772 0.104173 0.751904 0.371986 -0.630792 -0.805326 0.0542523 -0.320101 -0.628896 -0.743972 -0.301112 -0.498292 -0.334645 0.536974 -0.494023 -0.333734 -0.682925 -0.146504 0.565722 0.763025 -0.552411 -0.446712 0.581249 0.393726 -0.890764 -0.0814388 -0.358415 0.243596 0.509265 -0.536281 -0.544706 0.201822 0.345872 0.223961 0.259173 -1.24557 0.215836 0.24215 -0.464504 0.842748 -0.143686 0.576914 0.893843 0.575682 0.815556 -1.111 0.762613 0.573871 -0.537606 -0.229689 0.0292751 0.502211 -0.0515246 -0.0690112 0.737084 -0.900589 0.709071 -0.182286 -0.429321 0.370804 -0.46511 0.331745 -0.315456 0.137606 -1.04103 -0.858366 0.353104 0.160678 -0.0947252 -0.0903812 -0.497806 -0.798857 -0.921227 -0.329142 -0.401437 0.0202939 0.150819 0.351318 0.903714 -0.317567 -0.515295 -0.407904 0.0475352 -0.662163 0.520213 0.728303 1.01658 -0.0245949 -1.00435 0.403846 0.634777 -0.153669 -0.759811 -0.538544 -0.464715 -0.450074 0.129047 0.872883 0.616154 0.519512 0.00563363 1.06714 -0.262776 -0.279228 0.0138089 0.767992 0.137341 0.479142 -0.0896246 0.746616 0.812754 0.467853 -0.234613 0.00569024 -0.202663 -0.029368 0.741252 0.736938 -0.131758 -0.290304 -0.185658 0.526043 0.947595 -0.81073 0.0648922 0.673734 0.00820497 0.0819189 0.506227 -0.880493 -0.822467 -0.786438 0.610061 -0.540282 0.341818 0.392252 -0.125577 -0.350619 -0.391763 0.407405 -0.950157 0.0583864 -0.280287 0.0078392 -0.837253 0.912695 -0.347957 0.904067 -0.918468 -0.911661 0.945035 -0.176174 0.0154386 -0.00970785 0.0902966 -0.999242 0.571073 0.936586 0.0859511 -0.257496 0.469432 -0.463923 -0.151906 0.746809 0.375916 
0.18948 0.303993 0.730856 0.623313 0.389037 -0.591704 0.43947 0.478928 0.898328 -0.215803 0.948241 0.349149 0.87946 0.19337 0.818999 0.285222 0.248363 0.946322 0.883211 0.369233 -0.504481 0.232935 -0.676067 -0.974588 -0.661421 -0.98943 -0.869085 0.430607 0.13896 -0.0186719 0.691882 -0.483487 0.508685 0.243477 0.714034 -1.01902 0.983812 0.778138 0.0260151 -0.377159 -0.823758 -0.721545 0.621929 0.468289 -0.567697 0.69827 0.246251 -0.360482 0.834564 -0.066743 0.829375 0.773506 0.907492 0.328893 -0.217656 -0.275461 -0.197872 -0.984802 -0.748184 -0.0361668 -0.365675 -0.0403497 0.804937 0.849492 -0.861597 0.408646 0.282863 -0.222807 0.890356 -0.924578 0.152552 -0.75975 0.803944 -0.762613 -0.541741 -0.543433 -0.25758 -0.923667 -0.51158 -0.310438 0.0629372 0.081973 0.434499 -0.340917 -0.583176 -0.695116 -0.371469 0.0502342 -0.420271 0.145347 -0.550822 0.150279 -0.70414 1.18226 0.0373876 0.996215 0.799264 -0.734376 0.998168 -0.707807 0.573496 -0.0496418 -0.304653 -0.138272 -0.603069 0.776811 0.685356 0.562485 -0.315447 -0.0881126 0.64401 -0.196856 -0.0282076 -0.270337 -0.841029 -0.450422 0.828655 0.124835 0.00207047 0.595432 -0.63007 0.62442 0.57809 0.1625 -0.640577 0.0231372 0.770554 0.959012 -0.0815561 0.507474 0.755201 -0.781645 0.328273 -0.134471 0.709138 0.233917 0.657168 0.297117 0.0206084 0.598124 0.176078 0.712024 -0.307459 -0.0371302 -0.896161 -0.187027 0.374087 0.790337 -0.11355 -0.651138 0.932711 -0.0586981 1.11416 0.41077 -0.502188 -0.678389 0.168324 -0.102932 0.640564 0.554004 0.483292 -0.734515 -0.302918 0.488965 -0.599556 -0.920292 -0.825799 0.766472 -0.424829 0.817707 -0.363398 0.612235 0.359809 0.362165 0.89868 0.612493 0.679104 0.828801 -0.156898 -0.431579 0.662869 -0.221814 -0.196794 -0.583318 1.01804 -0.724032 -0.414072 0.035618 -0.148055 -0.771589 0.638225 -0.761935 -0.418514 -0.986688 0.870562 -0.0666134 -0.267249 0.492781 0.0608604 0.718397 -0.360456 0.158424 0.0456795 -0.426338 -0.663179 0.906818 -0.0150365 0.262216 0.270433 0.249011 0.159831 -0.935199 0.606981 0.214707 -0.511585 -0.101366 0.328997 0.590633 -0.998929 -0.609605 0.11537 -0.140673 -0.0338525 -0.775447 0.178597 0.645966 0.468756 -0.300204 -0.553217 -0.515615 0.327274 0.723783 -0.350865 0.342366 -0.191571 -1.09274 0.454837 -0.879569 -0.259142 0.264525 -0.268928 -0.7603 0.616734 -0.704824 -0.423712 0.551378 -0.254375 0.413077 -0.772249 0.220339 0.511821 0.369109 0.18579 -0.769689 0.887339 -0.891152 0.994075 0.328549 0.714972 -0.565586 0.321581 0.202928 -0.737292 -0.146565 -0.323305 -1.03081 -0.752874 0.0354456 0.882303 -0.893381 0.025327 0.937491 0.150317 -0.502206 -0.57871 0.770449 0.574152 0.538424 0.422923 0.150672 -0.922374 0.0537792 -0.628917 0.574523 -0.380769 -0.375494 -0.129652 -0.18659 0.709007 -0.091128 -1.23199 -0.98376 -0.826673 -0.854872 -0.753606 -0.700284 -0.971746 0.105377 -0.32507 -0.386741 -0.157104 -0.38032 -0.225258 0.7271 0.601236 -0.802037 0.1606 0.104933 0.440223 -0.476792 -0.991036 -0.55706 -0.332522 -1.08128 -1.05888 -0.358029 -0.645832 0.493575 -0.839619 0.10581 -0.245111 -0.116649 -0.609173 -0.747812 -0.388413 1.15831 -0.842636 -0.0866953 0.255408 0.645683 -0.44236 -0.732219 -0.924294 0.688424 0.321049 -0.40874 0.927543 -0.429937 -0.232556 0.521486 -0.325207 -0.506473 -0.660643 -1.1765 -0.0372665 -0.919245 -0.221801 -0.881443 0.710746 0.254838 -0.577834 0.743867 0.50306 0.821196 0.8028 0.0834151 -0.851095 0.903829 -1.06254 -0.515529 -0.127884 0.428775 0.627972 0.513773 0.119708 -0.280903 -0.976174 0.18019 -0.647516 -0.573054 -0.577501 -0.598092 -0.54339 -0.55324 0.704428 -0.526775 -0.744802 -0.0857954 1.27066 -0.27674 0.790042 -0.200447 0.75953 -0.582213 0.773068 -0.74798 -0.980358 -0.687663 -0.680228 0.191609 0.401372 -0.734638 -0.311868 0.534701 -0.700728 -0.549956 0.0469411 -0.10515 -0.12241 -0.0488599 0.518586 -0.694549 0.298634 0.431185 0.220421 0.667036 -0.124016 -0.059883 -0.765161 0.184794 -0.164085 0.706929 -1.02312 -0.507825 -0.662054 -0.959198 -0.584262 -0.855973 -0.748179 -0.179546 0.522188 -0.961878 -0.282716 -0.240595 0.931467 0.726285 -0.709722 0.585662 1.09496 0.252087 -0.560337 0.854344 -0.240251 0.171754 -0.54177 0.858974 0.127885 0.445507 -0.909457 -0.441731 -0.277584 0.457646 0.784699 0.834693 -0.65501 0.233834 -0.786235 0.838517 -0.62019 -0.25729 -0.0308277 -0.0504345 0.238917 0.272266 0.000210833 -0.444973 -0.108618 -0.740894 0.500494 0.584071 -0.302199 -0.480274 -0.711039 0.263537 0.602824 -1.03593 0.172892 -0.485309 -0.680953 0.17175 -0.502815 -0.0291877 -0.165298 0.753241 -0.400954 -0.192157 0.114911 0.638868 -0.559855 -0.326541 -0.632304 0.936339 0.260714 -0.0277076 0.601072 0.545295 -0.420481 0.860793 0.660789 0.116771 -0.409204 0.662563 0.412465 0.517473 -0.326524 -0.216301 0.516341 0.606887 0.645897 0.0854482 -0.414605 -0.959524 0.680581 0.126688 0.833772 0.829559 0.36823 -0.375983 -0.747109 0.197428 -0.107802 -0.93746 -0.349792 -0.484043 0.941723 0.763983 -0.99661 0.513912 0.902692 -0.468534 -0.916419 0.70676 -0.183907 0.510091 -0.89852 0.950852 0.840193 0.18834 0.119205 0.426008 -0.376923 -0.67186 -0.345103 -0.173853 -0.519625 -0.861151 0.281213 0.867881 0.589377 -0.646134 0.450043 -0.650997 -0.979425 -0.934092 -0.257238 0.191858 -0.574881 -0.371706 -0.717411 -0.520843 -0.39622 1.15787 0.348215 0.494794 -0.386942 1.04578 0.145222 0.782417 0.413583 -0.500881 0.983696 0.776601 -0.148361 0.525373 0.888956 -0.469158 0.264362 -0.327459 -0.528233 -0.872538 -0.0367178 -0.0860587 0.0402041 -0.781096 -0.400671 -0.260771 0.318724 0.55791 -0.463099 1.14792 0.421915 0.116623 0.810174 -0.415894 0.0887777 0.475598 0.427548 0.86993 0.795938 -0.199867 0.252298 -0.620504 0.101129 0.454208 -0.658905 -1.01992 -0.140978 -0.710599 0.151326 0.888551 0.421279 -0.263641 0.488451 -0.502736 -0.691875 0.905282 -0.640231 -0.348131 0.632493 0.400894 -0.204754 0.783091 1.11218 -0.443875 0.625681 -0.621649 -0.178746 -1.00011 -0.0479854 -0.396352 -0.950924 -0.232607 0.311006 0.334772 -0.900208 0.80623 0.442934 -0.13581 -0.83892 0.767216 -0.944232 -0.581085 0.195862 0.891403 -0.778923 0.0456606 -0.637291 0.395914 0.651853 -0.477149 1.12197 0.337796 0.424673 0.768104 -0.515132 -0.111592 0.766518 -0.068695 -0.676167 -0.416557 -0.708064 -0.0777766 -0.0004347 0.0771532 -0.231775 0.0510319 -0.604211 1.03606 0.447959 0.818157 0.942915 0.852692 0.651539 -0.261781 0.578683 0.392243 -0.803982 -0.603137 0.602771 0.832689 -0.895435 0.883897 -0.0656538 -0.357854 0.589426 -1.08235 0.557215 -1.02579 -1.0158 -0.674489 0.178789 -0.665736 0.106441 0.310475 -0.950863 -0.724676 0.675576 -0.433901 -0.832733 -0.15178 0.576361 0.680771 -0.166135 -0.0341585 -0.006847 0.577734 -0.422258 -0.22065 -0.627229 -0.973425 -0.113543 -0.943306 0.435871 -0.388879 -0.896843 0.12591 -0.276086 -0.512312 -0.247763 0.144193 -0.399979 -0.310383 -0.901034 0.500313 0.344985 -0.787075 -0.582808 0.68607 0.241906 0.283568 0.157337 -0.195423 -0.550568 -0.432836 0.289966 0.470816 -0.119741 0.934376 -0.0636617 -0.319835 -0.0239626 -0.828807 0.0830171 0.302947 0.391369 0.453822 -0.420527 0.668486 0.229695 0.0161736 -0.37785 -0.510501 -0.539244 0.178061 0.571804 -0.250432 -0.349583 -0.418216 -0.502201 0.338303 0.168905 0.905388 0.0528637 0.708396 0.907982 -0.317537 -0.603184 0.485249 -0.294696 -0.64088 -0.772397 -0.764188 0.84769 -0.730555 -0.584689 -0.404117 -0.171593 -0.904884 0.443767 0.819969 0.49737 0.29402 0.550856 -0.659648 0.33137 -0.469712 0.874046 0.57716 -0.0597111 0.0966818 0.399507 -0.487945 -0.208949 0.218939 
-0.0748201 0.147026 -0.150138 0.0298368 0.647315 -0.29215 -0.226167 -0.383363 -0.926781 -0.0258931 0.477463 0.893078 -0.955208 0.556015 -0.514619 0.204508 0.778431 0.680599 0.668508 0.25264 0.39248 -0.196307 -0.124039 0.145998 0.767529 0.936147 -0.0680253 0.0955597 -0.73126 -0.419862 0.303442 0.861958 0.265093 0.500274 -0.8879 0.792103 -0.869341 -0.239225 0.852247 0.671695 -0.961211 0.816517 -0.433441 -0.194 0.231498 0.51432 0.514539 0.790744 -0.915352 -0.587921 0.164563 -0.661245 0.747373 0.725882 0.609147 0.0639143 0.405182 -0.900054 -0.787174 -0.90097 0.293705 -0.841295 0.237746 0.09327 -0.284641 0.588424 -0.610549 -0.847525 0.916352 0.597325 -0.429163 -0.46824 -0.764246 0.343067 0.438678 0.0760656 -0.593677 -1.05216 0.257528 0.243267 -0.1316 -0.473948 -0.812385 -0.167577 -0.901617 -0.258437 0.586317 -0.927709 0.00150254 -0.655191 0.192261 -0.288457 0.0159765 -0.0566721 -0.145935 0.096275 -0.989813 -0.504517 -0.251888 0.604546 0.890799 0.363998 0.5859 -0.399073 0.741949 0.546513 -0.201508 0.680299 0.806071 -0.890552 0.321269 0.0303715 -0.126566 0.550839 0.472259 -0.751728 0.588003 -0.141011 -0.414611 -0.130155 -0.111031 -0.723628 -0.161012 0.287048 0.340283 0.203509 0.78452 -0.460703 0.410433 0.0419675 0.142414 -0.0516228 -0.847255 -0.00312611 -0.407671 -0.741968 -0.0850713 0.221974 0.104402 -0.633548 0.592564 -0.216014 0.119291 -0.777468 0.368769 0.431142 -0.578816 0.433839 -0.256096 -0.631651 -0.584144 -0.728593 -0.580741 0.704913 0.270053 -0.551289 1.16297 1.16252 -0.630164 0.653418 -0.496674 -0.263714 -1.0772 -0.889886 0.691108 0.148368 -0.853459 -0.148672 -0.138057 0.837558 -0.107569 -0.369148 0.552119 -0.188889 -0.0129537 -0.726718 -1.03649 -1.03137 -0.0584776 -0.396895 -0.877896 -0.343762 -0.502618 0.256878 0.206636 -0.480262 0.529051 -0.679816 -0.803147 0.438562 -0.218963 -0.0620667 -0.486671 0.817653 -0.732438 -0.851611 -0.987842 -0.741458 -0.810483 0.214639 -0.565462 0.257813 -1.00704 0.0378772 0.200227 -0.351486 -0.0902748 0.0179842 -0.885077 0.85676 0.0332185 0.694426 1.33899 -0.499034 -0.330194 0.728798 0.479814 -0.154516 0.68726 -0.977725 -0.63005 -0.882081 0.0677384 0.286354 0.910277 -0.934207 -0.431219 0.285078 -0.00664204 0.740912 -0.185438 0.419707 -0.893882 0.278682 -0.291301 0.862447 0.328531 -0.307698 0.879801 0.217658 -0.154743 0.82267 0.601005 0.381036 -0.385572 -0.893975 0.613257 -0.0659531 0.879658 0.782458 -0.20195 0.451168 0.486756 -0.598095 0.459116 0.257493 0.120791 0.173696 0.0967133 0.675957 -0.384076 0.652942 0.301982 0.708046 -0.898439 -0.808572 -0.321463 -0.529288 -0.350388 0.529948 -0.975883 0.481038 -0.370048 -0.285568 0.560565 0.792944 -0.0511062 -0.382093 0.0408168 -0.866288 0.782414 0.158536 -0.79692 -0.444286 0.629093 -0.108512 0.3659 -0.331939 0.684641 0.868307 -0.242088 -0.0444636 -0.666448 0.126692 -0.746616 -0.0400025 -0.602248 0.728126 -0.886463 0.382063 -0.169112 -0.660285 0.462712 -0.517699 0.795796 0.688425 -0.734492 -0.214212 0.911341 0.87856 -0.664379 -0.162374 -1.04948 0.15784 -0.818394 1.09012 1.4112 1.07131 0.641163 -0.379239 -0.726602 -0.669855 -0.879546 0.685108 0.0807722 0.699288 0.475803 1.02673 0.956028 -0.907839 -0.4178 -0.236595 -0.674778 -0.696943 0.0625408 -0.368609 -0.338349 0.832009 -0.522008 -0.263578 -0.482099 0.18947 0.441993 -0.214037 1.60696 0.616952 0.898597 0.442244 -0.674582 -0.168842 -0.966532 0.255539 0.607663 -0.202546 -0.360102 0.834714 0.48737 -0.838036 0.468375 -0.230327 0.313761 0.759875 0.542909 -0.411067 0.444379 -0.680432 0.359404 0.617832 0.249226 0.0372895 1.0273 0.554364 0.0082372 0.370957 -0.524995 0.766654 0.636918 -0.774834 0.657683 0.798523 -0.824663 0.384286 0.80696 0.072842 0.795721 -0.287265 -0.22687 -1.03634 -1.25997 -0.961935 -0.387659 -0.110784 0.438688 -0.243166 0.318033 0.710533 -0.874617 0.154561 -0.782495 0.825791 -0.30857 -0.147137 -0.880629 -0.519935 0.646436 -0.386062 0.715555 0.696004 0.64279 0.0318285 0.242513 -0.036353 -0.0653673 0.556989 -0.620741 -0.353074 -0.377583 -0.287746 -0.00645528 0.25123 -0.907636 0.199373 -0.799666 0.216547 -0.678278 -0.829161 0.289276 0.574098 -0.027755 0.727382 0.729265 -0.730313 0.892943 -0.657448 -0.143957 0.366765 0.981445 0.785017 -0.487323 -0.263358 0.876811 -0.61694 0.423299 -1.09876 -0.32227 -0.113804 0.78013 0.00332941 0.266876 0.69013 -0.60152 -0.636476 0.358466 0.796303 0.602996 -0.289594 0.766604 -0.259819 0.342499 -0.66857 1.25931 0.304098 1.35505 -0.374603 -0.0106514 0.920985 0.172887 0.382029 -0.407096 0.269046 -0.817682 -0.169189 -0.603179 -0.0206872 0.117834 -0.885825 -0.796837 0.150537 -0.650679 -0.437378 0.865073 0.344016 -0.219343 0.3737 0.182529 0.908274 1.26591 -0.156049 0.0741289 0.908919 1.25128 0.355425 -0.397963 0.147498 0.776982 0.814007 -0.756668 -0.109331 -0.852516 -0.805248 0.256857 0.702965 -0.75803 0.975907 -0.721611 -0.248675 0.511796 -0.382051 0.983245 -0.8842 -0.189044 0.740544 0.194103 -0.241434 0.438139 0.629802 1.01782 1.15166 -0.307914 0.741109 -0.0881745 -0.729743 0.749031 0.499892 -0.955256 -0.635321 -0.446988 -0.198108 0.648072 -0.54546 0.31207 -0.490645 0.730042 0.372227 0.868484 -0.628727 0.175249 -0.798116 0.0652391 -0.0224541 -0.394011 0.446553 -0.242031 0.599488 -0.899439 -0.168603 0.366067 0.119942 -0.819167 -0.910026 -0.603459 -0.693072 0.491527 -0.752725 -0.866325 -0.735334 0.462974 -0.779598 0.0432829 0.926319 -0.258167 -0.939689 0.327508 0.862834 -0.31953 -0.886733 -0.940428 -0.6727 -0.449844 -0.769521 0.644839 0.684659 -0.515493 -0.0207377 -0.970426 0.0581767 0.696275 -0.629833 -0.143634 0.47029 -0.400635 0.374695 0.694839 -0.530786 0.81547 0.0489404 0.992407 0.370089 0.81287 -0.197143 -0.422702 -0.373875 0.125347 0.644161 -0.615726 -0.194189 -0.263604 -0.659518 -0.895924 0.234048 0.131635 0.655602 -1.12658 -0.201585 -0.865505 -0.817578 0.0431383 -0.406195 0.0586198 -0.889914 0.898556 -0.643617 -0.893668 0.066668 0.219115 0.141358 -0.144428 -0.922709 -0.61303 -0.556029 -0.649381 0.723399 -0.296171 -0.986178 -0.928854 -0.0718929 -0.968613 -1.28351 -0.514903 -1.4211 -0.693107 0.323309 0.452149 -0.534803 0.333246 0.50887 0.436039 0.349364 0.833451 0.178628 0.178958 0.87544 -0.837006 -0.0389853 0.855671 -0.188593 -0.556726 -0.00247565 0.0482696 0.782276 -1.01809 0.195872 -0.555145 0.107261 0.598673 -1.11852 -0.395077 -1.30056 -0.450938 0.286953 0.194083 0.0536037 -0.375818 0.122541 0.624113 -0.874707 0.908465 -0.582833 -0.516257 0.736013 -0.249774 0.0532962 0.538513 0.671924 -0.127045 0.522249 0.831442 0.717931 -0.197063 0.737468 -0.150124 -0.0987112 -0.981794 0.157281 -0.411093 0.354115 0.355175 -0.437742 0.23558 0.290716 -0.00296728 -1.01037 -0.37206 -0.986646 0.622681 0.297161 -0.156777 0.730816 0.313279 -0.276137 0.575839 -0.126009 -0.38152 -0.298457 -0.707334 -0.531385 0.208307 0.515981 0.84527 -0.437443 0.4916 0.202916 -0.872333 -0.508525 0.263359 -0.417779 -0.65893 -0.641539 -0.332524 0.0875057 -0.749884 -0.883612 0.281771 0.424403 -0.71159 0.546742 0.0870917 -0.837188 -0.665765 -0.0752517 0.834241 0.509366 0.336201 0.911259 0.746883 0.471006 0.30352 -0.729305 0.230551 -0.306497 0.9178 0.0391984 0.14851 0.236861 0.446914 -0.730267 -0.464108 0.845762 -0.0500733 0.790732 0.853656 0.883044 -0.4176 0.124125 0.506489 0.479723 -0.609191 0.453364 0.17 -0.777549 0.92812 -0.216347 0.804775 0.0479976 0.813953 0.946699 -0.182033 0.0147803 -0.272619 0.549157 0.505415 -0.251213 -0.522503 -0.344561 -0.947225 -0.423442 -0.374045 0.41366 -0.908383 -0.603193 0.170426 -0.232418 -0.965839 -0.923995 
0.0533805 -0.361745 -0.53109 -0.968509 -0.0744229 -0.143189 -0.22696 0.689941 0.585172 0.922304 -0.800403 0.982943 -0.552881 -0.0290609 -0.29025 -0.375678 0.0676866 0.0671236 0.655588 -0.429121 0.357627 -0.40184 0.707146 -0.47468 -0.489936 0.422339 0.606421 -0.969664 -0.779376 -0.763488 -0.683633 0.865835 -0.552744 0.371577 -0.786573 -0.830245 0.777578 0.233663 -0.0099671 -0.506213 0.695783 0.444063 -0.77497 0.52828 -0.862527 0.689704 -0.868025 0.0880093 0.169503 0.722465 -0.958262 0.845487 0.457584 0.751966 0.940285 -0.113802 0.0294358 -0.238826 0.769091 -0.0902359 0.33402 -0.942969 0.914981 -0.131532 0.159829 0.0244253 0.183654 0.026455 0.802391 0.590741 -0.446284 -0.0996772 0.481786 1.12035 0.586707 0.478392 0.336429 -0.476653 -0.405998 -0.419474 0.471697 -0.488965 0.0675042 -0.852828 -0.0356576 0.564535 -0.419169 -0.345448 -0.571827 0.0467283 -0.622213 -0.593686 0.837275 0.220001 0.17298 -0.959244 0.888862 0.835426 -0.0970157 -0.285801 -0.578927 -0.181971 -0.243331 0.416261 0.132758 -0.224874 -0.718684 -0.783251 0.54095 -0.674154 -0.268653 0.651485 0.991255 -0.941991 0.429824 0.653202 -0.219907 0.774107 -0.804167 -0.962628 -0.204734 -0.985172 0.276176 -1.15591 -0.823359 0.827567 0.582711 0.622563 1.07374 -0.269937 0.134288 0.0220513 0.208907 0.0436925 -0.475961 -0.00794056 0.463185 -0.0838226 0.875581 -0.312385 -0.554801 -0.422413 -0.582645 0.165555 0.138266 0.789373 -0.917275 -0.51784 0.228849 -0.239442 -0.154212 -1.06325 0.513733 -0.986928 0.218044 -0.387218 0.824554 -0.00150955 0.180466 -0.10069 0.414955 -0.93292 -0.727003 0.0841916 -0.99346 0.458352 0.789694 0.125821 0.216402 -0.810553 0.821979 -0.191092 0.00100804 0.843509 -0.480141 0.357032 -0.727555 -0.352848 -0.528899 0.111146 -0.434379 -0.193037 -0.85342 0.192364 0.432301 -0.039654 -0.251241 0.402884 -0.140672 -0.870976 0.27747 -0.395326 -0.706889 0.896162 0.125278 0.185246 0.778181 -0.956653 -0.845034 -0.729654 -0.330591 0.125363 0.313674 -0.0210125 0.824906 -0.77887 -0.0673371 -0.666674 -0.0293928 -0.61311 -0.382877 0.0899443 -0.440886 -0.550026 0.246964 0.0500603 -0.676283 0.379261 -0.259015 0.121189 0.612384 -0.181997 -0.350608 -0.474636 0.840379 0.312603 0.33457 -0.409181 -0.169033 -0.610744 -0.321546 1.10006 0.212999 -0.530349 -0.00456725 0.371563 -0.263294 0.402121 -0.467068 0.387648 -1.12641 0.157355 -0.0331044 -1.06597 0.575991 0.381593 0.570408 0.909204 -0.582619 0.529497 0.668753 0.277344 -0.78588 -0.721386 -0.12562 0.724446 -0.764965 0.278229 -0.782589 0.685894 -0.562757 0.229681 0.264624 -0.752414 0.0565856 -0.178538 0.257396 -0.753196 -0.292525 -0.0483198 -0.461218 1.03267 -0.68204 -0.440673 -0.220235 0.806569 -0.841986 -0.138681 -0.328926 -0.0704881 0.238121 -0.657883 -0.366687 0.667369 0.259072 0.725105 0.666134 -0.785382 0.780367 -0.0854327 0.206998 0.871986 0.859277 -0.0453058 -1.20857 0.665351 -0.137148 -1.16971 -0.658314 0.206014 -0.825458 -0.0710522 -1.15687 -0.851784 0.496675 0.311836 0.697932 -0.684749 -0.733447 0.474183 0.316514 -0.192829 0.71035 0.582848 -0.56458 -0.434951 -0.0435616 0.751574 -0.192838 -0.313876 0.155773 -0.525996 0.582479 -1.02929 -0.620541 -0.851406 -0.0351099 -0.0657816 0.394037 -0.782368 0.336324 -0.126616 -0.982987 -0.397777 0.635823 0.485515 -0.293481 0.470566 0.991655 -0.369839 -0.136491 -0.781731 0.798845 0.871616 -0.0874283 -0.388922 -0.551384 -0.821429 0.979506 0.0182356 0.0370718 -0.118361 0.104009 0.289358 -0.945823 -1.34164 -1.27016 0.246497 0.0485133 -0.892168 -0.925566 -0.599815 0.922418 0.801391 0.857776 0.102308 0.650477 -0.61658 0.217117 0.594308 -0.1451 0.437794 -0.469906 -0.0399915 0.18105 -0.411001 0.689565 -0.478924 1.07376 0.636494 0.86624 0.221894 0.163746 -0.502513 -0.127287 -1.09914 -0.0308421 -0.270018 0.582443 1.07016 -0.718653 0.119065 -0.566972 -0.469931 0.757637 0.368029 0.381892 0.235137 0.750921 -0.472069 -1.06703 0.320204 -0.301101 0.93283 0.383928 0.585242 0.579906 0.876489 -0.214367 0.963165 0.595618 0.0410978 0.0609486 0.0320433 -0.31206 0.0496478 0.821751 1.20559 -0.68292 -0.777545 0.289311 0.736448 -0.164436 -0.351452 0.243146 0.290272 0.549627 0.0693336 0.255148 -1.03971 0.668645 0.29192 -0.281026 1.25503 0.0916969 0.166151 0.93736 1.20218 1.15107 1.08378 -0.314711 -0.365215 0.762592 0.531692 -0.112444 -0.634355 -0.0912064 -0.257162 -0.526441 -0.225763 -0.398536 -0.25961 -1.01948 0.475674 -1.08529 -0.133584 -0.527291 0.00608912 -0.335406 1.21311 0.514665 1.12271 1.0242 0.790866 1.60412 0.25543 -0.0919705 -0.396468 0.555582 0.0174525 -0.615595 -0.0397321 0.0711731 0.861093 0.905454 -0.0397111 -0.228039 0.760835 0.442528 -0.478507 0.553352 -0.224683 0.165863 0.523323 0.437179 -0.656476 0.830929 0.799158 0.91551 -1.06575 -0.114655 0.55783 0.191935 0.679364 0.294348 1.07468 -1.06427 0.262134 -0.453774 0.622786 0.314827 -0.254187 -0.187516 -0.13542 0.58435 -0.172674 -0.729368 -0.603785 -0.0339207 0.503308 0.830991 1.09758 0.2561 0.473792 0.113705 -0.42052 0.384433 0.0553345 0.366472 -0.539174 1.18249 0.45731 -0.252449 -0.420989 0.691011 0.1653 0.957876 -0.36784 -0.292844 -0.0851769 0.203425 -0.7414 -0.0538251 -0.0603197 -0.320702 1.00427 0.0350181 0.825879 1.01976 -0.197145 0.575357 0.596697 -0.736728 -0.184612 0.355479 0.673915 -0.158274 1.42592 1.42303 -0.0742516 -0.22628 0.956103 -0.514158 0.294857 0.379673 -0.0854837 -0.605036 -0.351284 -0.149904 -0.720835 -0.384279 -0.727385 -0.241384 0.847154 0.647171 -0.0507562 0.792856 0.62881 -0.100295 -0.126177 -0.649271 -0.34445 0.611982 -0.333884 0.114433 1.4823 0.354878 0.286183 0.340794 0.0025606 -1.04619 0.610703 0.36872 -0.464171 -0.81617 0.419313 -0.191766 0.115609 -0.831581 0.492224 1.03754 0.197242 0.315735 -0.653921 -0.241129 0.0808673 0.255724 -0.153635 -0.360916 -0.620588 -0.521306 0.651985 -0.0611853 0.205409 0.963505 0.93304 0.989492 -0.231984 -0.0327167 0.617412 -0.18315 0.2456 0.389731 0.763349 0.281668 0.598703 0.246384 -0.0630134 -0.0220128 -0.0825559 0.525031 -0.20705 0.322623 0.657954 -0.931464 0.742386 0.272436 -0.0632025 -0.619567 1.07599 -0.681921 -0.172749 1.34919 0.470111 -0.173966 0.213581 0.250469 0.43822 0.664594 0.198732 0.872477 -0.938986 0.167312 0.41586 -0.345403 0.604096 -0.880343 0.487246 -0.347296 -0.635364 0.642967 -0.245106 -0.968102 0.116677 0.140498 -0.749781 0.297515 -0.00265739 -0.475691 1.2049 0.139035 1.00896 0.0683951 0.89482 0.863477 -0.523068 0.0740929 -0.310839 0.794056 0.830095 -0.96065 -0.243921 -0.561101 0.0260848 0.162808 -0.0332198 0.537646 -0.529246 0.971003 0.480964 0.582147 -0.837556 0.698485 -0.401999 -0.652101 0.843611 0.108664 0.282821 0.0156119 -0.714374 0.929867 -0.374373 0.168389 -0.650355 -0.567005 -0.150491 -0.783437 -0.878517 0.35164 -0.768631 0.701136 -0.185581 -0.839046 -0.877134 -0.375478 -0.587313 0.378023 -0.178116 0.724107 0.810403 0.0192024 -0.00868559 0.868704 -0.273874 0.249275 0.479335 0.0720824 0.808516 -0.190872 0.161512 0.30444 -0.423769 0.902935 0.289472 0.802213 -0.120613 0.26813 0.48419 0.453533 0.403095 0.214268 -0.944424 0.151589 0.544901 0.49381 -0.536331 0.763135 0.847645 -0.306566 0.201601 -0.897406 -0.372735 -0.476686 -0.5331 0.956727 -0.913681 0.0635126 -0.116786 0.435431 -0.977393 -0.132294 0.601883 -0.788331 0.409921 -0.104034 -0.313861 -0.737916 0.917651 -0.674165 -0.544229 0.490135 -0.204931 -0.659306 0.860523 -0.0937235 0.0647785 0.0728446 0.734475 0.561097 0.27756 -0.719207 -0.244031 -0.00149365 -0.414596 -0.620076 0.732295 0.265966 0.771799 0.538794 -0.999602 0.239705 -0.581525 -0.579482 0.874674 
-0.0101069 -0.447183 -0.526496 0.767208 0.947544 0.359099 0.487626 -0.820729 -0.034595 0.289437 0.0737621 -0.305481 -0.654169 -0.489157 0.00783255 0.60587 -0.0804818 0.426163 0.867243 0.618469 -0.544419 -0.918207 -0.308146 0.892871 0.380674 -0.189578 -0.612989 0.495395 0.547219 -0.622418 0.867555 0.650938 -0.84438 -0.259907 0.475597 -0.115049 -0.597418 -0.842221 0.624833 -0.789184 0.284102 0.302931 0.885045 0.132969 0.18329 0.400353 0.335723 0.398535 -0.590737 0.488799 -0.0101278 0.389808 0.238072 -0.587841 0.98471 0.270614 0.537872 -0.955377 -0.992399 -0.20184 0.0457238 0.822288 0.0446195 0.335808 -0.353351 -0.854904 -0.58338 0.297118 -0.279165 -0.999426 0.149445 -0.80139 0.440142 0.752759 -0.78624 -0.561447 -0.87316 0.769361 -0.809014 -0.73119 -0.779948 0.943143 -0.980093 -0.174005 0.977699 0.922372 -0.92618 0.774404 -0.624766 -0.259038 0.33345 -0.165654 -0.712749 0.111681 0.333728 -1.13674 0.478994 -0.1033 0.149089 -1.26672 -0.0687481 -0.113595 -0.745678 0.867037 0.744421 0.429005 -0.367862 0.978629 -0.0122515 -0.126957 -0.0508894 -0.161951 0.142159 -0.758979 0.475661 -0.260104 -0.638575 0.831813 -0.409741 0.212196 -0.702404 -0.146381 -1.08371 -0.0396063 -0.896609 -0.509557 -0.534056 0.417899 -0.373806 -0.332778 0.916772 -0.474206 0.724057 -0.0496703 -0.539096 -0.694636 -0.547812 0.545464 -0.698254 0.275651 -0.56533 -0.377599 -0.760858 0.569231 -0.19601 -0.0393976 0.472737 0.731925 0.610719 -0.410632 0.627504 0.0127678 0.90169 -0.126142 -0.189565 -0.0922903 -0.639876 -0.787645 0.892503 0.248509 0.631073 -0.503273 0.262855 0.022641 0.267624 0.294044 0.164367 -0.134878 -0.230103 0.540277 0.0593618 -1.12564 0.435591 0.39771 -1.1173 0.219059 0.388378 -0.697863 -0.906292 -0.989141 0.961776 0.249851 -0.48367 0.239431 -0.499689 -0.272524 0.605744 -0.752525 0.645844 -0.78358 0.288593 -0.206023 -0.225038 -0.340081 0.817115 -0.0194952 -0.640276 0.865786 -0.072445 0.0285456 -0.446279 -0.324324 0.245711 -0.648209 -0.514543 -0.05917 -1.22024 0.603609 -0.406947 0.0725663 -0.036707 -0.701802 0.0399855 0.145014 0.486436 0.365623 0.73959 0.745772 -0.469985 1.00146 1.16895 -0.659122 0.960425 0.94355 -0.570376 -0.510313 -0.0457069 -0.390803 -1.41034 0.116228 -0.912112 -0.975748 -0.531637 0.650984 -0.557616 0.556516 -0.362638 0.84702 -0.841406 0.510599 0.4336 0.192725 -0.076248 -0.240185 -0.956196 0.969469 -0.16418 -0.663204 -0.18078 0.154446 -0.398829 0.17824 0.618243 -0.903663 -1.09076 -0.700652 -0.507596 -0.806204 0.185888 -0.825584 -0.470272 -0.912885 -0.0588752 0.860677 0.13569 0.724161 0.638333 0.580918 0.524967 0.304187 0.778075 -0.458984 1.17382 -0.209345 1.26192 -0.291811 0.840341 0.127564 0.631156 0.603185 -0.898428 -0.813639 -0.717982 -1.13821 -0.302575 -0.644755 -0.156663 -0.817697 -0.836271 -0.855825 -0.242544 0.821722 0.435814 -0.20821 0.187017 0.363432 0.922509 -0.389722 -0.0598007 0.42336 0.505973 -0.0179308 1.03054 -0.57643 0.59424 -0.0180039 -0.736599 -0.801083 0.398749 -0.849293 0.0172309 -0.44508 -0.0245664 -0.479181 -1.11667 -0.122796 -0.951866 0.688752 -0.0132411 0.237458 0.560155 -0.362371 -0.133158 0.477229 0.704633 0.948114 -0.313997 -0.711652 -0.30362 -0.460753 0.697721 -0.127558 -0.748015 0.0239228 0.457663 -0.235049 -0.980651 0.159786 -0.406796 -1.18227 -0.64882 -0.83171 -0.238526 -0.624189 -1.25759 0.453683 -0.0380432 -0.818256 0.56948 0.237628 -0.129513 -0.168613 -0.148289 0.523444 0.907276 0.120657 -0.261176 0.43397 -0.243822 -0.0710585 0.483985 0.199633 0.894112 0.20195 0.149472 -0.522577 -0.909843 -1.18148 -0.35468 -1.14424 -0.885083 -1.03894 -0.904133 1.34257 0.253157 1.09725 1.05354 0.21293 0.604701 0.352157 -1.07853 0.776655 -1.04492 0.82746 0.380601 0.385262 0.33743 0.239827 -0.41331 0.502141 0.429754 -0.456855 -0.694574 0.220772 -0.774123 0.191425 -1.08991 -1.0315 -0.631778 -1.17164 -0.13266 0.857053 1.11576 0.0241829 -0.709586 -0.557528 -0.599159 0.433001 0.150443 0.572998 0.0521576 -0.69714 0.90983 0.766512 -0.569883 0.743969 -0.422945 0.991461 -0.21589 -0.916362 0.181226 0.854602 0.453222 -0.984833 -1.5851 -1.62391 -0.997226 -0.168004 0.614079 0.0837038 0.114759 8.93392e-05 0.00946549 0.654509 0.70933 0.117612 0.674466 -0.638517 0.805268 -0.0237581 0.097739 -0.465017 -0.0335472 0.353612 -0.0397394 0.256794 -0.53516 -0.554542 -0.755587 -0.0567849 -0.744307 -1.12263 -0.233268 -1.28267 -0.994321 -0.80519 0.0959659 1.12993 -0.172928 0.073168 0.203667 0.736485 1.12659 -0.402485 0.759903 -0.16846 0.01182 1.0486 -0.0762445 0.56023 0.417408 0.55339 0.796688 0.287614 0.677003 -0.856779 0.806376 -0.555553 -0.694038 -1.24115 -1.49432 -0.449649 -1.04009 -0.0168851 1.1804 0.991617 -0.444574 0.986811 0.302552 -0.0745437 -0.136819 0.681998 -0.906338 -0.0298367 0.27942 0.561789 -0.296915 -0.375211 0.388327 -0.0543777 1.07075 -0.714094 0.470703 0.824529 0.814147 -0.0952798 -0.730534 -0.500132 -1.41244 -0.876357 0.837906 -0.29626 0.220055 0.753035 0.144312 0.45652 0.738216 0.14086 -0.691165 0.292148 -0.0734408 0.736061 0.388579 0.0224359 -0.444794 -0.197963 -0.572845 0.496571 -0.319262 -0.728588 -0.622258 -0.819182 0.395134 0.3729 0.134065 -1.77049 -1.5323 0.0113019 -0.703916 0.806525 -0.707858 0.665707 0.0372384 0.655187 -0.0630565 -0.346445 0.846621 -0.278844 0.140156 0.329924 -0.417998 -1.10343 0.877821 0.578475 -0.625978 0.968171 0.0760162 -0.709022 -0.18204 0.782856 -0.931868 0.181501 -0.83841 -0.588093 -0.897353 0.103174 0.753333 -0.647798 0.409153 0.173798 0.0331148 -0.0330776 -0.609508 0.750609 0.654445 0.528901 1.00229 0.664103 0.260388 0.662011 -0.466587 0.43323 0.326055 1.15491 -0.522461 -0.715065 0.805615 0.611985 0.15711 0.291891 -0.879829 -0.0722642 -0.814763 -0.38182 0.511906 -0.12511 0.519911 -0.289514 0.682754 0.253032 0.878504 -0.910274 0.491975 -0.0548002 -0.749884 0.586044 -0.326097 -0.903555 -0.2118 0.346564 -0.564487 -0.549334 -0.60574 -0.438503 0.349756 0.935426 0.544364 0.888699 -0.374265 -0.780946 -0.188675 -0.504173 0.281658 0.614494 -0.919344 0.327755 0.593699 -0.24725 0.318046 0.559235 0.677048 0.476937 -0.578645 -0.671562 0.827138 -0.516994 0.867241 -0.356793 -0.0292492 0.522517 0.628261 0.00624882 -0.298872 -0.246724 0.418317 -0.917087 -0.409381 0.35899 0.936559 0.0908286 0.086173 -0.339326 0.76999 0.317205 0.385082 -0.691328 -0.784816 -0.490865 -0.0217585 -0.760635 -0.757362 0.0749289 -0.666625 -0.364962 -0.349877 -0.554748 -0.526442 -0.607538 1.07645 -0.401804 0.167283 0.371767 -0.585431 0.00912877 -0.454408 0.183785 0.106542 -0.488118 0.878148 1.28697 0.568498 -1.03484 0.775268 -0.440204 -0.612267 0.190316 -0.0675681 0.676366 -0.186302 -0.328434 -1.00949 -0.790991 0.17615 0.324646 0.7007 0.355533 0.11046 -0.910067 0.300655 0.637435 0.709668 0.900512 0.862927 -0.658721 0.55112 -0.751873 0.858021 0.117659 0.0511775 0.874801 -0.680313 -0.915514 0.226153 0.721253 0.755352 -0.866422 0.227779 0.265497 0.35368 -0.484424 -0.200006 0.398749 -0.813272 -0.755047 -0.857739 -0.122672 0.796085 0.645922 0.768389 0.433055 -0.524986 0.642183 -0.00998518 -0.454295 -0.688872 0.106266 -0.166908 0.956926 0.0590127 0.907535 -0.676347 0.518639 0.495504 -0.96283 0.0126931 0.17862 0.22103 -0.785387 0.681623 0.0665188 0.980208 -0.230337 0.00909027 0.886483 0.970965 0.115197 0.747976 -0.247717 -0.441515 0.440839 0.989221 -0.580673 -0.12797 -0.30133 -0.0359462 0.126027 0.44518 -0.697282 -0.565186 -0.53913 0.691135 0.410881 -0.440062 0.439093 0.427875 -0.929553 -0.136617 0.534906 0.576479 -0.194354 -0.0291563 -0.380978 0.966465 0.969832 
0.278698 0.642675 -0.464804 -0.778156 -0.0170584 -0.0854532 -0.0548632 -0.851727 0.238564 -0.251815 0.978163 -0.627478 -0.189097 0.993315 -0.0212814 0.291553 0.870299 0.915913 -0.359087 -0.0151798 0.0917202 0.943318 -0.67243 -0.177155 0.586897 -0.010592 0.551271 0.782912 0.257095 0.63696 0.519547 -0.132548 0.210226 -0.968925 -0.660147 -0.836533 0.401214 0.960819 -0.560755 0.254138 -0.267202 0.313976 -0.352609 0.333093 0.715207 0.892182 0.0935196 -0.953479 -0.00535823 0.0677287 -0.869772 -0.203394 0.956425 -0.0804795 0.217797 0.114943 0.807681 0.486808 -0.380315 -0.650578 -0.856652 -0.369624 0.0323931 -0.238916 0.911889 0.260128 0.543243 -0.173564 0.44844 0.0838068 0.660123 0.114439 -0.119101 -0.59649 -0.900512 0.597486 -0.00869044 0.80492 0.380137 -0.840488 0.897344 -0.722502 -0.690313 -0.891841 -0.927854 0.97511 0.20026 -0.800249 1.07029 0.436118 -0.782097 -0.57803 0.575199 -0.3459 -0.224563 0.682759 -0.54599 0.765804 -0.614971 -0.388138 -0.00527467 0.266659 0.112789 0.582992 -0.190932 0.810237 -0.444559 -0.597197 1.1242 -0.262118 0.442017 -0.454881 -0.412216 -0.485129 -0.707897 0.0355501 0.534518 0.960738 0.613231 0.74531 -0.798533 -0.0443825 -0.429143 -0.415101 0.0920136 -0.890945 0.796465 0.691204 -1.01408 -0.877774 0.840333 0.316374 0.338387 0.0374358 1.39112 1.17513 0.531161 -0.426852 0.374298 -0.53482 0.720137 0.234102 0.543798 0.0149965 1.21139 0.67249 -0.579203 0.436596 0.18508 -0.400853 0.788865 0.0719814 -1.02627 -0.967139 -0.819904 -0.228906 -0.235191 0.649313 0.68599 -0.00944559 -0.0930965 -0.181094 -0.207328 0.999724 0.513976 -0.801321 -0.383557 -0.244447 0.64299 0.156426 -0.517198 0.889179 1.33991 1.0786 0.553613 0.593143 0.0268529 -0.0642296 -0.588197 -0.560598 -0.398009 0.43759 0.444383 -0.18468 -0.0569491 -0.758228 0.339328 0.510339 0.966159 -0.648214 0.958007 1.01089 -0.446871 0.937379 0.298715 0.718407 0.588006 0.999061 -0.045844 0.926826 0.835476 -0.21833 0.520484 -0.358547 -0.545491 0.308431 0.622179 -0.53433 -0.163579 -0.0787844 0.588601 -0.677759 -0.584118 0.527296 0.139968 -0.203484 0.761437 0.196847 -0.0028978 0.966277 -0.592257 -0.635233 0.879101 -0.850853 -0.995159 -0.701379 -0.201502 -0.154881 0.648782 -0.0124695 0.00896772 -0.476274 -0.875398 0.235921 -0.354917 -0.0218441 0.492084 -0.559336 0.195006 -0.510242 0.376289 -0.800666 0.458982 -0.400453 0.0012936 -0.252762 0.510484 1.05962 0.300912 0.559135 -0.0318959 0.722771 0.538586 0.935466 1.01785 1.51418 0.878141 1.3918 0.415411 -0.192774 -1.08618 -0.127899 -0.505778 0.654041 -0.28283 0.509693 -0.293823 0.358442 -0.0814236 -0.0668368 -0.548219 -0.0404544 -0.170571 0.200765 -0.608308 0.749332 0.476851 -0.28033 -0.968243 -0.883343 -0.301209 -0.313168 -0.289204 -0.120582 1.42916 -0.562566 -0.119754 0.386918 0.162931 -0.0307074 0.28229 0.355111 0.272098 0.766797 0.270591 0.493324 0.505899 0.462367 -0.395305 -0.631061 0.532818 0.674106 0.0548907 -0.300056 -0.637751 -0.735535 -0.491077 -0.0960241 0.525805 -0.684452 -0.491444 0.116235 0.753098 0.2955 0.989448 -0.202816 -0.805193 -0.849562 0.24692 0.0578953 1.27033 -0.224831 1.04596 -0.555177 0.808413 0.417277 -0.298565 -0.230277 -0.542937 -0.0164068 -0.241429 0.3542 0.0126442 -0.269625 -0.181714 -0.681003 -0.102287 0.285255 0.31207 0.51018 -0.00159868 0.636646 -0.157879 -0.745845 -0.126528 -1.24156 -0.584818 -0.748504 0.107957 0.787241 -0.530656 -0.353006 -0.48635 -0.585768 -0.205245 -0.355555 0.263243 -0.647397 0.76352 -0.25135 0.241016 -0.014646 0.727351 -0.236004 -0.784978 0.114223 -0.0546041 0.424983 -0.705779 -0.208756 0.969754 -0.301431 0.693138 0.0540821 -0.72038 0.193111 -1.08671 0.524058 -0.587871 0.599121 -0.23371 -0.309756 0.0588783 0.34768 0.307501 -0.24871 -0.468827 -0.266059 -0.474744 -0.997182 0.879019 0.831969 0.509518 0.482632 0.602395 0.592409 0.550703 0.716343 1.03551 -0.730699 0.588834 -1.14622 0.147954 -1.58664 -1.00252 -0.0555743 -0.872624 -0.343838 -0.624362 -0.297278 0.158647 -0.350147 0.385797 -1.17657 0.212263 -0.550865 -0.209791 0.465816 0.546418 0.338179 0.738578 1.0006 -0.648218 -0.0925281 0.218977 0.0747449 0.998256 -0.619032 -0.387182 -0.283163 0.429983 -1.03024 -0.660605 -0.612853 -0.0796476 0.363247 0.543008 0.0437256 -0.469664 0.0317522 -0.307044 0.0852778 -0.983944 -0.620218 0.302862 0.744807 -0.00607168 -0.807629 -1.00212 -0.659889 0.943299 0.261919 1.07024 0.762968 0.221823 0.0537647 -0.743813 0.61083 0.601906 -0.0195158 0.622948 0.259324 0.110942 0.781772 0.976415 -0.791872 0.994986 0.599622 0.861131 -0.908256 -0.0372775 -0.95195 0.227334 0.906353 0.28067 -0.637972 -0.0711195 -0.546642 0.221394 0.550041 -0.374742 0.824719 0.901271 -0.198789 0.238819 -0.0598887 -0.377247 0.813599 1.17611 0.400509 0.872472 0.349228 -0.558379 0.237667 -0.21107 0.349778 -0.622853 0.635354 -0.0659392 0.690725 0.301966 -0.257675 -0.562343 0.27164 0.492203 0.520362 0.635334 1.3672 -0.212231 1.45743 -0.405649 0.048599 -0.606483 -0.419217 0.876344 0.17692 0.723841 1.03678 0.275283 0.323659 0.327206 -0.40353 -0.24123 0.115746 -0.345867 -0.00119083 -0.826492 0.0692463 0.922629 -0.511216 0.205694 0.424154 -0.271729 0.157942 -0.457024 -0.116347 0.546899 0.52399 0.714475 0.303137 0.138936 0.356228 0.555203 -0.71571 -0.136773 -0.0411106 0.932835 -0.846192 0.154212 -0.0286845 0.370552 -0.323028 0.21658 0.626636 0.693908 0.458413 -0.190787 0.602932 0.810997 0.135685 -0.736045 -0.169434 0.756094 0.0400726 0.216968 0.940318 0.529417 0.180741 0.0156527 -1.16872 -0.212829 -0.994753 -0.898065 0.674131 0.161777 1.05437 0.548023 -0.72606 0.443693 -0.971192 0.291932 -0.158696 0.462463 0.715485 0.178715 -0.0265476 0.0228 0.224234 0.624372 -0.856044 0.516146 0.659853 0.428199 0.751625 -0.55934 0.438105 0.615534 -1.15001 -1.09537 -0.848369 -0.253741 1.02486 0.374463 -0.400419 -0.614543 0.515476 -0.579355 0.278367 -0.308027 -0.372224 -0.474973 -0.458272 -0.0134976 -0.0110687 0.661366 -0.489195 0.722462 0.948094 0.943165 0.4939 0.0589287 0.451408 -0.591392 0.717782 -0.852959 -0.075332 -0.367103 0.611463 -0.911234 -0.817266 -0.227877 -0.18381 -0.638449 -0.148476 -0.934093 0.756602 -0.162201 0.638654 0.244264 0.592473 0.875231 -0.567043 -0.588534 0.278166 -0.504026 -0.545668 0.888872 0.549297 -0.12857 1.05584 -0.390092 0.415205 -0.0892405 -0.188754 0.049356 0.0961768 -0.186221 0.693712 0.51438 -0.424377 -0.296804 -0.423372 -0.00813421 0.0394016 -0.675001 0.313572 -0.0933183 0.698774 0.0216192 0.347901 0.0109166 0.667514 0.459416 0.249687 -0.411618 0.550786 -0.260963 0.302346 -0.195363 -0.128865 -0.672003 -0.662944 -0.66747 -1.45931 -0.363025 -0.0927672 -0.180985 0.52778 0.0704344 0.293355 -0.0473041 0.0313183 -0.387963 0.248867 -0.770885 0.742834 0.402951 0.0298173 0.00815858 -0.335027 -0.438468 0.118516 0.556671 0.20501 -0.137529 -0.37464 -0.0411273 -0.156414 -0.192791 -0.394811 0.567647 -0.406968 -0.00336745 -0.637922 -0.273009 0.831977 0.912275 0.518437 0.552169 0.0311046 -0.835463 0.503585 -0.332258 0.284612 0.58134 -0.351739 -0.983904 -0.494331 -0.525869 0.992162 -0.822839 0.954438 -0.361978 0.831331 -0.0412629 0.211822 0.572778 0.729859 0.332603 -0.397961 -0.159736 0.766666 0.0681849 0.416991 -0.401022 0.494373 -0.824016 0.828564 0.71498 -0.943007 0.258449 -0.304669 -0.732245 -0.74909 -0.446095 -0.163405 0.495083 -0.665685 0.648858 0.629582 -0.23488 -0.521993 0.841129 -0.723025 0.249034 -0.591327 0.550057 -0.782841 0.884625 0.515491 0.362663 0.979986 -0.771312 -0.712822 0.437013 0.594147 -0.834055 0.158827 0.480856 0.60619 -0.864492 0.993053 -0.522958 -0.272439 
-0.44875 0.422676 -0.40252 -0.993049 -0.583639 0.198865 0.885785 0.91003 0.316871 -0.0583683 -0.864544 0.13344 -0.773782 -0.796331 -0.303278 0.139664 -0.903208 0.661985 -0.377177 0.907288 0.418888 -0.882177 -0.918596 -0.260282 0.434062 0.0311036 -0.336169 0.210787 0.953252 0.787898 0.0409384 0.412858 0.271501 -0.230187 0.45907 0.806089 0.969461 -0.526662 0.422984 -0.159166 -0.306804 -0.0498529 0.895085 -0.693061 0.378016 -0.445426 0.872124 0.981179 0.689164 -0.516359 -0.660966 0.0916944 -0.572918 0.233671 0.210246 -0.897558 -0.717324 -0.076758 0.728095 0.0117308 0.179049 -0.0306046 0.953026 -0.574439 -0.783262 -0.730299 -0.610709 0.551579 0.407736 -0.348478 0.251948 -0.459553 -0.0124636 -0.678812 0.741735 0.522849 -0.137599 -0.272067 -0.477245 0.383444 0.333612 -0.247806 -0.308146 0.28448 0.905154 0.492599 -0.0785176 -0.4818 0.126207 0.747885 -0.137283 0.0757317 -0.597941 -0.646408 -0.885449 0.123524 0.0191658 -0.355623 0.0847615 -0.584331 -0.0605382 -0.592482 -0.354584 0.118991 0.19262 -0.244755 -0.712672 -0.182097 0.29298 -0.138665 -0.824173 -0.771304 0.437474 -0.125978 0.326976 -0.131244 0.468772 0.0886298 0.670359 0.865869 0.770366 0.798861 0.0580405 0.794082 0.700969 -0.118901 0.155806 0.546884 0.0954325 0.996569 1.00323 1.29626 -0.655379 0.872773 -0.49927 0.207507 -0.229716 -0.0828153 -0.369674 -0.62638 -0.0543531 -0.24142 0.0414114 -0.0527551 -0.181315 0.322062 0.659044 0.34313 0.949798 -0.695463 -0.238296 0.985298 -0.43129 -0.812854 -0.196463 0.176471 -0.462129 -0.588232 0.614341 0.0500978 0.605384 0.625259 -0.95047 0.661235 -0.430275 0.995364 -0.785718 -0.311404 0.0788755 -0.738722 0.943058 0.352656 0.0887423 0.54885 -0.683476 -0.686451 1.24908 0.102208 0.650659 -0.215816 0.240852 0.591367 0.251201 0.496836 -0.793064 0.234653 0.394452 1.01893 1.09537 -0.325819 0.673121 -0.974571 0.0149721 0.812629 -0.740865 0.383179 0.165242 -0.496271 -0.126704 0.549927 -0.31726 -0.0795406 0.935713 -0.694338 0.568827 0.573888 -0.100869 -0.186996 0.332056 -0.498588 0.358688 -0.714178 -0.624535 -0.741583 1.33086 0.583042 0.477414 0.703838 0.296531 0.0107172 -0.318027 -0.391842 0.677886 0.809478 -0.759731 -0.429894 -0.323782 -0.354842 -0.498512 0.42113 0.0821923 -0.154968 -0.171468 0.944574 0.978082 0.321896 0.947852 0.00952582 0.278762 0.906328 0.594781 -0.0444187 0.246754 -0.462848 0.64812 -0.280549 -0.421022 -0.125094 0.954739 0.147837 0.252737 0.5066 -0.834721 -0.434151 0.329235 0.726322 0.711762 -0.681077 0.0910119 -1.09359 0.656215 0.822629 0.132214 -0.712674 -0.0694456 0.213997 -0.563672 -0.449229 0.271563 -0.101148 0.00940131 0.721949 0.776024 0.319155 0.862157 -0.486952 0.108751 0.79604 -0.686867 -0.147294 -0.868995 -0.224761 -0.275983 -0.116818 -1.09484 0.148538 -1.22787 -0.388853 0.575901 0.624944 0.552526 0.479003 -0.730579 0.683904 -0.526 -0.418048 0.156007 -0.79616 -0.222699 0.0472474 0.124435 -0.695404 -0.316745 0.588149 0.320847 0.591808 -0.76914 -0.579076 -0.357925 -0.969125 0.613004 0.0305251 -1.09087 -0.240238 0.408747 -0.0179661 0.896833 1.08175 -0.745478 0.680707 -0.812077 0.455492 0.0400762 0.0993972 0.157131 0.696933 -0.0797011 0.429056 1.02639 -0.235687 0.684089 -0.147808 -0.450144 -0.704991 -0.295343 -0.0266851 0.366422 0.377741 -0.0643418 -0.594556 -1.90874 -0.557664 0.0435641 -0.0158602 0.716063 0.126591 0.895423 -0.808458 0.758089 -0.388766 0.107799 0.309552 0.273167 -0.272375 -0.458922 0.34834 -0.459287 -0.242874 0.166027 0.0405884 0.0689858 0.652542 -0.496036 -0.737449 0.0547366 0.0285444 -0.0529451 -0.933249 -1.01902 -0.48746 -0.507639 1.10941 0.758577 0.839467 0.500043 -0.169691 -0.435385 -0.0801009 -0.0732533 0.0854203 0.568493 -0.434763 0.636078 0.214185 0.63217 0.682055 -0.190385 -0.0290445 0.543523 -0.326187 -0.578069 -0.930897 -0.626269 -0.147775 -0.969932 -0.634678 -0.146538 -1.1096 -0.38967 0.452572 1.66573 0.493074 -0.207899 0.631187 0.452704 0.623796 0.163119 0.505766 0.15833 0.622932 -0.261964 -0.245154 -0.0051268 -0.201684 0.293151 0.0371793 -0.691304 0.570972 -0.673076 0.810767 0.967361 0.698997 -0.489014 -0.794924 -1.44833 -1.38324 0.892925 0.112759 -0.101262 0.925923 0.0809773 -1.26309 -0.619323 0.24644 0.507301 0.703182 -0.653895 -0.070658 0.542648 0.335668 0.747594 0.632913 -0.89288 -0.740987 -0.637525 0.766835 0.509493 0.59262 -0.439895 -0.103701 -0.340994 -1.16519 -1.46423 -0.34244 0.0666473 0.579156 1.03445 0.956177 0.708584 0.551218 -0.432958 -0.211734 0.334587 0.321043 -0.689783 -0.440241 -0.0521619 -0.120586 0.267934 0.851886 -0.800303 0.368921 0.408824 0.156419 -0.790651 0.297181 0.545477 -0.658746 0.23822 -1.20643 -0.554472 -0.913296 -1.11292 0.251408 0.296937 1.0403 -0.018414 0.1194 0.866819 -0.34477 -0.191308 -0.990215 0.283748 0.194178 1.00535 0.451619 -0.0156161 -0.377635 0.141498 0.285082 0.635541 -0.199987 0.946429 -0.697345 -0.345421 -0.0955648 -0.0707407 -1.20993 -1.12627 -0.864417 -1.06693 0.700955 0.585334 -0.748107 -0.14737 -0.337087 -0.0276804 -0.599553 0.718295 0.344396 -0.3825 0.437644 0.134414 1.10959 -0.698398 -0.814016 -0.173078 0.0777157 0.282271 -0.00699107 -0.082679 0.446399 -0.141192 0.845079 -0.479581 -0.38098 -0.135329 0.318018 -0.245975 -0.0959678 0.643628 -0.0215173 -0.64959 0.0261807 0.71621 0.240922 0.0593491 -0.0535712 0.00779107 0.897707 -0.677332 1.06516 -0.779489 0.848462 0.089644 -0.733056 0.395576 0.301608 -0.373275 -0.700953 -0.70314 -0.357008 0.116554 -0.735633 -1.60109 -0.489283 0.369694 0.629129 0.663691 0.89369 -0.839176 0.610246 -0.675362 0.502503 -0.338668 -0.611586 0.99507 -0.233503 0.599333 0.0476412 0.0484837 -0.751009 0.296811 0.579297 0.443203 -0.686943 0.555422 -0.935995 0.180484 -0.618258 -0.436827 -0.0488583 -1.80615 -0.916156 0.490599 0.104519 -0.0630028 0.760385 0.0584395 0.192616 0.773263 0.559486 0.998872 0.607687 -0.657042 0.198329 1.02977 -0.416288 0.951849 -0.194747 -0.00883894 -0.165877 -0.0734872 0.850993 0.842145 0.420619 -0.65937 -0.949195 -0.662499 0.365619 -1.14843 -0.655811 0.182431 -0.108979 -0.0328104 -0.175457 0.000632599 1.00011 0.0850466 -0.00740856 -0.373654 -0.510628 0.738401 0.543753 0.580155 0.93725 -0.636641 0.279352 0.417174 -0.685957 0.565129 -0.325866 0.544554 -0.23877 0.0850302 0.845681 0.169137 -0.670373 0.0560465 0.229743 -0.891192 0.245419 1.24793 -0.25478 -0.893596 -0.399476 -0.702689 -0.649904 -0.238595 0.312272 -0.203581 0.973507 -0.286905 0.844075 0.220616 -0.240082 0.837556 0.0804741 0.155008 -0.035432 0.467979 0.312368 -0.54687 -0.441856 0.774663 -1.01097 -0.931941 -0.839619 -0.950678 -0.0408946 0.0403829 0.209925 0.145812 0.129235 -0.788847 0.52504 0.203867 -0.718598 0.663812 -0.556381 0.930337 0.923301 -0.785814 -0.861358 -0.638638 0.579202 -0.661226 0.0955942 -0.29676 0.858579 0.0282962 -0.397532 0.990434 -0.62566 -0.181985 0.661084 -0.722843 -0.403198 0.364291 -0.689997 0.243132 -1.01664 0.556404 -0.410636 -0.108572 0.87667 -0.68828 0.0631371 1.00919 -0.562056 -0.616565 0.0543215 -0.0113809 -0.822097 -0.211634 0.244303 -0.476459 0.0909088 0.167024 0.647415 0.299147 0.969191 -0.961528 0.128614 -0.829571 -0.458033 0.850304 0.598903 -0.0674677 -0.712078 -0.509029 -0.0845912 0.345338 0.204426 -0.313396 -0.407906 0.382831 0.642647 0.222425 -0.366458 0.242768 0.0654619 0.804331 -0.249221 -0.297451 -0.59572 0.449314 0.72199 -0.303779 0.0179622 0.610205 0.202899 -0.651665 0.575616 -0.871052 -0.941113 -0.2549 -0.197419 0.272914 0.8174 -0.999671 -0.999494 -0.400152 -0.469257 0.333012 0.377938 -0.457925 0.423543 -0.8497 0.81495 0.951918 -0.612937 0.246904 0.638926 
0.198764 0.548734 -0.218791 0.598723 0.0493021 -0.500733 -0.638491 0.0944931 -0.978662 0.778311 -0.836967 -0.633809 0.543153 0.22375 -0.0100111 -0.373743 -0.656983 -0.402995 -0.953881 0.415684 0.580173 1.0003 0.537627 0.104757 0.138367 -0.140328 -0.637223 -0.385109 0.328538 -0.0153502 0.0709722 0.912633 0.507559 -0.328578 0.0340673 0.410443 0.659947 -0.376193 -0.640116 -0.372186 -0.0479913 0.152661 0.719372 -0.108859 0.838675 -0.570192 0.534063 0.962919 0.435476 -0.633846 0.22246 0.0674915 0.0109793 0.989486 -0.17052 0.983012 0.939203 0.473142 0.967636 -0.342189 0.814995 -1.03668 0.47036 -0.834542 -0.376694 -0.84912 0.0874796 -0.0962156 -0.239077 -0.0916545 -0.267377 -0.464609 -0.835427 0.243743 0.131608 0.149437 -0.869402 0.529644 -0.86674 -0.0331619 -0.112066 -0.670382 0.905879 0.272943 0.88728 0.0874383 -0.98631 -0.497691 -0.375317 0.755459 0.085092 -0.00209647 -0.581209 0.0390272 -0.407282 -0.214929 0.388517 -1.56775 -0.0391899 0.227427 -0.0763773 -0.267505 0.0397109 -0.945899 -0.145418 -0.475711 -0.663617 -0.14035 0.452361 -0.098177 0.66355 0.550829 0.23568 0.786435 0.548928 0.468021 0.284679 -0.656019 -0.710662 0.853095 0.405974 0.590193 -0.437415 -0.471589 0.211693 -0.152606 -1.2078 0.12765 -1.14976 0.549072 0.478124 -0.108219 -0.264295 -0.359228 0.660442 -0.390876 0.784103 0.694638 0.0860459 0.0550711 0.345722 0.97208 0.673774 -0.309668 0.538762 0.59615 0.0210092 -0.0102535 0.802315 -0.272774 -0.423469 0.35228 -0.641453 0.0604439 -0.505989 -0.443168 -0.581801 -0.36374 0.806675 0.60637 0.855193 0.802647 0.165919 0.244353 -0.702298 -0.599322 0.168645 0.588329 0.437313 0.164427 0.562649 0.202975 0.965198 0.597988 1.01297 -0.462135 0.728223 0.572517 0.753559 -1.02524 -0.379407 0.253611 -0.612173 0.950692 0.876547 -0.501527 0.270208 -0.0584713 -0.41395 0.32937 -0.747359 -0.39932 0.546094 -0.000647265 -0.36709 0.0743078 -0.100007 0.521867 0.659478 -0.868216 -0.398536 -0.338744 0.89077 0.565573 0.782809 -0.430408 0.725231 -0.0146573 -0.575226 0.345405 0.495435 -0.136598 -0.719986 0.364191 0.223891 0.287307 0.676281 -0.923671 0.686862 0.654665 -0.557917 -0.606016 -0.608193 -0.121201 0.0723673 -0.878926 0.293276 0.0974303 -0.843778 -0.821982 -0.720592 0.592661 0.324962 0.432075 0.899744 0.191697 -0.673417 0.494647 0.544626 0.793295 0.305219 -0.00418498 0.0733725 0.763127 -0.355285 0.31845 0.71646 0.354701 -0.577966 -0.148372 -0.418657 0.238501 -0.0506544 -0.892345 0.654283 0.775879 -0.285876 0.574537 -0.450019 0.573042 -0.412534 0.478397 -0.932461 0.999292 0.822513 0.205217 -0.348412 0.786465 0.911117 -0.463123 0.77887 0.766796 -0.6864 0.742575 -0.212411 -0.429312 0.361487 -0.169484 0.01161 0.943849 -0.587547 -0.111637 0.755376 0.704133 -0.707496 -0.944683 0.102764 -0.532797 0.481229 0.546777 0.860724 -0.317102 0.0291445 1.38389 0.383957 0.950957 0.278404 0.542923 -0.483284 -0.63539 0.139539 -0.293316 -0.204098 -0.880282 0.644731 0.301516 -0.556148 0.256548 -0.953608 0.327868 0.482664 0.352582 -0.0954177 0.22391 0.739738 -0.560406 0.189309 0.26091 0.667773 -0.0637089 -0.297226 -0.0523781 0.220855 0.226442 -0.856201 -0.159243 -0.155756 -0.92416 -1.11224 -0.0990093 -1.0312 0.819309 -0.216691 -0.0784744 -0.645399 -0.840392 0.134687 0.228563 0.286027 -0.959549 0.5217 0.233606 -0.14494 0.429355 0.569379 -0.302 0.839593 0.572948 0.629148 -0.156828 -0.567436 0.877367 -0.599596 -1.08576 0.588672 -0.986927 -0.917611 -1.01677 -0.0657543 -0.763413 -0.293818 -0.988998 0.414983 0.0829047 0.209327 0.319305 0.435144 -0.709392 0.328057 -0.115364 0.866825 0.32689 -0.610732 -0.838279 0.296654 0.439615 -0.805767 0.304524 -0.493666 -1.35901 -1.37892 -0.592925 -1.05913 -0.890439 0.101678 -0.405237 0.240928 -0.41154 0.377713 -1.00983 0.307611 0.953788 0.291743 0.926006 0.608615 0.184157 -0.766709 0.641575 -0.133402 0.188858 0.448631 -0.246368 -0.0961747 -0.960466 -1.00784 -1.44526 -0.939521 -1.78636 -0.479773 0.50256 -0.335705 -0.209201 0.54559 0.67445 -0.764971 0.2849 -0.547198 -0.209419 -0.649928 -0.0320592 -0.0209895 0.226626 0.117857 -0.892511 -0.0343096 -0.397126 0.606999 0.15842 -1.52794 -0.839106 -0.474913 0.317858 -0.938727 -1.54609 -0.0957645 -1.01865 -0.154325 0.710885 0.234144 0.597151 -0.0569189 -0.24656 -0.736585 0.654139 0.246731 0.65323 0.955596 0.985577 0.0740222 -0.673223 -0.789419 0.253678 -0.466827 -0.682583 -1.70942 -1.4773 -0.35916 0.094041 -1.50596 -1.01369 -0.589282 -1.8046 -0.545094 0.0211194 0.0980775 0.546508 -0.63747 -0.0439095 -1.47389 0.289067 -0.529414 0.905307 -0.311799 -0.484686 0.956285 -0.301494 -0.358211 -0.142878 -0.234181 -1.05715 -1.0638 -0.376047 -0.638696 -0.396443 -0.934668 -0.286029 0.174125 0.254612 -0.718603 0.335077 0.138107 -0.889501 0.429351 -0.129446 -0.609344 -0.386611 0.0413861 0.539943 -0.421803 0.105318 -1.34398 -0.154742 0.262494 0.444352 0.39312 0.0118659 -0.836686 -0.942308 -0.78165 -0.0740071 -0.590608 0.29166 -0.804441 0.00174666 -0.101573 -0.450554 -0.0718757 0.44409 -0.0950644 0.382931 0.930905 -0.276803 -0.288389 -0.945784 0.306186 0.881408 -0.477111 0.961912 0.286066 -0.416637 0.686221 -0.0349498 0.347541 0.126695 -0.169726 0.0749492 -0.409807 -0.606379 -0.729613 0.426375 0.643269 0.0593332 -0.203235 0.298479 0.410128 0.978605 0.187477 0.914338 0.0355748 -0.560842 -0.347161 -0.35584 -0.574238 0.25233 -0.0146606 -0.0802453 -0.521233 -0.706556 0.857401 -0.632738 0.924456 -0.775926 -0.0304351 -0.273924 -0.0487049 -0.614803 -0.304155 0.109256 -0.132042 0.7594 1.3671 1.34459 -0.0206917 0.751416 0.00572386 0.665461 -0.525621 -0.361969 -0.272359 0.207254 0.648702 -0.298783 -0.516828 0.628144 -0.27787 -0.179428 -0.469736 0.359976 0.491045 0.192137 0.427568 -0.351454 0.375261 -0.120262 0.233416 0.0658364 0.445801 0.50294 -0.539847 0.0160082 0.883944 0.43411 -0.155429 0.911388 -0.903361 0.0731103 0.00902701 -0.00801743 -0.530524 -1.29113 0.946302 -0.287024 -0.0310191 -0.90644 -0.353931 0.705103 0.260559 -0.227252 -0.866753 -0.3311 -0.0281107 0.250955 -0.315776 0.332768 -0.879891 0.496087 1.12582 1.06538 -0.361616 -0.57814 0.361032 0.0903898 -0.143029 0.577457 -0.446437 0.771476 -0.413038 -1.09467 -0.839838 0.510691 0.25422 -0.917282 0.865573 0.676842 0.861047 0.751118 -0.726496 0.38484 0.723429 -0.677069 -0.578984 0.110074 -0.432563 0.0487351 -0.277838 0.867635 0.526521 1.13926 0.329752 -0.37453 0.404633 -0.430408 0.0503372 -0.517681 0.199136 0.129791 0.500263 0.0436304 -0.524415 -0.115999 -0.389538 0.512259 -0.521177 -0.601823 -0.613523 -0.0209511 -0.0970014 0.156998 0.597206 -0.555978 0.9364 -0.0897381 1.25328 -0.22527 0.787066 0.421751 0.483215 0.0175374 0.429585 0.680293 0.466016 -0.37646 -0.586304 0.409841 0.973563 -0.699296 0.698154 -0.112744 0.535045 0.303559 -0.212068 -0.943059 -0.0257926 0.903176 0.098795 0.442388 0.586412 0.126928 -0.629745 0.885212 -0.758239 0.69391 0.0971008 -0.0671925 -0.440124 -0.240757 -0.758009 -0.52955 0.252364 -0.932089 0.907046 0.3207 0.300889 0.796943 -0.406121 -0.161701 -0.736689 0.411147 0.958279 0.672408 -0.826915 -0.197071 0.165585 -0.425334 0.373668 0.00744932 0.482724 0.935934 0.447522 0.458591 -0.253313 0.230439 0.66658 0.0827169 -0.0802047 -0.784546 0.833408 0.186508 0.659339 -0.307334 -0.45411 -0.667867 0.98618 -0.215474 0.78778 -0.893388 0.775568 -0.770526 -0.471583 0.643401 -0.430902 -0.297635 -0.12702 0.468737 0.196086 0.483622 -0.747453 0.230281 0.655229 0.23261 -0.108055 -0.210075 -0.809396 -0.516274 0.442956 0.300815 0.950127 0.288589 0.327424 -0.514264 -0.656807 -0.536383 -0.324619 0.24136 
0.162185 0.812319 -0.565343 0.757997 0.136402 0.460337 -0.164351 -0.988723 -0.239642 -0.370556 0.0522867 0.717433 -0.314695 -0.833745 0.750757 0.353443 0.951712 -0.775137 0.672247 0.839062 0.227714 -0.918251 -0.42609 -0.211236 0.520979 -0.74567 -0.66243 -0.529659 -0.602266 0.156892 0.00819464 -0.00446456 0.61876 0.805662 0.950837 0.580542 0.071665 -0.175971 0.844918 0.030286 0.817221 0.256089 0.0804529 0.347736 0.0892799 -0.903191 0.87724 0.349962 0.254766 -0.0162843 -0.0748713 0.601949 0.642857 0.0378934 0.315182 -0.661357 -0.184835 -0.961389 -0.523344 0.976688 -0.764701 -0.575665 0.627186 1.05719 0.701561 1.03219 1.02699 0.249602 -0.931403 0.717472 -0.10097 -0.539518 -0.785049 -0.217259 -0.382081 0.0718208 -0.421674 0.490067 -0.507203 -0.194131 0.871366 -0.476175 -0.602661 0.0255451 0.60357 -0.852294 -0.609209 0.384239 -0.694867 0.158918 -0.0990785 0.86699 1.34776 -0.442236 0.523522 -0.940912 -0.895707 -0.00394011 -0.897298 0.37258 -1.00131 -1.2123 0.060548 0.817707 0.255421 0.848549 0.253291 0.319475 1.00473 -0.498194 0.554064 -0.0241712 -0.754005 0.600443 -0.0255246 0.323603 -0.340889 0.975864 0.844063 0.722753 0.466668 -0.761498 0.295885 -0.293074 -0.0706668 -0.350866 0.619252 0.264187 -0.774788 -0.0421715 0.4259 0.0493448 -0.421312 0.231363 0.565365 0.915641 -0.801887 -0.549179 0.471249 -0.940341 0.0932191 0.0753655 -0.59647 -0.372052 0.935446 -0.454667 0.874222 0.721021 -0.030468 -0.00308338 -1.1371 0.553568 -0.535474 -0.00996838 0.0872616 0.292177 -0.0305821 -0.268276 -1.01446 0.845759 0.0551209 -0.438984 0.510015 -0.559882 0.973987 -1.0937 0.616785 0.930607 0.936939 0.177803 0.717864 0.399097 0.275242 0.316317 0.578752 -0.867863 0.683113 -0.635416 -0.295236 0.219434 -0.677864 0.809792 -0.925435 -0.422822 0.00908915 0.0830973 -0.891965 -0.678053 0.893178 0.524903 0.000884664 -0.611347 0.763031 0.278348 -0.391387 0.252562 -0.639315 -0.00230058 -0.66062 0.841209 -0.165231 1.0514 0.884389 -0.60769 -0.0920431 -1.02876 -1.12567 -1.23506 0.619572 -0.737599 -0.822486 -0.370139 0.381641 0.357885 0.0168624 0.0660858 -0.27147 0.437961 0.249973 -0.329385 1.27928 -0.43234 -0.610419 -0.633419 0.948933 -0.474687 1.02292 0.701282 -0.190515 -0.638021 0.488908 0.642907 0.355401 0.452522 0.337478 0.181634 -0.740915 -0.712974 0.700895 0.530036 -0.405604 -0.234997 0.339356 -0.656979 0.39271 -1.23467 0.457355 -0.337148 0.226691 0.394778 0.909698 0.120124 0.341352 -0.752232 -0.661119 0.0199993 -0.00288885 -0.640738 -1.11425 0.716877 0.311167 -0.055156 0.199867 -0.228857 -0.308344 -0.881124 0.735538 0.124863 -0.19414 -0.295058 0.816135 0.741614 -0.0767828 0.0425918 -0.337716 0.647852 0.440071 0.786044 0.427471 0.411408 0.953329 -0.0934298 0.951519 0.393588 0.987222 0.286731 0.797015 -0.571555 -0.831341 0.171379 -0.440958 -0.245627 -0.0566141 0.246664 -1.24263 -0.293227 0.209052 -0.143046 0.699178 0.488881 0.131429 0.834693 0.948347 -0.0970923 0.831476 0.236528 0.367888 -0.0790342 0.493378 -0.993249 -0.789893 0.401582 -0.471742 -0.391279 -0.596356 -0.981247 -0.106557 -0.273146 0.280924 -0.686309 -0.265153 0.217983 0.373397 0.621752 0.065489 -0.0137691 0.323726 1.30459 -0.209053 -0.29297 0.492623 0.410334 0.356935 0.522857 0.826132 -0.294662 -0.723243 -0.896653 0.120338 -0.637641 -0.215887 -0.610748 0.321346 0.0389443 -0.447073 -0.448495 0.100529 -0.403963 -0.762247 -0.582984 0.435512 -1.0202 -0.0639331 -0.826667 -0.36432 -0.456227 0.27125 0.0403715 -0.455458 0.540741 0.132861 1.07868 -0.191065 0.468578 -0.828642 0.686352 0.27673 -0.619718 0.338083 0.157098 0.566355 -0.795131 0.000924917 0.6707 -0.700518 0.0131161 -0.901887 0.240732 -0.267992 -0.212686 -0.450513 -0.999886 -0.730378 1.11146 -0.594339 -0.84008 0.0615303 -0.463014 -0.071303 -0.302992 0.668107 0.153408 0.852188 -0.936911 -0.345131 0.707667 -0.556596 -0.914789 0.462702 -0.95065 0.787237 -1.06883 0.301781 -0.0687632 0.345729 0.910906 0.245976 -0.56111 1.01668 0.858516 -0.405686 -0.292189 -0.220766 0.375427 -0.633346 0.942757 -0.369675 -0.524077 0.31174 0.10709 -0.410788 -0.659962 0.76076 0.339958 -0.236405 -0.105339 -1.02296 -0.862639 0.307219 0.412696 0.209968 -0.281145 0.832208 1.15158 0.382959 -0.787051 0.616747 0.396568 -1.14612 -1.0216 0.723705 0.506155 0.550607 1.15732 0.79758 0.379616 0.18912 0.90495 -0.637694 -0.388701 -0.640441 -0.0744074 0.380878 -0.460076 0.105616 0.197641 0.270169 -1.15895 -0.393594 -0.296635 0.368126 -0.23444 -0.56178 -0.481773 -0.817755 -0.906626 0.15959 -0.229521 0.749426 0.531389 0.0392429 1.09361 0.978685 0.0242017 0.625158 -0.621902 -0.737083 0.840497 -0.657245 -0.304465 0.605131 -0.837634 -1.04179 -0.310751 -0.55684 0.0774703 -0.701221 0.382323 -0.348553 -0.315472 0.286566 0.03066 -0.96922 -0.50809 -0.92361 0.597556 0.991952 0.0562379 0.30193 1.09635 0.416901 1.00781 0.647656 -0.424861 -0.0658151 0.054783 0.0131324 0.880899 0.318179 -0.26886 -1.11384 -0.547169 -1.23468 0.0948708 0.66768 -0.0176038 0.00139892 -0.662385 0.09814 -0.0923608 -0.251685 0.677076 -0.0257592 0.219801 -0.196257 0.932516 -0.379642 1.13767 -0.133417 0.0205256 -0.173336 0.633577 0.155124 0.414659 -0.438279 0.30271 0.443758 -0.55747 0.00368961 -1.1675 -0.218559 -0.503744 0.0124784 -0.189544 -1.06777 -1.36845 0.269983 -0.818682 -0.168575 -0.0201578 1.43269 1.0038 -0.238605 0.60544 0.177371 0.95349 1.33277 -0.7976 0.483177 -0.0715008 -0.592937 -0.269485 -1.00428 -0.000658141 0.478514 -1.15922 -1.07978 0.0668517 -1.15879 -0.00486247 0.2613 -0.692608 -0.983273 -0.0129762 -0.674787 -0.401072 0.264889 0.0123781 1.27521 0.160299 0.847933 -0.416804 0.378144 -0.429027 -0.027635 0.681861 0.709157 0.459258 0.702582 0.875868 -0.190557 -0.44276 0.404288 -0.439954 -1.26842 -0.350335 0.54801 0.00887394 -1.00031 -0.932467 -0.932242 0.869016 0.0399771 1.40365 0.642707 -0.0226645 0.222447 0.0592348 1.05256 0.680053 0.297334 0.257389 0.788714 0.171246 0.233109 -0.137877 -0.553256 0.854101 0.56713 0.599091 0.453861 -0.707322 -0.682415 -1.19455 0.188632 0.292078 0.442122 -0.0839767 0.355363 0.189756 -0.146945 -0.0568848 1.10067 0.249784 -0.191332 0.623856 0.986283 -0.60834 0.780716 1.00054 0.380861 0.301551 -0.0558153 0.959192 -0.553632 -0.9931 0.716391 -0.536589 0.163281 -0.80522 -0.359182 0.0939257 0.384863 0.281207 -0.417527 -0.0262694 0.498194 -0.593311 0.634014 0.361177 0.390804 1.07832 -0.307119 -0.511372 1.16737 -0.171307 -0.805658 0.127107 0.908932 -0.303207 0.679057 0.976372 0.920295 -0.397484 -0.356079 0.961715 0.880462 -0.855842 0.252807 -0.0333233 -0.303122 -0.0306926 -0.522609 -0.41595 0.285139 0.410086 -0.543194 -0.0832258 -0.499612 0.974942 0.605223 -0.244388 0.556894 0.899377 -0.738015 -0.074337 -0.0591047 -0.131597 -0.644787 -0.0288376 -0.815594 -0.872637 0.849421 0.331233 -0.478962 -0.944195 -0.536361 -0.291088 -0.582974 0.276847 -0.840947 -0.267458 -0.702243 0.819232 0.992762 -0.640219 0.811478 0.55175 -0.102192 0.678148 0.13452 0.618181 -0.739578 -0.367976 0.793844 0.761876 0.945352 -0.478241 0.384889 0.615485 -0.870805 0.352139 0.986378 -0.829541 -0.278846 0.318768 0.808555 0.106498 0.240586 -0.0142701 -0.611754 0.522063 0.328768 -0.578229 -0.89688 0.533227 -0.845731 -0.118035 0.234445 -0.69123 -0.00945776 0.645809 -0.143061 0.644536 -0.750245 -0.688931 0.762105 -0.198426 0.83492 0.128332 0.458087 -0.0793741 0.327159 -0.393714 0.659941 -0.470359 -0.902193 0.248878 0.333501 0.471267 0.59828 0.0569455 -0.566131 -0.190372 -0.679845 0.525916 -0.0567551 -0.416155 -0.696979 0.319845 -0.145284 -0.137267 0.877762 0.844693 
