5
layer
0.18156 -0.122116 0.413884 0.375691 -0.573669 -0.231063 0.905942 0.752564 -0.652939 0.265014 0.503229 -0.685289 -0.848547 -0.202422 -0.468657 0.262457 0.0744919 -0.460588 -0.934764 -0.0221605 -0.862685 -0.919587 -0.581789 -0.879098 -0.252505 -0.1325 0.856688 -0.127205 -0.10729 -0.58069 -0.958521 -0.470774 0.99195 -0.35505 0.74148 -0.593689 0.53846 -0.397122 0.109934 -0.643216 -0.705393 -0.956529 -0.176012 -0.86197 -0.537598 0.0269409 -0.146696 0.989316 0.743022 -0.824549 0.073577 -0.70545 -0.959964 0.878353 -0.991735 0.441033 -0.474559 0.458886 0.902687 0.59672 -0.019706 0.125717 0.152578 0.424925 -0.643051 -0.772033 0.120591 -0.447869 0.797711 0.430406 -0.554688 -0.469595 0.741334 -0.177802 0.218834 0.568021 0.729498 0.813978 0.990188 0.381526 0.322484 0.810816 0.217533 -0.721552 0.11259 -0.258097 -0.556664 0.864296 0.580187 -0.672206 -0.272863 0.812422 0.491224 -0.222335 0.904201 0.616646 -0.490584 -0.746459 0.631376 -0.864145 -0.979114 0.482129 -0.430618 -0.353989 -0.0127823 0.413396 -0.790682 0.51059 -0.14916 0.877087 0.788431 -0.40737 -0.941251 0.552782 -0.414707 0.0476624 0.975301 -0.388676 0.485788 0.486754 0.326615 -0.126214 0.966728 0.791016 -0.670884 0.136885 0.550309 -0.0775425 0.367023 0.508563 0.320976 0.294508 -0.854185 -0.178923 -0.137796 0.644308 0.0660258 0.763514 0.226091 -0.357033 -0.00267451 -0.0137743 0.125991 -0.832259 0.782093 -0.786795 -0.216083 -0.339881 0.63994 -0.0234587 -0.677215 -0.349311 0.588184 -0.90459 -0.735133 -0.0898817 0.746865 -0.644026 0.0131821 0.203529 0.0759891 -0.540945 -0.894476 0.704273 -0.564054 0.617902 0.0563375 -0.108192 -0.251137 0.189049 0.967065 0.543667 0.543553 0.557428 0.606093 0.746624 0.890033 1.05409 0.667976 -0.0172261 -0.610674 0.614555 0.153992 0.685811 -0.0693768 -0.456575 -0.162241 -0.704024 0.0158176 0.949561 0.602161 -0.298534 -0.831562 0.754722 0.711147 -0.896555 0.902071 -0.585271 -0.41845 0.708269 -1.16983 0.373518 -0.0677873 0.525456 -0.298242 -0.750651 -0.345846 0.597622 -0.789475 0.862265 -0.00907645 -0.545512 -0.627965 0.0276171 -0.096914 -0.432215 0.0179383 1.23972 -0.016878 -0.677035 0.271516 -0.765264 0.881551 -0.34978 0.236264 0.0142816 0.187406 0.046201 0.651745 -0.882597 0.914814 0.561736 0.815621 1.06329 -0.0263671 0.232831 -0.927158 -0.594224 -0.039645 0.129569 -0.669749 -0.816126 0.205348 0.951718 -0.308456 -0.321601 0.221261 0.800256 -0.603698 0.404409 0.668816 -0.550313 -0.709319 -0.408411 0.210956 0.452442 -0.290429 -0.221933 -0.305247 0.46596 0.38179 0.0690879 -0.783552 0.186763 0.596816 0.27624 -0.276809 0.495269 -0.991004 0.927624 0.69506 0.653775 0.0525987 0.720107 -0.109141 -0.550167 -0.554587 -0.795144 -0.177066 -0.312378 0.96063 0.0459975 0.700398 0.676625 -0.706669 0.157145 0.695199 -0.693764 0.204003 0.0229117 0.0338749 0.701418 0.613174 0.219569 -1.12183 0.918551 0.550487 -0.331268 -0.271444 0.3984 0.281298 -0.167034 -0.231537 -0.822749 -0.365606 -0.664449 -0.371836 0.585159 -0.928239 -0.922363 -0.732198 -1.01294 0.0930318 -0.104385 0.511338 -0.59805 -0.18819 0.473425 -0.892793 0.89913 -0.697743 1.09715 0.159311 -0.449607 0.196507 0.860937 1.1891 0.834009 -0.14063 -0.495924 0.224467 -0.641618 -0.668072 -1.02213 0.554812 0.631705 -0.290551 -0.517656 -0.651501 0.0911918 -0.0655535 -0.621781 0.625315 -0.330901 -0.821591 0.533355 -0.103258 0.610835 -0.663984 -0.31088 -0.0523675 -0.0230393 0.296457 -0.031008 0.623463 0.090673 0.0433819 0.644822 -0.0583111 -0.798875 -1.08284 0.00412599 0.671857 -0.400383 -0.271386 -0.607876 0.448792 -0.429809 0.515783 -0.598064 -0.220857 0.110718 0.160047 0.721466 1.24387 1.50275 1.32662 1.11788 0.394822 1.12598 0.527907 0.74949 0.441169 0.562865 -0.665774 -0.217023 -1.39805 -0.765638 -0.520814 0.477503 -0.778509 0.595521 0.790464 -0.654421 -0.542104 0.58926 0.36174 -0.064102 0.736673 -0.0250699 -0.762465 0.720695 1.77471 1.2324 1.55229 1.24453 0.712109 0.715577 0.529015 1.31631 1.64823 0.762085 0.721874 0.383433 0.402277 -0.0952421 0.0857913 0.395471 -0.351015 -0.033701 -0.16145 -0.825792 -0.797115 -0.259358 -0.3915 -0.747873 -0.436904 -0.267597 0.78101 1.17839 0.249683 0.852881 -0.366157 0.498256 0.493555 1.02763 1.01203 -0.24264 1.41556 1.10506 -0.881525 0.510655 -1.18188 -0.0377781 0.511779 -0.269241 -0.597052 0.889966 0.00230907 1.00535 0.0505846 -0.634853 0.304412 -0.128079 0.0306024 -0.65745 -1.20452 0.420316 0.594543 0.968908 -0.464734 -0.21839 0.545206 0.392741 -0.124079 0.951559 1.05876 1.12112 0.908511 0.461057 -0.679338 -1.17022 -1.03935 0.302145 0.474251 0.233264 -0.734015 -0.925722 -0.791099 0.427375 -0.287414 -0.58832 -0.542129 0.647853 0.161629 -0.439091 0.510296 -1.02987 -0.157813 -0.846163 0.863302 0.612796 0.119644 0.756741 -0.57776 0.367112 -0.646516 -0.567993 -0.335485 0.42831 -0.978739 -0.210534 0.0159 -0.67709 0.624922 -0.818349 0.719356 0.546557 -0.103816 0.535121 0.0262093 0.0185484 -0.648766 -0.0776889 0.247173 -0.588368 0.34676 -0.0887175 -0.0890382 0.501228 0.209266 -0.264023 0.533703 0.992047 -0.624283 0.569558 -0.941 -0.821707 0.169912 0.206591 0.29959 0.143892 0.70882 0.348115 0.0281005 -0.759409 -0.913132 0.00689113 0.605618 0.0374681 -0.579807 -0.0517122 -0.264471 -0.572846 0.0953398 -0.662027 -0.0509912 -0.0291042 -0.205757 0.104326 1.02175 -0.943446 0.481175 -0.0903967 -0.251851 -0.739823 -0.717988 0.831297 0.491581 -0.657674 -0.318197 -0.3103 -0.318268 0.193901 -0.817405 -0.847781 0.144737 -0.842237 0.379546 0.412856 -0.40094 -0.00422182 -0.160785 0.80143 0.825818 0.0331769 0.740036 0.577624 -0.858555 0.759199 0.119156 0.0601641 -0.45074 -0.49185 0.486754 -0.961646 -0.161068 -0.127944 -0.73156 -0.287419 -0.362747 1.06948 0.526953 -0.519055 -0.440415 0.10517 -0.0671375 -0.216453 0.808902 -0.108097 -0.635777 -0.597697 1.05417 0.82218 0.0705147 1.01608 -0.210409 -0.567975 0.147209 0.113554 -0.69804 0.495001 -0.623284 0.293368 -0.659267 -0.109312 0.939443 -0.491648 -0.402353 1.0018 0.145959 -0.836203 -0.879343 0.791659 1.12884 -0.819518 0.633496 -0.208617 0.86665 -0.690965 0.175171 0.0607358 -0.56759 0.518592 -0.115826 -0.363417 -0.447546 0.792979 0.0821155 0.481396 -0.849897 -0.129914 -0.789215 -0.188276 -0.416203 -0.262529 0.340898 0.222979 -0.64355 0.381892 0.245888 -0.025111 -0.391629 -0.473162 0.210648 -0.714321 0.566744 -0.163632 -0.620135 0.91783 0.898909 0.78013 0.657571 -0.378302 -0.266097 -0.87224 -0.15256 -0.179149 0.130312 -0.777326 -0.956609 0.376012 0.263108 0.442691 0.95381 0.906914 0.592386 -0.466921 0.35207 -0.151493 0.432342 -0.731246 -0.424744 0.0139485 -0.383518 -0.825176 0.524532 1.04303 -0.00308659 -0.191889 1.07653 0.35874 -0.51959 -0.678777 0.163402 0.320561 -0.882056 0.14814 -0.754225 -0.558517 0.665684 0.535282 -0.991578 0.905576 0.520343 0.942803 -0.349449 0.436411 -0.0184999 -0.841855 0.580979 -0.713516 -1.05394 0.147343 -0.951137 0.326423 -0.796285 -0.69239 0.261487 -0.960774 0.845417 0.00481484 0.247885 0.250632 -0.232091 0.790098 0.137654 0.768717 0.0112784 -0.738184 0.670189 0.904351 -0.467037 -0.540437 -0.592683 0.389699 -0.147773 -0.17985 -0.287595 0.843102 0.533897 -0.480396 -0.450845 0.360759 -0.840607 0.549115 -0.634455 0.132739 -0.932549 -0.0484777 0.301202 -0.0899861 -0.927883 -0.108153 0.218912 -0.30758 0.318034 -0.477844 0.891951 0.405192 0.446416 -0.777593 -0.859411 -0.624571 0.378422 -0.906225 0.780249 0.248609 -0.694841 -0.00128424 -0.175333 -0.200226 -0.77383 0.181268 0.362291 -0.858681 0.00966993 0.656992 -0.904529 0.827801 -0.160351 -0.990478 -0.375506 0.0802762 
0.557762 0.447251 -0.747919 -0.510925 0.0843574 -0.230569 0.025557 -0.197768 -0.751652 -0.914179 -0.0101932 -0.494731 -0.643978 -0.999333 -0.420587 -0.944698 0.938335 0.207909 0.216101 -0.949927 -0.0189136 0.708338 0.817034 0.644008 0.666249 -0.269695 0.293782 0.0690562 -0.188518 -0.845343 -0.579065 -0.573035 -0.950178 -0.612735 -0.310896 0.952357 0.138704 0.606291 -0.514426 0.131028 -0.0195139 0.919439 0.125767 -0.838351 -0.379947 0.700709 -0.254684 -0.322191 -0.362373 -0.783668 -0.662484 -0.448928 -0.182992 0.41422 0.628555 0.114895 -0.308647 -0.293129 0.875734 -0.0660755 0.73576 0.75105 -0.779378 0.78097 -0.176304 -1.052 0.236629 -0.932024 0.0316645 0.336095 0.795007 -0.154858 -0.40633 -1.0376 -0.865912 0.162521 -0.855487 -0.470408 -0.0125565 1.08806 -0.268038 0.705953 -0.263365 -0.252924 0.168226 -0.441825 0.342572 0.58772 0.788315 0.272924 -0.124714 -0.01335 -0.925358 -0.541529 -0.666978 0.101939 0.160894 -0.349563 -0.503153 -0.0521702 -0.841004 -0.15741 -1.38966 -1.50957 -0.288837 0.0037161 -0.188499 1.18781 0.364045 -0.276571 -0.743373 -0.0771437 0.426154 -0.753209 0.837116 0.805077 0.311801 0.154372 -0.509557 0.0553383 -0.532198 0.803974 -0.646942 -0.0823561 0.150324 -0.713189 0.136774 0.307046 -0.833596 -0.0555721 0.388309 -0.75394 0.461288 0.805154 1.34776 0.734986 -0.316052 0.16861 0.872256 0.390407 -0.945453 0.637639 0.111249 0.951479 1.05971 -0.533689 -0.374938 0.0507101 0.345923 0.395541 1.13836 -0.316087 1.3421 -0.0685964 0.865636 -0.63289 0.161609 -0.0869629 0.176427 -0.490799 0.622744 0.84418 0.490308 1.21688 -0.357498 -0.168062 0.269236 -0.580673 -0.666479 0.468483 0.730256 0.0440453 0.526072 -0.813324 -0.032954 -0.717396 0.546331 -0.527914 -0.25532 0.53301 0.782945 0.485401 -0.285753 0.235627 0.0222004 -0.602387 1.03804 -0.360311 0.465126 0.483805 1.02651 -0.187963 -0.139471 0.126205 -0.4116 0.149141 0.995897 -0.030508 0.735469 0.454963 0.721528 0.39519 -0.131699 0.14827 0.694745 -0.400358 -0.383061 1.36252 0.673635 0.561584 0.678534 -0.722744 -0.311297 -0.755285 -0.644584 -1.27259 0.637809 0.894381 -0.894914 -0.40837 0.708975 0.475479 -0.780011 0.886806 -0.223563 0.3305 0.362995 -0.64225 0.335459 0.139401 -0.226132 -0.179192 0.95729 -0.244703 0.787798 1.10922 0.954392 1.36667 0.796154 -0.333402 0.109816 0.0574849 -0.820474 0.202281 -0.160513 0.501686 0.704462 0.123465 0.114662 -0.804533 -0.721959 0.659512 0.211453 0.666912 -0.581842 -0.522272 -0.126944 0.311387 0.934242 -0.65184 0.68447 0.00456876 -0.658715 -0.736508 1.32662 0.162153 -0.298172 -0.155123 -0.748607 -0.254043 -1.13793 0.666727 -0.669475 -0.378418 -0.329917 0.101208 -0.277093 -0.625097 -0.240942 0.342568 -0.935389 -0.898954 -0.492866 0.970485 1.39706 0.0843028 0.792873 -0.0393298 -0.436836 -0.255623 0.767985 -0.188 -0.291417 1.43698 0.606846 0.904569 0.588203 0.753842 -1.13459 -0.455123 0.813259 0.182096 0.622671 -0.600406 0.383552 0.292799 0.601051 0.400061 0.143104 0.119109 -0.607524 -0.524062 -0.128929 -0.172537 0.359835 0.000492002 -0.783471 -0.0363289 -0.027684 0.0449518 1.02145 -0.373041 0.271968 -0.442491 1.36492 -0.199335 -0.0315826 0.268929 -0.0059292 -0.997342 -0.206339 0.845613 -0.134477 0.499075 0.519856 -0.838567 0.444646 0.34768 -0.6026 0.00191581 0.138517 -0.302365 -0.624224 -0.833337 -0.269756 -0.282204 -0.370902 0.733286 -0.238163 0.209549 1.16775 -0.0828949 0.681543 0.455006 0.659012 -0.3645 0.343596 -0.0271862 0.541903 -0.993758 -1.13679 -1.08781 -0.349244 -0.858272 -0.853228 0.0201883 0.523953 0.0658281 -0.452513 0.737786 0.380304 0.762599 -0.719485 -0.655656 -0.33745 -0.231338 0.561405 -0.206268 -0.268258 0.219522 0.0502576 0.690439 -0.652739 1.00782 -0.939613 0.201202 -0.635421 0.733371 -0.389268 -0.140344 -1.0108 0.532718 0.694278 0.908018 0.471955 0.0755819 0.494197 -0.0514345 -0.370524 0.175696 -0.0842456 -0.317873 0.612888 1.0145 -0.681283 -0.629363 0.279265 1.73383 1.28336 -0.994647 0.468896 -0.925202 0.178701 0.0983283 -0.684671 -1.09355 -0.261053 0.528635 -0.610465 0.532834 -0.827904 -0.0280705 -0.967094 -0.30913 0.180302 0.833139 0.440356 0.365685 0.343291 -0.0633216 0.555167 -0.4765 -0.681211 0.70736 1.23892 -0.107147 -0.463406 -1.30973 -1.30012 -1.15214 -1.34082 -0.831473 0.504808 0.0498783 -1.08742 -0.674873 0.956256 -0.0850706 -0.320753 0.840271 0.311683 -1.37662 -0.695342 0.543275 0.0490138 -0.270565 0.314091 0.486953 0.116211 0.372237 0.299889 0.0702813 -0.410866 -0.132634 -0.144954 -1.453 -1.3067 -0.614446 -0.816102 -0.885065 0.240561 0.208108 -0.674427 -0.018897 0.276405 -0.682279 0.985068 0.830381 0.283472 -0.376785 -0.251764 -0.561552 0.669429 0.714063 0.196901 0.1564 0.198671 -0.0116071 0.387954 -1.00533 -0.225663 0.107699 -1.87273 -2.23051 -1.64943 0.106449 0.0760374 -0.497069 0.990929 -0.421372 -0.383326 -0.553586 -0.538341 0.04838 0.473978 0.315718 0.320943 -0.400915 -0.522596 0.0977185 0.89151 1.03187 -0.329906 0.181056 -0.0912432 0.877296 0.800474 0.125325 -0.125953 -1.3722 -2.56309 -2.12948 -1.10679 -0.141075 0.447866 -0.509559 0.334406 -0.709792 0.282765 0.504595 0.134482 -0.399852 -0.432242 -0.549588 0.492963 -0.984842 -0.163006 0.614621 0.491018 -0.105122 0.196185 -0.139551 0.605115 0.10754 -0.294549 -0.390747 -0.00508012 -1.99956 -2.39281 -2.75892 -0.658668 -0.8956 0.353741 0.814842 0.408597 -0.655251 0.84882 0.326585 0.328839 0.524829 -0.550364 0.756788 -0.759968 -0.47176 -0.248234 -0.164759 0.973179 0.908533 0.239911 0.306141 -0.473568 1.21264 0.352465 0.659204 0.0563173 -1.49712 -1.73491 -1.99139 -1.83101 -0.328649 0.889266 0.819389 -0.273944 -0.294212 0.551234 -0.70582 -0.715531 0.292591 -0.0147977 -0.587643 -0.162552 0.0244915 0.825415 0.30445 0.362722 0.36784 -0.354757 1.43193 0.0713966 0.67256 0.159936 0.166826 -2.11928 -0.838291 -2.28961 -1.24213 -1.65727 -0.74984 -0.254665 0.687078 0.751705 0.906067 -0.507056 -0.465928 -0.363472 0.420862 -0.726408 0.627166 0.603724 0.733935 0.629642 -0.691428 -0.483866 -0.450388 -0.131773 -0.38676 -0.264939 0.0719319 0.34144 -0.853398 -0.487625 -2.17687 -2.75903 -1.85189 -0.722927 0.101533 1.10842 1.22996 -0.320632 0.923901 -0.63599 -0.0727047 0.70073 -0.506393 0.61094 -0.937814 -0.292137 -0.628777 -0.905385 -0.840589 -0.171584 0.199667 0.807402 0.115745 1.21788 -0.345326 0.0348578 -0.0668222 -1.70861 -1.76149 -2.58126 -2.02746 -1.83216 -1.447 -0.497143 0.906113 -0.0612794 0.88496 -0.197164 -0.212874 0.428177 0.965671 -0.694046 0.213219 -0.813419 0.159902 0.689261 -0.401506 -1.24536 0.291322 -0.481959 0.486998 -0.199048 -0.150656 -0.237135 -1.14242 -1.85069 -1.14551 -0.699683 -0.796715 -1.45675 -0.283132 -1.279 0.639798 -0.647983 0.781015 0.674546 0.382273 -0.511274 -0.276813 0.48842 -0.556555 -0.623319 -0.409442 -0.365068 0.793845 -0.270604 0.078765 -0.416893 0.161664 -0.47711 -0.37631 -0.51838 0.231663 0.470204 -0.701957 -0.382923 -0.113986 0.478356 -0.322094 0.346713 -0.338433 0.861924 0.982176 -0.0504 0.533782 0.264971 -0.392724 -0.332074 0.287673 0.651585 0.441165 0.785634 0.938721 -0.54551 -0.375366 -0.477772 -0.418704 -0.395274 0.657823 0.602748 0.166215 -0.925837 -0.168547 0.513046 -0.674395 0.133511 -0.99883 -0.6384 -0.145465 -0.721184 0.682212 0.2352 0.843901 0.465184 -0.797893 -0.569317 0.292262 0.883882 -0.816991 0.216551 -0.1686 -0.526858 -0.705232 -0.54943 0.305193 0.191673 0.239499 -0.183084 0.228054 0.1449 -0.0930039 -0.0756835 0.377108 -0.267085 -0.721729 0.892421 -0.132194 -0.948282 -0.663011 -0.363084 -0.539154 0.863732 0.0359578 
0.684707 0.17876 -0.430868 -0.260824 -0.350643 0.786741 -0.593376 0.512825 0.0799943 0.0800477 0.0257726 -0.37681 -0.262971 0.810099 0.597983 0.263667 0.861741 0.348306 0.155099 0.0799916 0.903582 -0.321661 -0.386845 -0.326049 -0.140532 0.566731 -0.129242 0.184427 -0.616 0.347665 -0.312433 0.387772 -0.443854 -0.727358 0.188666 -0.510989 0.114413 -0.0333957 0.036356 0.324784 0.629743 0.507059 0.507861 -0.043716 0.337394 -0.53634 -0.542344 0.0591005 -0.97932 -0.279813 -0.392069 0.764702 -0.804411 -0.0929242 -0.0341681 -0.785474 -0.104763 0.471267 0.430087 0.48257 0.335399 -0.714794 -0.639226 0.600125 0.848 -0.0240865 -0.877465 0.883037 0.542011 0.352622 -1.07556 -0.680688 -1.38832 -1.29709 -0.752755 -0.16493 0.197562 -0.324124 -0.155653 0.565061 -0.887551 0.286001 -0.42778 -0.968149 -0.347685 -0.509246 0.766381 -0.640551 0.296659 -0.240854 -0.188199 0.963362 0.155204 0.625214 -0.266642 0.188003 -0.384787 -0.786518 0.211974 -1.62316 -1.21695 -1.21454 -0.97476 -0.0184107 -0.572861 -1.29265 -0.543149 0.397389 0.683292 -0.716952 0.616321 -0.947048 0.372431 -0.908583 0.805357 -0.589841 -0.238999 0.323808 -0.284935 1.02732 0.170043 0.331786 -0.386237 -0.555524 -1.33066 -0.083681 -1.62002 -2.08938 -0.522826 -0.029761 -1.43329 0.491968 -0.881278 0.344276 0.536928 0.106674 0.374221 -0.782831 0.804795 -0.538563 -0.897248 -0.365583 0.950727 1.19155 0.180684 0.715176 -0.425707 -0.276682 0.00524518 0.471306 0.582036 0.358432 -1.31993 -0.716245 -1.18275 -1.57374 -1.10263 0.188122 -0.587985 -1.01039 -1.2092 -0.335594 -1.36595 0.698812 -0.782488 -0.463631 0.0404098 -0.642514 0.016545 0.538395 -0.129577 0.370734 1.33669 0.338377 0.520021 -0.336332 0.315631 0.284253 0.622002 0.0543181 -0.0622608 0.376898 -0.124395 0.265789 -0.857986 -0.334149 -0.396829 -0.692139 -0.96412 -1.0984 0.180401 -0.613183 0.297291 0.749015 0.357835 -0.80707 0.432429 0.28434 1.01384 0.991729 0.334102 0.979035 0.0790955 0.965519 -0.373644 1.12347 -0.396133 -0.862201 0.416492 0.479473 -0.429528 -0.0266397 0.456325 -1.44703 -1.15764 -1.14145 -0.635086 -0.235965 -0.575545 -1.32834 -0.584448 -0.774309 0.800612 0.471547 0.438086 0.408685 0.674226 0.387164 0.316707 0.156109 0.464629 -0.0622645 0.478988 0.339853 0.0545479 1.40056 1.56932 0.921956 -0.0436089 0.305916 -0.373815 -1.16772 -1.28863 -0.868027 -0.779242 -0.844729 -0.398945 0.226236 -0.771869 -0.0794376 -0.0889772 0.332078 -0.105799 0.326461 0.405349 0.82809 -0.0615301 1.23266 1.15906 0.996577 1.63799 -0.0242989 0.967897 1.42677 1.35177 0.712244 1.63102 0.780335 1.31855 -1.0271 -1.13185 -0.135754 -1.64967 -1.18723 -0.27466 -1.15485 -0.2694 -0.814917 0.228146 -0.808491 -0.923289 -0.77231 -0.907235 0.676193 0.29411 0.661156 1.17956 0.644312 0.529327 0.441172 1.64162 1.37475 1.39769 1.49721 0.555449 1.52086 0.402285 -0.134364 0.858713 -0.883823 -1.01747 -0.384201 -0.304812 -0.818458 -0.0810686 -0.20404 0.280197 0.854144 -0.97509 -0.255405 0.0557589 -0.253297 -0.447958 0.11112 -0.387122 1.03539 0.476171 -0.23316 0.219898 -0.0935067 1.48231 0.335963 0.107468 1.31593 1.51327 0.6387 0.0865646 0.551615 -0.936967 -0.283623 -1.37753 -0.366887 -0.945875 -0.0975811 -0.120509 0.370386 0.97313 -0.307039 0.464015 1.14543 1.13239 0.558392 0.927589 -0.611724 -0.535322 0.0138274 -0.546727 0.773382 0.234247 0.175481 0.164306 0.108074 1.13649 0.691767 -0.569399 0.815515 0.284898 -0.738389 0.392531 -0.0594962 0.215857 -0.907563 -0.536375 0.905391 -0.360023 0.757199 -0.484683 0.0949195 0.396502 1.26379 0.666935 0.176629 -0.0032592 1.03064 -0.869313 -0.37661 0.740034 -0.471957 -0.440918 0.767035 0.496033 -0.0523826 -0.0758192 0.2672 0.254608 0.428598 -0.623271 -0.207067 -0.828551 -0.899753 0.494325 -0.63652 -0.850133 0.644625 0.766839 -0.765175 -0.423883 0.159599 -0.331173 0.570557 -0.0714931 0.123304 0.0235683 -0.585244 0.692443 -0.951681 -0.863039 0.204678 -0.592718 -0.748463 0.221303 -0.139002 -0.374532 0.883439 -0.223683 -0.588803 0.811661 -0.315642 0.456898 -0.570931 0.25299 0.202766 0.0664026 -0.273931 0.820716 -0.0121044 0.394584 -0.589271 -0.155827 0.768598 -0.163714 0.300695 0.501428 0.491184 0.00283957 -0.117882 0.496467 0.161566 0.448639 -0.431418 0.0867698 0.317622 0.408055 0.66388 0.149804 0.171114 0.0678523 0.184287 0.0514085 0.338945 -0.615222 -1.13554 0.00770885 0.694481 -0.330261 -0.225291 0.195667 0.12261 0.629394 -0.651212 0.433366 0.0175546 0.00242467 0.344994 -0.732432 -1.64942 -0.868888 0.550931 -0.185047 0.50781 0.178889 0.285874 -0.72629 0.898142 0.710768 -0.241629 -0.266439 -0.281501 0.0798983 0.226792 -1.08632 0.5263 0.549286 1.13227 0.381407 -0.169143 0.749217 0.15059 -0.0314129 -1.25926 -0.487106 -0.879097 -0.563015 -0.9199 -0.974058 0.453787 0.0835173 -0.509386 -0.0582599 0.622234 -0.20842 -0.404539 0.388443 0.00688408 0.243776 0.837735 -0.199124 -1.23045 -0.92673 0.524225 -0.689503 -0.430672 0.682356 0.639047 1.29845 0.652173 0.473176 -0.808525 0.509304 -0.64643 -1.05696 -0.531216 0.204821 0.403878 -0.942636 -0.882114 0.509596 0.278046 -0.29167 -0.147734 -0.851563 -0.219412 -0.777603 -0.94421 0.118871 0.360844 -1.43215 0.0695399 0.931434 0.29438 -0.327378 0.391195 -0.162945 0.0399631 0.673835 -0.0856527 -0.343064 1.02358 0.00523433 -0.0683142 0.524934 -0.133828 0.0555322 0.399909 0.54002 0.0392157 1.12188 -0.491066 0.117494 -0.115702 0.193061 0.353917 -0.0901619 -0.751673 -1.27845 -0.855821 -0.894534 -0.321292 0.621542 0.351847 0.77622 0.159334 -0.179971 -0.24492 0.185176 1.13362 0.752939 -0.202252 -0.625682 0.47466 0.413113 -0.286239 0.712295 -0.68678 -0.166284 -0.820172 -0.0281213 0.449867 -0.680846 0.32824 -0.560863 -0.603112 -0.875215 -0.896067 -0.685631 -0.764624 -0.604118 -0.342815 -0.438882 0.236173 0.07176 0.915639 1.30015 1.11331 0.29243 0.837674 0.822913 0.30351 1.17893 -0.493977 0.0624754 -0.221486 -0.0374402 0.504137 0.00466176 -0.320484 0.474744 0.092205 0.496055 -0.708423 -0.477112 0.886385 -0.60186 -0.0161547 0.462209 -0.32145 0.320546 -0.654323 -0.327868 -0.243259 0.77197 0.853281 -0.27562 -0.138767 0.496757 1.23955 -0.776077 0.541903 0.449462 0.875294 0.849157 0.726375 -0.842073 -0.644941 0.728988 -0.0759532 0.532727 0.22943 -0.0034568 0.328379 -0.431206 -0.126615 -0.999011 -1.16244 -1.29335 -0.144088 -0.105701 0.664989 0.182571 1.13828 0.127294 1.13599 0.524186 0.856036 0.0933906 0.987479 0.63671 0.156312 -0.28135 0.747942 0.498251 -0.0291392 0.906413 0.288098 -0.481392 -0.781945 0.687918 -0.763027 -0.150511 0.128037 -1.54047 -1.07769 -1.52065 0.407716 0.604395 0.939662 -0.293347 -0.221498 0.0293689 0.27701 -0.351718 -0.0762863 1.22677 -0.222775 -0.681528 0.912891 1.07748 -0.740191 0.314172 -0.0113988 0.829283 0.360469 0.482658 0.536847 -0.839613 -1.02365 0.0508796 -1.46225 0.162669 0.122283 -1.3159 -1.1129 -0.0211914 0.367122 -0.556409 -0.212873 0.542401 -0.470408 0.916009 -0.172018 0.786848 -0.809226 -0.318454 0.502319 0.44169 -0.264075 0.56211 0.60153 -0.616139 0.653867 -0.975394 0.713872 -0.891892 -0.974653 -0.329556 -0.945857 -0.0907758 -0.269036 0.668273 0.123386 0.525035 -0.389214 -0.615903 0.398655 -0.205051 -0.535025 -0.21363 -0.0386368 0.0632833 -0.711519 -0.692571 0.64431 -0.614754 -0.180133 0.760592 -0.895933 0.170463 -0.556453 -0.610014 -0.265214 -0.260073 -0.591887 0.13766 0.416326 0.78491 -0.948764 -0.713495 0.806997 0.15516 -0.717193 -0.0758783 -0.161848 0.529344 -0.377649 0.429833 -0.0931254 -0.232626 -0.57337 0.0100621 -0.265593 0.950977 0.222637 0.21207 0.549683 
0.623867 -0.755562 -0.571224 -0.0850333 0.654884 -0.381489 0.197164 -0.590849 0.850509 -0.0323948 0.934443 -0.0378599 -0.254902 0.741453 0.39976 -0.393045 -0.274306 0.33311 -0.0791961 -0.817105 0.0868048 -0.284355 -0.167463 -0.176602 0.00802175 -0.605495 0.936808 -0.513999 0.262714 -0.219375 -0.560231 0.0652236 -0.102794 0.481809 -0.36451 0.0729704 -0.939041 -0.752149 -0.193369 0.140148 -0.392869 0.710099 0.0726368 0.428454 -0.165424 -0.195833 -0.825103 -0.383507 -0.627473 0.594524 0.408607 -0.461023 0.870047 0.72344 -0.586484 -0.848283 -0.165694 -0.698909 -0.625113 -0.480665 -0.0339898 0.587052 -0.415226 -0.479756 -1.06295 -0.874205 -0.278845 0.261253 0.414765 -0.398032 0.634689 0.938007 -0.430181 -0.853272 -0.774722 0.349053 1.00653 0.592638 0.744493 0.712596 -0.315587 -0.794189 0.10273 0.633092 -0.141437 0.445018 -0.829561 -0.0786199 -0.396233 -0.752422 0.930254 -0.404884 0.138824 0.84819 -0.0761636 -0.597328 0.576856 0.406647 -0.401841 -0.601773 0.105909 -0.493507 0.441628 0.574224 0.570655 -0.846349 0.460346 -0.721319 0.670452 -0.917531 0.555184 0.164165 0.185974 -0.431275 0.673536 -0.434012 -0.645072 0.922469 -0.491406 0.918246 0.562 0.417111 -0.874255 0.294283 0.0368168 -0.147715 -0.149734 -0.728536 0.492322 1.22752 0.512545 -0.156694 0.624231 0.432847 0.571533 -0.746614 -0.9992 0.803333 0.118735 0.456199 0.138978 0.23135 0.279113 0.821736 0.121283 0.206271 0.716739 0.0392023 0.457767 0.0520181 -0.0379402 0.986997 -0.859772 0.604749 0.537543 0.874482 0.75126 1.02425 1.48144 0.363497 -0.233967 1.19626 -0.534497 -0.248838 0.317761 0.53026 -0.747272 -0.753463 0.945653 -0.937756 0.459798 0.183982 0.77095 -1.09241 -0.607056 0.769624 -0.709342 -0.90475 -0.277079 1.26429 0.0790731 -0.198648 -0.556029 -0.666875 -0.680981 0.355009 1.24908 1.04618 0.184458 0.978601 0.704959 -0.229002 -0.557349 -0.0778319 -0.569197 0.382286 0.533689 -0.645825 -0.572095 0.625643 0.508155 -0.21625 0.677943 0.302485 0.0827619 0.235463 1.15985 -0.328282 0.667627 0.979298 0.0319198 -0.16569 0.418161 0.17659 1.26494 1.01135 1.2924 0.58464 -0.21227 -0.190968 -0.192159 -0.451243 -0.0747693 -0.742764 0.151557 0.0238435 0.0221186 0.569521 -0.879398 -0.646471 0.805186 -0.417126 -0.373168 -0.764726 -0.318338 0.571306 -0.469934 0.296109 -0.771098 0.819346 -0.372256 1.24372 -0.235213 0.259027 -0.184468 -0.0538129 -1.05072 0.201768 -0.246115 0.670848 0.377378 0.78857 -0.384452 -0.96102 0.447294 -1.17309 0.630858 0.271802 0.381564 -0.859681 -0.907031 -0.524005 0.332751 0.566105 -0.343615 0.694871 -0.903537 -0.721654 -0.24151 0.768122 1.12599 0.170151 0.258474 -0.0577921 0.153527 -0.849771 0.0462163 -0.101686 -0.192583 -0.906168 0.521069 0.467345 -0.0272502 -0.268433 -0.4565 1.23616 -0.256137 0.978483 1.08404 -0.113907 -0.280437 0.386175 -0.859556 0.169662 -0.690359 -0.619016 -0.803911 -0.676695 0.891157 0.00962811 0.137894 1.08889 0.997794 -0.116472 0.030649 -0.523035 -0.984061 -0.604619 -0.517276 -0.836927 0.478415 0.245422 -0.185592 1.10171 0.825256 0.0880613 0.222076 0.277959 -0.230549 0.293764 -0.797217 0.460075 0.608712 -0.165367 0.028238 0.859161 0.817641 1.45513 0.43939 0.175118 -0.0789501 0.0416314 0.391053 -1.04365 0.124835 0.0425206 -0.261685 -0.718804 -0.933416 0.287947 0.0457659 0.0677178 1.3531 -0.33321 -0.16945 0.144321 -0.268929 -0.326697 -0.759359 -0.500843 -0.428747 0.461256 -0.549487 -0.241782 0.874467 1.75037 -0.292938 0.340367 0.477739 0.852032 -0.498334 -0.6502 0.830872 0.687115 -0.383899 -0.206273 -1.00502 -1.06073 1.19446 0.00855575 0.647616 -0.473648 0.551822 -0.179468 0.769387 0.996437 0.617332 -0.104288 -0.859785 0.347872 1.00341 0.859951 1.62053 -0.345848 0.753489 -0.182938 -0.330671 1.19263 0.418222 -0.36432 -0.549225 0.045227 0.408745 -0.915443 0.0357235 0.083772 0.253555 -0.28782 0.188877 0.356988 -0.740357 -0.632219 0.214985 -0.250074 -0.415774 0.707553 -0.71316 -0.615424 -0.0894168 1.3202 0.147459 1.48824 0.532279 1.22675 -0.537361 0.37675 -0.655198 -0.751435 0.107983 0.24077 0.787423 -0.280592 -0.291633 -0.911099 -0.221756 -0.0964882 0.906253 1.06294 -0.205495 0.622457 0.165062 0.313488 0.35851 -0.394124 0.36871 -0.287867 -0.209818 -0.395794 1.01804 0.288407 0.666797 0.403448 0.786989 0.977051 -0.00878214 0.659077 0.522214 0.20362 -0.109062 -0.604816 0.301928 0.60131 0.792559 0.885798 0.202806 0.0164105 0.474251 0.607874 -0.282756 -0.0359205 0.150891 -1.11645 0.271626 -0.700412 1.2013 1.05135 0.529443 -0.0333702 -0.473626 0.435327 0.301205 0.48325 -0.109124 0.371046 0.0487311 0.947527 0.664335 0.893727 -0.445042 -0.0682892 0.366407 0.416819 0.961171 -0.0227073 0.0330642 -0.587494 -0.0785999 0.501995 -0.885143 -0.204027 -0.88532 -0.943224 0.336924 -0.0495272 0.350392 -0.361765 0.948158 0.0124696 -0.324179 0.597488 -0.490697 0.154507 -0.0362018 -0.901688 0.0904991 0.426554 -0.938271 -0.276913 0.236118 -0.633546 -0.642159 -0.876428 -0.403042 0.155041 -0.315879 -0.488087 -0.677621 0.47988 -0.0859845 -0.57365 0.823948 1.49256 -0.0343329 -0.32622 0.474268 -0.00195507 0.993207 1.20979 0.660418 -0.168408 0.0958731 -0.47948 -0.552558 -0.212391 0.0295277 -0.185145 -0.284987 0.873163 0.206759 0.461283 0.328664 0.29913 0.913851 -0.0225237 -0.652802 -0.0162516 0.574555 0.760846 -0.468258 1.01192 0.454472 1.01805 1.06975 0.613953 1.05963 -0.213765 0.872446 -0.126321 0.924825 -0.83489 -0.26692 -0.816002 -0.120154 -0.70369 -0.0147018 0.290022 -1.17243 -0.218785 -0.853882 -0.590609 0.539817 0.692561 -0.940392 -0.405894 -0.271541 -0.800494 1.09149 -0.181999 -0.206347 0.0499887 1.02194 0.488489 -0.135818 0.154759 1.13409 0.739589 -0.4749 0.818518 -0.636902 0.360763 -0.670961 -1.37152 -0.915994 -0.875684 -0.474316 -0.147098 -1.19105 -0.517832 0.140408 -0.532064 -0.746011 0.252314 -0.412339 1.13955 0.745367 0.851057 1.19775 1.20714 -0.176801 0.782024 1.07502 0.499985 0.411691 0.0695413 -0.668154 0.639144 -0.758663 -0.703618 1.44807e-06 -0.326285 -0.0518814 0.230969 0.035153 -1.09906 0.634403 -0.907791 -1.29284 0.682439 0.912598 0.597392 1.22078 0.217038 -0.367297 0.372151 -0.519653 0.509276 -0.607058 0.533991 0.777551 0.4726 0.387984 0.72933 -0.444209 -0.0915797 0.537253 0.146005 0.584527 -1.29112 0.238473 -1.02012 -1.20849 0.0732773 0.542661 0.423429 0.0932427 0.101477 1.13705 -0.68274 -0.191089 1.16074 0.201053 0.239041 0.986721 1.06267 0.187861 0.775034 -0.0221302 0.252225 0.634514 1.03922 0.853654 0.971412 -0.380548 0.1545 -0.730478 -0.506352 0.844593 -0.446144 -1.11005 -1.35224 -1.32948 -0.389493 -0.74615 0.488998 1.0239 0.494169 0.562034 -0.654992 0.180974 -0.986083 -0.79773 -0.0977282 0.852159 -0.314523 -0.717262 -0.576867 -0.355099 0.091866 0.33662 -0.607704 0.604455 0.337817 0.132872 -0.841744 0.0502736 -0.185572 -1.16619 0.429853 -0.52471 -0.11986 0.66341 -1.00261 -0.910157 0.980811 -0.333315 -0.610888 -0.866717 0.161005 0.868142 0.064517 -0.495712 0.279213 0.565549 -0.0582113 0.757363 -0.17601 0.844351 0.0775939 0.50367 0.753611 -0.948358 -0.838631 -0.957788 0.169424 0.0177676 0.42421 0.595788 0.260355 -0.944764 0.00630344 -0.811542 0.852817 -0.896917 0.81332 -0.661589 -0.618238 -0.950559 0.545829 -0.634732 -0.594723 0.632303 0.0279241 -0.893698 0.900226 -0.516989 0.662253 -0.265397 0.668519 -0.0388989 0.446286 -0.239243 -0.534155 -0.980583 -0.400593 0.0182482 -0.358754 0.442044 -0.566025 0.711485 -0.17571 -0.0269371 -0.497297 -0.888251 0.650447 -0.212974 -0.468499 -0.566078 -0.562999 -0.267062 0.656823 0.229166 -0.07837 0.0247397 -0.817079 
-0.586602 -0.0204717 0.950602 -0.244355 0.572179 0.73336 -0.611057 -0.373575 -0.0363052 -0.253457 0.675254 0.63622 0.387841 -0.334364 0.1206 -0.718145 -0.654942 -0.806722 0.925248 0.760206 0.704302 0.90292 -0.915435 0.929068 -0.953369 0.784432 -0.444059 -0.515736 -0.876675 -0.0998337 0.206212 0.207502 0.116623 0.471682 0.506027 0.828962 -0.238541 0.347331 0.480109 0.911606 -0.364802 0.14464 0.314601 -0.679913 0.752458 0.364456 -0.784254 0.566698 0.623825 -0.942502 0.882336 -0.800788 0.864955 0.191723 0.2814 0.518871 -0.713133 -0.585648 0.617299 0.758902 -0.111372 -0.683274 0.697693 -0.587618 -0.653353 -0.331867 -0.73055 0.402712 0.158181 -0.458965 -0.658419 -0.335206 0.914822 1.19701 0.166798 1.26071 0.38243 -0.257217 0.439276 -0.783677 0.399272 -0.650941 0.235121 0.395033 -0.418595 -0.10253 -0.359971 -0.320441 -0.559037 0.338682 -0.854116 0.281625 0.412801 -1.02161 -0.200144 -1.05471 -0.775313 1.16667 1.03289 1.10059 1.00474 1.63538 1.04391 0.284712 0.886367 0.677062 0.609845 -0.83461 0.277191 -0.145989 0.909758 0.187615 -0.7936 0.438503 -0.211474 0.947615 0.831817 0.586805 -0.120506 -0.131989 -0.946736 -0.164437 -0.0961802 -0.631461 0.633683 0.516756 1.69718 1.95703 0.906149 1.76777 -0.162117 1.46813 -0.07736 0.0131033 1.22651 -0.630715 0.36728 0.440794 -0.823277 -0.369696 -0.0987975 0.855587 1.07547 -0.0153406 0.406591 0.77773 -0.833336 -0.529861 0.617194 -0.704967 -0.469052 -0.570455 -0.937992 -0.0389398 1.40698 2.48307 1.10624 0.116596 0.677406 1.03053 0.674326 0.474941 -0.197813 1.21411 0.952649 0.272551 0.713337 0.325262 0.46622 -0.839324 0.195507 0.587292 -0.49541 0.53596 -0.786682 0.582246 -0.174445 -0.44004 -1.13768 -0.837268 0.373621 0.363839 0.535633 1.99697 1.59463 1.19025 -0.687728 0.899238 0.524348 -0.799343 1.16944 -0.0620415 -0.241982 -0.365536 0.618629 0.963953 0.0225666 0.834179 -0.262145 -0.0453695 0.151873 0.908426 -0.362022 -0.280736 -1.01687 -1.38324 -1.22228 -1.54197 0.725136 0.761743 2.08215 0.928686 1.94396 1.14471 0.370965 0.176461 0.353127 0.218745 0.0215316 -0.446534 -0.788068 -0.590458 -0.18176 0.776833 -0.670091 0.648707 -0.609564 1.18895 0.617653 0.553586 0.435904 -0.373095 0.406015 -0.945322 -0.23637 -1.46856 0.0378864 -0.467921 1.75033 1.76642 0.378875 1.84814 1.10164 0.210534 -0.586301 0.687667 0.742588 0.940124 0.137319 0.151539 0.881815 -0.386508 0.142565 0.283945 0.71263 -0.226986 0.0577956 -0.277934 -0.362269 -0.184664 -0.255059 -0.181601 -0.446626 -1.17954 0.335068 0.174493 0.780599 1.35937 2.02299 1.77879 0.583213 0.256798 -0.319853 -0.377116 0.398675 -0.567062 0.342943 -0.191214 -0.35733 -0.889028 -0.128894 -0.813812 -0.543277 0.81579 -0.256024 1.44212 -0.128638 1.00876 0.680041 -0.293194 0.27812 -1.41397 0.0521812 0.355644 0.661926 0.0597328 1.61388 2.08596 2.13164 1.36326 0.330246 0.45236 0.631058 1.46546 1.57713 1.25635 0.214686 0.727606 -0.846627 0.598439 -0.117543 0.656851 0.317111 0.385477 0.440476 -0.641122 -0.742519 -0.978331 -0.0879795 -0.511655 -0.937553 -1.28839 -0.720293 0.519196 0.885744 1.73814 1.17885 0.311546 0.509596 0.557085 0.455353 -0.124694 0.807753 -0.38624 0.926078 0.576088 0.092551 -0.07639 -0.114536 -1.02437 -0.699786 0.130787 -1.17475 0.0368392 -1.37172 -0.0629492 -0.312523 -1.10759 -0.141888 -0.551385 1.01202 0.0194906 -0.0805058 1.79017 0.486652 1.39164 1.53479 0.1169 1.08856 1.53739 0.943655 0.592996 0.0580349 0.221809 0.829486 -1.05916 0.0997057 0.366516 -0.311295 -0.71759 -1.00118 0.364608 -0.574498 -1.88132 -1.30438 -1.23827 -0.312257 0.537234 -1.05992 0.301855 0.703933 -0.0650089 1.16782 0.907756 -0.15366 0.0600957 -0.357053 0.952417 1.09229 1.17285 -0.472195 0.780793 -0.291789 0.0414471 -0.0310527 -0.811974 -0.68375 0.561621 -0.0527427 -0.140456 0.266072 -1.02271 -0.119442 -1.33225 -0.421557 -0.897132 -0.481298 -0.323369 -0.835002 -1.00677 -0.260899 -0.423038 -0.429507 -0.927758 0.451698 -0.987661 -0.629838 1.0597 0.50756 0.521348 0.500006 -0.0382968 -0.44602 -0.93756 -0.212501 0.470487 0.895824 -0.821775 0.720453 -1.58135 0.0785435 -0.349343 -0.322066 0.547438 -0.370372 -0.504715 -0.0262135 -1.1816 -1.01532 -0.33599 -0.231748 -1.05131 0.021237 -0.720658 0.249198 -0.583443 -0.40123 -0.849097 0.82628 -0.89551 0.625787 0.304757 0.313963 0.70488 -0.156867 -0.153376 0.207804 -0.727313 -0.286146 -1.32442 -0.609245 -0.810304 -0.0920293 -0.625904 -0.859597 -0.873593 0.598271 0.383665 0.598553 -0.215687 -0.616051 0.157143 1.129 0.536565 -0.344461 0.161692 -0.863496 0.232111 -0.760185 0.84812 0.296477 -0.866322 0.300147 0.439253 -0.310307 -0.043353 -0.398157 -0.151136 0.706012 -0.301428 0.791229 -1.00191 -0.331932 0.0118814 -0.929525 -0.3706 -0.700247 -1.2792 0.0418275 0.195286 -0.603917 -0.602803 0.273136 -0.0774325 0.82229 1.01974 -0.55654 -0.133519 -0.971754 0.00786876 -0.0393143 0.336293 0.458025 -0.535254 -0.0683329 1.74001 0.925916 0.235903 -0.741385 0.460365 -1.10907 -0.398648 0.134647 -1.11578 -0.973661 0.269232 -0.0543616 -0.837495 0.425646 0.326498 0.966932 0.958932 -0.511066 0.394405 -1.0229 -1.0433 -0.182408 -0.170223 -0.476605 -0.430983 0.173576 -0.636509 -0.437134 0.89585 0.0537285 1.54817 -1.01237 0.212736 -0.440082 -0.125599 0.890037 0.763136 0.778727 -0.180011 0.212402 -0.974527 0.360553 1.03285 -0.290395 -0.269201 -0.510981 0.947717 0.549768 0.653316 -0.69763 0.0564362 -0.382693 0.281489 -0.865724 -0.0813259 -0.457702 1.02426 -0.18125 1.13656 0.560224 -0.10244 -0.133319 -0.244983 0.851509 -0.24921 -0.821121 -0.631966 -0.51748 0.123061 0.617103 -0.694935 0.299948 0.881519 -0.129271 0.915847 -0.443684 0.0560994 -0.442824 -0.406401 -0.177912 -0.121236 0.387653 0.623563 0.671873 0.835806 0.742143 0.0576474 -0.476214 -0.144049 -0.179718 -0.481083 0.0469859 0.559933 -0.133393 -0.502687 0.347704 -0.296855 0.8371 -0.145697 -0.0145801 -0.790097 0.427524 0.754803 -0.625907 0.656243 -0.222893 -0.166481 -0.7031 -0.931761 -0.815561 -0.51509 0.01202 -0.150808 -0.0875412 -0.00361202 0.869582 -0.837056 0.825033 0.398797 1.11241 0.765776 1.14867 -0.193688 0.378016 0.494729 -0.753835 -0.192279 0.46287 0.430015 -0.419052 -0.727685 -0.678899 0.0629103 -0.00684324 -0.389513 -0.0495104 -1.03961 0.555061 -0.728873 -0.145913 -0.352854 -0.534556 1.07355 0.0366295 0.62181 -0.304831 0.739139 0.112732 -0.173381 -0.855246 0.413297 0.239053 -0.538005 -0.819965 0.642704 -0.506085 -0.173782 0.490869 -0.126773 0.55786 0.26993 -0.602059 0.609803 0.850469 -0.886697 -0.638155 0.0806514 -0.860765 0.331674 -0.947797 0.540651 -0.738291 0.135981 -0.624088 0.0847542 -0.0208618 -0.401465 -0.494083 -0.362182 0.545875 0.528045 -0.58859 0.317074 -0.806562 -0.939163 0.691142 -0.164114 0.926869 0.325619 -0.371849 -0.512006 -0.437833 0.326846 -0.09171 -0.745266 0.385271 -0.748193 -0.184966 0.9191 0.118158 0.0510065 0.26729 0.522128 0.0446015 -0.878297 0.15721 -0.383921 0.750376 0.641079 0.59988 0.0143311 0.348485 0.753318 0.894359 0.218187 0.834551 0.365724 0.0838709 0.468268 0.566985 0.411871 -0.480933 -0.289477 0.525817 -0.362858 0.283025 -0.948768 -0.146382 -0.00604875 0.754928 0.171695 -0.765937 -0.765816 -1.00268 -0.457105 -0.243685 -0.8818 0.218936 -0.608277 0.903501 0.0524899 0.925054 0.069972 0.247998 -0.102278 -0.13071 0.87205 0.00765956 0.257385 -0.518504 0.959327 0.111716 0.740981 0.190287 -0.48186 -0.945898 -0.952003 0.789737 0.861047 0.849758 0.298393 -0.17973 -0.535181 0.932778 0.674722 -0.64865 0.162882 0.259903 -0.725891 
-0.388837 0.966515 0.258973 -0.161491 -0.182697 0.124976 0.807944 0.606412 -0.491312 -0.670501 0.341109 0.592201 0.652725 -0.760725 0.664236 -0.219839 0.186508 -0.551607 0.652049 0.561681 0.419687 -0.883972 0.295728 0.400143 0.0617749 -0.718819 -0.425573 -0.192361 -0.67903 0.289298 0.635883 -0.772971 -0.307559 -0.813261 -0.913744 0.279589 -0.0828676 -0.862528 0.594529 -0.764593 0.0884366 0.84296 0.441467 -0.534253 0.192344 0.157131 0.347139 -0.695728 0.516341 -0.00946812 0.633773 0.363767 -0.394154 0.808729 0.508466 0.0903991 0.0122215 -0.93814 0.914278 -0.587615 -0.100308 -0.438495 -0.793033 -0.284694 -0.0491705 -0.389954 0.235606 0.274791 0.877347 0.083177 -0.263059 -0.0361914 -0.20655 -0.367489 1.08953 -0.641422 -0.157665 0.171817 -0.534187 -0.156452 -0.171673 0.297867 0.910301 -0.83833 0.00383324 0.623221 0.0327923 -0.590926 0.150545 -0.54853 -0.580827 -0.128369 -0.27423 0.565924 0.287645 0.654189 -0.332168 0.0813276 0.557733 -0.771829 -0.427834 -0.381145 -0.00365406 -0.169937 -0.878667 0.825964 -0.699521 -0.184718 0.596147 -0.0913477 0.269695 -0.574089 -0.343983 0.793004 0.890155 -0.664766 1.01414 0.579237 0.909766 -0.336301 -0.264648 0.814527 0.759055 0.808917 0.905095 -0.390735 -0.72293 0.934881 -0.565298 0.204084 0.615398 0.891644 0.0267611 0.720783 -0.573558 0.114974 -0.950786 0.711026 0.858648 -0.0891627 0.197029 -0.557293 0.362817 -0.0171017 0.171403 -0.706424 0.791196 -0.0463057 -0.284613 0.566426 -0.504748 -0.441542 0.280401 -0.0394077 0.368008 -0.22194 0.517374 0.502725 0.0475837 -0.0572522 -0.21615 -0.970346 -0.206966 0.3232 -0.177363 -0.194838 0.139985 -0.362614 -0.281864 0.914258 -0.848489 -0.991438 -0.580889 -0.309166 0.133768 -0.154053 -0.750842 0.325643 -0.248026 0.67995 -0.72358 0.64524 0.103269 -0.426812 0.114221 -0.886513 0.884073 -0.761269 0.456346 -0.435563 0.114079 0.269348 -0.332104 0.810327 0.0792382 -0.546967 0.96858 0.0314633 -0.600583 -0.48695 0.0661397 -0.725079 0.0984118 0.654417 0.669561 0.0399082 0.957519 0.684474 -0.337961 0.668558 -0.523586 0.18385 -0.456868 -0.439888 0.614041 -0.459817 -0.658383 -0.623722 1.19046 0.221143 -0.882201 0.762557 0.86437 0.724643 0.0347472 0.500431 0.510598 0.588479 0.0140396 0.117764 0.442083 0.344062 0.0885044 0.392234 -0.0367595 0.378696 -0.793796 -0.184405 -1.42247 -0.0478449 -0.209638 -0.509323 -0.0489013 -0.143149 0.638971 -0.168143 -0.779908 0.0906362 0.517986 -0.818567 0.362336 0.728929 -0.633848 -0.987522 0.639653 -0.438039 0.297218 0.450207 0.144587 -0.655448 0.428476 0.913761 -0.394327 -0.260914 0.7484 -0.558451 -1.13684 0.667584 -0.651641 -0.679567 0.188278 0.804067 -0.645115 -0.303686 0.0567322 0.991869 -0.389167 -0.669225 0.143744 0.0379397 0.808946 0.436437 -0.286129 0.613022 0.0857846 0.605232 0.778845 -0.913067 0.545347 -0.379043 -0.0560575 0.777721 -0.67152 0.300883 0.109813 -0.0353431 0.307445 0.69601 1.08869 0.739625 -0.144191 0.598426 1.09407 -0.828175 -0.2918 -0.631703 -1.03797 -0.462387 0.740861 0.471491 -0.488513 0.0718087 -1.06786 0.233531 -0.273861 -0.654079 0.0791715 0.0678786 0.808908 0.828402 0.882686 -0.333186 1.13651 0.316626 0.935204 0.688047 -0.0984928 0.163308 1.31124 0.559606 0.890568 -0.0462227 0.345532 0.302116 -0.941597 -0.506012 0.556086 -0.50126 0.0183674 -0.722254 0.499121 0.31903 -0.422081 0.208738 0.542776 0.442509 1.10102 0.0424271 -0.139809 -0.0922356 1.23903 -0.415304 1.05302 1.53344 1.14084 1.76009 0.514801 1.01857 -0.153959 -0.118457 -0.147833 0.188919 -0.851347 0.784174 -0.99487 -0.194537 -0.155619 0.635798 -0.28074 -0.576852 -0.0269226 0.0426248 0.0900552 0.412154 0.00539068 0.173079 1.30075 0.44514 0.232402 1.09682 0.901242 0.993447 1.44641 0.972369 1.38905 -0.156727 0.0563503 0.804851 -0.234272 0.587228 -0.564636 0.135824 -0.551008 0.638608 -0.232417 0.366579 -0.580688 0.213306 0.178534 1.11254 0.442217 0.430141 1.02538 -0.350322 1.12701 0.867807 0.972509 1.04468 0.64304 1.30821 -0.168904 0.0409049 1.33864 1.04841 -0.136203 -0.0603963 -0.543809 -0.800623 -0.776321 0.410693 -0.154637 0.385326 0.537834 0.162691 -0.575536 1.17552 0.74059 0.896717 0.129367 0.586274 -0.222564 1.05854 -0.653433 1.08235 0.210525 1.39009 0.535943 1.25304 -0.436171 -0.306854 0.935653 0.632491 -0.11788 0.444799 -0.558429 -0.972551 -0.761527 -0.490041 -0.1011 0.536891 0.074567 -0.708737 -0.0915392 -0.823855 0.744724 0.0824595 0.56191 0.0496589 0.252698 -0.541179 -0.98294 0.80294 0.333272 0.616616 1.03175 0.297256 0.865394 0.0380997 0.647952 0.247142 0.113806 -0.197601 -0.190894 -0.381584 0.950819 0.99624 -0.529911 -0.000451136 0.665699 -0.323775 0.0946071 -0.378933 0.435419 -0.743302 -0.623819 -0.429991 -0.751473 -1.34635 -0.387764 -1.61212 -0.416918 0.0251595 -0.736716 -1.29054 -1.105 -0.93925 -0.615807 -0.373038 0.0319107 -0.856426 -0.574029 0.122956 0.358633 -0.705022 0.838222 0.25679 0.187867 0.419925 -1.06647 0.341769 0.661716 -0.366602 -0.494101 0.283212 0.457203 -1.57039 -0.952153 -1.67082 -1.0441 -0.825182 -0.731827 -0.169517 0.0490185 -0.0444027 -0.0523547 -0.411033 -0.850668 -1.02109 -0.113899 0.366209 0.611739 0.434999 -0.574496 0.0744919 0.876639 0.142327 -0.0118875 0.550564 0.0253359 0.0155319 0.840136 -0.644739 -0.487597 -1.73598 -1.77156 -0.678078 -1.36976 -0.271779 -0.994812 0.29141 0.978859 0.240065 -0.198062 0.639819 -0.246624 -0.195921 0.0443949 0.570433 -0.00386237 -0.473933 -0.978898 0.76204 -0.409634 0.610649 -0.0979669 -0.809961 0.274284 0.0845506 0.202912 0.602569 -0.813192 -0.509255 -0.463477 -1.18073 -0.309081 -0.751255 -0.958183 -0.237085 -1.01465 0.0354071 -0.38576 -0.0507854 0.393933 -1.0628 -0.239778 0.738419 -0.0169822 0.142437 0.855467 -0.235272 0.11129 0.607334 0.000800271 0.541476 0.121729 0.10528 -1.05361 0.439614 0.832241 -0.705361 -0.409055 -1.41162 -0.142065 -0.223225 -1.71374 -1.19993 -0.792883 -0.9487 -0.0780044 0.22754 -1.12274 -0.92408 -0.927498 0.573557 -0.119561 0.319101 0.0154165 0.406646 -0.664083 -1.2263 -0.531115 0.30321 -0.774591 0.575063 -0.802758 -0.63143 0.823123 0.534425 -0.719032 0.268008 -0.337797 -0.227977 -1.3417 0.0411667 -1.2425 -0.123557 0.571814 -0.459113 0.572027 0.66348 -0.0881923 0.260636 0.134187 0.659412 -0.848224 -0.504859 0.478469 0.519297 -0.170572 -0.242102 0.967769 -0.0418288 -0.462386 -0.522554 0.287993 0.717378 0.390546 -0.473781 -0.566269 0.171268 -0.907101 -0.573787 -1.02388 -1.09486 -0.82041 -0.508976 -0.428686 -0.417073 1.01816 0.0985917 0.066979 0.940354 -0.192373 -0.914907 0.341318 0.755247 0.00473467 0.133972 0.942056 0.377783 -0.204219 -0.322895 -0.443638 1.14296 0.118017 0.667033 -0.574292 -0.505359 -0.654465 0.464695 0.701916 -0.138153 0.063333 -0.282299 1.27363 0.260204 0.256133 0.695923 -0.736373 -0.825818 -0.110131 -0.259979 -0.275191 -0.69404 0.869314 -0.917385 1.07898 -0.091679 0.911908 0.698479 0.822047 0.0617637 0.336747 0.657365 -0.963032 -0.428901 -0.0735726 -0.063848 -0.10645 -0.90887 -0.281477 0.291515 0.965168 0.236542 0.45928 -0.549852 0.753648 -0.526724 -0.187041 0.0803611 -0.929827 -0.475183 -0.0352774 0.895649 -0.796016 -0.574517 0.709701 -0.90132 -0.609184 -0.178286 0.379464 0.0685385 -0.520309 -0.624927 0.813991 -0.243867 0.855361 -0.107527 0.37932 -0.606087 -0.291314 -0.841686 0.608614 0.834948 -0.243832 0.087137 -0.0979251 -0.761446 0.46407 0.843946 -0.646746 -0.766181 -0.632988 -0.268889 -0.094121 0.444454 -0.208955 -0.723326 0.0205257 -0.207953 -0.548142 0.807119 0.484184 -0.981231 -0.796216 -0.294579 -0.910657 -0.674069 -0.817612 -0.0213279 0.674859 0.682646 -0.7831 -0.164495 
0.418373 -0.831048 0.897246 0.116776 0.926674 0.4801 -0.297224 -0.64383 -0.418299 0.841907 0.506994 0.534903 0.10798 0.204169 -0.60496 -0.545507 -0.695709 0.481681 -0.308151 -0.331748 0.396346 -0.386025 0.957259 -0.58875 0.969278 -0.248249 0.371881 -0.0228991 0.427324 -0.425463 -0.637932 -1.00472 -0.397744 -0.520907 -0.823794 -0.550369 -0.31445 0.814279 0.219387 0.811241 -0.456606 0.202014 -0.238338 0.123908 -0.300751 -0.321884 0.280945 -0.564154 -0.663156 0.480809 0.0359715 0.544245 -0.928648 -0.1774 -0.979681 -0.555116 -0.954355 0.860021 -0.870458 0.284312 -0.0864223 -0.339763 0.528786 0.713983 -0.213195 -0.410073 0.793085 -0.701194 -0.355387 -0.0933106 0.337073 0.418679 0.559375 -0.569777 0.153469 0.0340897 0.482526 -0.906325 0.935536 -0.481052 -0.62605 -0.561723 -0.407011 0.187264 -0.999421 0.105469 -0.716801 0.641543 -0.119043 -0.453488 0.94336 0.834225 0.151222 -0.0482876 0.362076 -0.404991 0.286048 -0.705141 0.728345 0.667748 -0.258171 0.51971 0.748107 0.76943 1.03932 0.252315 -0.648213 -0.754346 -0.0112271 -0.276123 0.697745 -0.820811 -0.929341 0.0860347 -0.15373 -0.24351 0.0759372 -0.528385 0.927786 -0.589806 0.383139 -0.481725 0.923778 0.516764 0.837063 -0.134304 -0.172247 0.280857 0.826986 -0.0501945 -0.292657 0.447429 -0.694707 0.947047 -0.0727345 0.051461 -0.44535 0.939543 0.0701569 0.57044 -0.792232 0.176334 0.123939 -0.254977 0.655376 0.797838 0.370957 0.0243538 0.291461 0.284376 0.224121 0.677044 -0.640519 1.06007 0.518465 0.883231 -0.0672985 -0.218672 0.488078 -0.172367 0.504606 0.45919 -0.631676 0.690613 0.0738 -0.14407 0.553157 0.0585585 -0.222837 0.124609 0.59167 -0.22788 0.18533 -0.841118 0.466901 0.786457 -0.261043 -0.559924 0.763295 -0.656816 0.847902 0.626014 -0.363661 0.357913 -0.480846 -0.908892 0.926211 0.391379 -0.658599 -0.100813 -0.835168 -1.14624 -0.264759 0.127643 -0.914388 -0.213068 -0.0153453 -0.920339 0.802815 0.781312 -0.301397 -0.944708 -0.127751 0.91603 0.856215 0.132341 0.120973 0.93336 -0.515096 0.60178 0.648283 0.330842 0.0591867 -0.814026 0.00320139 -0.446252 0.661379 -1.06135 -0.710763 -0.461875 -0.087223 -0.826867 -0.242211 0.607299 -0.710438 -0.687843 -0.493165 0.0979334 -0.400086 0.963368 -0.85409 -0.582189 -0.368719 -0.0431334 -0.380424 -0.539427 1.2172 -0.595165 -0.569314 0.0811201 0.0171012 -0.0779416 -0.144874 -0.0388464 0.594341 -0.499131 -0.301138 -1.10195 0.28292 0.600313 -0.728498 0.00527945 0.254474 -0.0330032 0.966145 0.444112 -0.82825 -0.0415081 0.328517 -0.362052 -0.0825451 1.05958 0.569871 0.873617 0.0907988 0.330293 0.372993 -0.472064 -0.103476 -0.792787 0.270815 -1.44415 -0.440919 -1.01948 -0.548619 0.262793 0.696331 0.201135 0.187822 0.656722 -0.358269 -0.878723 -0.23447 0.24718 -0.302182 -0.116875 0.68782 1.10473 0.965014 0.310471 0.449861 0.998588 0.622012 0.644024 0.304621 -0.307806 0.824511 -0.337336 0.356738 0.301792 -0.270902 -0.710841 -0.56873 0.247242 -0.439434 0.359438 -0.968277 -0.78966 -0.147905 -0.0403658 0.609395 0.753911 1.05129 0.435695 0.165959 0.251062 0.944278 -0.490019 -0.524551 0.110041 0.634052 0.483605 0.78239 0.872403 0.358207 -0.191302 -0.674408 0.721776 -0.276026 0.266675 -0.693446 -0.595165 0.0437373 0.829677 -0.162207 -0.426682 -0.334027 -0.415837 0.308461 -0.61129 0.802589 0.096654 -0.508216 -0.582989 0.531055 1.24401 0.704614 0.791979 -0.975117 0.749939 -0.679421 0.320657 0.0326599 -0.844884 0.868972 -0.188534 0.611948 -0.00209178 -0.335466 0.533193 0.813715 0.243133 0.214098 -0.428601 0.446733 0.52773 -0.552683 0.335589 0.304988 1.02564 0.314257 0.955106 0.411708 1.01733 0.86326 0.392782 0.401148 -0.168278 -0.535967 -0.853593 -0.433215 -0.545743 -0.0464309 0.799576 0.574786 1.23645 1.12468 0.457393 0.837246 -0.359776 0.276312 0.671318 0.409373 0.269304 0.486794 0.879678 0.851895 0.764215 0.634458 1.2971 0.645748 -0.673378 0.533504 -0.113372 -0.176443 -1.327 0.334561 0.453908 -0.565006 -0.291745 0.219161 1.20513 -0.222155 1.06733 0.524372 0.43675 -0.389285 -0.654867 0.810886 -0.817624 0.10498 0.323169 0.0165248 -0.622198 -0.52558 0.119673 -0.601954 -0.248394 0.450526 -0.0839959 0.880283 -0.666221 -0.0704707 0.147339 -0.547803 1.11196 -0.0424921 0.841396 1.14716 0.699553 0.0696234 0.0829884 0.0325702 0.786536 -1.06101 -0.03822 -0.0932416 -0.169239 -0.967668 -0.743421 0.698107 -0.941057 0.0154508 0.164776 -0.68196 -1.10566 0.551703 0.40677 -0.58587 0.161031 0.470341 1.29498 0.415982 0.863956 -0.00388366 0.323187 0.0226641 -0.294058 -0.216162 0.19605 0.549871 -0.851414 0.183241 0.839006 -0.943552 -0.677484 0.508168 -0.167708 0.181176 -1.23287 -0.920497 -0.106876 -0.74258 0.380589 -0.193563 0.183162 0.124685 0.916101 0.252695 0.232006 1.38136 0.721075 1.34923 -0.124722 -0.691981 -0.0486316 -0.385677 0.364576 -0.372292 0.165353 -0.0501437 -0.741166 -0.741019 0.698715 -0.106711 -0.0599308 -0.671674 -0.70186 -1.10071 -0.683239 -0.947258 -0.802755 -0.65501 0.335724 1.21214 1.38763 1.26394 1.26095 1.11116 0.462763 0.293591 -0.549932 -0.500487 0.155672 -0.356444 -0.294988 0.295436 0.253431 -0.430432 0.190397 -0.981632 -0.295743 0.628348 0.621821 0.652772 0.456003 0.206112 -0.00945209 0.0650535 -0.0197528 1.24283 0.196308 1.10928 0.319658 1.78241 1.12829 -0.040232 0.324305 0.0562295 -0.948618 0.654863 -0.560655 0.599391 -0.150515 0.71714 0.0468383 0.564826 0.288585 -0.729822 0.868883 -0.820482 -0.0778863 -0.256855 -0.0136137 0.0660011 0.18828 -1.17872 0.00914638 0.213242 -0.518663 -0.726061 1.05891 -0.421076 0.92352 -0.12024 -1.07889 -0.095936 -0.443541 0.61829 0.125936 0.492066 0.638849 0.486851 -0.78859 0.746747 0.0979641 0.443903 -0.929929 0.448391 -0.562058 0.649696 0.168479 -0.17868 -0.957541 -0.201271 0.604965 -1.13879 -0.741786 -0.582167 -0.156512 -0.934709 0.203081 0.199907 -0.955645 -0.277178 -0.190312 -0.465811 -1.03309 0.0638591 0.014956 -0.266187 -0.463233 -0.371396 0.747346 0.958042 0.104358 0.164503 0.375018 0.749722 -0.0500824 0.0802145 0.0786463 -0.172639 -0.547528 0.166424 -0.624186 -0.828429 -1.44546 -1.44234 -1.51892 0.0409214 -1.11924 0.228618 -0.497665 0.57252 0.481686 -0.738077 -0.397819 0.580264 -0.210218 -0.0328411 -0.875464 0.644399 -0.589318 0.93707 -0.163991 0.917236 -1.06499 -0.28307 -0.615328 0.522185 0.0013642 -0.70513 -0.351999 -1.21241 -1.57069 -1.41942 -1.25669 -1.28853 0.0537267 -0.996828 -0.771796 0.721218 -0.122855 -0.381455 0.0755757 0.043131 0.627774 0.00299584 0.0130394 -0.246285 0.0343724 -0.529478 -0.1305 0.71596 0.0407367 0.0899178 1.13358 1.12018 -0.24289 0.076047 -1.1876 -0.643103 -0.675316 -1.67076 -1.74574 -0.965429 -0.711153 -0.215543 -0.0560405 0.484835 0.21444 0.342563 0.123495 0.200449 0.975649 1.00266 -0.383515 0.643719 0.722707 0.415648 0.499567 0.135855 0.585918 -0.0701777 -0.291617 1.06779 0.369772 0.711957 0.330093 -0.160848 0.320737 0.476076 -1.35952 -0.370324 -0.207269 0.637845 -1.00403 -0.568805 0.491485 -0.636683 0.0177263 -0.355138 0.61277 -0.284991 0.460488 -0.808073 0.288242 0.934164 0.875848 0.930157 -0.691414 0.431402 -0.208446 0.649086 0.954169 0.0308814 0.734916 -0.084615 0.78188 0.47674 -0.00673047 -0.463076 -0.22632 -0.175434 0.790226 0.467135 0.459066 0.381107 -0.187372 -0.536892 0.558461 0.441985 0.53554 0.428782 -0.117778 -0.336902 0.685248 0.911002 -0.422759 0.634329 -0.0491647 0.501449 0.155073 -0.048002 -0.653599 -0.733832 -0.0180176 0.417293 0.431721 -0.280984 -0.185973 -0.330567 0.450509 -0.23099 -0.326697 -0.94289 -0.903429 0.713151 -0.356899 -0.0951095 0.684232 -0.972169 0.597154 
-0.650587 0.0940919 0.457742 -0.530093 0.414364 -0.670325 0.499553 -0.12763 0.0695184 0.311881 0.325262 0.21212 0.0584408 -0.423207 0.760296 0.84662 -0.279541 0.76168 -0.539734 0.530376 0.726927 0.261908 0.633626 0.781917 0.244526 0.556571 0.967648 -0.946186 -0.665527 -0.587912 -0.16894 0.373852 0.840309 0.213488 -0.0827887 0.391045 0.415766 0.376817 0.103911 0.997943 -0.229017 -0.310536 0.813456 0.117416 0.302121 0.230984 0.589543 -0.361116 -0.0316324 -0.273819 -0.17834 -0.467159 0.127987 0.638049 0.272279 0.26283 0.157645 0.384632 0.424056 0.972181 -0.621008 -0.477155 0.471568 -0.57161 0.318871 -0.7822 -0.515535 0.505291 -1.0149 0.123744 0.70744 -0.646616 -0.343996 0.566 -0.155129 -0.0509256 1.11406 1.21246 -0.364878 0.872088 0.814707 -0.859148 -0.869866 -0.435573 0.95302 -0.843749 -0.456897 0.579458 -0.500478 -0.243801 -0.401802 1.13193 -0.554843 0.558806 0.736949 0.72577 0.775424 -0.130587 0.0545958 -0.0690348 0.858693 1.23953 0.404117 -0.316538 0.0862862 0.951183 0.50487 0.276613 -0.85804 0.255372 0.930699 0.793185 0.922106 0.733787 0.0276387 -0.804613 0.37262 0.316787 0.289736 -0.336302 0.132992 -0.364877 -0.864481 -0.309234 0.0486946 0.553175 -0.322393 -0.661827 0.428536 -0.0821163 1.14149 0.466671 0.164828 1.02283 -0.755675 0.300283 -0.721458 0.896069 0.0293134 0.270956 -0.775935 0.310774 0.354233 0.164498 1.11461 -0.494361 -0.212786 0.094286 0.416901 -0.156321 -0.756027 0.328203 -0.812588 0.417855 0.889047 -0.58756 0.595516 0.415894 0.272068 0.324942 1.05904 0.476471 0.364481 -0.321085 0.658945 0.375261 -0.323611 0.48182 -0.970707 0.944443 -0.275571 -0.429899 0.590848 -0.297769 0.705907 -0.395367 -1.23479 -0.176002 -1.10794 -1.37434 0.128294 -0.197603 0.350934 0.193023 0.0943526 0.360202 0.232804 0.750493 -0.158655 -0.509714 -0.579304 -0.354304 0.49446 -0.0562614 0.478821 -0.201865 -0.303659 -0.0338254 0.725511 0.963336 0.87512 0.869892 1.15231 0.571715 0.267392 -0.427778 -0.718645 0.0789332 -0.597679 -0.667571 0.0537239 0.382194 0.595271 0.293846 0.17054 0.392926 0.387428 0.881893 -0.682192 0.0945215 0.0150417 -0.697488 0.62467 0.133861 0.840855 -0.142788 1.0551 -0.155473 0.600177 -0.19282 0.746003 -0.348387 0.0621037 0.0700765 -0.151886 -1.73393 -2.14699 -0.185276 -1.24602 0.302017 1.3731 1.10077 0.945289 0.675318 -0.634336 -0.130507 -0.332017 0.657541 0.548573 0.0565277 -0.543247 0.674498 0.880299 0.357023 1.12125 -0.422693 0.908299 -0.586323 -0.0115268 -0.0562393 0.821649 0.185794 -0.693392 -1.67088 -1.0506 0.131126 -0.854909 0.785995 1.04212 -0.0119845 0.252457 0.0411741 0.696378 1.0601 0.55399 0.042528 0.519028 1.01468 0.0018981 -0.654049 -0.0947728 0.0722451 0.937878 1.08921 0.329782 0.354709 0.922912 -0.32492 0.46168 -0.229157 -0.502327 -1.74977 -1.71436 0.0687612 0.259441 -0.158596 0.532628 0.13768 -0.171884 -0.658198 0.62216 -0.218607 0.349518 0.333822 0.738492 0.301731 0.818452 -0.573584 0.262217 -0.753733 -0.357207 0.368463 0.78178 0.364024 -0.138778 0.00877511 -1.13443 0.617774 -0.171158 -0.808227 -1.62428 -0.671214 -0.0624893 0.265953 -0.694512 -0.280819 -0.567206 0.933722 1.34452 -0.389826 0.142515 0.445647 0.647281 -0.472168 0.139756 -0.55364 0.0661209 -0.910353 0.519311 -0.841518 0.444636 -0.259148 -0.123744 -0.119123 -0.665102 0.333263 0.15213 -0.517453 -0.916006 -1.61168 -0.324222 -1.09772 0.231796 1.16956 1.09548 0.0117736 -0.184559 -0.792066 -0.530392 0.377644 0.763881 1.03216 0.482072 -0.031581 -0.426178 0.538779 -0.568976 0.127826 -0.701944 -0.0903308 0.856492 -0.259624 0.5371 0.134593 0.16109 -0.976345 0.262928 0.145607 0.326377 -0.502169 1.14006 -0.157555 0.991224 -0.428361 -0.136828 -0.524163 0.238547 0.404387 0.773455 -0.200709 0.665425 -0.469684 0.844903 -0.653686 0.32626 -0.3585 0.370391 0.83235 -0.224428 0.42232 -0.372641 0.660832 -0.701054 -0.537845 0.0744648 0.842003 -0.609946 -0.228749 0.0882201 0.389639 -0.371416 -1.21469 -1.20079 -1.39748 0.178341 -0.284228 -0.162592 -0.201537 -0.422752 -0.155809 0.968698 0.300169 0.17157 -0.892276 -0.639097 0.0640982 -0.248559 -0.429342 0.689722 0.836884 -0.65422 0.790393 -0.468997 -0.636253 -0.521761 1.00533 0.637129 -0.00249979 0.240823 -0.743371 0.0646845 0.388971 -0.965514 0.700428 0.881941 1.21021 0.602514 -0.0210253 0.16391 -0.677196 -0.0883793 -0.334612 0.589635 0.263784 -0.184597 -0.528687 -0.799001 0.469077 0.544799 0.728951 -0.73059 -0.514804 -0.448511 0.882236 0.495702 1.10119 -0.497682 0.567583 0.366824 0.0104708 0.526886 -0.194583 0.544188 0.71252 0.480225 0.657157 -0.199963 -0.60231 0.549456 0.233649 -1.12784 0.726596 -0.939077 0.0936447 -1.37161 -0.508117 -0.600884 0.263673 1.30255 -0.0785124 0.96796 1.36969 0.132174 0.976474 0.150713 -0.841373 0.725343 0.977686 -0.104959 0.960461 0.76386 -0.0152768 -0.730491 0.0644242 -0.300994 0.0958176 -0.494754 0.297191 -0.693797 -0.55455 -0.0342175 -0.276236 -1.28681 -0.344455 -0.0447944 -0.46872 0.679197 1.32144 1.54705 0.906708 -0.0419957 -0.253398 0.28683 0.0586435 0.0118402 0.54181 -0.463005 -0.177884 0.864259 0.138763 0.734241 0.825881 0.866517 -1.04997 0.102834 -1.20266 -0.646233 -1.26363 0.390267 -1.44737 0.495477 -1.0736 -0.111475 -0.101932 1.16498 1.18642 1.23337 0.954894 1.26486 -0.136222 -0.878237 -0.435704 0.651939 -0.419337 -0.612619 0.912041 0.563495 0.749823 -0.223683 0.742841 0.845899 -0.734028 0.50656 -1.85074 -1.94905 0.142283 -0.500156 -1.62653 0.393123 0.14489 0.161749 0.697329 0.969259 0.187897 -0.248327 1.011 0.736446 1.23325 -0.409931 0.83408 1.01068 -0.386431 0.503823 -0.258366 -0.557384 -0.230789 -0.596089 -0.743759 0.924571 -0.56853 -0.880498 -1.0965 -0.951151 -1.69937 -1.6263 -1.24551 0.520475 0.373267 -0.703704 0.226649 -0.435313 0.0318499 -0.368596 0.250915 -0.3915 -0.487856 0.392049 -0.180873 -0.638898 1.23083 -0.0663534 -0.566211 -0.882345 -0.877825 -0.912282 -0.0589023 0.217078 -0.633349 -0.89154 -0.717446 0.177941 -1.4567 -1.39043 -1.14055 -1.34235 -0.707907 -0.087836 -0.453335 -0.301321 1.00859 0.366466 -0.575681 1.39437 0.471869 1.31232 1.28972 0.386716 -0.431674 0.295779 0.574648 -0.0546788 -0.145025 -0.582798 -0.972241 0.649628 0.000134994 -0.770247 -0.606841 -1.1967 -0.192582 -0.737317 -0.179312 -1.77873 -0.919864 -0.506931 0.550719 0.916347 0.250029 -0.459765 0.562676 0.618011 0.994759 -0.0810029 0.970544 0.804251 0.896124 0.351538 -1.00965 -0.164862 -0.93217 0.476435 -0.423812 0.968031 0.131704 0.903257 -1.0174 -0.750938 0.289478 -0.174223 0.106071 -0.181193 -1.23061 -1.05618 -0.739401 -0.691002 0.518893 -0.159116 -0.0298216 -0.405691 0.265325 1.5086 -0.228212 1.15614 1.21252 -0.821016 0.82579 -0.103953 0.396725 0.365871 -0.710245 0.467335 -0.35796 0.770659 -0.156009 -0.00293096 -0.32773 -0.425348 -1.23832 0.167814 0.173486 -0.266559 0.307649 -0.303261 0.99743 -0.0709585 0.321284 0.727014 0.274848 1.12241 0.456201 -0.220138 -0.310755 -0.241173 0.0160452 -0.984721 0.697523 0.142703 -0.056643 0.465969 0.536506 0.760316 -0.306381 0.486058 0.407514 0.00945218 0.0183854 0.598815 0.321601 0.129195 -0.697803 0.720586 0.126178 -0.4355 0.0112512 -0.123452 0.995035 -0.970735 0.838934 -0.446867 0.408397 0.651007 0.932026 -0.729683 -0.249759 -0.760758 -0.167931 0.15483 0.00597465 -0.915268 0.15433 -0.592119 0.250361 -0.15555 -0.99356 0.642709 0.763243 -0.629144 0.951559 0.932671 -0.770541 -0.436199 -0.893028 -0.979168 0.126184 -0.832409 0.997453 -0.241638 0.621831 -0.217627 -0.723106 0.0622689 0.802121 0.259541 0.50969 
-0.736154 -0.32293 0.580034 0.698584 0.298955 -0.329419 0.877516 0.830062 -0.0122812 0.220143 0.649325 -0.127221 -0.82112 0.66754 0.204938 -0.126248 0.0220623 -0.245117 0.0732561 0.308154 0.93986 -0.0145171 0.630825 -0.365078 -0.464884 0.227842 -0.796149 0.963742 -0.155089 0.0255509 -0.577106 0.224587 0.412364 0.310355 -0.311478 0.738897 -0.119311 -0.591115 0.461045 -0.562644 -0.0455027 -0.964777 0.238282 -0.330287 0.798781 -0.15805 -0.256411 0.36499 -1.04488 0.919032 -0.00512453 0.156762 -0.230282 0.301711 -0.969266 0.0638534 -0.959614 0.893069 0.45955 -0.0916639 0.0899729 0.0177873 -0.906836 0.146133 -0.818919 0.0489598 -0.125288 -0.423468 -0.745547 0.660457 0.852108 0.41175 -0.68619 -0.327972 -0.817455 -0.0111444 0.152641 -0.799624 0.406123 -0.235972 0.245754 -0.219265 -0.320601 0.850736 0.952322 -0.80827 0.221665 0.682038 0.90228 -0.120458 -0.871859 -0.329756 -0.883455 -0.839651 -0.46236 -0.62584 0.60864 0.358854 1.14239 1.14082 1.0471 0.752064 -0.855692 0.528663 -0.92431 -1.11252 -0.0349904 0.450272 0.114359 0.300793 0.99018 0.00110401 0.920158 -0.270042 1.04282 1.07169 -0.711191 0.481927 0.614149 0.391252 -0.175304 -0.961227 -0.663479 0.807846 0.424617 -0.104092 -0.101199 0.440247 0.98046 0.414016 0.23335 -0.764831 -0.217648 -0.397623 -0.0219892 -0.181533 0.249126 -0.70311 0.346127 -0.578113 0.419686 -0.925433 -0.234013 0.418332 -0.188405 0.277636 -0.145028 0.0260095 0.118014 -0.283353 0.28424 -0.45884 0.0900725 0.159965 0.636283 -0.0686215 1.17716 0.0607128 -0.0905862 -0.731916 0.760403 -0.848633 -0.648881 0.719066 0.696888 0.724557 0.277764 -0.125423 -0.470575 -0.0067336 0.605492 1.10476 -0.596468 0.710432 0.483686 -0.295504 -0.935965 -0.360983 1.12106 0.647731 -0.437259 -0.615909 0.701722 0.032147 0.00575512 -0.120743 -0.26229 -0.573309 -0.456649 0.512089 0.304258 -0.510878 0.423939 -0.0911866 -0.328657 0.523527 -0.852833 -0.274752 -0.551756 0.683573 -0.867078 -0.762798 -0.339886 -0.321854 -0.997852 -0.181477 0.884404 -0.176895 0.967961 0.585875 0.253848 0.789966 0.061426 0.405326 0.863486 0.982681 -0.49877 -0.767487 0.0934426 -0.452993 -1.3794 -0.362645 0.23374 0.919319 -0.3672 -0.0513187 0.10678 0.171697 -0.779172 -0.441204 0.208415 -0.530394 0.161956 -0.310544 0.426578 1.33704 1.13298 0.559316 0.303135 1.1519 -1.13129 0.27483 -0.9833 0.678738 -0.00316223 -0.514093 0.556457 -0.782268 0.0128983 -0.683784 0.739059 -0.600585 -0.34886 -0.162035 -0.442061 0.71499 0.296159 -0.204097 -1.02633 -0.145162 -1.39757 -0.716241 0.077323 0.685972 0.0415568 1.06063 -0.199804 0.317009 -0.986601 -0.0703651 0.71655 0.387737 -1.08113 0.778713 0.336773 0.0850216 -0.32762 -0.0147898 0.717449 0.484101 0.983009 -0.0832174 0.364419 0.212552 -0.625646 -1.16906 -0.827298 -1.40728 -0.592261 0.284085 -0.988952 0.715339 1.36855 1.36614 1.24881 -0.607532 0.682244 0.693124 0.752633 0.186138 0.0720652 0.842824 0.431537 -0.817052 0.270082 0.459614 0.537493 0.527004 -0.251617 0.893823 0.231817 0.115436 -0.661925 -0.399845 -0.391978 -0.201885 -0.467795 -0.047111 0.917815 0.672062 0.580411 0.693555 0.323413 0.887303 0.15625 0.73087 0.520425 0.0567841 0.677037 0.895421 -0.380234 -0.980082 -1.00812 0.0130765 -0.268688 0.836269 -0.529337 0.382815 0.314906 -1.05283 0.024852 -0.62222 -0.473434 -0.949404 -0.39055 -1.16381 0.98015 -0.295353 1.20448 -0.532984 -0.389323 0.577411 -0.476897 0.284967 -0.779831 -0.3718 0.00335209 0.227709 -0.777759 0.436997 -0.281032 0.603859 0.41385 0.96955 -0.55288 -0.151944 -0.31543 -0.883482 -1.19268 -0.719312 0.2797 -1.19111 0.472903 -1.21505 0.162547 0.787956 -0.364551 -0.11276 -0.427159 0.242346 0.264867 0.241391 1.12396 0.0912845 -0.932092 -0.04404 -0.219823 -0.760654 0.426464 0.0451861 -0.204656 -0.354538 -0.42604 -0.364138 0.336007 0.120674 0.700047 -0.705858 -0.207505 0.31464 -0.728019 -0.998825 0.399768 0.756217 -0.0159889 0.360056 0.581625 0.878492 -0.824295 0.220926 0.00500014 -0.834101 -0.927517 -0.630305 -0.389675 0.582205 -0.438897 -0.0923615 -0.968308 0.364709 0.819374 0.0521337 0.0819683 0.914086 0.428345 -0.600398 -0.332618 -0.493741 0.769456 -0.743017 0.496092 -0.78991 0.674034 0.596482 -0.625243 1.02271 0.0489673 0.256441 -1.16273 -0.0533346 -1.36735 -0.868932 -0.988184 0.77259 -0.193776 0.428244 0.195785 0.418177 0.477416 0.810683 0.0786088 -0.360831 1.02178 -0.17728 0.861856 1.34342 1.04228 -0.467491 0.581163 0.16712 -0.884512 -0.644698 0.331519 0.849773 -0.421282 -0.833153 -0.222946 -0.943421 -0.00910433 -0.853953 -0.0851774 0.67645 0.370024 0.568586 1.02492 0.9347 -0.10986 -0.831957 0.0244705 0.273853 1.249 1.0374 1.28907 1.37441 -0.400678 -0.302912 1.26756 0.599851 0.331921 1.61292 1.22177 -0.49564 -0.854487 -0.0943894 0.129455 0.56914 -0.0736078 -0.595328 -0.355016 0.843143 -0.345661 0.728285 0.483668 0.543882 0.40768 0.848572 0.560121 0.138576 -0.49136 0.55652 1.35523 0.809957 0.936237 0.638948 1.15104 1.68224 1.4202 1.12805 1.28364 -0.286363 0.0166523 -0.0862956 0.281498 -1.14788 0.86276 -0.0946123 0.696654 0.2292 -0.0769328 0.382778 0.63613 -0.015828 0.743287 -0.667956 0.280732 0.851065 -0.554473 1.22922 1.36283 0.991989 -0.0349003 0.698423 0.745926 1.23499 0.972944 -0.367182 0.0262573 -0.0407094 -0.738629 -0.840465 -1.04104 0.526964 0.0951468 0.424523 0.487378 1.30269 -0.160318 -0.851543 0.330686 0.762203 0.326339 0.223054 -0.461054 0.129084 0.639917 -0.231938 1.24051 0.724369 -0.106063 0.88188 0.543604 -0.316194 0.642155 -1.31833 -0.319745 -0.875195 0.262116 -0.960946 0.457497 -0.182236 -0.0657225 1.02221 0.128658 -0.104242 -0.314167 0.340433 -0.398912 0.206629 0.869858 0.854292 -0.87762 -0.551086 -0.525449 0.882354 1.36266 0.222718 0.00597419 0.595512 -0.801915 -0.000836105 -1.36057 -0.328151 -1.37993 -0.537429 -1.19091 -0.432558 -0.203962 -0.359692 -0.351237 0.788492 1.01184 0.875894 -0.51952 -0.40578 -0.256875 -0.301803 -0.615504 -0.84129 -0.88419 -0.23609 -0.335496 -0.420111 0.939898 -0.0855188 -0.480823 -0.814062 0.546979 -0.313946 -1.60056 -1.2946 0.222438 -0.571993 -0.539886 -1.31892 -0.379933 0.55464 0.341012 1.38437 0.199532 -0.886572 0.603981 -0.470453 0.741571 0.457371 -0.91942 -0.450834 -1.02181 0.399661 -0.221082 0.161866 1.00803 -0.740632 -0.465209 -1.13636 0.728666 -0.468244 -1.50867 0.0995603 -1.40182 -1.09679 0.0845892 -1.35551 -0.0746187 -0.303864 -0.500022 0.178821 -0.350323 0.957151 -0.445946 -0.119197 0.964979 -0.981129 -0.785722 0.099671 -0.0608911 -1.22935 -0.47474 0.193037 0.408341 -1.05298 -0.542856 -1.18525 -0.651068 0.280958 -0.380165 -0.358173 -1.44475 -0.544853 0.281121 -0.299458 0.54278 -0.967573 -0.268159 0.279899 -0.0132895 -0.459657 0.139474 -0.00298725 -0.695992 0.16664 -0.493163 0.205084 0.566769 -0.691086 -0.907772 0.54954 -0.284473 0.0370917 0.130384 -0.0274712 -0.121721 -1.13499 -0.39493 -0.184715 -0.0544438 -0.822499 0.00577627 0.547326 0.640593 -0.151503 -0.894334 0.795419 0.152595 0.746402 -0.272197 0.708477 0.378694 0.469378 -0.847684 -0.276591 0.693203 0.0985144 0.569962 0.844501 0.109717 0.516762 -0.341127 -0.609149 0.629051 0.74241 -0.999872 -0.660114 -0.32195 0.17517 -0.428584 -0.36551 -0.101614 -0.00890461 -0.887716 -0.247938 -0.0598721 0.407031 -0.625001 0.625913 -0.699186 0.779216 0.95259 0.460797 -0.593368 -0.565684 0.581506 -0.0257288 0.99526 0.00949321 -0.413615 0.830843 -0.500071 -0.214709 -0.682881 -0.55857 0.523714 -0.385806 0.217313 0.213749 0.143353 -0.444324 0.9821 0.703986 -0.190704 -0.834667 -0.529712 -0.596586 0.922329 -0.00788573 
-0.463305 -0.972395 -0.714837 -0.0310828 0.115682 0.122498 -0.757613 -0.18007 -0.019231 -0.617307 0.25846 -0.141551 0.154237 -0.642343 -0.974785 0.964422 0.919635 0.208426 0.337197 0.469553 -0.190789 -0.908806 -0.160754 -0.21833 -0.988009 -0.634207 0.469575 0.803723 -0.681829 -0.709263 -0.480401 0.661655 0.302404 0.100371 0.653875 -0.405393 0.921734 0.0919283 -0.544551 -0.751687 0.273481 -0.861361 1.02439 0.610881 0.792348 0.12232 -0.878709 -0.28601 0.301137 0.706849 -0.275447 0.565164 0.642033 0.655405 0.0295109 0.629719 0.743597 0.263605 0.771115 0.160834 0.349126 -0.0242222 -0.00774117 0.0438782 0.0901119 0.0268857 -0.269056 0.738159 0.560742 0.447658 -0.522348 -0.156475 0.271822 0.764026 0.581068 -0.316423 0.377994 1.10133 -0.554073 0.838015 0.270271 -0.940571 0.14786 0.0805568 -0.882983 0.00310006 0.107797 -0.672123 -0.119981 0.276159 0.582313 -0.159903 -0.417412 -0.564784 -0.468199 -0.508019 0.379975 0.668911 0.696762 -0.375552 1.2004 0.771304 -0.312464 1.09416 -0.126456 0.841912 0.875902 0.333978 0.228105 -0.58989 0.45921 -0.134027 -0.138698 0.73267 -0.527559 0.107407 0.297194 0.285545 0.884573 -0.369327 0.448703 -0.278699 -0.657648 0.603445 -0.891662 0.772005 -0.16087 -0.379516 0.43692 -0.0102671 0.966463 0.515542 0.545341 0.318559 0.237448 -0.711078 0.682972 -0.646082 -0.133811 -0.450855 -0.278464 0.335845 0.560654 -0.593669 0.0534757 -0.127753 0.925652 0.244247 -0.575078 -0.814037 0.5756 -0.616163 -0.322556 0.976176 -0.351342 0.871663 0.645904 1.18712 -0.276623 0.173592 -0.622065 -0.608671 -0.405371 -0.205046 0.940285 -0.222225 0.569241 -0.199851 -0.203379 -0.301391 0.360558 0.317659 -0.167831 0.978875 1.22773 0.0459016 0.487521 -0.824701 -0.643156 -0.720086 -0.755483 1.19412 0.526987 0.754115 0.100689 -0.850103 -0.100085 0.863409 0.233383 -1.06105 -0.191831 1.29086 0.244596 0.419998 -0.788183 -1.63159e-05 0.539928 -0.78682 -0.0148681 -0.325551 -0.128924 0.390257 1.35338 -0.443912 -0.618445 -0.732459 -0.185869 0.291761 0.0155209 0.652164 1.69948 0.638201 -0.452512 1.01718 0.468724 -0.164673 -0.491607 -0.675737 -0.98126 0.0434095 0.713293 -0.0360908 0.0242506 0.364979 0.149663 -0.445287 0.100191 0.563698 0.423423 0.994827 -0.35721 0.336591 0.146942 -1.61458 -2.06989 -0.784745 0.409854 0.744263 1.87995 0.232007 1.49875 0.748779 0.852444 -1.63889 -0.0217313 -0.591289 -0.498478 -0.71509 0.59318 0.740489 0.553425 0.348452 0.988672 -0.476957 0.706969 -0.817259 1.15076 -0.441084 1.08015 -0.109848 -1.42693 -2.09464 -1.64267 -1.46034 0.993525 0.352651 0.858236 0.577772 -0.152958 0.660645 -0.144373 -0.783138 -0.859466 -1.33795 0.412396 0.80575 -0.163699 0.190721 1.01592 -0.337805 -0.859814 0.742797 -0.184162 0.445817 1.11796 -0.416935 0.516135 -0.380518 -0.456876 -1.7351 -0.417991 -1.04154 -0.337299 0.287315 0.657016 -0.0428629 0.182039 -0.497001 -0.3197 -0.0721017 -0.350821 0.184942 0.537864 0.713491 -0.4841 0.0943684 -0.668941 -0.371924 0.69583 -0.526702 -0.728938 0.648449 -0.704816 0.318536 -0.561602 -0.587234 -0.804578 -1.658 -1.42389 -0.709683 0.239349 -0.265691 0.842125 -0.729296 0.999291 0.40537 0.335554 -0.411082 -1.0196 -0.938622 -0.805299 -0.650905 -0.309774 -0.711527 0.386612 -0.229246 0.319531 0.197443 0.434104 0.324891 -0.138241 0.428201 1.26035 -0.619061 -1.18945 -0.661035 -0.417395 0.200467 0.883304 -0.391395 -0.572088 0.754219 -0.350585 -0.395949 0.0386363 -0.329004 0.276892 1.03411 0.572289 -0.896573 0.0236453 -0.296691 -0.832619 0.929776 -0.954818 0.15474 0.389172 0.795096 1.29822 -0.301397 0.232669 0.340568 0.679945 -1.11191 -1.21184 -0.809042 0.123252 -0.336499 -0.979052 0.306116 0.907539 -0.366926 1.02284 -0.541863 -0.378597 0.689748 0.563689 0.328776 -0.33791 -0.871895 -0.308251 0.220387 -0.165059 0.250642 0.608485 1.29794 0.859873 0.76554 0.803944 -0.583448 -0.901083 0.414976 -0.987014 0.557531 -0.0204187 -0.541318 0.257822 0.535799 0.24737 1.24445 0.958819 0.932761 0.647097 -0.00133188 0.978969 0.939061 0.762849 0.800857 -0.437771 0.706885 0.417867 -0.764069 1.04113 1.16888 1.19241 -0.744776 0.199663 0.617998 -0.613809 -0.660399 -0.303486 -0.771472 0.311652 0.252323 -0.169499 -0.0712305 0.988864 0.398052 0.225625 1.5991 0.836674 -0.164386 0.698919 0.754633 0.0947161 -0.467558 -0.260253 0.623237 -0.993677 -0.429192 0.342302 1.10504 0.585352 -0.0591355 1.02337 -0.990036 -0.338668 -1.70732 -1.48124 0.567222 0.433611 -0.190521 0.190558 -0.558948 0.641779 -0.495127 1.36454 0.836236 0.265767 0.407631 0.351463 -0.435948 -0.363017 0.0969847 0.240963 0.808642 -0.65303 -0.232781 0.301332 -0.239479 -0.530479 0.714328 0.325465 0.805342 -0.876788 -1.51664 -1.25961 -1.04 0.115113 -0.70863 -0.673274 -0.464248 -0.331596 0.996299 0.100326 -0.36141 0.477787 -0.196309 0.630281 -0.157413 0.781157 1.11862 -0.409783 0.401029 0.552459 -0.0123651 1.34076 -0.232107 0.912265 -0.454878 0.238009 -0.66649 0.00941915 -0.73993 -0.535503 -0.623298 -0.243157 -0.488879 0.421689 -0.42167 -0.575079 -0.452077 -0.428488 -0.880492 -0.965929 -0.0557434 0.843012 -0.65628 -0.0709051 0.353934 0.935253 -0.428715 -0.109391 0.820596 -0.231162 0.539481 0.949859 -0.392486 -0.826585 -0.10341 -0.415782 0.204662 -0.437594 -1.28757 0.69779 -0.119029 0.749092 -0.41039 -0.576131 -0.510171 -0.424062 0.0728335 -0.226457 -0.0730274 0.00604039 -0.63091 0.258617 -0.476523 0.196202 -0.742854 0.348245 -0.659501 0.751374 0.0362944 -0.442896 0.397805 0.289827 -0.13152 -0.858088 -1.28452 -1.01995 -0.854755 -0.520717 0.28311 0.600163 -0.943074 -0.143043 -1.20012 -0.131207 0.247988 -1.25782 -0.504625 -0.700352 -0.358363 0.491916 1.18575 -0.410417 0.234926 0.665621 -0.300836 -0.350234 0.970027 0.299182 0.306351 0.0847907 -0.0627878 -0.913937 -0.0152386 0.281758 0.551267 0.764906 1.01276 0.124328 -0.55884 -0.688821 0.0193645 -0.0496536 -0.931424 -1.34778 0.566399 -0.813937 0.121211 1.3117 1.08762 0.0414215 -0.290981 0.689335 0.588807 1.07311 -0.0154609 1.38957 -0.259942 0.393462 -0.192324 -0.340245 0.50168 -0.163385 0.293185 0.624908 -0.336165 -0.446452 0.86983 -1.37157 0.48147 -0.0275381 -1.33727 -1.44685 -0.519625 -0.244464 0.29643 0.515011 0.442445 0.712706 -0.913742 0.686813 0.629192 1.09352 0.550845 0.400813 1.18976 0.0638927 0.295192 -0.71096 -1.13146 0.282822 -0.30813 0.569943 0.661267 1.24815 -0.753215 -0.396403 0.269469 -0.905001 -0.0505545 -0.79541 0.415237 -0.936456 0.335971 0.0595303 0.584352 0.90374 -0.864602 0.963873 0.563751 0.476022 -0.39056 0.869001 -0.0428752 -0.498843 -0.797383 0.382501 0.300343 1.26098 0.916057 0.0829878 0.408089 -0.583197 0.146105 0.531036 -1.18007 -0.502041 -1.6304 0.0499977 -0.305909 -0.580162 0.943499 0.405799 0.074535 -0.0863985 -0.941675 0.452565 0.475593 -0.919057 0.766832 0.180141 0.300374 0.372305 0.320112 0.154738 0.543195 -0.37505 -0.236246 0.884006 0.330838 0.0339848 -0.648651 -0.650012 -0.132817 -0.0358265 0.341446 0.0834426 0.562297 0.0636979 0.269887 0.571529 -0.190742 -0.220636 -0.783395 -0.38263 0.965625 0.124007 0.33343 0.829068 0.01154 -0.780155 -0.655436 -0.134582 0.886402 -0.257918 0.57991 -0.728086 0.748414 0.153738 0.696876 -0.960451 -0.218113 -0.646561 -0.0579421 0.763256 -0.0181989 -0.213007 -0.620091 0.540556 0.498877 -0.166352 0.490476 -0.882779 -0.369711 0.557952 0.322604 0.400369 0.0353296 0.765059 -0.412041 -0.134808 0.579404 0.752406 0.0714695 0.447118 -0.491893 -0.358964 0.118289 -0.748968 0.433705 0.238876 -0.589501 0.604144 -0.936712 -0.50947 0.642694 -0.354053 -0.639261 0.563597 0.87821 
-0.518652 0.320742 -0.60238 0.548136 0.810635 -0.795303 0.400385 -0.463904 0.0483721 0.665309 -0.559315 0.0584658 0.649019 -0.39081 -0.688271 -0.359276 0.71992 -0.352299 0.126986 -0.0295094 -0.145365 -0.197857 0.278836 -0.786794 -0.0832633 0.109305 0.806469 -0.148729 -0.572559 -0.916381 0.430224 -0.511598 -0.599718 0.184859 -0.274179 -0.22734 0.286522 0.837671 0.0335232 -0.74039 -0.16164 0.00602933 0.772588 0.52532 -0.812279 0.69522 0.157013 0.66992 -0.679444 0.899339 1.06504 -0.903148 -0.798726 -0.225966 -0.650289 0.85574 0.380022 -0.939923 0.918646 0.652459 -0.601753 -0.647045 -0.175838 0.486906 -0.317364 0.293843 0.611503 0.0388063 0.759625 1.25984 -0.61602 0.976431 0.639009 1.16782 0.144757 0.702459 -0.740665 0.704322 -0.575476 0.298798 -0.869785 0.399774 -0.244242 -0.832911 0.870585 0.827625 -0.881452 -0.795884 0.710537 1.25897 -0.467665 0.910545 1.24419 1.23367 1.2187 0.158176 0.318706 1.08704 0.198627 1.16619 -0.152704 0.894308 -0.721803 0.251254 0.173786 -0.522053 0.729807 -0.62893 0.186124 -0.421077 -0.980804 0.951099 -0.0901783 0.317673 0.582191 0.238188 0.768126 -0.0700942 0.994302 0.0368524 -0.0442166 0.636775 0.68573 -0.0778555 1.24764 1.16916 1.36201 0.0953074 0.546634 0.53866 -0.199277 -0.845992 -0.453676 0.568526 -0.19806 -0.0814764 -0.373776 0.383018 0.0829185 0.848977 0.814606 0.805796 0.591672 0.625074 0.58955 0.33237 0.0620805 0.554214 -0.304574 1.06339 -0.129126 0.745794 0.132238 1.39712 0.223408 0.915567 0.553303 0.234126 0.695093 0.861417 -0.848134 0.731343 1.14324 0.434631 0.835386 0.939355 0.304604 -0.67631 -0.00765856 0.703102 -0.294468 0.616026 1.03524 -0.316753 0.367561 1.30829 -0.135661 1.26302 -0.296907 0.654094 0.976404 0.492857 1.14215 1.35994 -0.374626 0.226205 0.62768 -0.277513 1.07146 -0.14603 1.32967 -0.500291 0.899931 0.851953 0.447417 -0.952559 0.490729 -0.687168 0.26991 -0.115175 -0.587376 1.19818 -0.0920482 0.0154603 -0.316982 1.18787 1.34766 0.154833 -0.407987 0.128371 0.109836 1.48149 1.13007 0.107022 1.18299 0.603428 -0.704649 0.407463 0.701463 0.424183 0.770142 -0.792799 -0.897897 -0.452096 -0.303982 0.432028 0.205688 -0.521155 0.0639135 -0.558754 1.2958 1.23008 2.00074 1.2134 0.913971 -0.453825 0.826582 0.893383 1.51299 1.45143 0.956726 1.36005 1.19857 1.07397 0.166738 0.922557 0.712276 0.617754 -0.212942 -0.52473 -0.137168 0.79358 -0.372509 -0.969691 0.352593 0.0494734 0.495641 0.820004 1.53072 0.0751518 1.20827 1.0931 1.617 -0.258179 -0.209152 0.813603 1.00031 -0.536195 1.44481 0.381773 -0.154144 -0.240078 0.0297183 1.03949 -0.911395 -0.346914 0.0386619 0.121723 -0.723057 0.730561 -0.397644 -0.103301 -0.149957 -0.209215 0.0815806 1.16076 0.724648 0.686561 0.803107 0.763786 0.392815 -0.230217 0.737767 0.910112 -0.984069 -0.279794 0.724778 -0.599681 0.603934 0.244198 0.828198 1.15581 0.0526103 -0.709111 -0.575018 0.620476 -0.94872 0.442729 -0.458735 0.764172 -0.459403 0.0485115 0.785451 -0.453828 0.382848 0.301335 0.162689 -0.164543 -0.737359 -0.702398 -0.262012 0.550251 0.17356 -0.241263 -0.945424 -0.436101 -0.346616 0.78434 -0.782438 0.421892 -0.768464 -0.162966 0.0292646 0.978041 0.0810274 -0.861859 0.456225 0.36168 -0.0174755 1.31027 0.817345 0.731323 1.29658 0.60207 -0.387374 0.794936 -1.11234 -1.23803 -0.782172 -1.01172 -1.38352 -0.856526 -0.0983461 -0.621177 0.478583 -0.434021 -0.544302 0.288347 0.750751 -0.438854 -0.373276 -0.85348 -0.798774 0.228314 -0.808987 0.142737 0.159021 1.1314 1.06194 0.875215 0.377153 0.153402 0.327327 -0.480594 0.373099 -0.183534 -0.537912 -0.919879 0.84511 0.687299 -0.637711 -0.813861 0.0777506 -0.375546 0.825012 -0.458112 0.288151 0.30616 0.220595 -0.42315 0.811376 -0.654349 -0.00231166 0.946598 0.521319 -0.00639589 -0.216978 0.711484 -0.116527 0.796774 -0.752242 -0.647717 -0.566223 0.108516 -0.361275 -0.159446 0.880052 -0.410892 0.40363 -0.733048 0.514628 0.358748 -0.146226 0.324457 0.478183 -0.45312 -0.227481 0.675719 0.0601503 0.786427 -0.272556 0.274339 -0.0215525 0.833085 1.19527 -0.074309 1.03554 0.0751833 0.822972 -0.254512 -1.04769 -0.20601 -0.0144197 -1.01188 -0.30915 -0.239152 -0.583131 0.405691 -0.206232 -0.616151 -0.409119 0.405115 -1.06346 0.561346 -1.00151 0.682985 -0.836439 0.522346 -0.957109 0.895348 0.813104 -0.14835 1.24339 0.733914 0.957074 0.364114 -0.09535 -0.871991 -0.689523 -0.860042 0.323972 -0.393352 -0.209453 -0.962833 -0.935604 -0.520538 -1.19055 -0.71156 -0.453914 -0.49785 0.172186 0.386162 0.310919 -0.594322 -0.122819 0.72273 0.115196 -0.467578 0.0268057 0.17583 0.184738 -0.659025 -0.611631 0.8662 -0.535699 -1.01104 0.603835 -0.133887 -0.0485797 -0.985316 0.730397 -0.367129 -0.466531 -0.182982 -1.39155 -1.08359 -0.402676 -0.696603 0.416366 -0.685672 -0.65097 0.411935 -0.930314 -0.353643 -0.842179 0.974768 -0.0151458 0.538808 -0.179121 0.198499 -0.90964 -0.574691 0.394119 -0.0986435 -0.992244 0.523988 0.0385821 -0.656074 0.156178 -1.4066 -1.37157 -0.939549 -0.263684 -0.0148085 0.235375 -0.464783 -0.29019 0.512839 -0.0571394 0.446062 -0.315324 0.179919 0.987493 0.087717 0.344725 0.437859 0.717008 -0.188466 0.582301 -0.361329 0.303014 0.00316815 0.603608 -0.380419 -0.325153 0.287403 -0.211818 0.0972115 -1.45532 -0.213567 -0.215658 0.522821 0.425255 0.496793 -0.635234 0.616029 0.57961 0.914459 0.122444 0.414652 0.582242 0.767711 0.045668 -0.264765 -0.654361 -0.22499 -0.946156 -0.834802 -0.0332958 0.451797 -0.548202 -0.361231 -0.602276 -0.321614 -0.850628 -0.427759 0.286672 -0.580493 0.0741493 0.0091729 0.734642 -0.762199 0.244391 0.598111 0.807229 -0.150588 0.689625 0.956973 -0.419936 0.140829 0.545871 -0.660623 -0.211207 0.0606451 0.041281 -0.235835 0.346849 -0.613032 -0.227828 -0.821535 0.659932 0.38512 -0.894974 -0.750885 0.019881 0.895273 1.17778 0.983862 1.05464 -0.332672 0.228305 0.786666 -0.436674 -0.841208 0.578665 0.868804 -0.590929 0.827095 0.739467 0.675648 -0.62797 0.823438 0.0855702 0.536027 -0.747258 0.359158 0.951817 -0.264751 -0.637199 -1.1714 0.310743 0.325735 -0.463007 0.500628 -0.23066 -0.31607 -0.0305256 1.29348 0.350521 0.403771 0.924916 0.956286 -0.107175 -0.676038 0.414486 0.746275 0.285907 0.19426 -0.797035 -0.915509 0.0581134 -1.12929 0.506087 0.592917 0.491751 -0.598698 -0.860639 0.775123 -0.575898 -0.358371 0.724447 0.652001 0.107235 0.871031 0.320434 0.603866 -0.31715 -0.792595 -0.420322 0.477618 -0.384501 -0.630027 0.859364 0.497056 -0.15658 -0.329632 0.515748 -0.124762 -0.568073 0.353587 0.684182 -0.823357 -0.298919 0.153849 0.474628 0.281494 0.263472 0.499733 -0.415402 -0.0659753 -0.156376 -0.2534 0.0863108 -0.512861 -0.262762 -0.304104 0.95463 0.180126 0.176588 -0.295891 0.235406 0.149308 0.179237 -0.943911 0.497292 1.14453 1.18579 -0.357154 0.153935 -0.128132 -0.626514 0.782497 -0.566181 -0.843676 -0.168067 -0.499209 0.740238 -0.280391 -0.109868 -0.487415 0.818173 0.104003 -0.479365 -0.405846 -0.802291 0.949565 0.912997 -0.107091 -0.572009 -0.385167 0.721157 0.976815 0.128207 0.121057 -0.600772 0.195293 -0.756917 0.786624 -0.538751 -0.798023 0.677621 -0.144102 -0.387634 -0.258516 0.038125 -0.698041 0.124209 0.815178 -0.47492 -0.718813 -0.0296485 0.870061 0.696673 -0.146134 -0.0857603 -0.33311 -0.835903 0.300774 -0.325533 -0.943451 0.799426 -0.383089 0.00382572 -0.714321 0.244841 0.343117 0.391431 0.239072 -0.595803 0.0979274 -0.174639 -0.677206 -0.999423 -0.921616 0.0381273 -0.0295 -0.494109 0.0845858 -0.108536 0.628341 -0.266918 0.493898 -0.484076 0.724496 
0.118164 -0.831702 -0.493345 0.763028 -0.35408 0.624823 -0.356014 0.546487 0.0258241 -0.335911 -0.956924 -0.543259 -0.754524 -0.715706 -0.178804 -0.426432 0.466981 -0.872325 0.678368 0.877053 0.584811 0.236173 -0.303143 -0.287476 -0.0107979 -0.493065 -0.00805707 -0.30429 0.767776 -0.520634 0.689021 -0.442672 0.241213 0.441891 0.473869 0.873347 0.538867 0.929966 0.0640148 -0.937103 0.267694 -0.184756 0.288073 -0.332496 0.872993 0.742311 0.724394 -0.755647 -0.0741146 0.300459 0.278614 0.0789966 -0.594263 -0.285932 0.420518 0.711789 0.601864 -0.689797 -0.982613 0.466773 0.0938542 0.7971 0.0715328 -0.0392865 0.851299 -0.38661 0.246586 0.514556 -1.02153 -0.214207 -1.03095 -1.25079 0.497318 0.142548 0.758977 -0.131025 -0.389062 -0.34069 -0.660416 0.557443 -0.104656 0.0117482 0.99542 -0.703794 0.521667 0.207143 -0.68984 0.580446 -0.750357 0.76924 -0.207065 -0.764511 -0.73442 -0.877928 0.321348 0.624961 -0.777051 -1.04239 -1.14028 0.33495 -0.644423 -0.683351 -1.11994 0.40871 -0.734469 0.370766 -0.743111 0.468596 1.01342 -0.939364 -0.964183 0.226832 0.034188 -0.00744411 0.589814 -0.396234 -0.295395 0.522348 -0.0999279 -0.915021 -0.762251 -0.127494 -0.590592 -1.14035 -0.356451 -0.977427 0.00505776 0.175316 -1.12382 -0.690091 -0.413259 -0.170981 0.624961 0.94623 0.0857354 0.935026 1.13723 0.0831841 -0.333073 -0.534369 -0.409943 0.582485 0.507054 0.108965 -0.121136 0.290141 -1.3795 0.0627013 0.5115 -0.00977184 0.373539 -1.14316 0.142157 -1.27254 -0.519728 0.146307 -0.389326 0.714495 0.247473 -0.7624 0.433898 1.30322 0.863164 1.20658 0.0777706 -0.611527 -0.759616 0.422638 0.272778 -0.827354 -0.38909 0.676497 0.150233 0.315903 -0.462602 -0.103043 -0.0287832 0.40152 -0.910667 -0.165693 -1.58031 -0.537461 -1.13032 -1.18934 -0.745413 0.764562 -0.287546 0.591725 0.920028 0.502745 1.32695 0.942822 1.18939 -0.623006 -0.6352 0.358028 0.40088 -0.126447 0.979843 0.764361 1.03782 0.87254 0.204594 -0.218011 0.0471225 -0.131344 1.15926 -0.205163 -0.532203 -0.926004 -0.326573 -0.238558 0.664637 -0.16708 0.506632 1.22035 0.818774 0.284951 -0.11365 0.370529 -0.0256344 -0.208394 0.922176 0.689039 0.107068 -0.229445 -0.37979 0.613558 -0.151429 -0.482871 1.10526 1.32283 0.0635315 1.64371 1.10076 1.57212 1.60943 0.25566 0.988659 1.08245 0.567749 1.23577 1.13562 0.420059 0.312267 -0.140074 -0.424672 0.299393 0.0406993 0.248506 -0.477333 -0.650172 -0.261233 -0.981499 0.936047 0.490919 -0.563607 0.921228 1.42326 0.291762 1.52626 0.770203 1.60909 -0.00551464 0.319307 1.08798 0.675243 1.39926 1.71469 0.406626 -0.220845 0.318772 1.48755 0.346679 -0.48277 0.00424596 0.862032 -0.343625 -0.599916 0.512431 -0.824209 0.128844 0.620095 -0.173804 0.452496 0.840587 0.517217 -0.234424 0.621188 0.875865 1.17207 0.311894 0.932533 0.138419 1.24785 1.20687 -0.0323827 0.611955 0.555926 0.958469 -0.609602 -1.31178 0.253382 0.502483 0.80283 0.265834 0.668636 -0.0273318 -0.417691 0.367907 -0.67349 -0.163022 -0.189751 0.267011 0.116789 -0.0542015 -0.032321 0.642141 -0.874303 -0.191078 0.735696 -0.109784 -0.850099 0.64424 -1.23179 -1.38728 0.330087 -0.683897 -0.838795 0.133489 0.0964173 -0.814231 -0.310381 -0.870614 0.690592 -0.496615 0.300848 0.00959431 -1.15252 0.235103 0.0812762 0.407442 -0.426699 0.442338 0.209157 0.525968 -0.282811 0.331475 0.240006 -0.852056 -0.0607639 -0.851864 -0.599712 -1.12203 0.832848 -0.658591 0.522012 0.260545 0.393927 -0.0819641 1.03551 0.414954 0.477635 0.682284 0.842472 -0.494594 -0.607536 -0.100248 -1.03176 0.358197 0.55886 -0.224318 0.31392 0.659814 0.189495 -1.05499 -0.914659 -1.30343 0.725236 -0.17776 -0.838271 -0.865147 -0.567429 -0.744908 -1.10818 -0.722111 0.374532 0.262976 -0.489214 -0.731779 -0.246254 -0.745156 0.0987231 -0.772369 0.362189 -0.251583 0.488 0.104292 -0.0168658 -0.341722 -0.0889903 0.858376 0.489969 -0.720738 0.746653 -0.936001 0.0169928 -0.820027 -0.426116 -1.44878 -1.06165 0.872338 -0.239728 -0.02219 -0.250664 0.871346 -0.0232487 -0.220945 0.575657 -0.354212 -0.0758817 -0.803236 0.129275 -0.158677 0.157697 -0.425683 -0.993095 0.122518 0.468179 0.440421 0.0957079 0.426056 0.721965 -0.644844 0.105744 -0.267191 0.320386 -0.863356 0.852646 -0.840787 0.413243 -1.14067 -0.390594 -0.361987 0.630274 0.269708 -0.60757 0.550175 0.661917 -0.74611 -0.145608 -1.56039 -0.833653 0.309793 -0.13982 0.133221 0.630895 0.766288 1.38085 -0.0151087 0.296345 0.65251 0.702678 0.72767 -0.976215 -0.132478 1.08912 0.203774 0.0340068 -1.03882 -0.413956 0.418793 -0.837023 0.147071 -0.659898 -0.000189881 0.518112 -0.974952 -1.22693 -0.187721 -0.864377 0.679199 -0.555925 0.129047 -0.179232 0.477994 -0.217329 1.49438 0.404268 0.273475 0.406416 -0.301357 0.807372 0.651006 0.504415 0.907625 -0.567068 -0.374055 -0.0826986 0.390304 0.791779 -0.304522 0.504077 -0.182861 0.19174 -0.846846 -0.606455 -0.746394 0.552972 -0.486644 0.585588 0.901781 0.0970831 -0.0712682 1.45244 1.66139 0.624707 1.87132 0.787051 -0.410706 -0.720433 -1.11707 0.00929209 -0.963509 0.710168 0.433173 -0.245764 1.21018 0.0309772 -0.597005 -0.129458 0.0161561 -0.270681 0.548068 -0.379385 0.224826 -0.12686 0.369707 0.599072 -0.229726 -0.496219 -0.133818 -0.36592 0.962952 -0.338597 -0.122508 0.721497 -0.0965849 -1.02682 0.527076 -0.961505 -0.84174 0.54257 0.493432 -0.269639 1.32433 -0.183245 0.954954 0.00397153 -0.82685 -0.450827 -0.00956879 -1.02531 -0.722216 -0.454342 -0.883662 0.371273 0.724304 1.05111 0.49945 0.539936 0.181047 -0.619921 -0.0492334 -0.86175 -0.16785 0.639944 -0.0222998 -0.76086 -0.837518 0.825237 0.718949 0.309352 -0.374157 0.0938057 -0.468771 -0.0167823 -0.757875 0.921428 -0.747685 0.828583 -0.283574 0.0677045 -0.097643 -0.0305214 0.742494 0.83262 -0.869322 0.60984 -0.345777 -0.905584 0.428536 -1.06767 0.296081 -0.76773 -0.657537 0.916641 0.163938 0.723094 0.255336 -0.928667 -0.390803 0.0625079 -1.05409 0.264704 -0.0215461 -0.147399 -0.945828 -0.717247 0.728669 0.172027 0.93559 0.478426 -0.0245729 0.524905 -0.879252 -0.379282 0.625626 -0.920672 -0.865638 -0.722419 -0.0498076 0.754208 -0.155323 0.0965402 0.487898 -0.574124 0.220661 -0.80701 -1.19085 -1.23236 0.0243456 0.492079 0.584075 0.172147 -0.150612 -0.708736 1.12548 1.45188 -0.675881 0.55081 0.493703 0.706826 -0.482898 -0.714195 0.674716 0.769903 -0.198762 0.0829403 0.376548 -0.302638 -0.22804 0.0770773 0.981685 -0.405748 0.429124 0.207852 -1.28129 -0.584763 0.180853 0.018467 0.861619 0.834312 -0.947885 -0.0702716 -0.739915 0.17245 0.168421 0.0319304 -0.267148 -0.682516 -0.21907 -0.303194 -0.817373 -0.180765 -0.536224 -0.340298 -0.196492 0.703409 1.21176 -0.100657 -0.491091 -0.345906 0.234296 -0.502647 -1.33991 -0.920849 0.0460801 -0.751568 0.493873 0.193321 0.771468 0.358773 -0.47665 -0.710756 -0.567485 -0.971305 0.585173 -0.405023 -0.633158 -0.339442 -0.293064 0.43746 -0.10483 -0.408059 -0.872163 -0.653835 0.923142 0.40612 -0.34817 -0.37044 0.393306 0.603861 -0.0664745 -1.03891 -0.267803 -0.668529 -0.358537 -0.865313 -0.858296 0.0989827 0.227548 -0.373307 -0.500351 0.346475 -0.626701 -0.707416 -0.468977 -0.747402 -0.439988 -0.868849 0.304182 0.887743 0.175832 -0.717845 0.664163 -0.79336 0.229208 -0.575748 -0.60493 -0.972537 -0.0593729 -0.56421 0.742283 -0.423269 -0.488798 0.892501 0.274055 -0.903686 0.70026 -0.332798 -0.314102 -0.626843 0.248017 -0.169008 -0.595743 -0.380881 -0.325087 -0.69613 -0.631259 -0.527253 0.234043 -0.998034 0.848597 0.635485 -0.456103 0.325832 0.391863 -0.742808 -0.203434 0.118712 0.808704 -0.965559 0.571025 
0.32532 0.810184 0.711238 -0.270644 -0.661482 -0.969173 -0.546075 0.333322 -0.122669 0.392877 -0.550834 0.741723 0.407412 0.104569 -0.825269 0.23715 0.0156515 -0.269372 -0.255203 -0.889296 0.216374 -0.923593 0.581304 0.240472 -0.648663 0.0381538 0.233685 0.74397 0.644471 0.663467 0.982548 -0.837541 0.489014 -0.248454 0.497755 0.440434 0.386563 -0.060202 0.801877 0.654092 -0.57534 0.802646 0.613056 0.554458 0.0746072 0.740166 -0.928183 -0.351627 0.0555744 -0.668977 0.00270953 -0.890314 -0.360471 -0.904316 0.112315 0.00939013 0.808267 0.0993663 -0.983742 0.0276633 -0.7421 0.532092 -0.505955 -0.292381 -0.392919 -0.674812 -0.997271 0.342263 0.36494 -0.460515 -0.663542 0.0792243 -0.473792 -1.03143 -0.564491 -0.732562 0.710823 -0.212311 -0.0881157 0.0499316 0.854996 0.357111 0.67022 0.152851 0.287166 -0.691132 -0.449837 -0.579937 0.967265 0.0338728 -0.756419 0.501922 -0.570391 0.737218 -0.966226 -0.647105 0.717042 -0.298546 -0.181837 -0.82088 -0.24569 -1.17391 -0.981266 -0.336354 -0.262724 0.0105541 -1.06186 0.389971 0.430141 -0.113116 -0.968889 0.513859 -0.595562 0.950953 -0.534189 0.0981702 0.669415 0.857771 -0.931585 0.0632852 -0.802359 -0.024559 -0.305793 0.646693 -0.462805 0.0699447 0.05616 -0.815845 -0.927906 -0.858923 -1.07397 0.25304 0.012668 -0.968832 0.263702 0.180542 0.945726 -0.0553519 0.271459 -0.501182 0.696935 -0.762253 0.261998 0.218903 -0.336177 0.565823 -0.563163 -1.06123 -0.687979 -0.256531 -0.14125 0.510314 0.598894 -0.969124 -0.196962 0.710513 -0.305388 -1.00764 -1.1877 0.224464 -0.226414 -1.0014 -0.227099 0.417734 0.893103 0.677651 -0.624766 0.359741 0.604853 -0.312815 0.322598 0.480788 -0.265459 0.421865 -0.708015 -0.802986 0.944038 -0.232288 0.0374654 -0.785928 1.01321 -0.388655 -1.02549 -0.341131 -0.984773 0.540318 -1.01707 0.0672331 -0.185755 -0.0961707 -0.394588 0.467834 -0.250214 0.696584 0.899386 0.88907 -0.382593 -0.946706 -0.825605 -0.50494 0.592847 0.884097 -0.292469 0.932039 -0.318115 -0.318719 0.524076 0.154947 0.0413621 0.806516 -0.633444 0.10074 0.581774 -0.168304 -0.807292 -1.0935 -0.892578 0.210844 0.330734 1.11281 -0.179599 0.0124521 -0.659062 0.49598 -0.299076 -0.31604 -0.773539 -0.241175 1.22114 0.357443 -0.15538 -0.0549462 -0.298588 -0.976294 0.233849 0.185988 0.396919 -1.04407 -0.90526 0.366589 0.389833 -0.618721 -1.20165 -1.05732 -0.777514 -0.750871 -0.0305883 -0.239157 -0.0997672 -0.235435 0.935647 -0.409229 0.732973 0.583797 -0.190481 0.818782 -0.516971 -0.686906 -0.891864 -0.774526 -0.9099 -0.135837 -0.787946 -0.115824 0.26135 -0.434181 -0.133942 -0.722782 0.666103 -0.280923 -0.810526 -0.702096 -0.751953 -0.432883 0.480228 0.612244 -0.381543 0.136412 0.00764469 0.512249 0.592554 0.32886 -0.628254 0.444549 0.1125 -0.620927 -0.0744436 0.304794 0.357171 0.675035 -0.732029 -0.892614 -0.022367 0.39 -0.68385 0.151282 -0.478065 0.0356417 -0.0197523 -0.704 0.594472 0.452338 0.222871 0.540438 0.704093 0.759231 0.426116 -0.942311 0.533677 -0.253364 0.295273 1.23904 1.19231 0.229666 0.682783 0.400911 -1.28536 -0.72587 -0.52541 -0.341218 -0.13208 0.224946 0.244496 0.966488 -0.427487 -0.528337 -1.03499 0.034668 0.955343 1.33883 -0.700802 0.555492 1.24291 1.33812 0.86369 -0.641795 0.474812 0.12211 -0.367372 1.44887 -0.466903 -0.582555 -0.87787 -0.0504207 -0.473622 -0.880781 0.538363 0.395729 -0.150124 -0.0564388 -0.610929 -0.129411 -0.239492 -1.27485 -1.46927 -0.183221 -0.744227 0.541433 0.518621 0.765278 0.816127 0.0115334 0.137997 0.526603 -0.938101 -0.609808 0.624341 0.0713522 1.01024 -0.205037 0.0275652 0.546612 -1.20784 -0.520124 -0.413602 -0.0939621 -0.134028 0.236039 0.296823 -0.157409 0.875272 -0.499585 -1.66911 -1.33848 0.0780237 0.196315 1.16825 1.28636 1.74908 0.306495 0.977785 -0.983689 -0.268957 0.847106 -0.0894715 0.709128 -0.489195 0.242363 -0.972003 -1.03738 0.49645 -0.778211 0.646373 0.185253 0.751912 -0.0542624 -0.169271 0.246255 0.227878 0.382014 -1.56058 -0.58501 0.485026 0.835165 0.902545 -0.140302 1.33473 -0.199363 -0.571874 0.169018 0.954391 -0.908633 0.132013 -0.247954 0.713508 0.563496 0.478563 -0.626562 0.0310393 -0.101411 -0.268358 0.570964 0.369055 0.603648 -0.342832 0.744407 0.722458 -0.835194 -1.35531 -0.957935 -0.593662 -0.523047 1.1059 0.859773 1.47674 0.575516 -0.178775 0.465031 0.473134 -0.633952 0.390895 0.471622 -0.0339323 -0.898975 -0.272769 -0.877956 -1.03789 -0.109907 -0.449969 0.635242 0.738078 0.555204 -0.351364 0.877014 -1.18185 -0.160043 -0.726456 -1.6453 -0.494149 -0.0553254 0.763552 0.768702 0.341141 0.652414 0.634036 -0.892773 0.0953424 -0.672135 0.871632 -0.583628 0.403909 0.672188 0.191363 -0.159056 -0.635367 -0.591088 1.69022 1.40775 0.688968 0.149053 0.527315 0.325832 0.444152 -0.456857 -0.116518 -0.946789 0.152536 0.102659 0.517367 -0.415231 0.947546 0.172035 -0.593423 -0.280151 0.660653 -0.179314 -0.106684 0.942278 0.663949 0.114325 -0.276374 -1.17651 -0.955577 -0.114339 1.44205 0.465081 1.74457 1.31933 -0.182388 -0.12613 -0.896901 -0.566213 -0.140283 -0.991784 0.936055 0.154314 0.551282 0.646248 -0.130943 0.0266328 -0.00437723 -0.308835 -0.499837 0.695545 -0.80451 -0.288407 0.31793 -0.0716793 -0.955271 -0.794594 0.593822 1.0367 1.49974 1.62532 1.52933 1.16241 -0.366636 -1.10953 -1.55943 -0.346026 -1.16551 0.594338 0.294674 -0.496005 0.747284 0.884702 -0.322498 0.744404 -0.746228 0.934132 -0.580763 0.862196 0.686798 -0.246312 -1.08418 0.565418 -1.16171 0.603785 -0.5638 0.827625 1.18418 1.32125 1.53659 0.0206316 -0.812994 -0.808141 -0.0524646 -1.39023 -1.35792 0.464073 -0.117039 0.145478 -0.254674 0.779785 0.128417 -0.618341 -0.62052 0.372095 -0.762539 -0.462839 -0.967459 -0.277457 -0.694935 -0.96164 0.321215 -0.783182 1.15173 1.63547 0.727724 0.64505 0.625675 0.309437 0.205622 -0.924733 -1.97766 -0.968926 0.356273 -0.259317 0.715496 0.369465 -0.126779 0.691799 0.25588 0.405745 1.00215 0.512554 0.213995 -0.822142 -0.0682937 -0.101854 -0.343887 0.538039 -0.702357 0.559924 1.14947 0.330164 0.571074 0.692123 0.743871 -1.30307 0.316021 -1.09889 -0.123889 -0.897206 -1.38612 -1.18226 0.703766 0.839318 0.154284 0.361352 -0.15339 0.187384 0.902383 -0.373165 -0.942915 0.602776 0.105462 0.257898 -0.0306524 0.193507 0.288341 0.126091 0.126559 0.607892 0.467564 0.677899 -0.782384 0.471959 -0.309406 0.313734 0.30011 -0.874209 -0.111462 -1.02567 0.330502 -0.244472 0.899635 0.499364 0.116491 0.462443 0.513897 0.0245219 -0.786267 -0.955115 -0.817172 -1.18266 -0.908371 -0.492807 -0.25085 1.00215 0.968766 -0.179633 -0.031002 -0.216548 -0.827742 -0.418317 -0.554916 0.0341076 -0.0939706 -0.443282 0.00155911 -0.0392243 0.778189 0.206163 -0.314178 0.401436 0.907846 -0.851693 -0.214967 0.655719 -0.0740161 0.672451 -0.482116 -0.741071 0.750965 0.239175 -0.0619243 -0.243616 1.05411 -0.0883037 -0.233858 -1.04897 0.257883 -0.418688 0.607513 -1.10917 0.209429 0.466263 0.576538 0.708228 0.317814 -0.145802 -0.229099 0.613647 0.251319 -0.280128 -0.72762 -0.290985 0.920034 0.656187 0.848858 -0.367992 -0.623083 0.992442 -0.804145 0.344633 -0.261383 -0.0604927 -0.0423621 -0.523638 -0.366157 -0.882855 -0.350062 0.0193831 -0.204424 0.167276 -0.332729 -0.570521 0.274205 0.765922 0.0921205 0.925403 -0.219553 -0.399921 0.0389474 0.556676 -0.661995 0.748346 0.670726 0.660928 -0.012196 0.679802 -0.946946 -0.265928 0.817653 -0.937276 -0.977649 -0.126631 0.922809 -0.853565 0.640693 -0.900913 -0.522443 -0.209569 -0.303962 0.80191 0.623446 0.141713 0.319223 -0.151282 -0.499086 -0.337558 0.445641 0.781541 
