6
layer
-0.345434 -0.599257 -0.398116 -0.559318 -0.324561 0.0851806 0.472046 -0.787422 -0.71564 0.500018 0.0653468 0.837226 0.847813 0.956374 -0.138028 0.288069 -0.521852 -0.843014 -0.827129 -0.228998 -0.529948 0.914377 0.810202 -0.700005 -0.260345 0.0128574 0.266208 -0.608793 0.54905 0.20762 0.963647 -0.20194 0.667246 0.737888 -0.701349 -0.865861 0.00385826 -0.699835 -0.131883 0.686469 -0.678295 -0.983419 0.290784 0.393876 0.475065 -0.521515 -0.690111 -0.00955513 -0.669299 -0.21944 0.556053 0.78835 0.482556 0.2433 0.693908 -0.418927 0.215869 -0.408991 -0.718093 -0.124214 0.363895 0.68073 0.0440546 0.758052 0.580164 -0.283366 0.270754 0.314501 0.903453 0.833975 -0.904511 -0.622634 0.460205 0.464972 0.85923 0.293778 0.958171 0.195655 -0.779358 -0.242722 0.633966 -0.855568 -0.341933 -0.043727 -0.868084 0.635969 -0.666129 -0.243686 0.381486 -0.0806552 0.866952 0.165993 0.0951757 -1.12742 -0.266405 -0.453919 -0.427599 -0.946944 0.666547 0.0475164 0.320752 0.150441 0.437731 0.275587 0.980168 -0.695325 0.910483 0.220297 0.509274 0.633192 0.0635642 0.82779 0.292879 0.113343 0.0707631 0.193376 0.237551 -0.543041 0.00507719 -0.533382 -0.782751 -1.10695 -0.343086 0.873276 0.715772 -0.995149 -0.873762 -0.220213 0.903996 -0.335504 0.576534 0.390185 0.104605 -0.209724 -0.494498 -0.768835 -0.858663 0.185625 0.571941 0.12476 -0.98256 -0.251539 0.212331 0.384526 -0.976576 -0.976309 0.798842 0.521774 0.125758 0.820435 0.245898 -0.8221 0.319534 -0.868514 -0.287146 0.376802 0.660941 -0.806346 -0.0018295 -0.838015 0.18231 0.29998 0.429401 0.488166 0.824843 -0.204365 -0.490868 -0.261151 -0.991774 0.533758 0.315019 -0.848835 0.370566 0.910763 -0.393679 -0.093997 -0.136922 -0.892182 -0.678046 -0.386967 -0.342789 0.554098 0.0920462 0.955922 0.261141 -0.71026 0.656598 -0.324936 0.564354 -0.983045 -0.378656 -0.0507019 0.0130494 0.786069 -0.915808 -0.055473 0.456163 0.730365 0.45423 -0.80156 0.277057 -0.474161 -0.144787 0.0366325 -0.353647 0.229671 -0.0966705 -0.597819 0.53349 -0.643804 0.0973713 -0.877187 0.792399 0.188626 -0.711506 0.706126 -0.24502 -0.277338 -0.485289 0.516 0.173295 0.275053 0.248277 -0.532773 0.445552 -0.291388 -0.223003 0.120531 -0.568237 -0.808908 -0.744203 0.857315 -0.609926 0.330841 -0.254206 0.0766647 -0.664515 -0.216321 0.393517 0.321298 -0.203115 -0.33601 -0.332394 0.175376 0.0648763 0.184684 -0.819103 -0.149091 0.0653826 0.377382 0.338874 0.0775358 -0.427467 -0.765823 -0.233258 0.00361309 -0.0636519 -0.271604 -0.649121 0.516865 -0.807705 0.270856 -0.357831 0.620462 0.328956 -0.311302 -0.643482 -0.550243 0.0231996 0.353534 -0.451488 -0.363455 0.643119 -0.130591 0.251569 0.170958 0.380268 -0.212233 0.109162 0.666498 -0.893088 -0.227707 -0.880723 -0.400335 0.763084 -0.289513 0.427767 -0.97395 -0.139638 -0.355697 0.066833 -0.329973 0.638497 0.258054 0.380919 0.1651 -0.508025 -0.0947777 -0.47277 0.110062 0.651227 0.462654 -0.934634 -0.273663 0.096506 -0.31655 0.453732 -0.625331 -0.751479 -0.776472 -0.812954 -0.688248 0.284622 -0.23888 -0.683688 0.938912 -0.383131 0.376483 0.497112 -0.139656 0.099006 0.309754 0.261765 -0.666527 0.777827 0.775916 -0.505055 -0.19617 -0.781973 0.0244988 -0.273452 -0.321827 0.758147 0.917368 -0.309817 0.291983 0.771956 0.934522 1.03391 -0.226712 -0.151103 0.26739 -0.896545 0.420306 -0.0314762 -0.515749 -0.264157 0.797203 0.12467 -0.478922 -0.955511 0.830515 0.152552 -0.464318 0.918005 -0.184159 0.592955 0.28865 0.525909 0.748997 0.382176 0.611974 -0.772574 0.224105 -0.0669668 -0.591351 -0.0242547 -0.15568 -0.278186 0.30041 0.141179 0.889035 -0.531648 -0.301783 0.5937 -0.914985 0.34797 0.0720149 -0.024939 0.0344156 0.922516 0.182894 -0.152883 -0.60546 -0.243032 -0.687898 0.0962729 -0.121748 0.675942 -0.350411 -0.768258 0.624442 0.429561 -0.485022 0.519169 0.660502 -0.864819 -0.0981105 -0.782227 0.269712 0.04453 0.176267 -0.526499 0.214343 -0.708293 0.153284 -0.157109 -0.401262 0.0949433 1.06384 -0.160653 0.75408 0.880115 0.617101 0.307423 1.001 0.195045 -0.274604 -0.281345 0.492609 0.892808 0.2599 0.65018 -0.0855198 -0.737518 -0.360253 -0.0678112 -0.21439 -0.180007 0.474549 -0.620455 0.968617 -0.44117 -0.210717 1.14929 -0.331434 1.29235 0.68104 -0.636701 1.02378 0.150827 0.581874 0.49514 0.563122 -0.253641 -0.277809 -0.806835 -0.0923511 -0.395444 0.185199 0.366537 0.148927 0.497426 0.435004 0.108852 -0.332553 0.636964 0.572717 0.458506 0.86777 -0.962031 0.950704 -0.415673 0.213734 0.510498 -0.247446 0.720336 -0.527984 -0.446613 -0.835003 -0.900404 0.669802 -0.479667 0.358882 0.374693 -0.807133 0.162576 -1.00225 0.649713 -1.16138 0.319773 -0.0907579 -0.723481 0.353492 1.42234 1.2253 1.25517 -0.108091 0.0890721 0.739505 0.788675 0.0877887 0.251388 0.348968 0.800772 -0.744168 0.532972 -0.939962 -0.0221312 -0.725357 0.508394 0.553805 0.384734 0.160899 -0.451931 -0.109523 0.665301 -0.160591 -0.910137 -0.437885 -1.08002 0.710208 0.50034 1.85071 -0.251777 1.27742 -0.21276 0.318763 0.455918 0.360613 0.198935 -0.261903 0.106043 0.103898 -0.869009 0.544185 -0.874247 -0.0740278 -0.146956 0.507462 0.43211 -0.633598 0.0779154 0.0188035 -0.625861 -0.737518 0.179124 0.363943 -0.398338 0.47235 1.35336 1.50861 1.55291 -0.0936398 1.04182 -0.588213 0.891038 0.911969 0.430558 0.561524 -0.862437 -0.721509 -0.681323 -0.267023 -0.721023 0.235836 0.298336 0.355293 -0.338025 -0.0582752 0.834582 0.193783 0.0196685 0.636318 -0.33638 -1.08151 0.759318 1.27456 0.372651 0.431879 0.209829 0.493505 0.210854 0.697831 0.112512 -0.652124 0.516788 -1.07982 0.411061 -0.795416 -0.730709 -0.1266 1.24195 1.03426 0.117853 -0.0520291 -0.0767505 -0.993738 -1.0002 0.320028 -0.689372 -0.877502 -0.0400073 -0.48633 0.517732 1.11781 0.428109 1.52643 0.275218 0.125607 0.895292 -0.00960676 -0.25581 -0.881147 0.515588 -0.832052 -0.927157 -0.328727 0.1348 0.138414 -0.845964 -0.871375 0.857352 0.90438 0.89135 0.881681 -0.493058 -0.0435918 -0.658661 -0.448489 -0.827051 -0.184718 0.738492 -0.276563 1.25983 0.737024 0.961602 0.326087 0.179644 0.767465 -0.0472581 -1.10281 -0.879185 -0.981985 -1.04565 -1.31679 0.541802 -1.15418 -0.262498 0.0215133 -0.101118 0.531227 -0.678691 -0.866168 0.354826 -0.801954 -0.468876 -0.190517 -0.457466 0.416294 1.11579 0.109394 0.0483082 -0.369599 -0.570866 0.214683 -0.452057 -0.344137 -0.186954 0.417922 -0.944449 -0.722285 -0.206099 0.25454 0.499781 0.546939 0.0362771 0.270425 -0.554099 0.767136 0.705283 0.0581304 0.942274 0.760693 0.922793 0.35462 -0.660448 1.06953 0.380867 -0.216598 1.32818 1.00086 -0.24689 1.12041 0.143382 -0.399496 -0.678195 -0.646424 0.357644 0.690504 -0.705911 -0.370765 -0.60238 -0.783427 -0.468292 0.251906 0.784711 0.79523 0.425711 -0.00248269 0.149663 0.147137 -0.890824 -0.270883 0.174058 1.04006 1.06956 0.854375 -0.472247 1.08421 0.163373 0.87948 0.106608 -0.864524 -0.226846 0.888938 0.184088 0.639736 -0.346602 -1.08691 -1.05675 0.458379 -0.0983016 -0.0810909 -0.462573 0.600716 0.840871 -0.989281 0.739363 -0.419293 0.377107 -0.268602 -0.15017 -0.321909 -0.29755 -0.931689 -0.0771209 0.288264 0.38573 -0.820838 0.438498 0.421319 -0.632032 -0.920948 0.337568 -0.0955195 -0.389031 -0.898933 0.529666 -0.575151 -0.118698 0.573424 0.30237 0.925376 -0.784464 -0.365497 -0.918407 0.325784 0.728785 0.527539 0.395487 0.934252 0.665233 0.690351 0.114634 0.183894 -0.498916 0.222529 -0.312758 0.84598 0.405834 -0.390928 0.898226 -0.725411 -0.450064 0.436825 -0.874644 -0.874465 0.0594263 -0.601793 -0.985467 0.552126 0.319562 -0.321823 
-0.709164 -0.957992 -0.889259 0.519749 0.778095 0.739348 -0.582881 -0.804003 -0.257816 -0.0099257 0.298811 0.500375 -0.828927 0.350363 -0.77853 0.976436 -0.351356 -0.446466 -0.527063 0.368195 0.941696 -0.413363 0.741105 0.85638 0.930783 -0.424716 0.345335 0.641087 0.422491 -0.185314 0.0395428 -0.815401 -0.529346 0.76431 -0.668359 0.639874 -0.705444 -0.615866 1.00103 0.836039 -0.781383 -0.00614868 -0.0672211 -0.957762 0.18976 -0.910954 0.732719 -0.0762857 -0.375699 -0.152003 0.440079 0.0380161 -0.915263 -0.993296 -0.551755 -0.72477 -0.138339 -0.172056 -0.698823 -0.465305 0.471696 -0.359243 0.121853 0.377953 -0.501244 0.879674 0.37917 0.749872 -0.290182 -0.623497 -0.576182 0.862157 -0.341632 0.151287 0.112912 0.849537 0.352172 -0.138004 0.799321 0.531599 -0.399845 0.271654 -0.23614 -0.752935 0.17112 -0.839616 0.837263 -0.223525 0.846616 0.110846 0.0190099 0.395647 0.00660108 0.266957 0.446259 0.225194 0.636408 -0.0701729 -0.34134 0.322461 -0.413839 0.45942 0.973521 -0.108246 -0.151612 0.0061619 0.0579207 -0.366575 -0.341051 -0.559307 -0.19938 0.342893 0.112749 0.861953 0.25864 0.632072 0.391129 0.911848 -0.807839 0.193074 0.723532 0.525562 0.567918 -0.415392 -0.586477 0.956178 0.924002 -0.0286877 0.238439 -0.151764 -0.390679 0.427475 -0.433257 0.0587131 -0.199349 -0.282274 -0.294496 0.303446 0.275342 -0.612911 0.00730383 0.841078 -0.574252 -0.0780107 -0.493692 -0.0691893 0.617459 -0.915774 0.932755 -0.532648 -0.861811 0.379913 0.0979993 0.867762 0.802483 -0.0742684 0.595865 0.643159 0.0686713 0.0594705 0.354243 -0.243084 0.525402 0.634962 -0.99358 -0.0468567 0.949483 -0.498885 0.252399 0.20272 -0.85468 0.839355 0.349115 -0.38579 0.940967 0.723547 0.0784212 -0.245977 -0.678955 0.55029 0.350952 -0.0986174 -0.609884 -0.0525321 0.729269 -0.12672 -0.253573 0.349779 0.67319 -0.432929 0.686927 -0.77982 0.470419 0.565788 -0.0866581 0.322123 0.583709 0.152174 -0.632487 -0.560342 0.0925052 -0.0678848 1.19943 -0.586644 0.861213 0.444159 0.767555 0.229837 0.109737 0.064084 0.384268 0.661705 1.11185 -0.54257 0.662972 -0.67018 0.429402 0.239755 -0.242954 0.658794 -0.590021 -0.378235 -0.104128 0.6326 0.650123 -0.343213 0.934947 -0.842304 -0.708861 0.656298 -0.145126 -0.614464 0.861232 0.14852 0.00618387 0.0977683 -0.0432894 -0.169936 0.568513 0.791076 -0.511259 0.783378 0.256361 -0.666293 -0.419409 0.584498 -0.626472 -0.463823 0.91156 0.74792 -0.495996 0.274607 -0.595468 -0.902364 -0.600185 -0.695941 0.659825 -1.09308 0.34364 0.763097 -0.527273 0.733882 0.0631738 0.313819 0.37014 1.03186 -0.194982 0.0350337 -0.726019 -0.31029 0.260868 -0.731016 -0.0490955 0.351666 -0.537629 0.697096 0.789516 -0.411662 0.814528 0.808362 0.995068 -0.861011 0.691176 0.073288 0.510045 -1.07634 0.376203 0.720246 0.719458 -0.00190051 0.85872 0.672228 -0.261247 -0.242188 -0.271569 0.496299 0.758115 -0.17005 -0.00745363 0.89238 0.0190712 -0.0676063 1.05973 0.931693 0.616455 -0.699804 0.769189 -0.916454 -0.643294 0.136502 0.60926 -0.80433 0.266745 0.231107 -0.218691 -0.0797729 -0.186182 0.268568 -0.166889 0.674931 -0.450711 0.487065 -0.22136 0.503487 -0.259467 0.0234702 0.950592 0.260068 0.701273 0.27746 -0.468341 0.682988 -0.465563 0.498751 -0.750389 -0.0123092 -0.134058 -0.0820679 0.363692 -0.0634072 -0.389423 -0.448503 -0.65232 0.918089 -0.186416 0.938843 0.910106 -0.405919 0.859819 -0.0446336 -0.770806 0.377374 -0.730888 0.289149 -0.130975 0.809133 1.11885 0.0562009 0.172577 0.0903675 -0.712671 -0.771235 0.948098 0.823601 0.298774 0.660659 -0.159708 0.995956 0.548779 0.0449141 -0.0590853 -0.624424 0.439623 0.237393 0.460553 0.512506 1.19128 -0.297356 1.05879 0.954307 0.71381 -0.182761 -0.659321 0.727044 -0.503486 0.664791 -0.480992 -0.676227 -0.0910617 0.64727 -0.522764 0.95813 0.862141 0.0493677 -0.298502 -0.572599 0.829172 0.552966 0.375932 0.25336 0.108361 0.622498 1.45319 -0.0478487 0.909867 1.58759 -0.0672596 0.159168 -0.61918 0.561288 -0.863774 -0.528324 -0.602823 0.268122 -0.681527 -0.343375 -0.350308 0.365983 -0.734488 0.717992 -0.106262 -0.310783 -0.123418 -0.370673 -0.00319698 -1.18577 0.322649 0.241223 0.520004 0.821635 1.46574 0.837894 -0.106448 -0.364435 0.312776 -1.08805 -0.666648 0.981962 -0.701723 -0.0516441 -1.27435 0.420737 0.863782 0.479291 0.964022 -0.127695 0.565143 0.299106 0.62785 -0.563948 0.178495 -0.352322 -0.0712378 0.132584 0.100004 -0.862672 0.709656 0.721106 0.156577 1.21744 -0.681131 -0.141456 -1.46797 -0.303394 -1.01927 -0.195917 0.126502 -0.912785 -0.461053 0.0888814 -0.25149 0.242788 0.402001 0.452761 0.616345 0.332925 -0.703102 -0.448966 0.255064 -0.18565 0.481495 -0.771202 -0.493132 0.168124 -0.684452 -0.622533 -0.447282 -0.747931 -0.0882339 -1.01461 0.0255017 -0.0868031 0.361116 0.684909 -0.505693 -0.315633 -1.30013 0.0104799 -0.302864 -0.0133303 -0.113218 -0.647879 0.897745 0.761993 -0.366264 -0.188401 0.842225 -0.50709 0.054663 -0.164902 -0.331989 0.0342706 0.524906 -0.243182 -1.03966 -1.79168 -1.39137 -0.272422 -0.980696 -0.729227 0.570687 -0.352022 0.915851 0.160707 -0.514995 0.152584 0.299727 0.13789 0.607479 0.0989 0.616128 -0.555896 0.809932 -0.206156 -0.591869 -0.301883 -0.107169 1.05977 0.794666 0.883774 0.381156 -1.6025 -1.76317 -0.60874 -0.767241 -0.81748 0.0960922 -0.839804 1.01246 0.576255 0.895959 0.149706 -0.914446 -0.813219 -0.0731877 -0.114291 -0.993624 -0.910012 0.651086 0.899001 -0.599027 0.0156532 0.0292764 0.713489 0.871634 -0.50799 -0.109601 -0.320028 -0.351719 -1.25735 -1.44132 -0.424519 -0.170253 0.474 -0.605029 1.07963 -0.610102 0.204228 -0.161022 -0.290061 0.446427 -0.292949 0.727547 -0.705536 0.835006 -0.166715 -0.181473 -0.736775 -0.180873 -0.402695 -0.580646 -0.753543 0.779117 -0.00324553 -0.602658 -0.0420857 0.139561 -0.751362 0.398447 0.0837197 -0.808502 -0.150525 -0.128417 -0.21792 0.0354284 0.0425079 0.0746657 -0.614434 0.400274 -0.52576 -0.0372141 -0.915498 -0.0950309 0.613337 0.418709 -0.270102 0.471404 -0.120677 0.0781153 -0.349669 -0.618401 0.11291 -0.661203 -0.139182 -0.688512 -1.075 -1.15863 -0.250759 -1.20138 0.404455 0.065298 -0.362112 0.285533 0.648043 -0.518172 -1.14475 0.787603 -0.738586 -0.950195 -0.821756 0.293554 -0.0115068 -0.395751 -0.43953 -0.813145 0.238511 0.714653 -0.252325 0.659424 -1.01688 -0.205862 -0.405409 -0.0168719 -1.53195 -0.962704 -0.952264 -0.397006 0.0813545 -0.397836 0.278979 0.595054 0.133748 0.492273 0.749368 0.18028 -0.665046 -0.860441 -0.135977 -0.598398 0.587199 -0.692248 -0.0988111 -0.656107 0.389955 0.757523 0.687898 -1.01755 0.14505 0.10435 -1.48949 -0.241987 -0.834216 -1.34031 0.399306 -0.00754998 -0.718526 -0.15748 0.33354 0.0363532 0.512242 0.831416 -0.15187 0.0461961 0.651055 0.318697 0.289967 0.0672825 -0.38701 -0.302095 0.204843 0.18652 -0.64445 0.39557 -0.532195 0.764063 0.759107 -0.638596 -0.879821 -0.539891 -0.923696 -1.2186 -0.523929 0.825017 -0.796499 0.376796 0.260648 0.324769 -0.835468 -0.737834 -0.806036 0.376277 -0.495898 0.565177 0.203488 0.805808 0.609677 -0.229864 0.30235 0.554097 0.465144 0.937178 0.278257 -0.246238 0.00908629 -0.198027 0.673043 0.142723 -0.0053851 0.942274 0.115397 -0.412231 0.681396 -0.138903 -0.140701 0.776401 0.425933 -0.712639 0.608805 0.126888 0.117554 0.93096 -0.0871571 0.259277 -0.228097 0.929152 -0.650151 -0.252608 -0.964554 0.0571565 0.0153644 -0.473483 0.148027 0.861238 0.240119 -0.805858 -0.720221 -0.880957 -0.0108218 -0.750191 0.971732 -0.650218 -0.259479 0.669194 0.251101 -0.717318 -0.422353 0.775786 0.0437856 -0.759387 -0.123028 -0.404074 -0.359634 -0.0653982 -0.476743 
0.868666 0.403744 0.277019 0.717822 -0.519072 0.136241 0.59863 0.470652 0.867823 -0.145989 0.416715 -0.0453352 -0.856851 -0.141583 0.774424 -0.727531 -0.635438 -0.123181 0.793776 -0.778099 -0.373271 0.10318 -0.846733 -0.193943 0.607585 0.6124 -0.877936 0.641004 -0.915838 -0.441999 -0.441839 0.0322215 0.674606 -0.106009 -0.0824896 -0.622895 0.939354 -0.917598 -0.141881 0.850732 0.319869 0.684728 -0.652081 -0.32144 0.341655 0.753895 -0.261444 0.560015 -0.384109 0.276127 0.967513 0.799012 0.389854 0.252002 -0.72743 -0.275376 -0.744309 -0.295215 -0.836044 -0.633603 0.0732882 -0.293422 0.526928 -0.43333 0.371302 -0.465341 -0.62237 -0.0615636 0.398901 0.882556 0.689274 0.840689 0.708027 0.0163132 0.363736 0.680781 0.544848 -0.483851 0.62662 1.02416 -0.993671 -0.00852372 -0.101671 -0.370653 0.817624 -0.823031 0.255992 0.290261 -0.260152 0.41125 -0.541207 0.489943 -0.212964 -0.0493495 0.574517 -0.391906 0.028458 0.619239 0.870508 0.108393 0.227995 0.73509 0.269702 0.233191 0.892351 -0.355342 -0.484691 0.658543 -0.163706 0.166221 -0.32631 0.262472 -0.282165 -0.782366 0.778512 0.0274349 -0.152066 0.296081 -0.796546 0.995081 0.687194 0.204246 0.637008 -0.249798 -0.848245 0.497995 0.0353579 -0.302889 -0.0545587 0.255908 -0.483684 -0.380596 -0.590494 -0.988242 -0.13028 -0.0637837 -0.015923 0.795261 0.0384363 0.431918 -0.076727 0.450663 -0.361693 0.751138 0.0574607 -0.342904 0.464752 -0.814827 0.205425 0.538623 0.00333835 -0.108969 1.12023 -0.504185 -0.410188 0.205505 0.595615 0.472579 0.466604 -0.485072 0.216873 -0.754537 -0.42437 -1.00677 0.105818 -0.624394 0.437119 0.407831 -0.0298182 -0.79318 0.792476 -0.781191 0.841056 -0.495615 0.60701 0.268141 0.569576 -0.165256 -0.456273 -0.322161 0.466391 0.224174 0.0581274 0.432518 -0.718589 0.0513042 0.359079 0.160911 -1.09319 0.196126 -0.15892 -0.724912 -0.0416364 0.498709 -0.0863576 -0.176744 0.431173 0.144937 -0.230778 0.497721 0.0517128 -0.509047 -0.228288 0.35335 0.457134 -0.743903 -0.00173065 0.592175 -0.0451428 0.912802 -0.50094 0.488113 -0.547368 -0.813859 -1.21702 -0.848892 0.251533 -0.614181 1.00168 -0.816708 0.0697544 -0.416053 -0.472416 0.549066 0.189691 -0.585423 0.0044687 0.148542 0.120039 -0.690649 -0.52274 0.345487 0.198762 0.109334 -0.212509 0.0803097 0.0506209 -0.485673 -0.453611 0.62927 -0.912935 0.772562 0.143674 -0.959245 0.501903 0.404811 -0.601881 -0.67996 -0.223531 -0.36222 0.286757 -0.815695 0.414395 -0.284169 -0.683312 0.721973 0.307795 -0.924155 -0.0482744 0.0787436 0.000780608 -0.717398 0.622038 0.78249 -0.419107 0.636721 -0.445938 0.044578 0.0617555 0.444972 -0.239293 0.552235 -0.460479 -0.510514 0.653335 0.442135 -0.353657 -0.7259 -0.269622 -0.666704 0.811927 0.896929 -0.7486 0.0441308 0.598981 -0.111407 -0.0318414 -0.780742 -0.407081 -0.0597729 -1.00153 0.166488 -0.413442 -0.368583 0.0532537 -0.565918 0.883288 0.541301 0.958892 0.295494 0.896986 -0.0151589 0.702843 0.301246 -0.307176 -0.540147 0.931172 0.390211 0.421126 0.976231 -0.300046 0.264031 -0.430748 -0.67875 -0.664403 -0.547215 -0.447041 -0.212036 0.434437 0.769622 -0.744194 0.909733 -0.146542 0.573588 -0.414157 0.80002 1.00722 -0.124197 0.501725 0.31701 0.287037 -0.168452 0.807634 0.467401 -0.932257 0.122644 -0.868857 0.804574 -0.0401316 0.214051 -0.346417 0.258368 0.669128 -0.147687 0.231199 -0.830417 -0.301049 0.651311 0.490047 0.184123 0.849517 0.809743 0.832407 1.37959 1.26475 0.292254 0.50299 0.747677 0.538911 0.467154 0.366183 0.741522 0.280418 -0.966455 0.437318 -0.47588 0.846777 0.382993 0.895944 -0.525192 -0.305285 -0.114935 -0.555591 -0.6686 0.21467 0.366878 0.876703 -0.161198 1.13185 -0.158645 0.0290156 0.171383 -0.199968 -0.23833 0.127731 0.669743 0.749325 0.731531 -0.572904 0.896345 1.01019 -0.608906 -0.14625 -0.682475 -0.810377 0.985355 0.232472 -0.16912 -0.97862 0.447771 0.185689 0.275231 0.380142 -0.745522 0.343578 0.141094 -0.201671 -0.308153 1.28728 1.37357 0.170325 0.0990754 -0.642413 1.02585 -0.965263 0.61928 0.456621 0.413441 -0.371643 -0.929182 0.0700185 -0.814179 0.88748 0.176422 0.0139488 -0.0797439 0.462004 -0.367657 -0.879696 0.0332927 0.381499 0.365604 0.730651 1.07265 1.51007 1.48108 0.460469 -0.0294737 -0.30349 1.17474 0.940963 -1.05979 0.741391 -0.565963 0.241745 -0.382683 0.966585 0.738123 0.120552 0.150305 -0.691035 -0.0932764 0.191102 0.44998 0.722613 -0.532105 0.767883 0.31834 0.0307703 0.800289 -0.213827 0.263748 0.311107 1.17713 1.18205 0.533534 -0.662023 0.900444 0.886589 0.267658 0.579379 0.0737438 0.965153 -0.120431 0.0935046 -0.0737077 -0.891103 0.651492 0.880786 0.184381 -0.427342 0.156551 0.590106 0.621712 0.202185 0.250091 0.776281 0.166022 0.0122585 1.24635 0.57505 0.292126 -0.999936 -0.106493 0.919725 -0.569687 0.106431 -0.11678 -0.122592 0.842963 0.562842 -0.703771 0.314863 0.503943 0.312135 -0.0922226 0.175468 -0.135052 0.832821 -0.0103809 -0.0162486 0.828162 -0.168727 -0.0390294 0.587047 0.466928 0.104994 0.229964 -0.0562317 0.171389 -0.389696 0.0792275 -0.356349 -0.618743 0.484896 -1.01214 -0.402568 -0.454796 0.535408 1.14246 -0.75235 -0.888551 -0.219942 -0.506538 0.104419 1.06194 0.862385 -0.598975 0.574979 -0.964427 0.143561 -0.413561 -0.586483 -1.04529 0.491876 0.346254 -0.437675 0.334179 0.319828 0.810967 -0.151444 0.531536 0.306936 -0.407626 -0.126441 0.20571 0.589731 0.306996 0.380441 0.187685 -0.333567 0.661581 0.962406 0.767968 -0.794452 0.0252784 0.648788 0.485816 -0.776547 0.391816 -0.288729 -0.240046 -0.44088 -1.14269 -0.667317 -0.420707 -0.0876176 -0.775463 0.224146 0.964357 0.951035 -0.140734 0.477167 -0.437666 0.974581 0.964334 -0.372365 0.783092 0.52714 -0.517977 0.757417 -0.590061 0.302407 -0.605829 0.697096 -0.71144 -0.16186 -0.591845 -1.06694 -0.724005 0.158691 -0.436834 -0.471408 -1.01769 -0.00938483 0.221752 -0.20732 -0.700561 0.702217 -0.559514 -0.346419 0.967644 -0.460015 -0.0681339 -0.0740925 -0.474871 -0.922245 0.58403 0.602626 -0.561778 0.0718275 -0.0671638 -0.478479 -0.865164 0.567135 -0.443775 -1.11675 -0.585674 -0.921745 -0.0270334 -1.13576 0.468617 0.22914 -0.356899 -0.343002 -0.155141 0.260828 -0.857587 -0.33283 -0.858234 0.719775 1.12297 -0.237053 0.935616 -0.261703 -0.723481 0.470412 1.21477 0.112574 0.0140224 0.684161 0.355209 0.634719 0.409745 0.179664 -1.25015 -1.15998 -1.42853 -1.33022 -0.452111 0.309783 -0.361354 0.749739 0.887548 -0.657062 0.28644 0.960428 0.556214 -0.115427 -0.316454 -0.755677 -0.709512 -0.133166 0.297761 0.719567 -0.571374 -0.734028 -0.837371 0.285476 -0.537449 -1.17942 -0.9531 -0.635768 -0.232902 -0.745952 0.217836 0.0248621 -0.507364 -0.496263 -0.781233 -0.242302 0.162765 0.385515 -0.814298 -0.095665 -0.0147832 0.0850557 -0.328636 0.0390014 -0.396504 -0.136181 0.116362 0.376639 -0.578455 -0.527281 0.331391 0.757558 0.273539 -0.965707 0.934344 -0.0596158 -0.366319 -0.742298 0.974623 -0.133813 0.0325753 -0.0386646 0.346362 0.942441 -0.478373 0.611936 -0.925698 0.134803 1.0116 -0.788948 -0.400078 0.0196605 0.145315 -0.213236 0.863121 -0.608356 -0.219296 -0.961971 -0.618487 -0.368308 -0.30971 -0.602994 0.701365 -0.228599 -0.476743 -0.472338 0.389766 -0.200436 -0.136773 -0.104952 -0.81987 0.209542 0.677819 -0.123475 -0.459239 0.65707 -0.126394 -0.692571 -0.869988 0.557994 0.778818 0.665982 0.422509 -0.805823 0.0190352 -0.278096 -0.112808 0.561676 0.824995 0.714878 -0.0430387 0.0103416 -0.286631 0.978484 0.251976 -0.704805 -0.391181 -0.739362 -0.0514541 -0.343512 -0.472633 0.619302 0.604093 -0.468281 0.386996 -0.850325 -0.641485 -0.503395 -0.778657 
0.178048 -0.275177 -0.871827 -0.761913 0.478893 -0.618606 -0.0593033 0.059191 -0.356442 0.784694 0.0944005 -0.835892 -0.957997 -0.608968 -0.943975 0.0287785 -0.0207041 -0.645403 0.0785132 0.0215857 -0.801775 0.955997 -0.00351578 0.829063 -0.399953 0.581072 0.125688 0.238788 0.0477762 0.621778 -0.412792 -0.170237 -0.580473 0.519417 0.611386 0.161682 -0.782883 0.0537806 -0.792231 -0.11723 -0.697127 0.863692 0.205641 -0.157386 0.957522 -0.568873 0.809508 0.602361 -0.812345 0.967029 0.681748 0.101845 -0.313939 -0.318768 -0.886554 0.775044 0.411414 -0.211284 0.459515 -0.599225 0.613492 -0.0802463 -0.29014 0.0908493 -0.399767 0.884624 -0.629158 0.510388 0.529248 -0.954338 0.363064 -0.740148 0.424338 -0.422588 0.825446 -0.0930189 -1.10091 0.698244 -0.897923 -0.929229 -1.03727 0.1507 -0.725151 -0.0312878 0.933326 -0.460539 0.57489 -1.01102 -0.690361 0.782672 -0.193901 -0.643211 0.692256 1.05637 0.299598 0.813541 -0.1476 -0.246475 0.0242339 -0.101495 0.273981 0.529899 0.916956 0.438207 -0.650356 -0.4688 -0.205415 -0.717415 0.0369969 -0.256482 -0.334912 -0.471464 -0.543449 -0.114123 -0.393172 0.308617 -0.170384 0.352001 0.568292 0.278696 0.975013 0.984699 0.159213 0.877435 -0.0646029 -0.625267 -0.330674 -0.674987 -0.365033 -0.355821 -0.497083 0.45662 -0.241289 -0.713733 -0.124007 -0.808749 -0.682032 0.145333 -0.67589 -0.142663 0.566851 0.821289 -0.335949 0.106987 -0.90476 -0.519841 0.803051 -0.649152 0.889718 -0.914202 -0.699251 0.31328 0.809677 0.656696 -0.506396 0.261436 0.369533 0.735413 0.0195903 -0.510291 -0.150905 0.212835 -0.632506 0.731481 -0.0371247 -0.46746 -0.206794 -0.14458 0.828689 -0.825456 -1.0732 -0.457367 -1.06015 0.385643 0.295783 0.172072 -0.90464 -0.44486 0.379937 -1.09233 0.740276 0.908476 -0.0557046 -0.448471 -0.428523 0.0653381 -0.794279 0.0331484 0.727799 0.465603 -0.200986 -0.404294 -0.261944 -0.755351 0.691471 -0.53732 0.612373 0.558806 -0.19936 -0.173637 -0.24565 -0.740298 0.407195 -0.337698 -0.237408 -0.372168 -0.465766 -0.95747 0.297414 -0.681139 0.70127 0.529628 -0.561171 0.810148 0.727123 -0.872878 0.914298 -0.442742 0.188329 0.0455625 -0.387857 -0.562816 -0.28115 -0.995228 -0.871343 0.118924 -1.01699 0.640941 0.120505 0.404798 -0.320311 0.954576 1.00058 -0.0137271 0.556827 0.190239 -0.895507 -0.565101 0.371958 0.185629 -0.946515 1.28667 0.30424 0.294195 0.575443 0.329642 -0.249728 -0.213504 0.404053 -0.293413 0.232938 0.664894 -0.402497 -0.572742 -0.868025 -0.393386 0.596105 -0.898054 0.153776 1.02762 -0.445848 -0.309391 -0.0930622 -0.0934611 -0.49271 -0.463231 0.34953 0.227752 1.14444 0.199494 0.018527 0.794508 0.493671 -0.0734974 0.361714 -0.514411 -0.844509 -0.247631 -0.60031 0.264773 -0.712601 0.595792 -0.581755 -0.840127 -0.374563 -0.892312 -0.194224 0.0244694 -0.291827 -0.910802 0.417012 -0.696688 -0.363007 -0.622406 0.531028 0.780165 -0.434444 0.157826 -0.0725813 0.984774 0.853409 0.719349 -0.398295 0.530038 -0.0294021 0.17005 0.0976138 0.652996 -0.6132 0.987541 -0.355714 -0.880062 0.533349 -0.055339 -0.920203 -0.0600162 -0.60815 0.135263 0.35995 -0.165433 0.401916 0.541803 -0.0971615 -0.222215 -0.330606 0.619853 -0.845546 0.0399557 0.914918 -0.35014 -0.0869917 -0.500247 -0.599574 -0.568618 -0.258356 -0.0373763 -0.924878 0.0114808 0.41351 -0.142861 -1.04483 0.379215 0.0750086 -0.322957 -0.528898 -0.283464 0.0711654 0.0116465 0.144344 -0.89532 -0.18065 -0.541738 -0.929102 -0.542179 -0.290034 0.189514 -0.0038142 -0.270272 0.0888587 -0.0355939 -0.628375 0.665832 0.900743 -0.948936 0.475483 -0.587005 -0.925986 -0.686083 -0.845789 0.0169155 -0.732886 0.178485 0.54255 0.0909287 -0.720477 -0.412229 -0.50181 -0.862855 -0.767927 -0.548621 0.00221474 -0.657051 -0.902264 0.477488 -0.424389 -0.652677 0.0119039 -0.21586 0.296391 -0.599251 -0.445096 0.705566 0.257724 -0.735257 -0.463368 -0.490206 0.0997504 0.464136 -0.00506277 0.699679 -0.0165743 -0.229948 -0.29302 -0.426012 -0.424884 -0.487831 -0.247114 -0.342771 -0.419351 -1.09207 -0.486476 -0.156457 0.652374 0.498328 -0.344606 -0.372093 0.71322 -0.826986 0.97288 0.814742 -0.500324 0.171028 0.903102 -0.684198 -0.440166 0.408913 -0.00274619 -0.30121 1.33103 -0.433678 -0.567997 -0.78986 0.780534 -0.812442 0.124226 -1.16985 -1.31219 -0.329597 0.265843 0.963098 0.33951 -0.206979 -0.530421 -1.15792 -0.0145853 -0.903444 -0.845801 0.970063 -0.473522 0.388989 -0.749399 -1.28177 -0.0492369 0.143793 -0.817825 -0.206592 1.11095 -0.262032 0.727668 -0.026614 -0.461607 -0.460586 -0.232872 0.616797 -0.025343 -0.833581 -0.140963 0.461483 0.64184 0.299516 -0.203259 -0.948074 0.622055 0.162718 -0.694483 -0.935518 -0.812407 -0.113078 -0.52497 -0.20386 0.605399 -0.585372 0.365749 0.151151 0.166495 0.700221 0.156658 -0.0489846 -0.157257 0.896791 0.671242 0.493608 -0.203669 0.682313 0.713095 0.313111 1.00271 0.554583 -0.608467 -0.527592 -0.449271 0.908573 -0.752689 0.211432 -0.699361 0.351352 -0.638203 -0.103055 -0.251434 0.62452 0.207185 -0.619767 -0.683179 0.65046 0.736314 -0.889808 0.144242 -0.198307 -0.44918 -0.316854 -0.429747 -0.104278 0.767872 -0.838907 -0.321485 0.856454 -0.190532 0.0584965 0.314951 0.0919021 -0.837856 0.586931 -0.348252 0.596771 -0.318957 -0.320039 -0.336322 -0.486756 0.548359 0.883671 -0.105218 0.73268 0.233891 0.738225 0.22981 0.207459 0.296596 -0.465419 0.174114 -0.979821 0.750128 0.838553 0.896776 0.694042 -0.631727 -0.202794 0.519988 -0.993803 0.28736 -0.0366004 -0.672517 0.733297 0.894246 -0.785717 0.0270908 0.0710374 0.505155 0.722635 0.87022 0.0706186 0.787703 1.14153 -0.335347 -0.950543 -0.157624 -0.661684 0.681338 0.4509 -0.536998 0.259777 -0.199931 0.152277 0.822208 -0.303281 -1.26389 0.523034 -0.656272 0.519085 -0.376668 0.544845 0.686258 -0.892662 0.72852 -0.328354 0.791576 0.302589 0.271075 -0.340205 0.65181 -0.150069 -0.232945 -0.942809 -0.735817 0.724057 -0.820004 -0.171341 -0.830353 0.303713 0.925455 -0.714124 -0.858294 -0.699784 -0.202885 -0.917038 -0.347924 -0.778918 0.270276 -0.995764 0.546951 0.174947 -0.502909 0.360483 -0.544819 0.339101 -0.0601191 -0.311407 0.212324 0.521502 -0.710045 1.00311 -0.94848 0.500677 0.509902 0.568292 -0.115715 0.466061 -0.770657 -0.740823 0.822017 -0.273085 -0.550794 0.222721 0.173303 -0.880405 -0.073012 0.174952 -0.899731 -0.521023 -0.836318 -0.795531 -0.314602 -0.972423 0.816593 -0.136964 0.00459799 0.146623 0.854861 0.516221 0.104879 -0.475256 -0.357859 -0.61048 -0.0514749 0.901007 -0.251471 -0.245693 -0.131973 0.344188 0.111097 -0.736825 0.800962 -0.518674 0.415258 0.918272 0.854881 0.335197 -1.19401 0.0977663 -0.0310197 -0.478516 -0.049669 -0.0678115 -0.380402 0.865092 -0.616594 0.535985 0.237486 -1.00834 -0.191097 0.159335 0.579447 -0.0692282 -0.2532 -0.528044 -0.729449 0.0200015 -0.292751 -0.778088 0.355822 -0.689643 0.920548 -0.471873 -0.494358 0.0638528 0.181754 0.0895781 0.352047 -0.365952 0.459679 -0.170243 -0.877168 0.225353 0.310488 -0.962908 0.706932 -0.139397 -0.483908 0.436683 -0.532926 -0.996736 -0.828609 -0.182278 -0.96864 0.590099 -0.46503 0.0982355 -0.977547 0.835718 0.49295 0.712681 -0.0984775 -0.0288062 0.81543 0.0620948 0.27643 0.0570061 -0.17239 0.726145 -0.840225 -0.647618 -0.907036 -0.386746 0.307822 0.306008 0.573522 0.806106 -0.778066 0.686082 0.827754 0.170985 0.6995 0.542792 0.836267 -0.355702 -0.896899 0.252247 0.0291846 -0.957052 -0.527924 -0.632005 0.225454 0.851373 -0.84404 0.764826 0.652522 -0.118183 -0.252401 -0.854415 0.481651 -0.529017 -0.329085 -0.258958 -0.691697 -0.623205 0.820518 0.601357 -0.713335 0.775811 -0.343355 0.695713 0.366605 0.817026 0.985601 -0.468778 
0.613452 -0.874765 0.422205 -0.521342 -0.287157 0.966767 -0.204381 0.570517 -0.130375 0.188927 0.282596 0.977012 -0.319302 -0.0286723 -0.979511 -0.736875 -0.214834 -0.708269 0.419835 -0.631426 0.161586 -0.548155 -0.547535 0.784206 -0.28781 -0.883589 0.879549 -0.28689 0.88678 -0.663269 0.621147 0.226489 0.552288 0.756374 0.0997367 -0.510317 0.500285 0.6697 0.99467 0.943654 -0.810165 -0.969636 0.0870067 0.868251 0.42663 -0.488672 -0.527366 0.274454 0.42275 0.443089 -0.695189 -0.970135 0.721541 0.0209573 -0.0901196 -0.519765 -0.700129 0.0276383 -0.748105 0.862971 0.730028 -0.349285 -0.387135 0.314922 0.623283 0.328327 0.218008 -0.621736 0.241398 0.844976 0.0434906 1.04323 0.546649 0.655403 0.0113415 -0.748556 0.123844 0.778139 -0.513544 0.33811 -0.157849 0.706645 0.455205 -0.12742 -0.89504 0.751763 0.462092 -0.837744 0.727978 -0.884734 -0.0137375 -1.23504 0.320337 -0.835915 -0.188746 -0.836584 -0.745106 0.586935 0.00355216 -0.434465 -0.107022 -0.268315 -0.734994 -0.975362 -1.00272 -0.116962 0.487355 -0.910434 0.772543 0.382674 0.179058 -0.948828 -0.759182 0.611334 0.221656 0.298653 -1.01565 0.598017 -0.968079 0.296814 -0.650194 0.199389 -0.417212 -0.0723222 0.702534 -0.448143 1.05227 -0.502122 -0.336738 -0.56905 -1.16115 -0.368617 -0.561626 -0.95187 -0.125138 -0.594741 -0.158331 -0.269605 -0.975572 -0.812804 -0.597771 -0.163125 -0.287949 -0.77858 -0.993168 -0.81723 -1.12799 -1.0618 0.203945 -0.968467 -0.110253 0.803223 -0.145988 0.929726 -0.350107 0.641663 0.163493 0.373227 0.328051 -0.939378 0.344342 0.184318 0.0629037 0.404145 -0.0386913 -0.765269 -0.6011 -0.75472 -0.0214426 0.749276 -0.925203 -0.0686448 0.615681 -0.292217 0.401744 -0.493959 -0.182906 -0.697339 -0.0620271 1.17538 -0.113907 0.01455 1.01618 0.709999 -0.95579 0.369569 0.480679 -0.882966 -0.707154 0.395315 -0.878776 0.630797 0.103681 -0.560269 -0.378627 -0.0583705 0.454175 0.436282 -0.0718353 -0.402964 0.509287 -0.481135 -0.95907 0.0181249 0.560674 1.00648 1.44319 1.40118 0.135408 0.468157 -0.831586 -0.752384 0.0707783 0.724496 -0.694872 -0.147863 0.470593 0.648461 0.260648 -0.138552 -1.04594 0.152108 -0.0271877 0.674438 -0.443542 -0.0461594 -0.532882 -0.716622 0.0310674 -0.352454 0.283967 0.543946 0.351073 0.856646 0.0675612 0.819873 0.591646 -0.502338 0.492491 -0.927243 -0.355295 -0.870745 -0.797812 0.879886 -0.647997 0.335169 -0.695311 -0.8305 -1.01385 -0.838384 -0.391421 0.878824 0.405446 -0.493731 -0.85996 -0.373898 0.517745 0.326994 1.01665 1.07345 -0.088567 0.0122209 1.26767 1.1606 0.895611 -0.906684 0.797863 0.615175 -0.76987 0.234004 -0.715348 -0.556209 -0.427624 0.136774 -0.310974 0.241185 -0.378754 0.852683 -0.355347 -0.132448 -0.866564 -0.781812 0.130829 -0.97111 -0.65634 -0.915285 -0.211688 -0.716736 0.966231 0.449382 -0.120394 0.800208 0.58451 0.875579 0.375695 -0.127267 -0.223424 -0.0456619 0.0854278 0.587559 -0.802866 -0.0525829 -1.03884 -1.30107 -0.244832 -1.16967 0.549109 -0.855726 -0.84063 0.647921 -0.335041 0.19844 0.286621 0.735123 0.177551 0.755135 0.259961 -0.606902 0.411801 0.0934078 1.07372 0.810821 0.459221 0.264788 -0.0209473 -0.268015 -1.17983 -0.0462032 0.789321 -0.805966 0.177677 -1.14217 -0.371536 0.292809 -0.0375953 -0.852192 -0.657071 0.0543495 0.646559 -0.132644 -0.418439 -0.548416 -0.0107893 -0.76695 -0.0740868 0.739922 -0.206534 0.190084 0.816136 0.870436 0.52671 -0.473814 0.109281 0.839594 -0.166212 0.112421 -0.997746 -0.666294 -0.154489 -1.39213 -0.755719 -0.618458 0.302523 0.153082 0.843136 0.121639 0.381197 0.46735 0.167977 -0.212553 -0.0779051 -0.368159 0.616016 0.222465 0.265299 0.414154 0.0519394 -0.236135 0.277543 -0.198881 0.663863 0.72768 0.0483043 0.294758 0.466406 0.332748 -1.13761 -0.115723 0.292399 -0.251312 -0.858883 -0.0141176 -0.515372 -0.6486 -0.178707 -0.666827 0.133678 -0.0194138 0.641653 0.2046 0.953981 -0.637475 0.492937 0.642998 0.269064 -0.188601 0.736335 -1.03684 0.301354 -0.162582 0.0682028 -0.0951572 -0.386863 -0.600529 -0.458017 -0.370445 -0.00904914 -0.797861 0.737982 -0.283918 -0.463263 0.610077 -0.188013 0.961395 0.346319 -0.560026 -0.120981 0.128442 0.541744 0.709915 -0.578582 0.963261 0.280837 0.497687 0.367894 0.467642 -0.330137 0.51863 0.296719 0.659087 0.2556 -0.630441 -0.568352 0.362486 -0.0538602 -0.501921 0.00891018 0.930415 -0.697007 -0.340646 -0.305219 0.633955 -0.7206 1.09198 -0.40443 0.657267 0.907446 0.119893 -0.109181 -0.730239 -0.820953 0.19279 0.712676 -0.682374 -0.201947 0.883906 -0.841346 0.523932 -1.05039 0.536331 -0.737323 0.868421 -0.857916 0.485392 -0.826413 0.491724 0.521001 0.579066 0.88046 -0.329084 0.207583 0.117465 -0.384958 0.364216 -0.110355 -0.466707 0.0491512 -0.68601 -1.03926 -0.649693 0.632544 -0.728157 0.849994 -1.06676 -0.468141 -0.956504 0.701164 -0.437022 -0.826481 0.679044 -0.702862 -0.241151 -0.615196 -0.731591 0.00684486 0.0571361 0.0579238 0.576909 -0.51478 0.587565 0.428158 0.480698 0.199998 0.183377 0.114693 0.182379 0.734547 0.206546 0.47083 0.907292 0.766744 -0.253285 -0.453238 -0.942152 -0.649913 1.01565 0.578649 0.448864 -0.90254 0.456825 -0.369113 -0.57913 0.363448 0.0442082 0.128095 0.469537 -0.30519 0.579831 0.183065 0.903001 -0.947477 0.445248 -0.436037 1.02049 -0.140097 -0.766297 0.341138 0.457127 0.868832 -0.77555 -0.913858 0.419801 -0.668306 -0.0945133 -0.300493 -0.36303 -0.533315 -0.078537 -0.30722 0.247249 -0.111499 0.347934 1.08543 0.0767659 -0.274677 -0.15867 -0.679025 0.344369 0.835088 0.360281 0.14599 -0.574883 0.0258561 0.262557 0.954596 -0.924072 0.125796 -0.0130483 -0.163832 -0.752153 -0.927099 -1.02183 -0.232895 -0.121432 -0.610671 0.480122 -0.699588 -0.1844 0.560505 -0.846063 -0.789194 0.920272 -0.138381 -0.0636812 -0.513711 0.231092 -0.295034 -0.352437 -0.442013 0.422179 0.301891 0.22458 -0.79585 -0.775229 0.071606 -1.02105 -1.20985 0.44926 0.612558 -0.565446 0.57993 -0.842176 -0.708165 0.0254537 0.518422 -0.98687 0.802126 0.929692 -0.575435 -0.558658 -0.52208 0.987062 -0.861027 0.560765 0.593233 0.693001 0.639355 0.966111 -0.512449 -0.437742 -0.441188 -0.0726652 0.336221 -0.364038 0.120429 -1.21889 0.251767 -0.466734 -0.289756 0.350139 -0.183497 0.572115 -0.131583 0.681549 0.265761 -0.815892 0.144093 -0.284237 0.644691 -0.870085 0.679956 0.407106 -0.0450839 1.22463 -0.140049 0.578535 -0.135018 -0.0728325 0.405077 0.261094 0.0685482 0.167924 -0.410614 -0.786083 -0.880336 0.304759 -1.0831 0.0912277 0.392725 0.648888 -0.687753 0.256723 0.611649 0.305645 -0.00996191 -0.434897 -0.194521 -0.955282 -0.187798 0.271687 -0.184475 1.21099 0.952889 0.00937739 -0.602038 -0.969589 -0.510121 0.753278 -0.503226 -1.02159 0.233244 0.560898 0.369898 -0.361441 0.801509 0.584605 -0.74778 -0.766375 -0.40536 0.71721 0.572065 0.137412 0.24184 0.132684 -0.314939 -0.6601 0.463132 0.462268 -0.68666 -0.415205 0.394867 0.694078 -0.879492 -0.761845 -0.862777 -0.640006 -0.742508 0.771244 -1.14421 0.689787 -0.680305 -0.442046 0.0139151 0.792105 0.126343 -0.655208 0.738924 -0.294481 0.655028 0.986721 -0.951804 -0.353714 0.278963 0.601066 -0.610117 0.76943 0.162568 0.720893 0.579136 0.516192 0.265688 -0.714505 -0.521872 -0.192767 -0.0619262 -0.302828 -0.671685 0.301444 0.0300501 -0.326312 -0.535489 -0.974913 0.39583 0.558055 0.950332 0.451422 -0.829423 0.506438 -0.70892 0.276659 0.106262 -0.615537 0.959007 -0.74243 0.314311 -0.342641 -0.518452 -0.714407 -0.629767 -0.0465105 0.629346 0.418056 -0.0607173 -0.921323 -0.410498 -0.556485 0.301482 0.414631 -0.49514 -0.748677 0.97482 0.774774 -0.570799 -0.706387 
-0.369764 0.294399 0.200748 0.647872 0.441305 0.391289 -0.723052 -0.764205 0.921083 0.594801 -0.480914 0.732056 0.799231 -0.503931 -0.909066 -0.0165158 0.087414 0.114028 0.0962898 -0.315534 0.503723 0.189357 -0.737587 -0.737945 -0.630276 0.73749 -0.400796 0.918348 0.447503 0.350556 0.910189 -0.815824 0.187889 -0.363822 -0.613102 0.110561 -0.867678 0.709544 0.556765 -0.170451 0.808643 -0.371659 -0.365877 -0.363311 0.889184 -0.589475 0.019513 0.820445 0.368764 -0.413272 -0.307156 -0.391277 0.868558 -0.806855 -0.998385 0.887007 0.822571 0.614575 -0.161684 0.79966 -0.895593 0.367643 -0.348446 0.702425 0.845258 0.626137 -0.685317 -0.0591972 -0.101646 -0.845213 0.443257 0.594603 0.698436 -0.0248762 -1.04513 0.830412 0.21531 -0.0552637 0.535637 -1.06368 -0.73354 -0.743838 0.283095 -0.528049 0.612197 0.641379 0.855769 0.703302 -0.0605314 -0.031868 0.928157 0.602355 0.603735 -0.492027 -0.12682 -0.783535 -0.282346 -0.614843 -1.08195 -1.0889 -0.685402 0.0577622 0.394739 0.859304 0.774169 0.167544 0.236635 -0.830959 -0.171237 0.440479 -0.0561036 -0.258736 0.282446 0.394544 0.518127 -0.309893 0.272378 0.549338 -0.252931 -0.632053 -0.554824 1.03423 -0.243757 -0.72622 -0.841412 0.577205 -0.725248 -0.715361 0.398109 -0.0654558 -0.375217 -0.437109 0.223786 -0.910179 -0.157361 0.659403 -0.283522 0.460118 0.715561 -0.361655 -0.278116 0.447235 0.901836 -0.0408393 1.06284 0.738006 0.829268 0.0377032 0.0299912 -0.470947 0.61049 0.684083 -0.460758 0.034382 -0.861117 -0.204993 -0.685658 0.406382 0.311013 0.248662 -0.668801 0.996948 -0.687259 -0.334018 -0.107512 0.187627 0.291138 0.603201 -0.266333 -0.844893 -0.282939 -0.678135 -0.484405 -0.218818 1.14884 -0.11576 0.447047 0.0220308 -0.364674 0.686831 -0.998549 0.0537652 -0.799679 -0.68989 -1.11471 1.05767 0.226209 0.984045 1.06752 0.314331 0.389576 0.0377644 0.355596 -0.0390846 -0.833362 -0.993965 -0.35168 0.168806 -0.471445 0.399282 1.0232 -0.164599 0.15351 0.0965233 -0.376885 -0.092399 0.250599 -1.24458 -0.0419708 -1.00335 -1.00037 0.353038 -0.466266 0.97304 1.17333 0.187047 -0.335599 -0.494694 0.855989 -0.24274 -0.656244 -0.846313 -0.752364 0.0481499 -0.342596 0.250548 0.0216789 -0.585229 -0.674586 0.46224 -0.54086 1.01631 1.02304 0.650374 -0.646811 -0.789842 -0.640045 0.409796 -0.519059 0.703715 0.248331 -0.793289 -0.533071 -0.138078 0.268317 -0.380552 0.261295 0.0650702 -1.10206 0.437324 -0.0399798 -0.757437 -0.8828 -0.555574 -0.0707462 -0.0455604 1.02542 -0.181107 -0.654264 0.648985 -0.652561 -0.669076 0.323609 -0.0645059 -0.935195 -0.304052 0.821407 -0.131947 0.751122 0.214588 -0.358963 -0.565061 0.761772 0.0969113 -0.895542 -0.181771 0.483915 0.503957 0.744501 -0.287817 -0.500893 0.75537 -0.375894 -0.767446 0.513033 1.09166 -0.340831 0.138244 -0.92093 0.325768 -0.563875 -0.584612 0.242997 0.341344 0.688991 -0.576442 0.167842 0.0879565 0.0937061 0.478164 0.0396962 -0.0069174 -0.695524 0.124426 0.38169 0.252838 -0.985732 -0.235115 -0.0154481 -0.228509 0.0407045 0.957381 -0.777218 0.0208716 0.331322 0.629539 0.812854 -0.795878 -0.984782 0.126487 0.0365161 -0.151695 1.11778 0.438888 0.0730479 -0.499653 0.668488 0.195245 0.995986 0.2898 -0.234459 -0.886066 0.351503 -0.678893 0.62608 -0.733794 0.742756 -0.548582 -0.387243 0.596831 0.672791 0.429769 -0.34212 0.146954 0.974796 -0.623353 -0.064051 0.471825 0.248738 1.05726 -0.044421 0.545787 -0.0821392 0.427065 -0.292108 -0.0372565 0.383575 0.227893 -0.289746 0.81403 -0.990456 -0.140899 -0.844453 0.80899 -0.242649 0.776551 -0.375938 -0.145994 0.443425 0.126835 0.443157 0.218903 -0.0802233 -0.857697 -0.609173 0.191811 0.267044 0.448601 -0.389788 -0.0916489 -0.0435323 -0.633147 -0.0977655 -0.424674 0.398378 0.345269 -0.144377 -0.748134 -0.271605 -0.63379 0.224487 -0.87761 0.564369 0.0799988 0.342838 -0.0261647 -0.338242 -0.883854 -0.562617 0.734768 0.282585 0.567682 -1.20439 -0.0554367 -0.225431 0.338858 1.06748 0.696505 0.761714 -0.903974 0.795296 -0.00621126 0.166779 -0.311074 0.826739 -0.128626 0.200061 0.243002 -0.411569 0.365171 -0.2266 -0.842196 -0.236878 -0.566261 -0.501335 0.208654 0.452684 -1.10387 -0.015587 -0.686665 -0.309805 0.561057 1.08407 -0.556289 -0.731412 -0.0366322 -0.109301 -0.110918 -0.0987082 0.119843 -0.450152 0.598017 0.247436 0.405086 -0.578149 -0.414469 0.968176 0.56327 -0.0323829 0.479304 -0.570671 0.563928 -0.271478 0.0510216 -0.955037 0.276394 0.261919 -1.13896 -1.14906 0.526049 0.894342 0.814271 0.760701 1.06059 0.499146 -0.707228 -0.305361 -0.673572 -0.712733 -0.891629 1.03793 0.650981 0.169282 0.822156 -0.838211 0.602055 0.0668598 -0.194285 -0.279434 0.789533 -0.479287 1.00751 -0.265077 -0.165817 -0.904206 -0.792401 -0.469579 -0.594346 0.632501 0.873237 0.138164 0.819219 -0.576208 -0.796494 -0.556882 0.280365 -0.900244 -0.519475 0.53765 -1.09121 -0.2145 -0.739867 -0.033182 0.914527 0.718658 -0.650246 0.120651 -0.218232 -0.158222 -0.281493 -0.394544 -0.0188744 -0.175958 0.27325 0.243282 0.789753 1.28341 0.706392 0.118131 0.465498 -0.198963 0.262668 0.707847 0.641835 0.522813 -0.0993961 0.688616 0.29306 -0.465854 -0.0572551 0.519378 -0.311187 -0.730792 0.561092 0.330454 0.735181 0.576045 -0.231242 0.833783 0.608792 1.19161 0.545025 -0.52677 0.842498 -0.812672 -0.274561 0.667712 0.0542368 -1.05863 -0.308407 0.632627 -0.961414 0.621039 -0.849948 -0.868332 -0.633356 -0.713503 -1.18248 -0.275962 0.823234 0.0832944 -0.529727 0.107168 0.64979 0.461737 0.529959 0.168775 0.696084 0.962406 0.158112 -0.350295 -0.873267 -0.533165 0.275799 -0.707748 -1.02952 -1.02506 0.365009 -0.183654 -0.543137 0.0890029 -0.0513565 -0.500778 -0.590355 -0.468507 -0.188942 0.274557 -0.379436 -0.981712 0.852075 1.13558 -0.239983 0.985078 -0.05104 0.427184 1.02849 -0.920759 -0.400987 -1.03519 0.191317 0.207392 -0.703026 -0.566267 0.600708 -0.05367 0.447956 -0.581161 0.191162 -0.893772 -0.427232 -0.476573 -1.39497 -0.514505 -1.00714 0.869792 0.963099 -0.303319 0.798714 -0.220307 1.14099 0.888466 0.0701894 0.587787 0.683483 0.018477 -0.333606 -0.0302813 -0.155695 -0.579748 -0.58815 0.154334 0.519075 -0.387095 -0.891195 -0.447951 -0.505122 0.488828 -0.60072 -0.0503227 -0.689182 -0.230475 -0.0825926 -0.763182 -0.0714852 -0.279373 0.0512973 -0.0839326 0.887953 0.313592 0.56283 0.616177 0.556916 -0.469443 0.057367 0.683554 -0.890435 -1.03558 0.589861 0.619533 -0.689529 -0.239642 -0.895907 0.389817 -0.433905 -0.502059 -0.284918 0.347656 -0.856266 -0.483092 -0.597969 0.0826158 -0.836328 -0.463721 0.568509 0.698509 -0.634049 -0.382583 -0.713325 -0.10607 -0.786414 0.549734 -0.86371 -1.02058 -0.67519 -0.762033 -0.966953 -0.247138 -0.607208 0.561934 -0.333257 -0.570728 -0.133594 -0.47533 0.2561 0.336498 0.356017 -0.330946 0.467293 -0.896525 -0.150188 0.831134 -0.114437 0.294698 0.799636 -0.177756 0.71474 0.347218 0.763888 -0.189064 0.105151 -0.711788 -0.452607 -0.228077 -0.675174 -0.869312 -0.537058 -0.636186 0.0570685 -0.342142 0.722871 -0.179408 0.0058618 0.688194 -0.837853 -0.357254 0.887248 -0.907513 0.184138 0.460563 -0.288598 0.0401908 -0.745715 0.217248 -0.394928 0.0288284 -0.406112 0.172673 0.874673 0.640277 0.580608 0.934787 -0.744029 0.00661002 0.559052 0.0431156 0.986815 0.368254 -0.617554 0.457924 0.483061 -0.279776 0.431421 0.944447 -0.342769 -0.290998 -0.363352 0.667154 -0.173969 0.644628 0.988335 -0.189516 0.0279606 0.337891 -0.123257 -0.00540607 0.122361 -0.154487 0.310048 -0.679345 -0.508648 -0.599153 -0.890524 -0.293418 0.450366 -0.308994 -0.0282645 0.0157735 0.601894 0.572842 0.995293 -0.0274746 0.306093 -0.862199 -0.428013 
-0.128195 0.454813 0.595866 0.94835 -0.145759 0.866519 -0.986786 -0.0888136 -0.411063 -0.155394 0.373415 -0.271295 -0.31646 -0.0727972 0.919857 -0.787058 -0.928212 0.0404957 0.889059 0.51007 -0.784558 -0.20911 0.382052 0.0466069 0.547749 -0.322775 -0.359585 0.278964 -0.382109 -0.41767 -0.176919 -0.954307 -0.0327613 0.732848 0.948375 -0.0556153 0.803999 -0.779145 -0.984158 -0.579706 -0.64801 0.426308 -0.26609 -0.310903 0.521972 0.986282 -0.939513 0.167969 0.359329 0.99489 -0.216245 -0.405451 -0.334612 -0.411271 -0.0768196 0.784517 -0.965301 0.780503 0.509837 -0.525351 -0.191924 0.281905 -0.273942 -0.231983 -0.55995 0.541719 -0.368236 -0.104369 -0.158571 -0.188844 -0.857065 0.536698 0.844307 -0.469772 0.806165 -0.527793 -0.174907 -0.509049 0.18504 0.24224 0.436839 0.76854 -0.227692 -0.305883 0.599624 0.616719 0.0103262 -0.438864 -0.236575 1.05765 -0.872257 -0.803214 0.322727 0.64513 0.580974 -0.641414 -0.277635 -0.03911 -0.950564 0.155345 -0.245864 0.972368 -0.0868622 -0.206156 -0.818794 -0.303862 -0.972199 -0.021436 -0.224365 -0.807891 0.82339 0.457658 0.223093 -0.59526 -0.451581 0.777186 -0.54712 0.344553 -0.427465 -0.0797353 -0.792143 -0.0568176 0.356218 0.723967 -0.664288 -0.866818 -0.212031 0.849486 -0.791083 0.437939 0.578255 0.278285 -0.904938 -0.58212 -0.620434 0.294012 -0.127592 -0.321054 0.824967 -0.893077 0.150519 -0.0052741 0.511005 -0.0793985 0.446148 -0.691853 0.686683 -0.205528 0.732735 -0.0431025 -0.528415 -1.08525 0.464042 -0.668142 -0.482368 0.0161048 -0.368629 0.532417 0.752617 -0.463178 0.149359 0.14207 -0.437303 0.309497 0.0992343 0.563127 0.548676 -0.391086 0.455683 -0.603385 -0.728824 -0.666439 -0.498718 0.319231 0.644894 0.713088 -0.421014 0.786071 -0.286385 -0.937787 0.262752 0.619474 0.282138 -0.20447 -0.763293 -0.46161 -0.515258 0.446736 0.393289 -0.040274 0.209324 -0.497007 -0.630255 0.722408 -0.727082 0.0246885 0.292764 0.847101 0.419914 0.804762 -0.763039 -0.460948 -0.722643 0.517338 -0.592845 0.210185 0.95742 -1.10744 -1.19949 -0.909369 0.289756 0.639313 0.550804 0.312447 0.17616 -0.657394 -0.316733 -0.0776811 -0.710494 -0.672729 0.972633 0.757795 0.348044 0.11398 0.170379 -0.330714 0.296317 0.112819 0.615675 -0.726307 0.00578303 -0.494285 -0.102269 0.920403 0.117232 -0.450874 -0.853739 -0.906937 0.852934 -0.571173 0.366868 -0.225677 0.505225 0.414558 -0.37708 0.679608 0.0269376 -0.233209 -0.399402 0.370746 -0.0975276 -0.100694 -0.461044 0.0648514 -0.286279 0.857281 -0.40942 0.634822 1.09748 1.13878 0.602694 -0.0559352 -0.205851 -0.815567 0.604181 -0.662162 0.35991 -0.203694 -0.97278 0.593661 -0.103261 0.972046 -0.51341 -0.348813 0.299164 -0.630394 -0.131758 0.12603 0.484633 -0.15449 0.277862 -0.279359 0.0202551 0.953842 -0.0499398 0.965063 0.399734 -0.771327 -0.235966 -0.724157 -0.95748 -0.106587 0.367638 -0.181135 -0.679008 -0.678418 -0.469913 0.0799839 1.07212 -0.313542 0.824976 -0.266056 0.588343 0.506979 0.219303 0.552509 0.860041 0.486264 -0.32895 -0.471714 -0.226013 -0.666042 0.454025 0.567544 0.0182905 0.839014 -0.71654 -0.592358 -0.15516 0.448345 -0.0186003 0.809632 -0.736634 -0.75838 0.942052 0.445296 1.22495 -0.490163 0.967999 0.420588 -0.281435 0.870039 0.225325 -0.544249 0.932486 0.114947 -0.544606 -0.940747 0.103237 -0.354393 0.572679 1.20678 0.775044 -0.110744 -0.178738 0.417028 0.223871 -0.268963 0.444982 1.07961 -0.131992 -1.02664 -0.839255 1.04216 -0.636978 0.245921 1.22806 0.149042 1.00766 -0.758909 0.566826 -0.17664 -0.460362 -0.841465 -0.97663 0.606665 -0.35778 0.443129 0.835535 0.290169 -0.364575 0.399231 -0.555865 0.230196 -0.689894 0.469909 0.93803 0.537207 0.687196 -0.610468 0.719891 0.765642 -0.335987 0.117964 0.489853 0.528929 -0.382776 -0.399081 0.467903 0.290488 0.827632 0.175299 0.854222 -0.0424203 0.741612 0.505623 0.674758 -0.46812 -0.0697491 -0.736502 -0.498446 0.802176 0.460898 -0.833621 -0.433259 0.519801 0.87939 -0.952908 -0.445766 -0.130667 -0.739297 0.874017 -0.54974 1.10516 0.180925 -0.579979 0.064713 -0.187969 0.571148 -0.922631 -0.0399965 0.994236 0.66756 1.03919 0.648766 0.369708 -0.117177 -0.0128752 0.454156 -0.0946068 -0.284226 -0.0935632 -0.721063 0.903494 -0.864524 0.479523 -0.702274 0.0926647 -0.516094 -0.138427 0.206711 0.293593 -0.1028 0.59744 1.02652 0.0623693 -0.0610339 0.543011 0.788473 0.680794 -0.644376 0.440696 -0.712639 -0.730055 0.475697 0.000434117 -0.451314 0.31142 0.88274 -0.13585 -0.6656 -0.803486 0.602315 -0.304 -0.15682 0.407853 0.19721 -0.142564 0.298354 0.081132 0.899349 -0.790935 0.157801 -0.154918 -0.546841 0.344479 -0.882676 -0.296703 -0.676826 0.890868 0.552753 0.325917 0.728833 -0.0140989 0.714516 0.699094 1.17059 0.649261 -0.0385253 -0.0390477 -0.81811 -0.288674 0.671249 0.352244 -0.808114 0.892268 -0.00157653 -0.75402 0.211354 -0.781881 0.757362 0.219549 -0.156616 -0.0469536 0.592345 -0.316371 0.129505 0.861781 -0.374432 -0.331663 -0.0806126 -0.799489 0.329362 1.03165 -0.226406 0.421436 0.575535 0.921833 -0.738245 0.183538 -0.704249 0.793265 0.484386 0.624276 -0.221369 -0.0637587 0.968762 -0.360775 0.0158831 0.189973 -0.812047 0.661441 -0.370625 0.0753268 -0.154801 -0.432216 -0.271065 -0.357183 0.531664 0.927297 -0.326267 -0.207101 1.28426 -0.361182 0.901523 0.646425 -0.270477 0.26549 -0.418372 -0.596588 0.97106 0.220464 0.348214 0.783033 0.348677 0.800377 -0.765242 -0.265138 0.961556 -0.0620172 -0.00252958 -0.645355 0.270849 -0.295762 -1.05317 -0.989821 -0.157113 -0.848599 0.797955 0.107345 0.632789 0.57839 -0.749968 -1.13019 -1.00981 0.792904 1.16393 0.57774 0.00321731 0.0405949 -0.402909 -0.332634 -0.407142 -0.00854938 0.0747497 -0.893019 -0.339721 0.556992 -0.690757 -0.536953 0.0971424 -0.415365 -0.0500007 0.276228 0.174564 0.502395 -0.938045 -0.422022 -0.12187 -0.432287 -1.37949 0.646863 0.591939 -0.848981 -0.723958 0.435654 1.24396 1.17013 0.457675 -0.730399 -0.544997 0.364247 -0.436644 -0.524991 -0.0750912 0.243234 0.199869 -0.349073 -0.158579 -0.017129 -1.08812 -0.897592 0.301116 0.285839 -0.18886 0.533553 -0.530784 -0.669096 -0.66801 0.71764 -0.969249 0.225476 0.91749 0.422863 -0.694923 -0.557373 -0.694449 0.307163 0.143127 -0.665791 0.307002 0.584527 0.994862 0.252846 -0.647797 0.903194 0.00521065 -0.14889 -0.225398 -1.10027 0.599623 -0.187684 -0.159975 0.559227 -0.570159 0.194399 -0.264443 0.437901 -0.278822 0.896207 -0.692119 0.283879 0.0189149 -0.12797 0.0301213 0.885673 0.161947 -0.361361 -0.642543 0.76813 -0.390214 -0.274365 0.867639 -0.208975 0.093874 -1.02657 0.524437 0.312492 -0.946616 -0.303263 -0.494763 0.663836 -0.703342 0.384115 -0.584003 -0.591836 0.695725 -0.841761 0.146841 0.804047 -0.743033 0.86597 -0.289982 0.92319 -0.601727 0.533131 0.635505 -0.641923 -0.332161 -0.489588 -0.674085 -0.906556 -0.593062 -0.537512 0.0157306 0.68476 -0.91222 -0.306927 0.0623391 -0.698318 0.512497 -0.219155 -0.876352 -0.834994 -0.729616 -0.37507 0.458922 -0.943642 0.963644 0.776858 0.749334 0.197477 -0.865986 0.0485931 0.663282 0.56077 0.690572 -0.113632 -0.199341 -0.920606 0.380435 0.411452 -0.550165 -0.627042 -0.368246 -0.121421 -0.368784 -0.59509 0.85491 -0.180699 0.834101 -0.739374 -0.433981 -0.568212 -0.164622 -0.483401 0.231459 0.594915 -0.19574 0.97155 0.105271 -0.961181 0.319368 -0.605946 -0.480993 0.354426 0.907456 0.867326 -0.293544 -0.910221 0.933246 -0.587797 0.40777 0.140344 0.0671407 0.48314 -0.112693 0.269496 0.522544 0.193769 0.220546 0.111318 -0.531424 0.407868 0.70841 -0.291997 0.719839 -0.387123 -0.0228758 -0.98132 -0.260301 0.240013 -0.308373 -0.176653 
-0.647165 0.319728 -0.504931 -0.586653 -0.756196 0.64533 0.0866133 0.137495 -0.740933 -0.39026 0.243106 -0.340999 0.0956203 0.512385 -0.348165 -0.0585724 -0.862298 -0.363158 -0.212063 -0.180617 -0.952351 -0.162423 -0.149776 0.0664386 -0.155363 0.620692 0.645214 -0.401999 -0.870662 0.981024 0.257859 0.303675 -0.600567 0.034013 0.334306 0.629608 0.347372 0.900644 -0.0985535 0.336764 -0.862304 -0.629785 -0.866966 -0.23101 -0.219768 0.0494901 0.816736 -0.802132 -0.889974 -0.36149 -0.307421 -0.301857 -0.502533 -0.891186 -0.706565 -0.699884 0.707287 -0.643829 -0.883312 -0.484581 -0.363192 -0.709412 -0.320427 0.341262 -0.0978098 0.0778934 -0.627182 0.0279673 -0.218985 -0.311054 -0.471774 -0.753668 0.742701 -0.741507 -0.585141 -0.741925 0.132588 0.60313 0.430771 0.689349 0.978972 -0.140126 0.527225 0.0228711 -0.748873 0.42213 -0.732291 -0.2779 -0.33824 -0.554099 -0.262188 1.04499 0.87715 1.26522 1.00656 0.630776 0.492932 -0.662103 0.810487 -0.229184 -0.142569 -0.0888704 -0.0728868 0.894953 0.220824 -0.600247 -0.697193 -0.672381 -0.308147 0.616365 -0.00668065 0.271165 -0.99838 -0.688824 -0.251819 0.186387 0.0617246 0.571981 0.382833 -0.0825032 0.937033 0.902224 0.0407954 1.18982 1.20579 0.00773866 1.02324 0.402376 0.509791 -0.230692 -0.519754 0.689455 -0.712397 0.302016 0.637475 -0.164335 -0.268201 -0.339002 0.544382 0.167523 -0.40299 -0.367588 0.505371 0.978551 -0.441395 -0.668835 1.2372 0.744958 -0.211802 -0.44833 0.539833 1.30915 0.456407 0.418711 0.117135 0.146683 0.885335 0.0742242 -1.08366 -0.101368 0.333267 0.817997 0.340918 0.229416 -0.272947 -0.107577 0.740012 -0.455301 -0.698627 -0.185206 -0.332466 -0.0398228 1.01841 0.470465 -0.214771 1.15962 1.13586 1.17093 -0.232665 -0.326568 -0.148794 1.01489 -0.547634 0.868497 0.137026 -0.587978 0.478619 -0.908189 0.0665542 0.948847 0.414408 0.558048 0.380053 0.161841 0.0494028 0.155509 0.579691 -0.544075 0.708723 -0.260946 0.308532 0.687002 0.58681 -0.648138 0.711386 0.0363622 0.215076 -0.179635 0.72499 -0.672076 0.264866 -0.190412 0.38897 -0.400254 0.946321 0.678366 0.294649 -0.582985 1.10826 0.522924 0.907403 0.969621 -0.203196 0.47209 0.764882 0.481014 -0.181913 -0.838966 -0.695433 0.456551 0.700492 0.76026 -0.0697564 -0.680602 0.727743 0.938341 -0.194028 -0.846444 -0.91128 0.399583 0.0094572 1.04063 0.903658 -0.902816 0.972512 0.838738 0.140848 0.259159 0.620462 -0.24426 0.281685 0.92095 -0.00222398 -0.819895 -0.899217 0.945225 0.425171 0.40615 -0.306709 -0.421881 0.486033 0.774867 0.500583 0.0748758 -0.018857 0.16529 -0.553177 -0.475948 -0.544683 0.519216 0.948892 0.836703 -0.447388 1.16634 -0.34751 0.786007 0.390357 0.722132 -0.191845 -0.838859 0.281094 0.700924 0.77634 0.561338 -0.356326 0.877797 -0.394401 -0.386717 -0.224417 0.6138 0.718319 -0.165711 -0.172512 -0.0421411 -0.446584 -0.0235198 0.473657 0.924316 -0.606233 0.869381 0.745908 1.27144 1.17583 0.946346 0.855154 0.425613 0.757204 0.658796 0.176164 0.00545528 -0.925695 0.129209 0.133511 -0.51895 0.569553 0.897523 -0.791307 0.327624 0.424245 0.238483 -0.093054 -0.426397 -0.143225 -0.277523 -0.289235 0.651185 0.472329 -0.0727198 0.333418 0.199285 0.576685 1.12532 -0.545056 0.395816 0.724966 -0.267913 -0.419537 0.0548257 0.291969 0.416088 0.166938 0.260883 -0.777264 0.0242334 0.429286 -0.0378453 -0.301086 0.988923 -0.620614 0.623182 -0.544106 0.719525 -0.0404706 0.72296 0.205967 0.34917 -0.00581329 0.422731 -0.604229 0.450415 1.27849 0.0302632 0.126476 0.69431 0.426369 -0.253712 -0.762392 -0.697907 1.03832 -0.122974 -0.856411 1.02463 -0.695815 0.031823 0.249352 -0.128406 0.524592 -0.463913 0.0989214 0.165857 -0.670057 -0.344546 0.522794 0.773795 0.878706 0.232536 0.157039 0.468578 -0.520552 0.112981 0.85483 -0.852297 -0.941526 0.435118 0.439863 0.54536 0.944634 -0.700428 0.282749 -0.458095 0.830416 0.232764 -0.310662 0.188079 -1.1381 -0.162566 -0.785929 0.40519 0.55964 0.00148857 -0.264374 -0.109744 -0.423188 -0.662866 -0.451816 -0.524844 0.2285 -0.806483 0.951031 0.0047766 -0.828167 -0.530528 0.778766 -0.371685 0.651305 -0.931945 -0.434357 -0.316887 -0.639157 -1.05917 0.479401 -0.853787 0.198081 0.112719 0.233703 0.947838 0.864012 0.218946 -0.864961 -0.657364 0.404892 -0.607226 -0.145981 0.571468 -1.03894 0.162755 0.75827 -0.303282 -0.60356 0.253876 -0.779496 0.344988 -0.87355 0.721367 -0.400757 0.409752 -0.448538 0.0910426 0.785956 0.596405 -0.30242 -0.699139 0.195855 0.956385 -0.248017 0.141369 -0.00787352 -0.129297 -0.581717 -1.27168 0.263579 -0.078165 -0.516524 -0.241757 -0.847885 0.939701 -0.877803 -0.632424 0.0739696 -0.00172659 -0.120088 -0.498289 0.535654 -0.960185 -0.350168 0.10186 -0.636557 0.156787 0.312673 -0.757654 0.966679 0.213253 -0.827542 -1.0301 -1.13871 0.285224 -0.977985 0.0657956 -0.173041 0.23608 0.670877 -0.509555 0.796304 0.601957 0.155412 0.879365 -0.607212 -0.39747 -0.686579 0.00813457 -0.443839 0.631082 0.0980626 -0.3622 0.649693 -1.04374 0.085172 -0.615732 -0.787606 -1.00145 -0.205813 0.107228 0.245651 -1.15276 -0.928911 -0.44921 -0.0630322 0.165166 -0.472666 -0.473986 -0.208646 -0.382439 -0.899685 -0.72599 0.531631 0.598596 -0.730733 -0.530098 -0.94094 0.344157 0.312514 0.298236 0.954162 -0.32753 -1.01557 0.455532 -1.09796 -1.15034 -1.43656 -1.33615 -0.0238995 -1.07936 0.894389 -0.927069 -0.0215846 -0.401864 0.0866993 0.975596 -0.531932 -0.981983 -0.439649 0.540276 -0.280092 0.0289773 0.0993649 -0.686307 -0.840295 0.187143 0.651362 -0.375072 0.349752 0.591999 0.310679 -0.918906 -0.055247 -0.656054 0.11051 0.0768727 0.499872 -0.606075 -0.77101 0.945641 -0.214412 -0.0683958 0.708405 0.520055 0.2847 0.802926 0.376029 -0.975599 0.296245 -0.253495 0.634151 -0.757643 -0.076288 -0.807069 -0.102569 0.191958 0.142792 -0.494084 0.450598 -0.434546 -0.221472 0.201432 -0.890882 0.665665 -0.855023 -0.695428 0.603277 -0.898321 0.0605617 -0.111143 0.610444 0.692428 0.118213 0.784322 0.803693 -0.922664 0.0117088 -0.692216 -0.806053 -0.284198 0.317329 -0.0873916 0.580724 1.11223 0.572531 -0.23672 0.011958 -0.57844 -0.15793 0.376722 -0.608851 0.283485 0.389363 -0.102881 0.573706 0.391843 0.212133 -0.338135 -0.126256 -0.10289 0.0505778 0.402142 -0.513133 0.388867 0.590732 0.625731 0.397521 -0.422122 -1.17011 -0.319656 0.28424 -0.0424782 -0.879629 0.224668 0.501383 0.727389 0.0819348 -0.123899 -0.681284 0.235136 -0.0307793 0.564837 0.749087 -0.179862 -0.186995 0.379362 1.03591 -0.306773 0.770653 -0.667814 -0.946441 -0.996694 -0.0882943 0.259226 -1.10329 -1.19205 -0.057198 0.727681 -0.362101 0.10717 0.914401 0.318632 -0.0249507 -0.621195 0.649715 0.303678 -0.154842 -0.688307 0.709249 -0.0704986 -0.100328 0.143469 -0.00310666 -0.168458 0.903192 0.632329 -0.605643 0.720987 -0.655999 0.292109 -0.359917 -0.856282 -0.256671 -0.496292 0.311557 0.516391 -0.430672 0.218755 0.431433 0.934101 0.337312 -0.687414 0.579066 0.333432 0.677422 0.476804 -0.693927 -0.0642327 -0.737649 0.162669 0.653355 0.430531 0.810764 -0.294698 0.233043 0.253214 -0.402311 0.842743 0.822614 0.474599 0.52723 -0.995436 0.555124 0.886726 0.409087 0.420315 0.935387 -0.662338 0.927178 0.346307 0.584802 -0.818802 0.833184 0.642442 -0.247745 0.160342 0.580598 0.0855103 0.522061 0.276001 -0.918788 -0.843994 0.85941 -0.668859 0.796052 -0.593432 0.354274 -0.00790797 0.328366 0.326888 0.00267914 0.912685 0.681729 0.16541 -0.466871 -0.68619 0.444676 -0.494354 0.598405 -0.07477 -0.847548 -0.224549 -0.0215187 0.670331 -0.42596 -0.838504 0.478706 0.610978 -0.0890128 -0.289833 -0.199149 -0.128591 
-0.25081 -0.0797233 0.706275 -0.153015 0.496699 -0.0422601 0.931726 -0.644707 0.991057 -0.509787 0.841242 -0.314569 -0.505189 -0.901627 -0.987397 0.0268641 -0.466056 0.235598 -0.341063 0.057693 0.872141 0.267387 0.271462 -0.167448 0.938944 -0.818506 0.687384 0.747542 -0.462792 -0.605954 0.67978 -0.549667 0.227535 0.458969 -0.338909 -0.753902 -0.583425 -0.944211 0.541107 -0.951145 -0.382209 0.0151307 0.766122 -0.102371 0.0792607 0.810659 -0.766904 -0.365133 0.0748218 0.647861 0.943822 -0.425455 0.0968383 -0.978656 1.00011 0.308796 -0.535764 0.1584 0.308849 0.626093 0.414162 -0.979781 -0.732606 -0.586327 0.67 -0.538828 0.737884 -0.759781 0.676023 0.0354077 0.743123 0.154294 -0.966541 0.124232 0.208585 0.495056 -0.534393 0.67451 -0.153067 0.177265 -0.0448686 0.229137 -0.631056 -0.885036 -0.509424 0.800567 0.813741 -0.468892 -0.726778 0.978255 0.296305 0.399503 -0.70898 -0.284587 -0.716748 0.597057 -1.22969 -0.460162 0.37643 -0.723975 0.620452 0.740551 -1.00095 -0.280114 0.686524 0.689656 -0.411685 0.447169 0.937547 0.0884873 0.109393 -0.249442 -0.752517 -0.704083 -0.242724 0.0293812 0.153925 0.316837 0.955325 -0.382823 0.737135 -0.893721 -0.715339 0.75911 0.185749 -1.08538 0.0211764 -0.0802995 0.421343 0.150559 -0.339773 -0.248904 0.701504 -0.0613205 -0.6304 -0.793299 -0.803985 0.498445 0.900118 0.790814 -0.2519 0.622507 -0.942229 -0.309152 0.339999 0.721718 0.146641 0.561614 -0.41035 -0.561959 0.112589 -0.584202 0.0280955 -0.440569 0.324343 0.944663 -0.906397 -0.105439 -0.523744 0.635046 -0.748891 0.216773 1.17086 0.0592539 -0.442405 -0.0957161 -0.446119 -0.617114 0.579598 -0.0849582 0.349706 0.51987 0.551606 0.681822 -0.720519 -0.219002 -0.791661 -0.122904 0.0104091 -0.685044 -0.169198 -0.486532 0.0635625 0.329804 -0.225917 -0.683162 0.349205 -0.69389 0.781654 -0.675292 -0.531777 0.520366 0.194084 0.016387 -0.0851348 -0.628411 -0.23637 -0.779371 0.639238 0.00610204 -0.0548718 0.198609 -0.510575 0.79173 -0.0376049 -0.871314 -0.783901 -0.292057 1.00474 0.597892 -0.711391 0.0845795 0.512998 -0.929206 -0.256315 0.275475 0.333458 0.818085 0.667323 -0.67991 -0.648095 0.537509 -0.810531 0.581287 0.894639 -0.431366 0.403052 0.273931 1.01095 -0.276881 0.17632 0.191135 -0.730375 0.696924 0.906648 -0.100626 0.796063 -0.773259 -0.294451 -0.806043 0.472581 -0.633809 -0.516251 0.0415056 1.39322 -0.581717 -0.488435 -0.579797 0.565329 -0.468064 -0.700765 0.230602 -0.556971 -0.783868 0.425921 0.997066 -0.369708 -0.251776 -0.57397 -0.0012958 0.468061 -0.422763 0.0538156 0.445911 0.0767705 -0.754123 -0.258976 -0.543609 -1.01419 -0.328377 1.05044 0.026289 0.918646 0.190499 -0.0105423 0.624505 -0.875198 0.161664 -0.0791533 0.701264 -0.0843079 0.800083 0.0768268 1.05337 -0.322525 0.300594 0.278692 -0.575399 0.498448 -0.51229 -0.531009 1.05758 1.01298 0.530275 0.326647 -0.0631002 -0.538057 -0.558809 -0.103619 1.04336 -0.0144021 0.503144 0.635966 0.148261 0.388107 0.498482 0.184915 0.799851 0.829669 0.714354 -0.102887 -0.812128 0.97748 -0.464552 1.06065 0.90582 0.0373749 0.642638 -0.217437 1.08835 -0.199048 -0.0100642 0.520045 -0.328641 -0.563342 -0.557913 0.198331 0.744439 0.198422 0.703767 -0.64486 -0.309789 -0.0578703 -0.61831 -0.883641 -0.178343 0.0724961 0.0165257 0.0801152 0.540864 0.522865 0.545011 0.217648 -0.80531 -0.765446 0.506774 0.91117 0.938138 -0.126288 -0.53367 0.686563 -1.08734 -0.316013 -0.750548 -0.888321 0.982515 -0.465958 0.159704 0.168325 0.478958 0.0883718 0.152857 0.767393 0.843346 -0.90706 0.919698 0.631908 -0.275282 0.848353 -0.0526947 -0.321563 -0.588038 0.611908 0.390477 -0.559345 -0.757529 0.203122 0.0988597 0.963934 0.0878977 0.408243 -0.019264 0.652079 0.282854 -0.725346 0.46655 0.117579 0.333106 0.208903 0.663896 0.959344 0.138248 -0.28021 -0.261404 0.351176 -0.709766 0.690432 -0.304344 0.70411 0.602082 0.363545 0.28742 0.995154 0.355874 0.4514 -0.0224975 -0.116016 0.315256 -0.588436 -0.697447 -0.889811 -0.832193 0.0837108 -0.590393 0.862072 0.512363 -1.08174 0.787597 -0.561029 -0.929437 0.674374 -0.773673 -0.682248 -0.287918 -0.348934 0.468488 -0.765171 -0.322256 1.07639 -0.0258435 -0.654289 0.103367 -0.730694 0.161249 0.101843 -0.573266 0.166309 0.0623928 -0.631744 -0.590348 -0.0966403 0.905939 -0.594725 -0.611111 -0.660935 -0.791678 0.271717 -0.0156565 0.601988 -0.442603 -0.224742 -0.762326 -0.832099 0.854775 -0.807314 1.03364 0.177516 -0.31838 0.670429 0.844674 1.07841 -0.302717 -0.307815 -0.0240953 0.834351 -0.993016 -0.891165 0.169499 -0.312769 1.21364 0.0737575 0.14498 0.0742731 0.61537 0.736046 0.972097 -0.0729933 -0.12095 -0.00801453 -0.840534 -1.03945 -0.0100598 0.0330823 0.492994 -0.514277 0.997335 0.569976 1.11892 1.30392 0.892081 0.804686 0.771363 -0.729095 -0.149995 0.801122 0.131401 -0.370185 0.367147 -0.390132 0.379326 0.19364 0.605093 0.355599 0.93298 0.990795 0.64658 -0.103222 -0.850565 -0.171424 -0.143628 -0.441338 0.648032 0.324361 0.16766 -0.396325 0.268501 0.668331 0.315051 0.304953 1.02365 -0.085809 -0.115105 -0.980231 0.140084 -0.385555 0.215609 0.359452 -0.653271 -0.453751 -0.261435 0.21686 0.137282 0.189545 -0.610798 -0.600148 -0.987719 -0.641065 -1.51273 -0.605489 -1.39781 0.313677 -0.42627 -0.771332 -0.705319 0.477217 1.18335 -0.560729 -0.565807 0.613742 0.292846 0.541329 0.234384 0.784809 -0.202801 -0.155615 0.440366 -0.284754 0.0153903 0.887675 0.765564 0.783311 0.0901193 0.585175 -1.32736 0.407377 -1.27768 -1.22872 -0.492279 0.18301 0.359576 0.440745 0.512932 -0.533775 0.70441 -0.449011 0.00634681 -0.118735 0.0610511 -0.165383 0.373829 0.75985 0.303755 0.171248 0.678577 0.0214216 -0.621894 0.146953 0.479604 0.440252 0.537512 0.356652 -1.16288 -0.400753 -0.302334 -0.430195 -0.437549 0.399245 -0.0321236 -0.580017 -0.438787 -0.768876 -0.494709 1.10532 -0.296742 -0.493404 -0.22167 -0.67934 0.448398 0.911783 0.0765549 0.971138 0.444904 -0.0457871 -0.488827 -0.2359 0.3969 -0.796554 0.74635 -0.0736145 0.604124 -0.449579 -0.00614775 -1.08523 -0.500646 -0.750656 -0.0354649 0.670991 -0.597666 -0.00451491 0.121777 -0.128874 -0.223711 -0.440685 -0.187572 1.2059 1.04287 0.669102 0.855557 -0.082325 -0.468255 -0.364719 0.173929 0.805839 -0.608356 0.50748 0.795023 0.278422 -0.768981 -0.267991 -0.975328 0.244984 0.223644 -0.567096 0.144955 -0.454466 0.119687 -0.947781 0.00604395 0.551876 1.04576 -0.219737 -0.545349 -0.521357 0.370571 -0.558263 1.01379 0.883798 -0.263799 -0.580683 0.416714 -0.104039 0.71191 0.809492 -0.659045 -0.303886 0.34374 0.213644 -1.12304 -0.0521157 -0.491069 0.279153 -0.764764 0.656493 -0.364931 0.574632 -0.635811 -0.155401 -0.565091 -0.196804 -0.612479 -0.392714 0.224714 0.361541 0.84427 0.520932 0.0768432 0.297878 0.108776 -0.0334624 0.998528 -0.828643 0.548176 0.0385332 0.930614 0.414635 -0.392065 -0.175653 -0.390657 -0.744351 0.674302 0.0736488 -1.00708 0.539472 -0.197461 0.888789 0.725804 -0.72801 0.165301 -0.643564 0.469809 -0.645713 0.481981 -0.438296 0.83292 -0.691278 0.773213 0.330248 0.741136 -0.184138 -0.30998 0.345099 -0.831873 -0.443484 -0.829841 -0.0288074 0.522924 0.840934 0.343518 0.971433 -0.681263 -0.190944 -0.770827 -0.383132 0.667368 -0.0110023 -0.775021 -0.972281 -0.503166 -0.531126 -0.6374 -0.680868 0.00462687 -0.650915 0.366227 -0.124472 -0.448547 0.409669 -0.750468 -0.508377 -0.340317 0.969222 -0.472169 -0.529466 -0.390447 -0.162164 0.554078 0.848121 0.589528 0.644635 -0.22591 -0.845842 -0.150772 -0.872335 0.37377 -0.907032 -0.548578 0.124839 0.244369 0.731998 -0.610015 -0.558892 0.470531 0.0966708 0.755248 
0.557745 -0.120183 0.490052 -0.63808 0.172396 0.0069017 -0.460521 0.0421865 -0.399037 -0.875195 -0.557628 0.226482 -0.136572 -0.0868195 -0.338114 0.176028 0.85455 0.946482 0.94895 -0.729523 0.213923 0.0311695 -0.864601 0.331492 0.620186 -0.695385 0.714561 -0.254855 0.906853 0.590647 -0.319104 0.2647 -0.099707 -0.489225 -0.913231 -0.784079 -0.338969 0.951028 0.788753 0.213183 0.239901 0.375623 0.410727 0.771003 0.448505 -0.133848 -0.354958 -0.691598 -0.754493 -0.840947 -0.472897 0.580123 0.224115 -0.644499 -0.406733 0.614549 0.147771 0.372562 -0.783352 0.231747 0.131517 -0.755251 -0.440466 0.426292 -0.891752 -0.719358 0.320118 -0.677217 0.720003 -0.475744 -0.327679 0.976593 0.145321 -0.084667 0.468088 0.755047 -0.0714638 -0.745973 0.843888 -0.300372 0.821654 -0.524794 -0.77632 -0.0490753 0.586042 0.716075 0.172128 -0.473383 -1.02379 -0.235251 -0.357653 -0.56054 -0.7227 0.427436 -0.65381 0.952509 -0.644019 -0.3349 1.08373 0.900796 1.314 -0.228028 0.406158 -0.472472 -0.323142 -0.196689 -0.377893 -0.0762426 0.257621 -0.395695 0.231544 -0.288447 -0.601732 0.795513 0.669547 -0.863916 0.659455 -0.746132 -0.304342 -0.346952 -0.127245 -1.11106 -0.628272 1.06493 0.355952 0.0326044 0.111103 -0.105661 -0.154019 1.03058 -0.0820285 -0.610115 0.561777 -0.96162 -0.51347 0.528159 0.0991948 -0.343681 0.457941 -0.751292 -0.0958648 0.14604 -0.829803 -0.864162 -0.533322 -0.0504376 -0.506358 -0.986597 -0.0443669 -0.417519 -1.00476 -0.829384 -0.129036 0.399471 1.31141 0.624838 -0.161321 0.049754 0.542042 -0.035296 -0.885441 -0.353133 0.799585 0.00790683 -0.238672 0.79842 -0.231228 -0.758475 0.780451 -0.306982 0.164833 0.242674 -0.0091822 -1.05442 -0.809523 -0.752837 0.42875 -0.584813 -0.7962 -0.40157 0.352254 -0.0303627 1.17216 0.177451 -0.577642 0.283785 -0.583572 -1.07948 0.351097 0.364894 0.0423488 -0.74546 -0.0406593 -0.14592 0.271514 -0.730992 -0.715332 -0.40174 -0.557631 -1.00106 0.348556 0.576887 0.864283 0.223602 0.644114 -1.07599 -0.122914 -0.688417 -0.386913 0.135501 0.0779215 0.549464 0.0378553 0.572803 -0.0392729 -0.636665 0.711506 0.0817304 -0.919523 0.731273 0.201574 0.27054 -0.515996 -0.252044 0.236659 0.920058 -0.654339 0.801613 0.248986 -1.11502 -0.180891 0.433016 0.372129 -0.307933 -0.0250782 0.11872 -0.561826 0.804714 0.758327 -0.519968 0.960272 -1.01707 0.0433999 0.595489 0.616041 0.636093 0.00969891 -0.0337257 0.929348 0.85511 -0.0796037 -0.553691 0.60919 0.0763656 -0.64414 -0.0855537 -0.393632 0.142899 -1.16445 0.379201 -0.351902 0.275919 -0.0757333 -0.181213 0.254143 -0.352209 -0.275885 -0.494972 0.0054451 0.746883 0.827954 0.0191678 -0.123986 0.584621 0.113199 0.827199 -0.840493 0.239864 0.729504 -0.0760077 0.371188 -0.0633519 -0.741378 0.556314 -0.94136 -0.367265 -0.928775 0.150219 -1.08396 0.793545 0.132501 0.0528187 0.0985022 0.222525 0.205579 0.74063 0.760091 -0.21857 0.271714 1.16075 0.302573 0.671836 0.609332 0.757041 -0.0887284 -0.479909 0.399167 0.994462 0.861 0.423384 -0.0126738 0.502778 0.337047 -0.306 -0.231667 -1.07029 0.967421 -0.20171 0.363312 -0.0604777 0.526906 0.0172531 1.08604 0.0731171 -0.330627 0.902594 -0.177912 0.758715 -0.446412 -0.156855 -0.101189 0.680846 -0.693412 -0.403115 0.791457 0.172734 0.925353 -0.168904 0.851891 0.126386 -0.917094 -0.722262 0.0472131 -0.508681 -0.905167 0.035749 0.514514 -0.712793 0.00598646 -0.422534 1.23957 1.23583 -0.149713 0.000635624 0.736117 -0.0841533 -0.146543 0.527141 0.303898 0.960361 0.0139063 0.727466 0.123341 0.478607 0.647756 -0.351067 -0.0981279 -0.204293 0.763519 0.00634957 0.0760334 -0.70292 -0.221924 -1.08812 0.333523 0.632015 -0.297623 -0.62045 0.094186 -0.222283 0.819725 -0.54615 0.372477 -0.495299 1.10196 -0.563145 0.191717 0.921625 0.798368 0.342628 1.00998 0.253561 0.54403 0.460856 0.627909 0.756321 1.02295 0.228029 -0.487289 -0.60624 -1.21543 -0.857672 -0.803236 0.448214 -0.528353 0.373744 -0.272341 -0.100101 0.0025661 0.878316 0.701816 0.757459 -0.467223 -0.437736 0.487649 0.0619904 -0.628135 0.918647 0.181245 0.25031 0.408217 0.65974 -0.150586 -0.139033 -0.612159 0.122295 -0.0599708 -0.457208 -0.523272 0.0730589 -1.36176 -1.07759 -0.120575 0.355645 0.621386 0.588799 1.00744 0.414957 0.228979 -0.422779 -0.730988 0.842509 -0.177092 0.189947 -0.536005 0.89407 0.316924 -0.503008 0.147945 0.48263 0.859294 0.869902 -0.565384 0.0583152 0.760863 -0.00266748 -0.796926 -0.8951 0.178156 0.0713878 -0.0169986 0.612719 0.353274 -0.492343 0.436466 -0.593282 0.519651 -0.143089 -0.233956 -0.330533 0.624677 0.0013857 0.186432 0.429069 -0.678411 0.445548 -0.955436 0.945194 0.8674 0.14874 -0.511092 -0.304955 -0.642853 -0.816537 0.139206 -0.512323 -0.309232 0.148211 1.0857 0.818985 -0.124833 1.04536 1.15114 -0.837807 0.0681819 -0.497468 -0.476737 0.31682 -0.0599505 -0.286212 -0.0310981 -0.223421 0.858774 0.135834 0.864773 -0.84401 0.984517 -0.0769535 0.0206474 -0.030667 0.0604083 -0.891907 -0.0712249 -0.323234 -0.35311 -0.203512 0.254569 0.695619 -0.632178 0.583176 0.803338 0.727871 -1.14548 0.466455 -0.750272 1.15304 0.551134 -0.763782 -0.33986 -0.155116 0.847397 -0.532774 0.675342 -0.707452 0.631519 -0.396586 0.71084 0.112635 0.225065 -0.171809 -0.0965162 -0.543282 -0.210923 0.758785 -0.111143 0.754252 0.0521932 0.756021 -0.303454 0.0503545 -0.0225089 -0.419228 -0.783386 -0.738963 -0.426487 -0.436604 0.417633 -0.0509003 -0.287988 0.217169 0.806539 -0.385355 0.37013 -0.261577 0.664341 -0.411885 0.243685 -0.0937115 0.807878 -0.255558 -0.386972 1.27094 1.2451 -0.242229 1.02927 0.170737 0.550069 0.572381 -0.962315 -0.491247 -0.802347 0.0304728 0.020477 0.00867659 0.507496 -0.718288 0.791454 -0.458462 -0.537339 0.172898 0.0230648 -0.53977 0.31458 -0.466794 -0.524343 0.241382 -0.395811 0.88482 -0.0801954 -0.294438 0.864568 -0.127495 0.645696 0.812816 1.18318 0.157682 -0.39232 0.171316 0.210608 0.771342 0.177895 -0.368119 0.520502 0.658537 -0.447143 0.0726403 -0.103752 -0.813454 -0.742939 0.727014 0.686032 -0.523749 0.934032 0.621688 0.199169 0.314517 0.569843 0.766782 1.0137 0.491905 1.48705 0.794378 -0.374562 -0.62713 -0.956865 -1.26661 -0.548716 0.26897 0.399428 -0.615143 0.877675 -0.134911 -0.765888 0.372902 0.614452 -0.845004 -0.719089 0.738272 -0.227732 -0.463791 0.695708 0.829257 -0.465524 0.860451 -0.741617 0.517478 -0.457688 0.122508 0.92952 1.36003 0.337906 -0.147293 0.820444 0.412127 0.593786 0.198232 -0.650953 0.359248 -0.00433035 0.561913 -0.877718 -0.291496 -0.854578 0.112945 -0.717672 0.38373 -0.49385 -0.518076 0.58358 -0.916569 -0.0270788 0.58514 0.852846 1.09777 -0.105688 -0.645309 1.02623 -0.317358 -0.476053 0.977499 1.02124 0.327718 0.1186 0.121482 0.549452 -0.421558 -0.93055 0.945982 0.215172 0.881571 -0.706659 0.893509 -0.0335008 0.0689613 -0.149227 0.280918 0.73564 -0.484976 -0.695607 0.898645 -0.00379205 -0.394729 -0.277628 0.680496 0.200661 0.481805 -0.346142 -0.645808 0.25484 -0.304463 -0.539353 0.333403 0.244824 -0.476313 -0.891989 -0.399114 -0.968749 -0.268378 -0.0512448 -0.937612 -0.410862 -0.875145 -0.217291 0.737868 0.480666 0.754102 -0.718545 0.989805 0.868219 0.242084 -0.104444 0.418379 -0.770861 0.0619111 1.00649 0.106523 0.593441 -0.896593 0.99712 0.651444 0.429739 -0.0706933 -0.292519 0.62008 0.0687158 0.515822 0.436552 0.616924 -0.757441 -0.690593 0.489533 -0.700103 -0.216002 -0.613172 0.85511 -0.824894 0.285289 0.115044 -0.91562 0.754027 -0.537404 0.0688143 0.0119658 -0.866001 -0.660281 -0.39185 -0.733086 0.168671 -0.283957 0.00420592 0.127619 -0.830376 0.778387 -0.9874 
-0.545348 0.376467 -0.804592 -0.373568 0.723558 0.693923 0.717919 -0.0192481 0.224853 0.962166 0.608735 -0.942584 -0.926062 0.319381 -0.982384 -0.142268 0.921993 -0.423379 -0.544229 0.532958 -0.209591 0.175092 0.645293 -0.830812 -0.416111 -0.0309159 -0.965773 -0.845555 -0.969736 0.368772 -0.0659286 0.372192 0.631797 0.0289939 0.371986 0.0982721 -0.474952 0.189929 0.250749 0.9215 0.82038 0.0904013 -0.381797 -0.122671 -0.510065 -0.419025 0.183783 -0.86877 -0.36624 -0.448827 -0.150242 0.807412 -0.95223 0.625383 0.869839 0.616248 0.16148 0.66497 0.211275 0.340079 -0.42215 0.0850438 0.545357 -0.0581848 -0.734354 0.652071 -0.652226 0.368736 0.634831 -0.815178 -0.354913 -0.103142 -0.0196113 -0.120711 0.719418 -0.309265 0.14814 -0.302747 -0.258217 0.347081 0.479544 0.633706 0.409939 -0.589553 -0.959001 0.719072 -0.704198 -0.684729 0.513689 0.578312 0.0417836 -0.153076 -0.857067 -0.897185 -0.0939854 0.318078 0.165411 -0.250631 -0.769443 0.115723 -0.398049 -0.475436 -0.0392227 0.0543419 -0.279352 0.069429 -0.810819 -0.0315473 0.941999 0.00806039 -0.822152 -0.846549 0.928258 0.41837 -0.724514 0.702113 0.118731 -0.602295 0.780114 0.417958 -0.179823 0.372062 0.364198 0.231209 0.573301 0.20974 0.640961 -0.223116 0.455394 0.244279 0.782099 0.940703 0.140794 0.569074 -0.141522 0.728857 1.08225 0.625665 0.984728 -0.847729 0.980674 -0.190062 -0.8422 -0.763277 0.641975 0.975532 0.0706609 0.612554 -0.824861 0.12736 0.15601 -0.547505 0.918222 0.682994 -0.309415 -0.425912 0.201323 0.539681 -0.571257 -0.0585276 0.906037 -0.44199 0.4418 1.00511 -0.332293 -0.145304 -0.474195 0.634326 -0.135333 -0.847243 0.265784 -0.114205 0.233321 0.120942 -0.131381 -0.31932 0.788231 0.202688 0.0732648 -0.719346 0.85307 -0.703402 -0.257135 -0.673926 -0.58606 0.825571 -0.350489 -0.242838 -0.506861 -0.258987 0.395234 0.0270184 0.137097 -0.106358 -0.180698 0.571603 -0.111141 0.804291 0.833611 -0.208281 -0.235557 0.158921 0.417641 0.315759 -0.0423936 0.592254 0.178964 0.625855 -0.288554 -0.0921442 0.765697 -1.07887 0.727199 0.567798 0.779359 1.08386 0.0469653 -0.0736918 -0.563808 0.014048 -0.446735 0.41779 0.470712 -0.42618 0.299323 -0.814272 -0.245922 -0.459652 0.587146 0.579882 -0.408717 -0.659029 -0.263136 -0.00123388 -0.411892 -0.0913702 0.607808 0.279499 -0.469757 -0.0168983 0.895292 1.17313 0.0355801 -0.145197 -0.47243 -0.15603 0.708702 -0.457936 0.59645 0.46991 -0.809809 0.35823 -0.22074 -0.930494 0.642969 -0.282024 -0.0862395 -0.0395779 0.59843 0.539127 -0.77583 0.0824513 -0.817487 -0.335837 0.669987 0.305035 0.240788 1.20557 1.25754 1.17555 -0.616203 -0.421424 0.549098 -0.261023 0.0604929 0.715732 -0.296413 -0.0425098 -0.210126 -0.00299819 -0.45937 -0.864782 0.813167 0.111329 0.783471 -0.964191 0.623324 0.31071 -0.755909 -0.855533 0.104239 0.298172 -0.447264 0.194883 -0.375408 0.521284 0.0824684 -0.317374 -0.58877 -0.430492 0.292613 0.0859296 1.0133 0.330398 -1.06419 0.672835 0.676632 0.514105 -0.460122 -0.995741 0.355886 0.488165 -0.361262 -0.185591 -0.836895 0.111742 0.271162 0.0240612 0.528783 0.451628 -0.139512 0.489881 0.799888 0.429627 0.951544 0.158817 -0.238164 -0.255041 -0.609683 0.155604 -0.31334 -0.2725 -0.040122 -0.583878 -0.52229 0.37047 -0.364964 0.923761 0.523707 0.387228 -0.0229238 0.696048 0.0401187 0.669005 -0.744358 0.415044 -0.214492 -0.147931 1.35596 -0.102514 0.979858 -0.329096 -0.519269 -0.434942 -0.625808 -0.48768 -1.20274 -0.152511 0.608346 -1.16412 -0.647764 -1.25465 -0.551329 -0.761387 0.461909 -0.937864 -0.244287 -0.00217751 0.773707 0.241313 -0.936183 0.883188 -0.746527 0.355469 0.697339 -0.464865 -0.672238 0.868117 -0.23185 -0.190987 0.315642 -0.0495725 -1.19212 -1.16706 -1.28482 -0.138039 -0.895937 -1.05946 -1.02973 -1.34635 -0.57083 0.251161 0.544149 -0.458511 -0.4394 0.808555 0.72277 -0.079814 -0.0302536 0.836073 0.646563 0.606299 -0.0425273 0.23841 0.00116326 -0.286632 -0.0222997 0.574161 -0.753888 0.621727 0.2418 -1.20968 -1.15914 -0.393232 0.0669675 -0.911657 -0.326166 -0.82322 0.781732 -0.175053 0.487491 0.993038 0.182638 -0.246586 -0.159977 -0.469409 -0.529347 -0.195401 -0.325921 -0.6517 -0.0207774 0.179688 -0.258686 -0.137038 0.3822 0.570747 0.688373 -0.457815 -0.845576 0.0636751 -0.931593 0.452596 -0.886775 -1.19087 -1.16928 0.125364 -0.0506247 0.166253 -0.718967 0.609519 0.949735 0.743927 1.03691 -0.176975 0.766257 0.0175144 0.947121 -0.987105 0.247078 -0.97726 0.149033 -0.912662 0.666625 -0.263628 -0.0772982 0.0931282 -0.535037 -0.68456 0.662464 0.59334 0.464043 0.421618 -0.351418 -0.211822 -0.464347 -0.0806036 0.451009 -0.965537 0.155389 0.0329503 -0.214913 0.931097 0.489837 -0.900118 -0.680168 -0.56135 0.00647172 -0.732501 -0.841062 0.556409 -0.2322 0.597055 0.60879 -0.659905 -0.0189229 0.852406 0.657299 0.730033 0.805602 -1.06993 -1.00287 -0.178429 -0.247217 -0.220878 -0.762583 -0.366101 -0.421102 0.214809 0.381523 -0.414598 0.527434 -0.358317 -0.342946 0.178533 1.08843 0.0467469 -0.255969 -0.616986 0.942301 0.426133 0.220252 -0.718484 0.503262 -0.262541 -0.784773 0.690888 0.362042 -0.548516 -0.273606 0.371807 0.619324 0.237829 0.483462 0.307464 -0.490775 -0.483859 -1.03534 0.0841672 -0.455344 0.323509 -0.48738 0.971407 -0.158421 -0.363071 -0.433353 -0.238624 1.12777 0.482688 -0.415387 0.303478 -0.172959 -0.0532294 -0.440085 -0.569306 0.45731 -1.35026 0.74853 0.216477 -0.654077 0.846261 0.967033 -0.87875 -0.0496897 -0.720201 -0.162745 0.250158 0.336568 -0.215987 0.31964 0.0632301 -0.21294 -0.561304 -0.581916 -0.31277 0.565654 0.743566 -0.779965 0.826092 0.759494 -0.74772 0.564694 -0.897456 -0.616447 -0.418288 0.410687 0.0236536 0.136613 -0.475228 -0.828925 0.842891 0.0785617 0.747963 -0.01429 -0.651652 -0.969346 -0.425731 0.242299 0.270147 -0.661635 -0.843748 -0.0496442 0.799968 0.666979 -0.0838009 0.179285 0.574836 0.876988 -0.383544 -0.37859 0.456415 -0.554338 -0.127715 0.214265 -0.183135 -0.260768 0.812225 -0.176131 -0.0629964 -0.666326 0.695543 -0.70002 -0.326762 -0.170054 0.554562 -0.188803 0.247148 0.443399 -0.192685 -0.482394 1.30002 0.237587 -0.129691 0.303255 0.984335 0.249178 -0.977823 -0.944249 -0.179622 -0.804803 0.765647 0.099416 -0.882015 -0.243596 -0.048527 -0.216069 -0.0875392 -0.681666 -0.482068 -0.822566 -0.646237 0.863781 -0.751835 -0.909898 -0.36667 0.394469 -0.534487 0.67897 0.273262 1.41985 0.667241 0.225728 -0.64533 0.0642678 0.531213 -0.362478 -0.77803 -0.783013 -0.144832 0.0481333 -0.00209269 -0.098584 -0.247392 -0.0218289 0.762851 0.750776 -0.854047 0.671144 0.469129 -0.0323655 -0.725912 -0.198201 -0.433971 0.397621 0.142753 0.894563 0.173655 0.800026 0.33161 0.586679 0.349972 0.28147 -0.583515 -0.854051 -0.440345 -1.01182 -0.430624 0.156003 -0.481711 0.29596 -0.46144 -0.895213 0.657137 -0.537962 -0.82615 0.915858 0.606959 -0.64264 -0.395218 -0.465475 0.953367 -0.311882 0.742529 0.490139 0.479032 0.115556 1.05789 -0.573193 1.00318 -0.68773 -0.0406493 -0.155599 0.299553 -1.00148 -0.64058 0.217468 0.465049 0.968039 0.690672 -0.246095 -0.456718 -0.818764 -0.67581 0.457788 0.546442 0.987622 -0.127911 -0.550374 -0.204157 -0.807329 -0.480226 -0.869993 -0.0613415 0.393439 0.853783 -0.36087 0.119447 0.297396 0.428358 0.310583 -0.693534 -0.497949 -0.134506 -0.687659 -0.142925 0.36603 -0.917182 0.0654265 0.98211 -0.663047 -0.645418 -0.11517 -0.581394 0.982626 0.816016 -0.605734 -0.620823 -0.22318 0.254058 0.981631 0.437798 0.416118 0.0246616 -0.498393 0.18829 -0.891387 0.662883 0.0189533 0.226226 -0.978332 -0.572209 0.891846 -0.126617 -0.119766 0.439608 
0.514707 -0.476299 -0.0204152 0.866212 -0.989364 0.391125 0.247313 -0.688616 -0.015228 -0.211316 -0.630132 0.552447 -0.0866571 0.180445 0.697047 -0.389272 0.203935 -0.475251 -0.301759 0.920418 0.540479 0.687417 0.218857 -0.172875 0.613084 0.483757 -0.246026 -0.516016 -0.0557948 0.482034 0.436919 0.64304 -0.906154 -0.384475 0.42309 0.282142 0.541545 0.248612 -0.931008 -0.285006 -0.702892 -0.427496 -0.679108 -0.559898 0.485412 -0.160977 0.734837 -0.315479 -0.639897 0.676915 -0.424037 0.935046 0.66002 -0.317754 0.662523 0.405603 0.988821 0.0439442 -0.51958 -0.775615 0.911763 0.366842 -0.856336 0.0375363 -0.57343 -0.158517 -0.677659 -0.664811 0.279098 0.79401 0.188704 -0.323298 0.954043 1.01713 0.945802 1.08881 0.978865 0.338809 -0.602709 0.902595 -0.0395769 0.695802 0.923082 0.270277 0.973919 -0.656373 0.307303 0.579703 0.19354 -0.509442 0.983965 -0.682626 -0.241125 0.265486 0.551418 0.556008 -0.307347 0.789088 -0.447677 -0.811505 -0.544466 0.968028 0.585602 0.413412 0.388968 -0.759601 0.281412 0.250432 -0.745246 -0.299692 -0.490031 -0.269334 -0.127324 0.603366 -0.190288 0.856848 0.865419 -0.665699 0.477149 0.0891488 0.735035 -0.450885 0.154371 0.285185 0.583881 0.966884 0.335483 0.950551 0.511874 -0.15429 0.555311 0.728312 0.845625 0.919814 0.216601 -0.0486603 -0.00198193 0.716425 0.767647 -0.210524 0.204408 -0.959683 -0.0390935 -0.286336 -1.01708 0.368556 -1.06458 -0.439067 -1.08529 0.10104 -0.951535 -0.446428 0.630705 0.224287 -0.530113 0.574968 -0.354695 -0.687266 0.533732 0.912221 -0.622029 -0.231609 0.130674 -0.0335661 0.954083 0.130376 -0.355122 -0.0238227 -0.0330557 -0.636475 -0.136889 0.0913533 0.403793 -0.87531 -0.806357 0.640843 0.0749976 0.591841 -0.413826 -0.0125333 0.488332 -0.13107 -0.0477702 -0.702219 -0.47883 0.631066 -0.490214 0.805383 -0.146389 -0.293582 -0.616461 -0.9247 0.652138 -0.482676 0.287814 0.181319 0.566613 -0.0167722 0.819044 -0.378649 -0.0468257 -0.0872597 -0.352476 0.634294 -0.586293 -0.184233 -0.064155 0.288367 0.336833 -0.174938 0.882636 -0.663098 -0.0849048 -0.781023 -0.0450827 -0.320078 0.711585 -0.56483 -0.140948 -0.614312 1.18125 0.0386647 0.299126 0.224896 -0.370759 0.350302 0.413571 -0.742803 -0.785181 0.501602 -1.11433 -1.01378 -0.957006 0.0550873 -0.89917 -0.0351499 0.36606 -0.360208 0.0282342 0.136296 0.821258 -0.465601 0.825708 -0.329167 -0.443909 0.719084 -0.381504 -0.550847 0.414721 0.987052 -0.742839 0.88078 -0.338851 -0.342664 0.66257 0.113526 -0.449751 -0.204009 -0.210897 0.715473 -0.796751 -0.106592 0.442855 0.699143 1.41152 0.323538 0.681189 0.491864 1.15748 -0.534612 0.0259986 0.440368 -0.688355 0.661851 0.585609 -1.08754 0.305059 -0.369991 -0.607249 0.27953 -0.87019 -0.893511 1.09081 0.128001 0.647373 -0.404276 0.400499 -0.364929 0.464687 -0.537113 -0.241577 0.326521 -0.460093 0.410127 0.458428 1.11514 0.193533 0.973629 -0.708029 0.431971 -0.0706766 -0.63505 -1.13391 0.546222 1.00088 1.08388 -0.298966 0.578879 -0.75077 0.616371 -0.224828 -0.526491 0.605081 0.311745 -0.684141 0.173143 0.369088 -0.95026 0.664531 -0.790568 0.739893 0.764173 -0.709861 1.27333 0.465083 -0.811522 0.900259 -0.742405 -0.708426 0.427126 0.33728 0.337747 -0.361244 0.53966 0.99278 0.610841 -0.541636 0.363004 0.748253 -0.0852313 -0.375827 0.255636 0.678204 -0.62765 -0.0776557 -0.961409 0.551094 -0.0631746 0.0786746 0.774151 0.26273 -0.733929 0.0101748 -0.0908989 -0.512914 -0.246014 -0.259329 -0.661904 0.26025 -0.984791 0.625631 -0.184037 0.481132 -0.211868 -0.214333 -0.448721 -0.644297 0.672825 0.78625 -0.164483 -0.11507 0.223209 -0.552854 -0.741562 -0.624311 0.466312 0.134716 0.420716 0.207188 -0.0464739 0.897699 0.108723 0.0903205 0.180058 0.548473 -0.383787 -0.129082 -0.947386 -0.397703 -0.160869 -0.465438 -0.969576 -0.402565 0.762476 0.299289 0.189429 0.905548 -0.526554 -0.0140986 0.487764 0.237532 -1.40727 -1.2464 0.747305 -0.647969 0.276898 0.575403 0.816882 -0.674378 0.337733 -0.0390257 -0.514147 -0.115981 -0.0634229 -0.26553 -0.778708 0.248943 0.308993 -0.686602 0.606399 -0.454157 -0.561243 0.0336232 0.353566 0.0739973 0.614219 -0.574254 0.429242 0.59685 -0.771799 -1.13194 0.462707 -0.0104792 -0.571078 -0.281864 0.110306 -0.297678 0.625279 -0.125622 0.158739 -0.486225 -0.577755 0.467433 -0.726535 -0.194931 -0.572876 0.0775438 0.191669 0.499954 0.199964 0.624271 1.62943 0.0925616 -0.0123198 0.126998 -0.775047 -0.729529 -0.558031 -0.0634408 -0.580269 0.692469 0.742858 0.579814 0.77207 0.368624 0.860413 -0.25345 1.24851 0.515514 0.991064 -0.113403 -0.154841 0.53311 -0.193359 0.518666 0.327792 0.88965 0.573751 -0.207728 0.986594 0.0798791 -0.319982 -0.849971 0.898978 -0.690686 0.0229279 -0.975731 0.492107 -0.665419 0.637393 -0.410889 -0.414591 -0.2935 1.00459 0.814831 -0.277889 0.620869 -0.504745 1.05956 -0.434979 0.961754 -0.386633 -0.734795 -0.924385 0.888872 0.0537482 -0.20549 1.80124 -0.30774 -0.127034 -0.214999 -0.696788 0.275217 0.0746073 -0.384658 0.189391 0.788375 -0.191977 0.902957 0.312161 0.856334 1.08156 0.939293 0.250682 0.908588 0.741568 -0.302605 0.125936 -0.836333 0.478594 0.430707 0.703244 -0.231919 -0.645466 -0.0793452 1.25602 0.640506 0.419741 -0.417904 -0.473366 -0.503393 -1.21008 0.111754 1.02404 -0.44427 1.10114 1.11763 0.987693 0.00505458 -0.346719 0.377823 -0.774029 -0.82089 0.884622 0.367683 0.924173 0.849813 0.69955 0.925056 0.874601 0.667033 -0.0269649 0.254554 -0.0456178 -0.71628 -0.163285 -0.76218 0.533925 0.388853 -0.417752 -0.592246 -0.182058 1.03279 0.0763465 0.00170217 -0.923165 -0.125026 0.439431 -0.419357 1.12383 -0.258937 0.505547 -0.395 0.512498 -0.156969 0.162363 0.712478 -0.309345 -0.372849 0.818858 0.339975 0.170308 0.744833 0.215347 -0.47889 0.18592 -0.759374 -1.08471 -0.611858 -0.783756 -0.66105 -0.47741 0.146406 -0.816839 -0.118815 0.732846 0.439414 0.00270833 0.974567 0.977337 0.740619 1.06802 -0.81063 0.569101 -0.087467 -0.103514 -0.0123966 0.774746 0.695793 -0.381821 -0.137876 -0.780235 0.0870154 0.550193 -0.673587 0.0197305 -0.432552 0.223391 0.135894 0.415029 -1.09384 0.00963012 -0.143035 0.195037 0.992656 -0.316172 0.00621835 0.489954 0.501974 0.0337929 0.918469 0.980497 1.00117 -0.413254 -0.478602 -0.0585562 0.554393 0.43717 0.0576414 0.414365 -0.54991 -0.524085 0.459045 0.427962 -0.86273 0.571065 -0.465054 -1.10692 -0.648301 0.818484 -0.69988 0.000289417 0.089345 1.12252 0.657639 -0.0859397 -0.0918353 -0.040805 -0.187616 -0.968871 -0.783562 0.306037 0.892075 -0.820143 -0.737127 0.219996 -0.93397 0.955632 0.150083 0.483349 0.881495 -0.428038 0.913609 -0.71914 0.135264 0.623147 -0.463609 0.806515 0.00955303 -0.692169 0.657453 -0.706094 -0.189226 0.766956 0.745633 0.798048 -0.489817 -0.585138 0.248179 -0.00590407 -0.150506 -0.109295 0.150958 -0.62387 -0.0756527 -0.0010006 -0.379748 0.575001 -0.548587 -0.114665 0.270038 0.516066 -0.589804 -0.902912 0.374122 0.0895847 -0.595234 -0.168441 0.990636 -0.259363 0.0233701 0.522059 0.0705779 -0.0684212 -0.0830858 -0.845056 -0.472917 -0.0125339 0.672039 0.347833 0.578814 0.370035 0.271955 0.363006 0.920384 -0.129401 1.01467 -0.758975 0.38003 -0.902808 0.0590716 0.943312 -0.788063 0.994051 0.996491 0.831815 0.942888 0.0977933 0.558398 0.369317 -0.598353 -0.856261 -0.223086 0.912717 -0.868972 0.795374 -0.522109 -0.100052 0.55495 0.654507 -0.0694587 0.394323 0.695232 0.657594 -0.246338 -0.933074 -0.790268 -0.352001 -0.476044 -0.984729 0.0385805 0.926062 -0.20603 -0.567982 0.0684379 0.935978 -0.758465 0.87486 0.969272 -0.834997 0.161141 0.0417897 -0.396801 0.0272185 
-0.414655 -0.943358 0.027932 0.532532 0.995022 -0.311276 -0.57428 0.0377511 -0.356069 0.694522 -0.438036 0.0805388 0.757645 -0.334113 0.233072 0.390664 -0.500277 0.306244 0.825384 -0.729175 0.989197 0.409506 -0.281994 0.836599 -0.180183 0.864778 0.527111 0.639194 0.658214 0.98045 -0.0608356 0.914355 -0.238044 -0.990313 0.794763 0.843841 -0.204457 0.46101 0.171598 -0.510964 0.109906 0.61995 -0.575376 0.921936 -0.725053 0.672207 0.19445 0.705582 0.142109 -0.248414 -0.624722 -0.254647 -0.0229124 0.708283 0.415227 0.988491 -0.502713 -0.977227 0.182103 0.896912 -0.911342 0.579307 0.0850193 0.244557 -0.376752 -0.213576 0.740615 0.39742 -0.718854 -0.596635 0.432935 -0.577184 -0.0714425 0.215256 -0.345912 -0.422749 -0.387018 0.305545 -0.380503 0.0581713 -0.915862 -0.944651 0.0653805 0.688723 0.647514 -0.891345 0.899958 0.0961901 -0.728738 0.161663 -0.990377 0.450662 0.837194 -0.491285 1.01401 0.337841 1.17001 -0.332506 0.890737 0.838072 -0.317752 -0.417694 -0.189723 -0.33978 -0.422459 0.0139327 -0.0463022 -0.540688 0.697998 0.0922581 0.443785 0.898495 0.816838 0.720241 -0.0545913 -0.0149441 -0.0472616 0.633299 0.210672 0.431717 -0.106179 1.10503 1.00065 -0.490383 1.29184 1.26027 -0.228245 0.864161 0.0639025 -0.611623 0.664567 0.555982 0.0416517 -0.408677 -0.352553 -1.08821 -1.0739 0.278181 -0.370639 -0.460869 0.531967 0.718031 0.876986 -0.163981 0.0915624 0.768948 -0.974636 0.705203 1.26051 -0.468829 -0.306242 0.492966 1.07242 0.551635 -0.321294 0.566167 0.215179 -0.724957 -0.721748 -1.07816 0.597012 -0.831935 0.193586 -1.30212 0.790061 0.30313 -0.683955 0.233988 -0.112533 -0.132419 -0.968514 -0.306772 -1.04352 -0.534418 0.344716 0.416807 -0.394308 1.16677 -0.301916 -0.270249 -0.618237 0.504099 0.77247 0.940559 0.496462 0.71273 0.601227 0.418084 -1.0021 -0.666936 -0.0392406 -0.778674 0.830402 -0.249952 -0.566351 0.918 -0.289706 0.269843 -0.394647 -0.152462 0.249921 -0.489468 0.39298 0.0194173 0.663255 0.226134 0.334875 1.12361 0.129216 -0.537269 0.785668 -0.0301758 0.437091 -0.771033 -0.317744 -0.914254 -0.00587856 0.235586 -1.08838 0.064951 -0.628781 0.233169 -0.0449084 -0.0800864 -0.29562 -0.974576 -0.00466155 -1.03921 0.494247 -0.229037 0.447485 0.638851 0.886341 0.540458 1.00702 0.749829 -0.392504 0.870587 -0.351933 1.07922 1.22518 -0.379238 -0.0402319 0.0696312 -1.38685 0.413205 -0.326423 -1.09299 0.506041 -0.471918 0.466345 0.464913 0.790167 -0.675567 -0.919302 -0.0423857 0.280592 -0.991303 0.136677 0.39136 0.421527 -0.131407 0.284977 -0.406472 0.0778986 0.0718936 0.519277 -0.395384 0.26303 0.119146 0.693793 -0.834214 -0.761253 -0.349369 0.294836 0.678737 -0.00495835 0.651257 0.026555 0.0146513 -0.0495192 0.103909 0.305534 -0.412178 0.199442 -0.442397 -0.981764 0.679501 0.829194 -0.0820046 0.376453 0.741666 1.03867 0.225388 1.52736 1.32359 0.105007 0.686057 -0.947185 0.24797 -0.638865 -1.13636 0.373652 0.12554 0.448312 -0.860778 -0.708479 -0.185813 0.628205 0.121439 0.547936 0.99427 -0.764544 -0.339026 -0.442684 -0.997831 1.01802 0.964521 1.66141 1.36321 1.34706 0.674651 -0.155735 -0.382056 -0.394957 -0.902998 -0.753565 -0.958932 0.589124 0.437657 -0.863541 0.277698 -0.119197 0.119954 0.682791 0.598777 -0.276442 0.539451 -0.270885 -0.634675 -0.173633 -0.0382754 0.486347 0.0608176 -0.548847 0.542768 0.387305 -0.217028 0.972391 0.454489 0.458633 0.84443 0.881245 0.342513 -0.901416 -1.00256 -0.0460812 -0.674469 -0.240041 -0.964265 -0.551452 -0.300655 0.0133398 0.216966 -0.524465 -0.0151957 0.884184 -0.470674 -0.565858 -0.401829 -1.18944 -0.165534 0.108153 -0.838782 0.509504 -0.351781 0.476531 0.0727968 0.771509 0.169479 -0.116989 0.649716 -0.123628 -0.695025 -0.00977124 -0.0528095 -0.468349 -0.656621 -0.440338 0.786461 -0.733541 -0.528083 0.168214 -0.82956 1.20891 0.140206 0.716112 0.102826 0.844802 -1.18323 -0.136988 -0.822514 0.384731 0.220962 -0.499864 -0.409291 -0.22059 -0.378563 0.720955 0.463699 0.765255 -0.174333 -0.297813 -0.244187 -0.487379 0.262322 -0.692691 -0.637761 -0.780044 -0.60797 0.727162 0.292303 0.0737634 0.300693 0.275307 0.0400698 -0.682829 -0.558897 -0.711295 0.457359 -0.381561 -0.153181 -0.630132 0.0226457 0.486048 -0.682533 -0.378532 0.826048 1.27183 0.575646 0.306657 0.190251 -1.09231 0.291248 -0.704721 0.425337 0.170527 -0.232202 -0.904132 -0.630154 0.860234 0.270399 -0.532904 -0.643778 -0.348129 -0.955501 -0.0067164 -0.344285 -0.979381 0.155591 -0.376341 -0.204707 0.55313 1.00185 -0.363312 -0.0718907 0.186815 0.513676 -0.547031 0.0597201 -0.429514 0.191319 0.440224 -0.205154 -0.899764 0.817749 -0.798987 -0.148849 0.0739041 0.525515 0.306516 0.598557 -0.704533 0.278998 0.174301 0.566261 -0.28944 0.443206 -0.865651 0.311324 0.922854 0.77536 0.255023 1.28211 -0.315785 0.925878 -0.386499 -0.608178 -0.241414 0.110194 0.484304 -0.477453 -0.798704 -0.0250502 0.346846 -0.449277 0.0138972 0.407358 0.726591 0.285605 -0.630117 0.834655 -0.268831 0.600906 -0.793859 -0.651681 0.364212 -0.823855 -0.366233 -0.582389 -0.581778 0.293487 0.812198 0.646797 -0.701993 -0.389291 0.46961 -0.434015 -0.576827 0.178853 0.736023 -0.788787 -0.715938 0.610572 0.860851 0.744112 -0.39629 0.106325 -0.142432 0.65298 -0.968168 -0.00441726 0.0589766 0.759269 1.05112 -0.549899 0.849832 0.819809 0.684852 -0.580576 0.274663 1.03413 -0.575586 0.211294 -0.757432 -0.492318 1.01825 0.43967 -0.352775 0.302009 -0.834753 0.897338 0.622495 0.0121576 0.814196 -0.56522 0.546536 -0.151281 -0.0146264 -0.00560768 1.06316 -0.561385 -0.775182 0.622686 -0.539018 -0.814131 0.188534 -0.155847 0.211136 0.0787191 0.460833 0.492079 0.443575 -0.737849 0.32973 -0.405385 0.968397 -0.776905 -0.166006 0.401176 -0.490633 -0.051285 -0.0362234 -0.488715 -0.176247 -0.702591 1.0176 0.380932 0.667536 0.65394 -0.547145 -0.4453 0.836695 0.843567 0.793889 0.520818 -0.121228 -0.0333248 -0.980897 0.538759 -0.0468524 -0.641766 -0.815348 -0.994299 0.723571 0.856655 -0.392489 -0.794262 -0.613253 0.949492 0.419116 0.025537 -0.151929 -0.0384123 0.0832599 -0.0677121 0.314697 1.0049 -0.179966 0.296382 -0.88412 0.257977 -0.38482 0.338018 0.000511741 -1.01033 0.400442 0.643145 0.236957 -0.329896 0.153669 -0.686399 -0.979083 -0.777627 -0.476829 -0.368356 0.551051 -0.177161 -0.743176 -0.022093 0.696356 -0.487427 -0.568037 0.820831 0.267895 -0.533652 -0.405345 0.289749 -0.0093197 0.439457 -0.484549 0.696102 0.00324271 0.33704 -0.666313 0.324141 0.537685 -0.169073 -0.573874 -0.796466 0.333484 -0.608378 -0.798588 0.146324 0.00410511 -0.911276 -0.31774 0.400906 0.764826 0.60932 0.738004 0.387344 -0.205146 -0.0629127 0.151893 0.365422 -0.198127 -0.380915 0.519379 0.233323 0.604204 0.52906 0.620174 0.618559 0.982151 -0.798638 -0.604458 -0.766731 0.475252 0.984827 -0.183398 0.0842651 -0.613761 -0.783539 0.482806 -0.519306 0.204198 -0.936574 0.878159 0.996586 -0.0435203 0.162773 0.65232 -0.0933008 0.508829 -0.547726 0.656811 0.22192 -0.746356 0.285771 0.748019 0.718683 -0.825587 -0.412055 0.180524 0.36088 -0.536165 -0.910873 0.531166 -0.303794 -0.209815 -0.730039 -0.621729 0.00562056 0.174358 0.785422 -0.447478 0.561574 0.0485306 0.572637 -0.632547 0.448545 -0.527883 0.480143 -0.657478 0.0462676 0.85973 -0.581769 0.841039 -0.673138 -0.747144 -0.9356 -0.197705 -0.980975 -0.164473 0.254433 0.25041 0.546422 -0.48323 -0.324548 -0.263017 -0.188966 0.80113 -0.644306 0.631657 0.371525 0.815702 -0.346307 -0.64437 0.0173552 0.533547 0.888553 -0.23311 0.166665 -0.381548 -0.468717 0.511284 0.203263 -0.786758 -0.128329 -0.504618 -0.188484 0.052435 0.746154 
