7
layer
0.104765 0.825621 -0.468803 -0.396516 -0.558658 -0.937091 0.554011 -0.00606934 0.677808 -0.701593 0.0845166 -0.352925 -0.145099 -0.822526 -0.97763 0.313488 -0.151148 -0.757903 0.326488 -0.749565 0.196131 -0.019465 0.921037 0.344958 0.45766 0.79132 0.603009 0.728177 -0.0579211 0.933796 -0.66928 -0.973668 0.995305 -0.209771 -0.611404 0.542964 -0.514481 0.360553 0.809158 0.289791 0.423356 0.6906 0.280332 0.932301 -0.424262 -0.809303 0.125365 0.731885 -0.817419 0.0519605 0.898737 0.409846 -0.585985 -0.92246 -0.660014 -0.971919 -0.292376 -0.200851 -0.979456 0.482337 0.00591081 0.900885 0.030258 0.681381 0.159239 0.584704 -0.620599 -0.143556 0.448766 -0.664243 -0.358895 0.728875 -0.675609 0.903705 -0.43922 -0.103382 0.495358 0.579082 -0.564197 0.874053 0.834038 0.46414 0.534137 0.296342 -0.180267 -0.3174 0.516381 -0.529098 0.556772 0.197632 0.838325 0.0704546 1.25121 0.153376 0.306142 -0.538555 -0.273432 -0.731057 0.437082 -0.67795 0.343717 0.148207 0.460945 0.101177 0.279272 -0.0901176 0.288 0.0410298 0.13093 -0.118196 -0.659431 -0.0616846 0.703023 0.952384 -0.880172 0.137794 0.237707 -0.278032 0.0292423 0.0669591 -0.38876 -0.258013 1.13409 0.85989 0.906372 -0.174257 -1.10124 0.388123 -0.914587 0.473824 -0.00752868 0.131907 0.335348 -0.40813 -0.0891952 -0.649745 -0.718272 -0.219879 -0.318635 0.913108 0.0873531 -0.783808 -0.915582 0.94562 -0.536358 -0.665464 -0.593303 0.514456 -0.134032 0.962738 0.121393 -0.548036 -1.06541 -0.0541248 -0.422924 0.638218 -0.4211 -0.409451 0.689325 0.682666 1.02456 -0.448611 0.24267 0.432352 0.129522 -0.587431 -0.601829 0.628385 -0.725253 0.930985 -0.666377 0.0365217 -0.0774341 -0.107314 -0.130848 -0.212714 0.234627 -0.734183 -0.561675 -0.496874 0.693482 0.524619 0.956525 1.29435 0.575369 0.892296 0.742784 -0.0785771 0.450362 1.19054 0.0441646 0.399079 0.391869 -0.736157 -0.286872 -0.352891 -0.779688 -0.279184 -0.519825 -0.06981 0.937989 0.40323 -0.171597 0.578205 -0.655969 0.60978 0.575831 -0.785703 -0.44926 0.99532 -0.0885116 1.13531 0.704674 0.520882 -0.20933 -0.0845732 0.363453 0.205354 0.694572 0.333747 1.29323 0.289092 0.468811 -0.21027 0.320756 -0.397047 -0.740712 -0.10953 -0.689011 0.500913 0.392806 0.572347 0.284057 0.624175 -0.42635 0.699096 -0.244612 0.430405 0.00130846 0.313298 -0.649971 -0.608186 -0.764127 -0.733798 0.000582523 -0.452498 0.982678 0.719051 -0.164131 0.875288 0.193158 0.761038 0.601309 -0.652548 -0.505212 -0.357014 -0.669397 -0.306325 0.251632 -0.166213 -0.105721 0.011261 -0.43687 0.903307 -0.257439 -0.349548 1.14281 0.603964 0.599514 0.39784 -0.600563 0.040457 0.811277 -0.0456632 0.404568 1.19833 -0.278043 -0.0112995 0.975382 0.692543 0.592431 0.262698 0.75296 -0.0320892 0.540989 0.530179 0.14725 0.596994 0.13747 -0.0775145 -0.380541 0.181609 0.649787 0.81506 0.335784 0.381962 0.127038 0.0508746 -0.47277 0.0590787 -0.637638 0.370463 0.0960465 -0.475971 0.467474 0.714071 0.59047 0.863818 -0.0526593 -0.652281 1.02081 0.881938 -0.693971 -0.0481811 0.390127 0.522069 0.910955 0.211105 -0.721946 0.711792 -0.748083 0.393296 0.672598 0.394661 0.875947 -0.0318148 0.686186 -0.731781 0.0530155 -0.654165 0.0750112 0.461624 -0.18322 0.032948 0.533809 -0.233259 -0.549151 0.874113 -0.408831 0.709614 0.817163 -0.133191 -0.340951 0.608438 -0.359052 1.11933 -0.993483 0.379475 -0.652577 0.523822 -0.594047 0.957126 -0.0801365 0.488029 0.876745 -0.193768 0.753995 0.717952 0.737376 0.688026 -0.436319 0.00393938 -0.391182 0.671077 -0.942791 0.789134 -0.460343 0.613292 -0.845873 -0.422419 0.276542 0.131236 0.279822 -0.98481 -0.480117 -0.815118 -0.700902 0.181667 -0.190446 0.464714 0.161138 0.741001 0.883219 0.218834 0.436897 -0.774598 -0.192978 -0.874866 -0.42378 -1.20131 -0.620618 -0.0921329 0.878504 0.00709524 -0.0349642 -0.348698 -0.00111791 0.634629 0.0247224 -0.61049 -0.65309 -0.549998 -0.482286 -0.749353 1.05045 -0.775734 -0.512659 -0.186726 -0.556711 0.392806 0.384414 -0.210839 -0.756479 0.0782228 -1.24859 -0.339862 -1.56616 0.397223 -0.631191 0.223975 0.0976514 0.762366 -0.0349268 -0.229981 0.921206 -0.298768 -0.629263 -0.814583 -1.00791 -0.598739 -0.535404 -0.176059 0.551452 0.566435 0.0708978 -0.531516 0.518241 -0.538142 0.383637 0.577797 -0.866566 -1.04233 -1.78619 -1.53246 -0.78727 -0.0552172 -0.541576 -0.459599 -0.319114 -0.0908213 -0.916524 -0.362254 0.142007 -0.486894 -0.556318 0.913823 -0.268835 -0.338539 -0.409601 0.282162 -0.518877 -0.034789 -0.291667 -0.827885 -0.802128 -0.415779 -1.0312 -1.47083 -0.213004 -1.09895 -0.28151 -1.55801 -0.061932 -0.666804 -0.743983 0.783562 0.991579 -1.00272 -0.393921 -0.754565 0.355516 1.13481 0.494455 -0.629924 -0.526167 -0.325137 0.421587 -0.667 -0.781486 0.411786 -0.385972 -0.925162 0.0721862 -0.461061 -0.608445 -0.80111 -1.06775 -0.104138 -0.572369 -1.28252 -1.75964 0.0182471 -0.0741335 -0.666783 0.202516 0.582788 -0.929919 -0.0132509 -0.521431 -0.551881 -0.153716 0.178655 -0.237146 -0.782201 -0.4295 0.0467929 -0.633379 0.295692 0.463556 -0.651504 -0.8834 -1.12063 -0.656098 -0.409017 -1.17905 -0.724162 0.587739 -1.38617 -0.0322132 -0.984825 0.428853 -0.00544856 0.551619 -0.77497 0.0943279 0.711334 -0.478409 0.4395 -0.034253 -0.932475 0.622525 -0.135002 -0.513366 -0.138105 0.48811 0.0553065 0.273831 0.507381 -0.537898 -0.393392 -1.39343 -0.0703564 -0.59004 -0.340292 0.148923 0.174895 -0.478185 0.0440207 -0.375057 -0.646733 -0.815823 -0.653431 0.330447 0.683501 -0.462092 -0.0713839 -0.844837 0.269114 -0.873634 -0.229697 -0.213781 0.313433 0.273088 -0.912647 -0.3996 -0.283149 -0.631309 -0.759995 -1.41764 0.167849 -0.113857 -0.473288 0.442777 -0.809754 0.226263 -1.08545 -0.113246 -0.614953 -0.0363381 0.804626 0.71765 -0.975084 -0.168967 0.773306 -0.931103 -0.433827 0.350923 0.551564 0.0432394 -0.440035 0.180666 0.387507 -0.0234629 -0.618602 0.387564 -0.27942 0.000762602 0.0801584 -0.178476 -0.360387 -0.562737 0.540721 -0.420085 0.732483 -0.634956 0.807451 -0.107913 0.174184 0.656311 0.178229 0.419695 -0.0503562 -0.762148 -0.164324 0.533204 -0.129598 0.73121 0.571244 0.58638 0.603457 -0.198139 0.143173 -0.374386 -0.721606 -0.542262 0.393452 -0.685394 -0.367823 1.03376 -0.551676 -0.504091 0.806973 -0.154429 -0.675119 0.1327 0.827938 0.083168 -0.547439 -0.919969 0.822613 0.273716 1.02377 0.469437 0.854753 -0.188183 0.0783218 0.176567 1.14252 1.10106 -0.139408 0.0271376 -0.57489 0.486686 -0.367072 -0.84367 -0.398008 0.733273 0.687365 -1.00615 0.409245 0.129929 -0.833925 0.0655541 -0.159023 -0.140135 0.865267 0.936335 -0.0529222 1.0941 0.831381 1.17089 0.924045 0.427576 0.588762 0.692175 1.25219 -0.827274 0.236823 -0.117111 -0.62846 0.422055 -0.337422 0.286844 0.61556 0.0693633 -0.132066 -0.498316 0.542007 -0.798366 -0.479344 0.0758991 0.419175 0.132288 0.865772 -0.0311474 -0.542458 -0.0182531 -0.566279 1.20763 0.0697916 0.201163 0.339577 1.25123 -0.252802 0.59471 -0.202074 0.841042 -0.0907615 -0.071037 -0.347451 -0.52905 0.106082 -0.0510933 -0.28181 -0.40421 0.381086 0.193589 0.0850123 0.483136 0.330132 -0.744006 -0.747407 -0.457279 0.244008 -0.430687 0.166197 0.962172 0.398585 0.754681 -0.610823 -0.733902 0.253985 0.699618 0.55036 0.640845 -0.706159 -0.609078 -0.0694688 -0.0952741 -0.203193 0.278793 -0.941308 -0.410116 0.0291447 -0.937381 0.850522 0.748021 0.421431 -0.591816 -0.17963 0.130083 -0.467891 0.437465 0.486084 0.746886 0.352822 0.857859 0.445081 0.00871498 -0.180658 -0.693118 0.718145 0.505172 0.00398783 -0.730429 -0.382159 -0.887297 -0.918898 -0.216472 -0.448992 0.545807 0.19411 0.0768675 -0.64505 
0.845984 -0.766507 -0.739825 0.202234 -0.51857 0.990774 -0.868888 -0.382126 -0.784784 -0.626243 -0.768476 -0.922239 0.845253 -0.956506 -0.774465 -0.413594 0.281668 0.162719 -0.230405 -0.918717 -0.54015 -0.0911398 0.78599 0.380462 -0.51046 0.582857 0.142791 -0.970946 0.203701 -0.322623 -0.795066 0.692227 -0.649205 -0.796952 -0.126988 -0.16338 0.295817 -0.733642 0.344148 -0.12472 -0.624787 -0.230165 0.272974 0.0770976 0.134216 0.861321 -0.300869 0.960719 -0.696976 0.696987 0.546728 -0.128877 0.49521 -0.453907 -0.304758 -0.125038 0.702806 -0.437317 0.79548 0.177331 0.793552 -0.660595 -0.754153 -0.590025 0.752812 0.519067 -0.126364 -0.0814143 -0.385913 -0.86805 -0.906372 0.426409 -0.701904 0.301265 0.697932 -0.672026 -0.141151 0.22579 0.529093 0.120895 -0.874177 0.529365 0.582304 0.259307 -0.972634 -0.909329 -0.546662 -0.240486 0.744006 -0.603392 -0.834909 0.733605 0.39104 -0.703488 0.30391 -0.622541 0.444451 0.871999 -0.728888 1.25812 0.787261 0.123706 0.306116 0.333571 -0.490456 0.743936 -0.758456 -0.4271 0.018363 -0.442507 0.461787 -0.874058 -0.850018 0.655713 -0.267956 -0.73968 0.567644 0.912937 -0.796789 -0.606446 0.490317 -0.158119 0.431028 -0.501337 -0.398372 0.599489 -0.376467 -0.1621 0.754194 0.204285 0.20522 0.0236879 -0.487321 0.92306 -0.297295 -0.904544 0.355398 -0.375182 0.373144 0.723116 0.52013 -0.104819 -0.335522 0.623385 -0.0682687 1.15653 -0.641305 0.378842 0.881058 -0.512149 0.225756 1.15764 -0.0373236 1.05804 -0.140466 -0.508577 0.110834 0.195631 0.79107 0.7419 0.0454316 0.562281 -0.679759 -1.07242 -0.498931 -0.50196 -0.965853 -0.87956 -0.381449 0.00205545 0.121693 -0.409186 -0.62048 -0.347089 -0.356292 -0.594633 0.186162 1.01782 0.104274 0.798622 0.950936 0.264191 -0.524446 -0.673562 0.938741 -0.446363 -0.318704 -0.357761 0.778809 -0.650704 -0.895032 -0.19845 -0.634186 0.276775 0.639128 0.182612 -0.628834 -0.382811 0.0782503 0.0192627 0.181912 0.800006 -0.379707 -0.416999 -0.49152 0.116578 -0.165112 -0.258256 1.09532 0.834355 0.0601903 0.729825 0.345241 -0.354209 0.605314 0.503866 -0.600036 0.715285 -0.576371 -0.665509 0.348882 -1.22034 -0.689076 0.812366 -0.335349 -0.413185 -0.400424 1.14648 0.208852 0.723567 -0.232718 0.283668 0.223142 0.0614241 1.07135 -0.488335 0.730794 0.211362 -0.202262 0.407688 -0.0722683 -0.0883456 -0.0773418 0.840719 -0.54264 0.286782 -0.325951 -0.610796 -1.02422 -0.0600249 0.281274 0.31772 -0.839686 -0.68386 -0.339067 1.01934 -0.0673467 -1.05817 -0.123491 -0.119684 0.505144 -0.666448 -0.0736001 0.954305 0.242576 0.28925 -0.840283 -0.5598 0.334193 -0.352365 -0.204823 0.134934 0.239008 -1.12131 0.231755 -0.549809 0.629169 0.439054 0.00855764 0.738454 -0.995561 -0.316264 0.0350991 -0.311611 -0.126329 -0.915521 -0.530421 0.662371 -0.246253 1.2666 1.0406 0.803434 -0.58361 -0.203452 0.117903 0.501875 0.289039 0.358908 0.412392 -0.765561 0.512447 0.0556897 0.563649 -0.19012 -1.05192 -0.916078 0.279144 0.436601 -0.412919 0.574189 0.507586 0.236232 -0.8044 -0.175675 0.369241 0.0802868 0.0151068 0.555988 0.221462 0.242853 0.468693 0.911043 -0.517042 -0.505986 0.299504 -1.06891 0.988976 0.599491 -0.256965 0.116762 -1.04694 -0.755438 -0.964286 0.460018 0.0244994 0.946448 -0.812604 0.932925 -0.0222953 -0.455747 0.223783 0.38207 0.602489 0.656457 0.985338 -0.496623 -0.463927 0.457496 0.29651 0.598095 -0.507028 0.514396 0.430569 -0.547179 -0.679381 -0.373852 0.588648 -0.675224 -0.572999 0.413862 -0.81652 0.769538 0.644113 -0.236811 -0.394199 0.519808 -0.0388361 0.727716 -0.899099 0.758046 -0.747718 0.879312 -0.420033 0.85947 -0.607726 -0.00422894 -0.37385 0.239618 -0.850745 0.902599 -0.0313749 0.319312 -0.280329 0.963541 0.154552 -0.0154847 -0.100854 -0.785008 -0.0968207 -0.25112 0.0881189 -0.312157 0.123588 0.521349 -0.916928 -0.280659 -0.354992 0.1085 0.763011 0.511881 0.00406949 0.775345 -0.37306 -0.421937 0.146228 -0.253439 0.352192 -0.133617 0.244518 0.444031 -0.620897 0.593686 -0.628483 -0.325354 -0.245206 -0.613869 0.375787 -0.0600262 0.912869 0.254793 0.617904 -0.587722 0.301764 -0.610794 0.972704 -0.391527 0.44207 0.766384 -0.31168 -0.376671 0.377353 -1.24222 -0.182242 -1.09021 0.607185 -0.632203 -0.846195 0.0970814 -0.417664 -0.501964 0.689286 0.334935 0.0708719 -0.440446 -0.565644 0.0382704 0.81905 0.401596 -0.831741 -0.727525 -0.497232 0.646164 0.678743 1.3777 0.0280784 0.411615 0.318276 -0.719414 -1.50398 -1.11217 -0.860907 -0.0173436 0.562463 -0.208833 -0.643428 -0.818878 -0.743551 0.258403 -0.738654 -0.352756 0.613651 -0.876655 -0.654208 0.419142 0.842373 0.757685 -0.877906 0.565702 -0.210428 -0.260023 0.953855 0.253229 1.23077 1.12532 0.505614 0.506143 -1.14427 0.0868415 -1.25906 -0.337252 0.117734 -0.576835 -0.0273641 -0.929397 0.474805 0.240952 -0.936742 -0.742594 -0.689735 0.156659 -0.0307426 -1.05372 -0.439931 -0.305278 -0.923278 0.289167 1.01567 0.97782 -0.646702 -0.0393802 0.871104 0.894882 -0.750032 0.445576 -1.35872 -0.0843327 -1.20559 -1.4158 -1.08127 -1.63858 -0.337494 0.270711 -0.742457 0.420141 -0.351682 -0.456715 -0.682709 -0.503312 -1.15278 0.337311 -1.02228 0.587599 -0.225485 -0.298743 -1.0353 -0.0853098 1.03863 1.0697 0.46975 0.402402 -0.46491 -0.129351 -1.64907 -0.461448 0.0403671 -0.849748 -0.288663 -1.34628 -0.00367564 -0.813992 0.17878 0.452603 0.267374 0.0722214 0.65765 -0.0203516 -0.789894 0.0569711 -0.0621932 0.39053 0.33802 -0.442413 0.641037 1.18745 1.04418 0.492183 1.36404 0.0446132 -0.637119 -0.852766 -1.39186 -1.5932 -0.126156 -0.445312 -0.301132 -1.27086 0.472969 -0.82309 -0.139798 -0.631324 0.181312 0.00947645 1.10255 -0.287596 0.399409 -0.536321 -0.281712 0.47735 -0.929489 -0.421037 -0.586417 0.39444 -0.329595 0.0842879 0.201785 0.48701 0.308155 -1.07353 -1.64744 -0.257102 -0.737908 -1.11526 -1.03377 -1.38055 -0.306187 0.837636 -0.843978 0.37826 -0.316225 0.306667 0.622345 0.419694 0.650957 -0.536493 -0.330474 0.443253 0.786991 0.0500644 -0.200285 1.06535 0.173118 -0.400548 -0.118749 -0.606722 -0.553852 -0.432455 -0.182229 -1.53718 -1.42041 -0.862849 -0.260034 0.386693 -0.601071 -0.925626 0.404085 -0.642317 -0.669805 0.684306 -0.425565 -0.577712 0.378882 0.196805 -0.18039 0.523866 -0.336914 -0.781932 0.711964 0.785709 1.13984 0.89209 -0.284557 0.0848797 -0.510859 -0.306052 -1.39354 -1.37173 0.218499 0.258035 -1.03813 -0.895758 0.153769 1.20295e-05 -0.129524 -0.359677 0.672803 -0.891517 0.0221819 -1.14211 -0.8376 0.867297 0.105859 -0.282278 0.937219 0.533828 -0.706662 0.197046 -0.694976 0.372098 -0.622664 0.158091 0.159544 -0.739304 -0.415823 -1.36254 0.154914 -1.19597 0.0424817 -0.032412 -1.24516 -0.861562 0.294088 0.45884 -1.04334 -0.59487 0.638654 0.731666 -0.849277 -0.805887 0.030692 0.85491 -0.564987 0.891193 -0.051532 0.00206544 0.544901 0.293238 -0.391286 -1.02549 -0.657987 -1.05712 0.0763964 -0.167928 0.509714 -0.796527 -0.192932 0.626153 -1.05181 0.438078 -0.809816 0.774574 -0.0148102 0.118983 -0.792543 0.455424 0.183305 -0.363621 0.722824 0.860752 -0.458694 0.505743 0.8404 0.297654 0.518974 0.356352 -0.896005 0.587349 -0.608262 -0.331573 0.25996 -0.66549 -0.944888 -0.28288 0.912858 0.0413305 0.204482 -0.975396 0.179639 -0.618508 0.721291 0.584364 -0.750772 -0.51474 0.966866 -0.752789 0.00375824 -0.983226 0.421586 0.725506 0.798332 0.0912429 0.0821172 0.624947 0.645711 0.133814 -0.367663 -0.753426 0.380094 0.93565 -0.748129 0.566646 -0.517549 -0.786903 -0.610726 0.543939 -0.109277 0.572739 -0.678581 0.105611 0.190579 0.897493 -0.821027 0.405278 0.183427 -0.583858 
0.352684 -0.893065 0.709298 -0.46056 0.615555 -0.740592 -0.57642 -0.135367 -0.846929 -0.43067 0.622029 -0.147862 -0.384264 0.437169 0.933779 0.639265 0.296788 -0.581623 -0.8082 -0.0270327 -0.040155 -0.545861 0.518293 -0.429561 -0.985391 0.517329 -0.0599076 0.361687 0.816345 0.949019 0.0458842 -0.63348 -0.451603 0.0205378 -0.0802541 -0.786918 -0.767282 -0.0233003 0.814975 -0.794993 0.477393 0.579765 0.385975 -0.942838 -0.648843 -0.386215 -0.298365 -0.929874 0.181257 -0.0240834 -0.0756861 -0.572281 0.983506 -0.405543 -0.92418 0.0762892 0.189957 0.589811 -0.0411012 0.0809193 0.171881 1.01015 -0.0904565 0.267456 -0.267548 -0.440098 -0.545804 0.301367 -0.45476 -0.825658 0.459128 0.746071 -0.253979 0.572119 0.587003 -0.245035 -0.209423 0.314911 -0.312845 0.67749 0.0771855 -0.649278 0.647646 0.66514 -0.979627 0.842371 -0.950704 -0.155291 -0.405065 0.237443 0.581729 0.950653 0.0960497 -0.422671 0.278613 0.583552 0.185043 -0.576657 0.797423 0.822032 -0.713233 0.379213 0.633017 0.913079 -0.129236 -0.326297 1.02607 -0.0596659 -0.745863 -0.269329 0.453642 0.110726 -0.868322 -0.536527 -0.601406 0.11635 0.772252 -0.0372945 -0.553194 -0.399555 -0.392283 0.000358751 -1.13696 -0.562894 -0.277041 1.10054 1.09617 0.199197 0.940519 -0.311297 -0.260835 1.16105 0.682686 0.903669 -0.415716 1.13135 0.16421 0.0300541 -0.682801 -0.706565 0.258511 -0.8091 -0.776466 0.498288 0.3417 -0.213194 0.980701 -0.078311 -0.89257 -0.393064 -1.08446 0.467332 0.236793 0.188716 -0.469989 0.539593 0.252032 0.89713 0.484007 1.22055 0.700015 -0.757671 0.636624 -0.949989 0.645328 0.0874334 0.0685048 0.666799 0.949246 -0.0125982 0.260077 0.905096 0.213175 -0.619887 0.841851 -0.745311 0.145632 0.574522 -1.1292 -0.0395719 0.955067 1.05404 -0.142196 0.576758 -0.317029 0.800009 -0.679483 -0.130238 0.94498 0.54015 0.612494 0.570378 -0.260642 0.857977 -0.653559 0.530627 -0.173127 0.214783 0.156427 0.0632422 0.928337 -0.210704 1.35835 0.496223 -0.17419 -0.553325 -1.03404 0.435036 -0.667927 -0.783695 0.71172 0.261744 -0.592939 0.253991 0.810353 -0.625291 0.179668 -0.186721 0.380384 1.03923 0.679084 0.802385 -0.707814 0.766488 0.966805 -0.168106 0.0500134 -0.281623 -0.29355 0.7356 -0.329219 0.503401 0.355849 -0.797217 0.779398 -0.774921 -0.371175 0.495179 0.239925 0.681901 -0.170637 -0.09811 0.382805 0.0995298 0.588548 1.02869 0.983445 0.616676 -0.514217 0.805965 0.232357 0.562804 -0.0484617 -0.529793 -0.290575 0.518376 0.614865 -0.445029 -0.161147 -0.88097 0.961706 0.437448 0.33194 0.070958 0.321549 0.0271559 -0.327343 0.787737 0.298203 0.40787 -0.179215 0.134775 0.831296 1.03419 -0.44611 0.285618 0.508496 0.184956 0.841799 0.977656 0.406723 0.0499257 1.01744 -0.52903 0.0389364 1.03729 0.745439 0.6924 -0.524015 -0.690963 -0.848905 -0.499621 0.302426 -0.614827 0.0163526 -0.384263 0.653188 0.113763 0.28406 0.37415 0.486997 0.522418 0.0989976 1.28398 -0.345265 -0.104627 -0.295295 0.0367472 0.134346 -0.479308 -0.48188 0.569939 -0.135121 0.773519 -0.446268 0.697184 0.0361611 -0.796707 0.110501 -0.61664 -0.451654 0.936268 0.568795 0.00262517 -0.77554 -0.136194 0.456742 0.782505 1.21436 1.0151 0.926272 -0.114341 -0.680663 0.285408 -0.390442 -0.497686 0.0658173 0.833435 -0.0352751 -0.840054 -0.816255 0.0205469 0.15899 -0.635696 0.545558 0.881672 -0.329739 -0.675749 -0.0339246 0.111815 -0.629925 -0.939382 -0.495486 -0.657559 -1.22286 0.234408 0.853525 0.174956 0.000874578 0.0643045 -0.592399 -0.584404 0.542065 0.253959 -0.733506 0.266113 0.0631461 0.437924 0.779181 0.383332 0.684263 -0.660114 0.916993 -0.47203 -0.701268 -0.816686 0.0440804 0.135966 -0.153556 0.0308418 -0.924088 -0.908762 -1.89638 -0.0458687 0.144246 -0.198722 0.584622 -0.699839 0.410685 -0.785555 -0.528168 0.417516 -0.854279 -0.145454 0.489163 -1.50558 0.249577 0.43003 1.10194 -0.304073 -0.247097 -0.623698 -1.26802 0.217713 -0.914788 -0.404081 -0.307751 -0.0137842 -0.25732 -1.07784 -1.32447 -0.274671 -0.120453 -0.390921 0.252232 0.421667 0.134504 -0.391616 -0.00279491 -0.535773 0.703328 0.359115 -0.647352 0.0657247 -0.82014 0.228801 0.291252 0.789698 0.412094 -1.14789 0.14852 -0.77407 0.537663 0.46152 0.116324 0.417443 -0.394807 0.546895 -0.0463636 0.744183 0.559843 0.00777513 0.569135 -0.0871267 0.0595237 0.390477 0.292155 -0.259901 -0.114495 -0.273613 -1.13658 0.179376 -0.281596 -0.0918209 0.535782 0.244992 0.334802 -0.101293 -0.800239 -0.683899 0.0385218 0.297192 0.37715 0.261213 0.750636 -0.772453 0.674602 1.06383 1.49797 0.182858 0.435837 0.270361 0.125386 -0.117884 0.820485 0.413696 -0.543084 -0.503199 -1.07914 0.137515 0.332889 0.827716 -0.458135 0.377099 0.0689099 -1.26686 -1.05725 -0.0868451 -0.220951 -0.4717 -0.288874 0.083958 0.379266 -0.359156 0.239772 1.06891 0.643115 0.940694 0.516628 0.00232914 -0.380637 0.66439 -0.56288 -0.976729 0.577995 0.459135 -0.737152 -1.06758 0.217973 0.666512 0.685001 0.362067 -0.90918 -1.57196 -0.0422122 -1.17454 -0.496854 -0.0657367 -0.879454 -0.133658 -0.243985 0.866408 0.939144 1.19845 1.17446 -0.232164 0.205139 0.180947 -0.772638 -0.699596 0.680363 -0.0451735 0.468485 0.392735 -0.76438 -0.0609239 0.73256 -0.667035 0.0818181 -0.636716 -0.990245 -0.829904 -0.298641 -1.58599 0.304048 -1.05831 -0.0308287 0.269878 0.334393 -1.00217 0.654681 0.77352 1.46553 0.055587 1.13267 -0.606934 -1.07481 -0.0118635 0.80166 -0.839218 -0.574835 0.67045 0.40778 0.0788134 -0.72663 0.39567 0.589957 -0.17423 0.072185 -0.585073 -1.73655 0.195632 -0.0895608 -0.850526 -0.303899 0.540026 -1.14066 -0.230667 1.11936 0.798855 0.848093 0.0210545 -0.438065 0.716205 0.565624 0.745447 -0.537784 0.170058 -0.743941 -0.803828 0.625357 0.528816 0.0900247 -0.690893 -0.0391074 -0.380439 -0.865894 -0.402076 -0.952556 -0.413191 0.567412 -0.669909 0.158559 0.898505 -0.613056 -0.555672 1.2229 0.629072 -0.159908 -0.465394 1.07084 -0.866947 0.77333 -0.98921 0.419447 -0.549114 0.384993 0.206877 -0.701052 0.359296 -1.08753 0.50088 -0.380319 0.318751 -0.483304 -0.335345 -1.43571 -1.08911 -0.388685 -0.783115 0.874737 0.848453 -0.718538 0.265583 0.574408 -0.0218773 1.04363 0.989184 -0.216956 0.351856 -0.960333 0.669021 -0.249709 -0.74909 0.359576 0.108339 -0.153197 -0.608423 -0.166558 0.0959693 0.404979 0.348256 -1.18714 -1.10713 0.149943 -0.491318 -1.35093 0.573285 0.36437 1.23173 0.13994 -0.144413 -0.220511 -0.65663 0.858948 -0.738441 0.0889517 0.174326 -0.814734 -0.070162 -0.542287 0.692443 0.602398 0.0602252 -0.864899 -0.49198 -0.14474 -0.0435747 0.448579 0.699794 -1.19455 -1.49588 -0.686311 -0.178922 -0.699922 0.926168 0.052506 0.0901269 1.15184 -0.14874 0.972492 0.616295 0.602277 0.256987 -0.207731 0.185653 -0.604398 -0.537622 -0.401311 0.383756 -0.451732 0.06172 -0.668869 0.513289 -0.827015 0.612518 -0.243413 0.0874118 -1.10654 -0.204526 -0.974401 0.316293 0.67652 0.85404 0.56914 -0.111054 -0.801679 -0.811257 0.399886 0.657594 0.33064 -0.613284 0.908243 0.234635 0.746483 -0.997664 -0.471584 0.13111 0.633116 -0.396177 0.567698 -0.529698 0.233131 0.883868 -0.725556 -0.403991 -0.140743 -0.976561 -0.56311 0.432891 -0.934088 0.0515569 -0.167629 -0.3321 0.575472 -0.872071 0.368053 0.103186 -0.225701 -0.300995 0.86036 -0.37835 0.77063 -0.177074 0.461863 -0.859761 0.114494 0.347954 0.393434 -0.0487221 -0.484023 -0.204369 -0.0155996 -0.595248 0.379302 -0.97191 -0.13631 0.315787 -0.100761 0.441948 0.424092 -0.651669 0.621875 -0.872385 0.0962344 0.803849 -0.0330267 0.449018 -0.789946 -0.521652 -0.483672 0.985511 -0.267715 0.191539 
-0.541383 0.784426 -0.348947 0.480628 0.0271546 -0.553609 -0.952353 -0.96279 0.429971 -0.667718 -0.572097 0.384507 0.629553 0.928432 0.849038 0.686082 -0.00595252 0.596749 -0.355792 -0.375463 0.783642 -0.264629 -0.806276 0.85617 -0.233421 -0.961566 0.0750055 -0.792925 -0.165965 -0.174148 0.541437 -0.125692 -0.303727 -0.79057 -0.805427 0.291413 -0.67434 -0.387035 -0.796624 -0.0413585 0.734427 -0.0613686 -0.790449 -0.0105247 0.948495 -0.960518 0.747777 -0.310582 -0.0160841 -0.581435 0.710001 -0.343967 0.384872 0.939079 0.839122 0.942804 0.406105 -0.669629 0.617926 0.246991 0.91491 0.685198 -0.195599 0.140079 -0.617476 0.979343 0.887944 0.873142 0.520289 -0.849185 -0.0215342 1.0002 0.838119 -0.428075 -0.492354 0.640215 0.11316 1.12334 -0.159046 0.654363 0.47131 0.569233 -0.550371 0.154263 -0.282774 -0.293383 -0.608368 -0.947209 -1.14057 -0.0275413 -0.35433 0.862585 0.967915 0.0485706 0.676048 -0.623216 -0.253536 0.489981 -0.410687 0.954995 0.272415 -0.149805 -0.457119 0.969465 -0.00104253 0.770493 -0.612032 -0.455407 -0.587151 0.755403 -0.595443 0.505029 0.328804 -0.168888 0.408173 -0.357913 0.669141 -0.572055 -0.92507 0.422574 0.832755 0.0820738 1.37985 -0.427687 -0.713751 -0.11697 0.6753 1.19331 -0.297656 0.337127 0.927034 1.27322 -0.472798 -0.691091 -0.473408 -0.57379 0.124493 0.157924 0.184848 0.257756 -0.844808 -0.557046 -0.749707 0.252729 0.297577 0.673542 -0.465492 -0.667127 -0.857494 0.987238 1.24064 0.571337 0.501713 0.768364 -0.39073 0.544974 -0.0306143 0.123305 0.389839 -0.235278 0.0452563 -0.542249 0.16084 -0.452561 0.666497 0.793029 -0.195629 0.847596 0.182456 0.984363 0.874671 -0.604384 -0.215865 -0.0995834 0.328313 -0.334563 -0.8025 -0.365263 -0.259315 0.661082 -0.428371 0.854944 -0.0898547 -0.762064 0.871267 -0.141433 0.0744695 0.322332 0.610202 -0.273897 0.865118 0.774616 0.200119 0.448782 -0.426307 -0.134821 0.835145 0.378766 -0.118357 -0.349735 -1.13381 -0.270715 -0.0815757 -0.0334898 0.726897 -0.118366 0.0108231 -0.302793 -0.649016 0.106282 0.474178 -0.870667 0.78616 1.18717 -0.142232 1.00225 0.515781 1.08125 -0.0902818 0.957277 1.2598 1.13311 0.0283682 0.642368 0.960103 0.161783 0.824924 -0.0998464 -0.371929 -0.185661 -0.768061 -0.211092 0.563016 -0.275966 0.406463 0.81016 -0.132174 0.301179 -0.544093 -0.211203 -0.360319 -0.558035 -0.441914 1.07824 0.979283 1.25005 -0.0932519 -0.0465823 0.426979 -0.48638 -0.174113 0.126905 -0.651278 0.959302 0.5412 -0.390537 -0.556688 -0.165167 -1.04269 0.478878 -0.234421 -0.102798 -0.0135202 0.0898315 -1.44863 -0.789649 -0.0473462 -0.0596874 0.014312 -0.424645 -0.771168 0.0270687 -0.158794 1.16945 -0.139325 0.00733739 0.812031 -0.178206 0.492526 0.151844 -0.676526 -0.729225 0.91203 -0.448278 0.671433 -0.567066 0.501848 -0.264513 -0.558409 0.555867 0.236892 0.370522 -0.100654 -0.3281 -0.997822 -0.788632 -1.02708 -0.138452 -1.03604 0.345467 -0.141947 0.0104434 0.0297089 0.315535 1.29827 1.27022 -0.177426 0.960246 0.449836 0.0748676 0.189266 0.192883 -0.815086 -0.807808 -0.384234 -0.464777 -0.845933 0.615657 0.284846 0.261724 -1.39947 -0.773605 0.206536 -0.442288 -1.00042 -0.238952 0.374297 -1.01083 -0.403609 0.41318 -0.14226 1.40835 0.744889 0.686148 0.821822 0.0167882 0.437724 -0.979953 0.913859 -0.239037 -0.209721 -0.562633 0.104144 -0.820463 0.113451 -0.0853994 -0.734395 0.203157 -0.0379434 -1.07035 -0.928023 0.0164004 -0.111232 -0.804024 -0.881959 0.22416 -0.681485 0.238319 0.967652 -0.475927 1.325 0.104887 -0.414392 -0.580179 -0.00912305 0.0219415 -0.923495 0.94394 0.77282 -0.395069 0.734921 -0.636932 1.26193 0.588967 0.539313 -0.620827 0.525487 -0.161143 -0.873528 -0.597617 -0.052485 0.815266 -0.697935 -0.521714 0.172787 0.226807 0.706826 1.06144 -0.0586908 0.937952 -0.190128 -0.919198 0.861412 -0.13249 0.341698 0.153363 -0.443897 0.424523 0.806791 -0.223332 0.122398 0.524044 0.405139 -0.370176 -1.31257 -1.10063 0.433165 0.273917 -0.746543 0.64955 -0.0491068 0.164932 0.279115 -0.289753 1.09493 -0.046354 0.70287 -0.302351 0.714488 -0.251308 0.148723 0.508288 -0.358928 0.899519 -0.197785 -0.0234406 0.414169 0.693978 0.287968 -0.472122 -0.990445 -0.363519 -0.796404 0.334175 -0.392797 0.685943 0.623171 0.536527 -0.196845 0.26792 -0.45602 0.255503 0.515487 0.171589 0.607573 0.49333 0.857081 -0.373627 0.252332 -0.757384 -0.224072 -0.509077 -0.980619 0.428048 0.311822 0.5121 0.590952 -0.705669 0.456939 -1.20291 -1.01013 -1.01658 -0.63488 0.390229 0.338418 -0.0658064 0.0832948 0.587963 0.762172 0.0498315 -0.393688 0.913668 0.253396 0.759789 0.668602 -0.674446 0.652974 -0.604067 -0.902623 -0.24701 -0.306005 0.104912 -0.372324 -0.856498 0.102013 -0.214821 0.0986465 -0.91126 -0.943816 0.131653 -0.812814 1.05053 0.0886326 0.0758419 0.504573 -0.190689 1.09847 0.683735 0.26626 -0.513053 -0.684192 -0.746969 0.935795 -0.743359 0.652501 -0.345624 -1.00024 -0.711899 0.138 0.453652 0.378568 -0.48416 -0.0222499 0.485711 -0.146962 -1.0694 -0.934081 -0.743171 1.33436 -0.208861 0.796282 -0.00568135 1.09195 -0.284825 -0.151925 0.466848 -0.556783 -0.168679 -0.073038 0.0723502 0.274279 0.594001 0.00150659 -0.472644 -0.732923 -1.03767 -0.671504 0.620145 0.643139 -0.299065 0.692023 -0.667763 0.374959 -0.279843 0.409281 0.867083 -0.392426 1.13571 -0.140333 1.08543 -0.484506 -0.0772789 -0.290264 0.995698 -0.803371 0.0799423 -0.353963 -0.0312581 -0.937996 0.332614 0.817706 0.39835 -0.882574 0.491998 0.567447 0.441581 0.231762 1.00352 0.174937 -0.201942 -0.383264 0.515381 0.200304 0.862745 -0.00556771 0.445903 0.62073 -0.967665 -0.550019 -0.878788 0.723224 -0.527226 -0.37061 -0.318405 0.63003 -0.898513 0.912788 -0.626352 0.505871 0.495427 0.138413 0.198592 -0.977538 0.794901 -0.448401 1.05595 -0.398991 0.710683 0.666292 -0.0904539 0.858417 0.273046 0.0502288 -0.61283 0.257099 -0.392854 0.0129705 -0.692107 -0.247684 -0.580845 0.0642648 -0.677076 0.829711 0.43335 -0.725939 -0.276461 -0.545184 -0.097933 -0.811501 0.481371 0.700824 0.97758 0.633288 0.248996 0.578412 -0.457865 0.259802 0.879309 -0.889429 -0.567427 -0.266025 0.497952 4.32812e-05 0.559541 -1.1195 -0.188372 -0.4563 0.34466 0.0986567 -0.130706 -0.652811 0.434473 -0.551382 0.676182 -0.95032 -0.154591 -0.141408 -0.125464 0.245707 -0.597999 0.144462 -0.415239 1.12928 0.993183 1.14799 0.379376 0.213064 -0.00591612 -0.489258 -0.456258 -1.01072 0.636471 -0.755926 -0.790389 -0.155465 -0.733902 0.415498 -0.548753 0.572223 -0.815527 -0.4393 -0.952752 -0.348445 -0.50735 0.521713 -0.0586023 0.726961 0.901811 0.545724 -0.154551 1.00141 1.01989 0.677863 0.234039 -0.429639 -0.687311 0.85827 -0.799207 -0.203424 -0.0965064 -1.15399 -0.849794 0.510843 -0.747696 -0.758916 -0.360303 0.121893 0.608308 0.505845 0.539669 -0.472429 0.340751 0.541161 -0.427257 0.698933 -0.275851 -0.149087 -0.371247 0.980416 1.08703 0.497099 -0.125209 0.244575 -0.176579 0.764261 0.388674 0.545213 -0.0420252 -0.262854 -0.983352 -0.189033 0.538313 -0.876256 -0.922892 -1.02273 0.501755 -0.0405727 -0.911356 0.133879 0.450031 0.193611 -0.0502098 0.219153 0.0118567 0.976461 -0.387861 -0.886185 -0.0403571 0.990029 0.929813 -0.610699 0.650343 0.349733 -0.589951 -0.742385 0.664675 -0.801134 -0.466171 -0.790545 0.583458 0.587629 0.602409 0.522907 0.134443 0.400279 -0.406943 -0.737165 -0.137094 -0.657344 0.772831 -0.931604 0.517639 -0.441267 0.470645 0.675352 -0.689854 0.618972 0.249705 -0.342798 -0.812839 0.57962 0.332412 -0.0688375 -0.806566 -0.984684 0.37544 0.703218 0.408752 -0.197549 0.267671 0.00934839 -0.125435 -0.492123 -0.609747 
-0.617868 0.262255 0.473124 -0.38313 -0.289756 -0.641369 0.206868 0.946893 0.650988 -0.110199 -0.362897 0.0986045 0.0415221 -0.516285 0.617095 -0.462277 0.0101175 0.456478 -0.305224 -0.353295 -0.713789 0.157039 -0.46841 -0.423461 -0.638539 -0.743664 -0.723884 -0.212611 -0.310632 0.737345 0.0792451 -0.866307 -0.894455 0.437572 -0.434394 0.410127 -0.185463 0.630003 -0.825507 0.404076 0.609074 0.0993669 -0.649269 0.576434 -0.763568 -0.813532 0.50248 -0.4875 0.126959 -0.645332 0.788207 -0.0974619 -0.609024 -0.677397 0.0202364 0.624164 0.180523 0.153923 0.511565 -0.227982 0.0864396 -0.0978122 -0.196844 -0.19675 -0.320008 -0.541824 -0.111018 -0.159314 0.135533 0.650439 -0.861407 -0.395671 0.250641 -0.0219104 -0.888689 0.388257 0.146707 0.618833 -0.503416 -0.146369 0.678051 -0.961463 -0.270643 0.796568 0.926021 -0.101944 -0.809544 -0.108908 -0.161346 0.00948175 0.698053 1.10847 0.306866 0.957148 1.03735 0.419747 0.449847 -0.47233 0.556849 -0.514232 -0.14122 -0.460073 0.538164 0.0724659 1.00595 0.243551 -0.480764 0.55177 0.815818 -1.07101 -0.820277 -0.0788539 0.136578 -0.732776 -0.972665 0.633037 -0.919867 -0.571943 0.491487 0.869941 0.087267 -0.823066 -0.300218 -0.173816 -0.57614 0.2221 0.13403 -0.459772 -1.06379 -0.836343 -0.323944 -0.11437 -0.749585 0.225296 0.236501 -0.238557 -0.370956 0.0231423 0.152167 -0.0936934 -0.0511282 -0.381634 -0.660736 -1.05647 -0.336248 -1.03123 -0.546808 0.233514 0.534679 0.803578 -0.765893 -0.862231 -0.637022 0.623311 0.281813 -0.688043 -1.02044 0.572862 -0.700681 -0.546528 0.769115 0.0222374 0.311624 -0.463093 1.11602 -0.194039 0.218976 0.253059 -0.0418653 0.237185 -1.03728 -0.781967 0.396268 -1.38567 -1.48043 0.11151 -0.016838 -0.190565 0.251731 -0.484098 0.4503 -0.691115 -0.181808 0.195288 0.844417 0.268699 -0.467039 0.305299 -0.0650135 0.607971 -0.482318 -0.298604 0.249184 -0.454588 0.0494752 0.601253 -0.176872 -0.814066 -0.157755 -0.854948 -1.02579 -1.20308 -1.05525 -0.796449 -0.387423 1.20435 -0.221042 0.415082 0.18631 -0.239196 0.182181 -0.0499381 0.893524 0.933972 0.594375 0.132739 -0.361413 -0.66161 -0.0611677 0.382004 -0.38425 0.672705 0.951146 0.485417 -0.246754 0.909347 0.168027 -0.17829 -0.824211 -1.1626 -1.34817 -0.913985 -0.646822 -0.219753 -0.672969 -0.504575 -0.0340935 -0.132813 -0.307824 0.328542 -0.223822 0.52975 0.0978175 0.190998 0.363235 0.0287938 -0.0574627 0.886696 0.604385 1.02249 0.223529 0.62825 -0.722738 -1.00399 -0.0214114 -1.14228 -0.325495 -0.803394 0.273113 -0.924239 0.498698 -0.585324 0.559731 -1.21338 0.301058 -0.678939 -0.305927 1.30606 0.384398 -0.382707 0.439488 -0.132169 -0.417393 -0.137331 0.271516 0.315091 0.0137186 -0.734134 -0.714634 -0.53434 -0.944773 0.659128 -0.128372 -0.138927 -0.36357 0.196925 -1.36757 -0.0397912 -1.1143 -0.455169 -0.364578 -0.681834 -1.15741 0.592535 0.31789 -0.0607835 0.532872 1.18082 0.806876 0.575926 -0.373008 0.614689 -0.363523 -0.613981 0.4858 -0.886742 -0.787023 -0.49525 0.00879226 0.603682 0.227848 0.172086 0.270758 0.452669 0.326641 -0.482018 0.528432 0.010391 0.0259298 -0.53272 -0.157178 0.752301 -0.49358 0.454245 -0.524095 -0.213413 -0.0898017 0.542372 0.260131 0.608041 -0.372804 1.02758 0.611098 -0.175889 -1.02373 -0.576051 -0.726528 -0.851485 -1.00308 -0.101042 0.320144 -0.875619 0.124612 0.0930167 0.31533 0.662662 1.13942 -0.429514 1.00815 0.363639 -0.447763 0.0429695 -0.885476 -0.1286 -0.0926602 0.111453 -0.0700497 -0.141131 1.0285 -0.0599735 0.321597 -0.73372 -0.844084 -0.771106 0.504068 -0.484095 0.1527 -0.232853 0.364221 0.0250728 -0.122045 -0.337885 -0.448044 1.38075 0.473643 -0.316685 0.534231 -0.660844 -0.709263 0.177223 -0.24164 -0.176017 0.867008 -0.339053 0.83808 0.147688 0.0771063 -0.410336 -0.755135 0.626882 0.625009 0.0151551 0.842581 -0.827364 0.169516 -0.57606 0.740719 0.157837 -0.225058 1.16263 0.00186695 0.380961 0.740335 -0.378813 0.986753 -0.114082 0.329464 -1.0455 -0.909508 0.285128 -0.459537 0.654665 -0.726656 0.913785 0.4022 0.139865 0.817357 -0.510239 0.726998 -0.133746 0.861616 0.848953 0.313444 -0.383214 1.05434 -0.698247 0.865031 0.39463 0.190222 0.369807 -0.0924177 0.590915 0.15816 -0.254476 -0.886008 -0.597455 0.328407 -0.0324636 0.674475 0.216433 0.711254 1.23118 -0.126324 -0.354674 0.21977 0.0775198 0.416276 -0.325666 0.375527 -0.808141 -0.552778 -0.685167 -0.089438 -0.854037 -0.404718 -1.57787 0.624848 0.398615 0.821704 -0.107279 0.100083 -0.9392 -0.856945 0.515077 0.258345 -0.272273 0.978493 -0.379947 0.350521 1.07226 1.01073 0.060244 -0.131002 -0.304165 0.453865 0.914149 -0.401014 0.704861 -1.07387 -0.662056 -0.749416 -0.665765 -0.206075 -1.14243 0.34738 -0.514892 -0.957361 0.147849 -0.975163 0.633058 -1.02861 -0.630453 -0.458299 -0.605179 0.699471 -0.446339 -0.862229 -0.918889 0.63145 0.645164 0.0352461 -0.560954 0.214716 -0.728556 0.452645 -0.579102 -0.364388 -2.06371 -0.51713 -1.82634 -1.67493 -1.60103 -0.135093 -0.692095 -0.154447 -0.389306 -0.859654 0.148562 -0.651468 -0.117501 -0.100627 -0.109399 0.0571228 0.448586 -0.260339 0.25349 -0.926373 -0.786136 0.682768 0.900434 0.981765 0.834418 0.349953 -0.134806 -1.64958 -0.317809 -1.98935 -0.798519 -1.52506 -0.172213 -0.783083 -0.268938 0.903207 -0.12591 -0.674428 0.739095 -0.256457 -0.48284 -0.568581 0.509307 0.630547 -0.435209 -0.34791 0.272003 0.613709 -0.445432 -0.0448153 0.454811 0.718241 0.533523 -0.324068 -0.084914 -0.45844 -0.666735 -0.313184 -1.54959 -1.58058 -0.760151 0.173077 0.288783 -0.210606 -0.234135 0.381529 -0.0681021 0.299183 0.828113 -0.476044 0.726033 0.364038 0.750038 0.799157 -0.665041 -0.0305213 0.637593 0.196493 -0.824436 -0.344709 -0.819274 0.804935 0.0795944 0.269082 -1.15796 -1.00363 -1.14067 -1.25242 0.589089 0.903252 0.794515 1.22854 1.57012 -0.00998613 0.0208905 -0.654642 -0.24345 0.0225788 0.37274 0.474482 -0.9746 0.306256 -0.656143 -0.533494 -0.688054 -0.173707 0.0595505 0.95551 0.468831 -0.84936 -0.877638 -0.510368 -0.469904 0.266364 0.0294786 -0.384379 0.136047 -0.432239 0.357215 0.453937 -0.00676921 0.155436 0.972484 0.746298 -0.394688 0.360676 0.155054 -0.62731 -0.399376 -0.0912515 -0.687617 -0.544328 0.0125684 -0.613387 -0.506621 0.928663 0.0603132 0.189886 0.503379 0.749983 0.378773 -0.610569 -1.1441 -0.451935 0.183258 0.408157 -0.429803 0.736074 0.462712 0.110459 -0.152339 0.274843 0.0637262 0.43543 0.710162 0.34145 0.349846 -0.00112412 -0.555082 -0.49725 -0.130778 -0.828887 0.360732 -0.168774 0.0793051 -0.972315 -0.834717 0.813127 -0.675606 0.0219825 0.444829 0.497456 -0.666813 -0.0202045 -0.630806 0.938008 0.933116 1.18991 -0.138303 -0.427205 1.10114 -0.770164 -0.70951 0.474305 0.4829 -0.726304 -0.69527 -1.04917 -0.807064 -0.00875891 -0.13813 0.947139 0.725385 0.268941 0.887596 -0.167778 0.0927581 0.59627 -0.733951 0.766045 0.612872 0.700381 1.04835 0.823811 -0.179445 0.27323 0.529597 0.958151 0.530462 -0.421868 -0.406906 -0.279845 -0.247652 0.57048 -0.147418 -1.0069 0.166191 0.7181 -0.518942 0.460995 0.0300943 -0.727997 -0.781802 0.21671 -0.75711 -0.869003 0.966825 0.643379 0.0858345 0.48737 -0.131356 0.259235 -0.117627 0.605599 -0.104037 0.0570226 0.623918 -0.148559 0.937912 -1.00616 0.218758 0.238297 -0.514699 -0.00204946 0.615233 0.537003 -0.104993 0.0884926 0.920753 -0.0626105 0.0603587 0.740664 0.33475 -0.0928981 -0.174493 -0.515628 -0.880156 0.703796 -0.930123 -0.6072 0.0789624 -0.605992 0.86813 -0.201052 -0.0734766 0.000996468 0.363581 0.0257463 -0.653524 -0.0587224 0.978943 -0.950068 -0.959854 -0.451603 0.430236 -0.14093 -0.435845 
-0.93974 0.412395 0.101409 0.16278 0.64699 0.934743 0.299625 -0.381175 -0.100142 0.427681 0.300585 -0.604842 -0.420505 -0.893155 -0.331184 0.329258 0.135925 -0.743025 0.446755 0.965166 -0.929943 -0.408489 0.381131 -0.181582 -0.366974 0.574818 -0.526371 -0.361857 0.884946 0.556299 -0.906588 -0.138933 -0.0426575 -0.053388 0.156322 0.676462 0.619718 0.732362 0.38519 0.644173 0.67034 0.758378 0.157969 -0.739403 -0.980469 0.68954 0.2832 -0.732214 0.654168 -0.862989 0.676708 0.654231 0.886242 -0.789896 -0.498721 -0.359972 0.494353 -0.833165 -0.21774 0.390606 -0.461549 -0.832988 -0.296364 0.306416 -0.063246 0.0467609 -0.157471 -0.620407 0.493594 0.729356 -0.354488 -0.892906 -0.749312 0.990891 0.500256 0.318246 0.849791 -0.402789 -0.88702 -0.234115 0.612663 0.345613 -0.628195 -0.542286 -0.947023 -0.201619 -0.388158 -0.329624 -0.210891 -1.00571 -0.541965 1.01168 -0.548564 0.201737 -0.518784 -0.376559 -0.881739 -1.07416 -0.146637 -0.413379 0.55844 0.640752 -0.755282 -0.205074 0.522962 0.336057 -0.68857 0.413433 -0.540233 -0.669386 0.668516 -0.765217 0.779797 0.194589 0.0636643 -0.470744 -0.592381 -0.562262 0.860373 0.151958 0.339292 -0.417721 0.748701 -0.122072 0.683924 -0.824994 0.302069 0.819403 -0.568854 -0.225502 -0.383476 0.55164 0.506655 -0.065475 -0.49953 -1.24634 -0.0531685 -0.636864 -0.72833 -0.17467 -0.529681 -0.137306 0.457839 0.637781 0.22663 -0.596807 0.285318 -0.916657 -0.484245 -0.822544 0.429914 -0.935215 -0.508764 -0.193055 -0.796878 0.634601 0.721496 -0.727733 -0.501131 -0.260416 -0.842754 -1.11705 -0.943307 -0.117284 0.480783 -0.773988 0.577032 0.863985 0.65628 0.384571 0.552683 0.638769 -1.15183 -0.475458 -0.280937 -0.846738 -0.699625 -0.967686 -1.02545 -1.01492 -0.724498 -0.410224 0.332222 0.187142 -0.0271797 -0.662256 -0.573392 -0.633144 -0.685807 0.751363 -0.27116 0.883305 -1.01779 -0.655304 0.164479 -0.293806 0.580242 -0.726458 0.99161 0.159803 0.289057 -0.0890131 -0.691095 -1.11204 -0.492866 -0.720059 -0.896269 -1.02211 -0.433967 0.686157 -0.988462 0.53741 0.160858 -0.26516 -0.111772 -0.89075 -0.700413 0.177112 -0.576102 -0.409667 -0.319931 0.614987 0.882998 0.637381 -0.0163729 -0.312524 0.310341 -1.13678 0.714841 0.506094 -0.434036 0.969245 0.347685 -0.606612 -0.25312 -1.09822 -0.512458 0.325342 -0.084814 0.163529 -0.203796 -0.647788 0.331349 -0.824342 0.552073 -1.04814 -0.996321 0.372785 -0.147036 0.0242604 0.0532814 0.0412653 -0.355318 0.411273 0.704115 -0.10969 -0.47574 0.641676 0.713143 0.840377 0.47753 -0.126463 0.387347 -0.35824 -0.549465 -0.615387 -1.37687 -0.401102 -0.799014 0.37127 -0.249718 0.164585 0.156729 -1.07509 0.117267 0.0719682 -0.576048 -0.273498 0.980106 -0.230368 -0.148834 0.749431 -0.591397 -0.647154 -0.412382 -0.246702 -0.605567 -0.593397 0.476594 -0.643012 0.908768 -0.864673 -0.297072 -0.977119 -1.04909 -0.334849 -1.55951 -0.492012 -0.484554 -0.375688 0.511285 0.394526 -0.168034 -0.24472 -0.293865 -0.560122 -0.553847 -0.669919 -0.0253558 0.182191 0.512837 -0.374903 -0.0538881 0.164381 0.689499 0.537765 -0.447654 -0.660465 0.104243 0.65241 -0.514266 0.555414 -0.992428 -0.729717 -1.27171 0.667262 -0.731406 -0.156691 -0.0051633 -0.923173 0.347895 -0.853662 0.00149203 0.286408 -0.543967 -0.751762 -0.785587 -0.654298 0.493057 -0.552516 0.272508 0.7716 0.657577 0.0306085 -0.781375 0.66693 0.556082 -0.116259 0.868579 0.674234 0.493537 -1.03516 -0.10642 0.824864 -0.676624 0.452222 -0.749135 -0.170694 -0.637202 -0.536137 -0.77966 -1.00382 0.676089 -0.73437 0.47955 0.432345 -0.576304 -0.656908 0.622641 -0.421385 0.120541 -0.0454181 0.336394 0.657198 -0.851414 -0.627867 0.223837 0.339559 -0.399767 0.566148 0.757871 0.0626755 -0.268355 -0.229047 -0.22542 -1.04044 -0.220612 0.414863 0.0871989 -0.0657634 0.834091 -0.470194 0.052353 -0.670485 0.69361 0.608415 -0.430577 -0.638402 -0.257846 0.826494 0.729687 1.08603 -0.555151 0.48576 0.355098 0.30714 -0.42979 0.245234 0.305971 -0.556278 1.07609 0.85287 -0.199997 0.508559 -0.509906 -0.895916 0.248293 -0.104333 0.639573 0.806814 0.412437 -0.168826 -0.00646621 -0.128961 -0.479935 -0.827192 0.689606 0.589822 0.663833 -0.26658 -0.0710951 0.336011 0.00789556 0.803312 0.180292 0.218297 0.35728 0.83952 -0.267826 -0.379125 -0.0198823 -1.05641 0.374763 0.779874 0.0042212 0.625426 -0.587298 0.678118 -0.396554 0.652084 -0.356601 0.676047 -0.714077 0.718383 0.481812 0.238852 0.988594 -0.560148 -0.55108 0.1688 0.850375 -0.247467 -0.26404 0.393356 0.768779 -0.173191 -0.240107 -0.831225 0.59089 0.351703 -0.91435 -0.715124 -0.693975 -1.00801 0.151343 0.618153 -0.614937 -0.149085 0.495879 -0.731262 -0.0165147 -0.275079 0.911758 1.06148 0.27457 -0.632326 -0.949382 -1.22416 0.5967 -0.387723 -0.0339818 0.670771 -0.510256 -0.0889548 -0.397816 0.254819 -0.397664 0.428903 0.350438 0.294546 0.206645 -0.189395 0.0446724 0.706717 -0.4402 0.624771 0.633136 -0.682759 -0.0749992 0.384015 0.788982 0.772367 1.30921 -1.02489 0.195298 -1.52469 -0.646609 0.399952 0.758443 1.0964 0.447299 -0.598732 0.88057 0.113072 0.243628 -0.826394 -0.771426 0.192228 0.471671 -0.754276 0.317008 0.550003 -0.5141 0.353138 0.217877 -0.337081 -0.786224 0.276655 0.813798 1.24723 -0.778869 0.178375 -1.18584 -0.952267 0.216153 0.0515847 0.281244 -0.103972 0.970086 0.472143 -0.362488 0.00586661 0.10825 0.830979 -0.775644 0.473418 0.351804 -0.0748535 -0.474655 0.75215 -0.736281 -0.16653 0.259506 0.759087 -0.249577 0.223139 0.191136 0.992907 0.97754 -1.02156 -1.01032 -0.386911 -0.761454 0.500198 0.656868 1.02432 0.376157 0.758237 0.405791 0.934137 -0.147577 -0.150288 -0.514949 0.136237 -0.492556 0.208992 0.664625 -0.992446 0.0456896 -0.900724 -0.882122 0.41634 -0.329849 0.303896 0.591042 1.4848 1.18054 -0.0762006 -1.45819 -0.834628 -0.0885616 -0.152369 0.670861 1.07429 0.178578 -0.184562 -0.27064 0.344853 0.125262 -0.427416 0.239298 -0.238963 -0.653152 -0.79422 -0.627103 -0.515741 0.0880784 0.309416 0.167761 -0.00831969 1.12818 1.15852 0.301114 0.694563 0.0808889 0.674172 -0.721156 -1.14959 -0.863469 0.328318 0.643838 0.625072 0.772677 -0.489076 0.484037 -0.73485 0.0246132 -0.762779 0.563663 -0.189435 -0.2359 -1.00617 0.731908 0.589496 0.807417 -0.955267 0.743534 0.460827 -0.208597 -0.0302509 0.00488992 1.22975 0.587141 -0.918358 0.353668 0.16502 0.251501 0.48497 -0.953657 0.704618 0.166509 0.127883 0.373901 -0.995758 0.650439 0.36475 0.870267 0.513219 0.785262 0.719173 -0.74222 0.184439 0.157668 -0.230084 0.587324 -0.239013 0.780323 0.207702 0.928933 -0.628175 -0.653528 -0.930025 -1.01818 -0.0844274 0.604694 0.20747 -0.0336677 0.412566 0.252212 -1.15283 -0.392209 -0.551395 -0.319858 0.0598604 -0.598597 -0.699767 0.666041 -0.425168 -0.146009 0.0423022 -0.587303 -0.121038 0.0439764 0.054222 0.348271 0.0257836 -0.0688361 0.124215 0.234879 -0.8935 0.263472 -1.08774 0.202373 0.654266 -0.828003 0.162934 -0.226049 0.0195844 0.226566 -0.794143 -0.693818 -0.583432 -0.120755 0.246441 0.269423 0.629114 0.210138 0.883427 -0.590424 -0.902266 -0.137931 -0.789176 -0.88694 -0.860642 0.328514 -0.00699948 0.753197 -0.766496 -0.860484 -0.579315 0.0929401 0.529415 0.609634 -0.593248 -0.760705 0.818919 0.623625 0.100069 0.895371 -0.916926 0.229805 -0.588073 -0.819287 -0.0163921 -0.131132 0.690295 0.802265 -0.209638 -0.891162 -0.491415 -0.34525 0.937786 0.257519 0.543482 -0.0674165 0.835428 -0.0298314 -0.929364 0.000703577 -0.394784 0.0310212 -0.91281 -0.554282 0.496103 0.878895 0.86493 -0.403552 0.238001 -0.739311 -0.849851 -0.86646 0.701628 0.465813 0.871505 
-0.215128 -0.527976 -0.845388 -0.851755 0.113031 -0.263949 0.18798 -0.301432 0.144094 -0.870424 0.831179 -0.194325 -0.432331 0.343206 0.644886 0.583796 0.421671 -0.0199823 0.760166 0.127417 0.468524 -0.595629 0.360618 0.689888 -0.267175 0.390843 -0.0548045 0.432303 0.951753 0.689147 -0.403556 -0.130947 0.361318 -0.853566 -0.600961 0.839314 0.664901 -0.742245 0.284796 0.385395 -0.928451 -0.903586 0.0636123 -0.63767 0.479799 -0.567757 0.0569309 -0.210435 0.940585 0.970296 -0.284583 0.529803 -0.25091 -0.116843 -0.508576 -0.230695 -0.274778 0.6984 0.71833 0.926526 -0.45933 0.710131 0.0758921 -0.488409 0.923542 0.123185 -0.865678 0.978191 -0.142257 1.19146 -0.272532 -0.572629 -0.475622 1.03575 -0.565225 0.263929 -0.753437 -0.577487 -0.330249 -0.266672 -0.477694 0.656101 -0.262269 0.129939 0.927619 0.841892 -0.122868 -0.606089 0.202752 -0.191578 -1.17505 -0.698558 -0.556149 -0.844137 -0.503916 -0.402779 -0.350968 1.71134 0.791119 1.51362 0.849996 0.11365 -0.210305 0.115249 -0.215271 -0.0427859 -0.0987336 0.0517043 -0.488349 0.277884 0.921111 0.352103 0.589863 0.795204 0.686734 0.726996 0.813619 -0.474593 -1.29984 -0.0919568 -0.239709 -0.522056 -0.620099 -0.02746 0.00766832 0.786481 1.42592 0.130483 0.366639 -0.0771778 0.0869437 -0.120218 -0.803449 -0.616666 0.449491 -0.838066 0.00151236 -0.787215 -0.686326 -0.898476 0.495927 0.549622 0.21902 0.276208 0.610288 -0.328526 -0.35049 0.0214854 -1.05289 -0.832575 -0.847727 0.621645 0.847789 0.725962 -0.242667 0.226978 0.728951 -0.237573 0.0552757 0.321949 0.16998 -0.90506 0.191142 0.133255 -0.526051 0.211991 -0.0747881 0.387741 0.0402749 0.885086 -0.92539 1.11849 0.386226 0.183581 0.698226 0.347036 0.225732 -1.20528 -1.06691 -0.094319 0.895113 0.701605 -0.152523 0.0612271 0.231716 0.484364 0.112886 -0.519895 -1.01225 -0.910218 0.125663 -0.639717 0.367582 0.553459 -0.366033 0.329988 -0.368602 0.662656 -0.247413 -0.539079 -0.16924 0.599026 0.84243 -0.276904 -0.0391813 0.657966 0.564277 0.378037 -0.814701 1.27127 0.0397666 0.676346 1.14998 -0.482968 0.416098 0.0764295 -0.832528 0.424911 0.245254 -0.710011 -0.435342 -0.281375 -0.281883 0.405957 -0.730936 -0.773964 0.713579 1.03013 0.166688 -0.0365479 -0.717203 -0.716728 -0.192594 -0.5283 -1.00797 0.820265 0.807736 -0.312365 0.708766 1.34413 0.723987 0.580177 -0.284247 -0.0039397 0.0764299 -0.0279077 0.0488944 0.299883 0.182506 0.772818 -0.755421 0.715046 -0.290783 -0.0700421 0.661254 -0.0667878 -0.358876 -0.113057 0.188659 -0.207939 0.896782 0.440767 -0.841929 1.50824 1.41171 0.36166 0.0624402 -0.457297 -0.319738 -0.757732 0.281347 0.284194 0.378109 -0.625253 -0.756744 -0.750955 -0.0197926 0.782507 -0.35017 0.875125 0.891385 0.976547 -0.047834 0.825865 -0.13781 -0.806183 -0.61956 0.280634 -0.451696 1.02825 0.391537 0.135064 1.06539 -0.441431 -0.910061 0.0403687 0.195451 -0.838299 0.242253 -0.199484 -0.589987 -0.433499 0.703086 -1.0663 -0.559969 -0.645955 0.512057 -0.671712 0.918219 -0.932775 0.130567 0.165295 0.691532 1.11775 -0.0192258 -0.598122 -0.37983 0.0520073 0.024772 1.68052 0.691972 0.572938 -0.252874 -0.834775 0.0680459 -0.872687 0.0102305 -0.189669 0.96038 0.200141 0.19101 -0.673353 -0.656611 0.251769 0.554241 0.305062 0.469451 0.387975 0.69909 0.00249812 0.322006 0.267177 -0.535426 0.771352 0.396498 0.71124 0.867618 1.79687 -0.281651 -0.764058 -0.341524 0.168788 -0.466089 -0.499915 -0.217946 1.36118 -0.667373 -0.588833 0.544465 0.0191354 -0.436409 -0.437297 -1.00773 -0.626814 0.159081 0.0044566 -0.134527 0.791501 0.847734 0.707365 -0.280706 0.648346 0.700094 1.488 0.28176 -0.398301 0.12439 0.183631 -0.518918 -0.407413 -0.406554 0.487338 0.35641 1.17396 0.060853 -0.14045 -0.507581 0.096058 -0.556672 -0.350087 0.825377 -0.808602 0.29474 -0.861548 0.884296 1.32642 0.763845 0.0383703 0.79148 0.114739 1.25868 0.0883127 -0.50052 1.01137 0.418384 0.014592 -0.470838 -0.322999 0.442826 0.0196918 0.385566 -0.321314 0.545434 0.523218 0.902753 0.617153 0.699478 0.123625 -0.962028 -0.888326 0.771606 0.543427 -0.43016 0.704728 -0.235321 0.410601 -0.658819 0.547597 0.178444 0.44566 -0.951202 -0.108066 -0.438911 -0.769011 -0.471539 0.369544 -0.00783259 -1.42032 -1.21732 0.563089 -0.0902189 0.643486 -0.259571 -0.632967 -0.725992 0.639076 -0.130327 0.253784 0.310847 -0.771705 -0.494203 1.17633 -0.0475607 -0.462413 -0.970801 0.346697 -0.36748 -0.705725 0.198406 0.781179 -0.513123 -0.107993 -0.108199 -0.503893 -0.614999 -0.819839 -0.277964 -0.533359 -0.467311 -0.306738 0.503433 -0.117126 0.611302 0.92098 0.0501945 -0.804916 0.878007 0.162945 -0.549116 0.881209 0.468109 -1.0092 -0.213776 -1.26649 -1.04851 -0.10152 0.606437 -0.120564 -0.565533 -0.21213 -0.700691 0.719668 0.733163 -0.92684 -0.454444 -0.719741 0.574935 -0.916714 0.404672 0.067624 -0.8004 -0.381517 -0.629735 -0.535787 -0.783934 0.822567 0.983595 0.125202 -0.62437 -0.35134 -0.931813 0.387452 0.3732 0.946197 1.003 1.09022 -0.625229 -0.742615 0.290447 -0.588268 0.0887254 -0.330633 -0.449297 0.995756 0.686356 -0.185996 -0.0888343 0.887042 0.905615 -0.676105 -0.847341 0.609274 0.407384 -0.766192 0.802282 -0.576903 0.700822 -0.728034 -0.786762 -0.32305 -0.780886 -0.408775 -0.10184 1.45128 0.814544 0.444952 -1.08117 -0.113818 -0.906634 -0.385524 -1.18112 0.67308 0.636376 0.19048 -0.255488 0.543869 -0.529621 0.670871 0.158781 0.921559 -0.0811679 0.757193 -0.0529218 0.554482 -0.177643 -0.791304 -0.0504983 0.343354 0.40841 0.574792 -0.311544 -0.0679398 0.342157 0.162815 -0.0867736 0.173891 0.0659268 0.295844 0.0217964 -0.26641 0.118453 0.770565 0.220233 1.01688 0.252249 0.0832447 -0.300153 -0.799069 -0.442131 0.0696352 -0.0695904 -0.880893 -0.139422 -0.334776 -1.00681 -0.224513 -0.0869146 0.612584 1.12265 1.3722 -0.532007 0.514924 0.0136596 -0.0131185 0.188082 0.105758 -1.03236 0.384667 -0.749924 0.872431 -0.912861 -0.563638 0.637658 0.929729 0.485312 0.572827 0.929686 -0.122891 0.749482 -0.695771 -0.774772 -0.0144825 -0.830805 0.050482 0.0145074 0.268776 0.206141 -0.405951 0.395669 0.370711 -0.0112133 0.678984 -0.708327 -1.36481 -0.991687 -0.158074 0.824305 -0.217565 0.137152 0.41513 -0.613888 0.428771 0.122506 -0.189333 -0.216895 -0.696862 -0.834467 -0.20823 0.132667 -0.646097 -1.19417 -1.10017 0.892926 0.9822 1.24686 1.19303 0.221057 0.06634 1.06397 0.15954 0.535593 -0.855227 -0.777208 0.471591 -0.572217 0.934577 0.242716 0.954916 -0.71084 -0.0438356 0.24825 -0.981389 0.0692486 -0.346282 -0.313413 0.229856 -1.10097 0.881902 -0.441391 -0.0695085 0.936106 0.874403 0.608622 0.707624 0.385841 0.53571 0.501078 -0.410807 0.352541 0.875926 0.42503 1.22473 -0.721803 -0.374285 -0.622028 0.557577 0.300254 0.526672 -0.236999 0.780557 0.501787 0.182188 -0.717322 0.516763 -0.0761004 -0.800165 0.112045 -0.227408 0.992556 -0.48085 -0.429176 1.09108 0.58176 0.927031 0.750532 0.203728 0.229886 -0.395244 0.303207 -0.847115 0.536101 0.489616 0.312004 -0.461136 1.01719 0.392825 -0.908019 0.915922 0.0705816 0.666279 0.0632669 -0.657688 -0.774638 0.676686 0.930144 -0.256985 -0.119824 -0.0795219 -0.510576 -0.14418 -0.23931 -0.6396 0.880392 -0.77168 0.478531 -0.572822 -0.263766 0.707553 0.701983 0.42013 -0.80757 -0.552556 -0.441657 -0.498681 0.908404 -0.407578 -0.745454 0.281441 0.293799 0.909036 0.404591 -0.949247 -0.286935 -0.967186 -0.143459 0.256523 0.357482 -0.762545 -0.888102 -0.268642 -0.719834 0.668467 0.631893 0.119508 -0.59972 -0.959917 0.0119823 -0.763368 0.882315 0.876837 0.618403 -0.805349 0.487661 0.935617 
-0.465866 -0.253622 -0.204259 -0.558662 -0.663596 0.949575 0.552168 -0.619723 0.265283 -0.587799 0.0231698 0.303604 -0.327463 0.266553 0.59795 -0.00805775 -0.0502557 0.852849 -0.578105 0.332963 -0.306604 -0.377895 0.572714 -0.924593 0.227021 0.292376 -0.103527 0.424556 0.38029 -0.333133 -0.182658 -0.114245 0.995057 0.313882 0.0926677 0.67561 0.927137 -0.835461 0.15184 0.261848 -0.631684 0.31194 -0.859021 0.848314 0.117946 0.0970451 0.88435 0.192108 0.559075 -0.570649 0.273423 -0.137009 0.872848 0.302798 0.803464 0.767462 -0.300743 -0.513251 -0.991902 -0.0352121 0.682839 -0.560042 0.84364 -0.122466 0.85744 -0.648081 -0.33114 0.314872 -0.608438 -0.521761 -0.398508 -0.502421 0.830898 0.114745 -0.479009 1.0051 0.735296 -0.94117 0.924768 -0.906258 0.949021 -0.790636 -0.705031 -0.76889 0.816005 -0.873011 0.172663 -0.0334148 -0.566139 0.782894 -0.483481 -0.535641 -0.28861 0.514041 0.51525 1.20907 -0.139809 0.364925 -0.252693 -0.463478 0.268172 0.663404 -0.160007 -0.0782195 -0.258756 0.31854 -0.572684 -1.02794 -0.44832 0.417329 0.551648 0.207226 -0.467432 -0.403456 0.575105 -0.789355 0.736697 0.324103 1.22401 0.154844 1.34171 0.0735902 1.2898 -0.236799 -0.553401 0.94456 0.30316 1.31853 -0.05634 -0.117864 1.1197 -0.189557 -0.595003 -0.803882 0.843557 -1.05693 -0.329166 0.412451 -0.600035 0.534906 -0.924743 0.803612 -0.434267 -0.107505 -0.544442 0.759146 0.729733 1.21131 0.927691 1.00209 0.68888 1.34504 0.689627 0.0905425 0.408097 0.789847 0.654683 -0.264261 0.72872 0.647388 0.0130299 0.211885 0.303019 -0.408701 -0.0722673 -0.0579537 -0.0901741 -0.359652 -0.0206183 0.862333 0.193035 -0.775542 0.770687 1.04853 1.17922 0.202041 0.198887 -0.476836 0.464683 1.36312 1.12676 0.301034 1.04269 0.47967 -0.224079 0.144286 -0.824856 -0.867881 0.216073 -0.0170838 0.831961 0.0156678 -0.76121 -0.516725 0.237492 -0.439787 -0.539782 0.71304 -0.76234 0.781775 1.08018 -0.275623 0.617758 0.420232 -0.244489 0.260873 0.183957 0.376939 -0.458581 0.0518802 0.618872 -0.823559 0.712792 0.372621 0.0208735 0.0654435 -0.156098 -0.145095 -0.642232 -0.223955 -0.474397 -0.278236 -0.369518 0.576704 -0.569651 -0.85539 -0.4375 -0.678803 0.605918 -1.04868 -0.291507 0.66007 0.692038 0.63677 0.473952 0.541369 -0.300219 -0.555314 -0.225408 -0.944543 -0.535267 -0.0998769 -0.398644 -0.859866 0.456796 -0.392858 0.622961 -0.475397 -1.08939 0.452391 -0.435606 -0.673862 -0.799329 0.171837 0.666146 -0.254474 0.513599 -1.09567 0.0590695 -1.2835 0.131251 0.169196 -0.507944 -1.25407 -0.400275 -0.290873 0.690447 0.0181344 0.0326364 0.755377 0.789895 0.617286 0.764265 0.217029 0.162872 0.228405 0.630897 -0.675274 -0.243688 0.979469 0.174733 -0.457712 0.0499196 -0.459886 0.584482 -0.585843 0.192725 0.00253721 0.159108 -0.115615 -0.985602 -0.182377 0.0457331 -0.120547 -0.412308 -0.0256334 -0.0249218 0.530803 -0.438801 -0.966819 0.482813 -0.787053 -0.833148 -0.648829 0.721546 -0.748963 -0.602323 0.642838 -0.358571 -0.604688 0.757525 -0.701238 -0.293909 0.208772 -0.814041 -0.741402 0.123501 -0.450849 -0.695655 -0.64364 -0.793584 0.408981 -0.535324 -0.691467 0.700994 -0.627998 -0.834744 -0.633362 -0.297539 -0.541541 0.782011 0.582034 -0.974838 -1.03981 0.880344 0.848124 -0.503866 0.903025 -0.830412 0.239868 0.26306 0.922295 -0.697766 0.35564 0.469999 0.248061 -0.615131 -0.537322 -0.224186 0.641733 -0.37067 -0.505762 0.506778 -0.832536 -0.443417 -1.04244 -0.358084 0.4752 0.546578 -0.252974 -1.28979 -0.636032 0.0468111 0.851595 -0.720076 0.838114 0.376108 -1.0079 -0.282815 -0.237845 0.715205 -0.609498 0.157613 0.452804 0.866872 -0.43442 0.505445 -0.556029 -0.363278 0.745206 -0.734654 0.109821 -0.954339 0.0119844 0.899821 0.708478 0.580803 0.0681837 -0.580988 -0.443428 0.788929 -0.936957 0.991705 0.66333 0.577453 0.0852804 -0.0625248 0.0490726 0.634013 -0.419449 0.345602 0.205433 -0.413148 0.189823 0.00447687 0.52426 -0.776533 -0.343876 0.865653 -0.19456 -0.156382 0.92437 0.98609 -0.568789 -0.632928 -0.80535 0.723069 0.754214 0.471584 0.00303187 -0.165367 0.696797 -0.38973 -0.717901 0.528266 0.757045 -0.136454 0.0333484 1.00241 0.869582 0.101115 0.56438 -0.724121 0.292112 0.931299 -0.693501 0.000768816 -0.164713 0.635011 0.370408 0.697155 0.705062 -0.735025 -0.685192 -0.429019 0.169091 -0.532947 0.0337801 0.445245 -0.436362 0.701136 -0.0157375 0.236461 0.96882 0.631223 -0.465496 -0.113254 0.830233 -0.512058 0.887282 -0.192054 -0.195864 0.636518 0.723283 0.370093 0.309478 -0.337395 0.859935 -0.423064 0.89305 0.560378 0.640576 -0.642862 0.491396 0.925025 0.936133 -0.122072 -0.0906962 -0.746356 0.637337 -0.0215095 0.708643 0.334979 1.07267 0.521161 -0.432818 -0.0303436 1.22702 -0.423103 0.527681 0.59091 0.0261181 -0.972695 0.492627 0.161858 -0.161384 0.0987909 0.465639 0.359591 0.144712 0.356293 0.24742 -0.430131 0.386215 -0.968138 0.237128 0.338244 -0.383672 -0.775403 0.809617 -0.0518717 0.927612 1.38522 -0.591625 0.224403 -0.156551 0.409574 -0.503497 0.303551 -0.0659696 -0.844148 -0.497365 -0.202679 0.91417 -0.24061 0.954552 1.00194 -0.119994 0.963704 0.226754 -0.253088 0.746477 0.000879568 -0.718937 0.0455019 0.960105 -0.575215 -0.592973 0.690448 0.130581 -0.525753 1.04603 -0.24272 0.29667 0.58575 -0.19727 0.190795 -0.115087 1.00953 0.507588 -0.327341 0.239272 -0.577721 0.715305 -0.00398233 -0.00419088 1.01885 0.853894 0.316679 0.284209 0.883211 -0.237997 -0.576308 -0.697885 -0.489185 -0.969588 0.139961 -0.561799 0.751876 0.615201 -0.0818344 -0.423075 0.628077 0.53017 0.0822516 -0.636705 -0.513923 1.12374 0.0732579 0.326622 -0.603038 -0.0921788 0.508691 1.23 -0.512585 1.14743 0.610608 0.253011 -0.658082 0.331335 -0.459778 -1.25353 0.47613 -0.217111 -0.555372 -0.22632 -0.142506 0.78361 -0.191469 0.842806 0.49823 0.0691284 0.358547 0.573643 0.47124 0.917233 -0.433647 0.0803847 0.716333 0.936449 0.0298803 1.33992 -0.558613 -0.833145 0.132412 -0.333895 0.264232 0.92293 0.804498 0.49452 -0.817063 0.289972 -0.703435 -0.901633 0.54385 0.714052 0.0748016 -0.068708 1.10099 1.12801 0.96743 0.482663 0.737009 0.212676 0.32871 -0.755377 -0.0482734 0.29131 -0.210066 1.06776 0.424612 -0.867561 -0.176482 -0.0947778 0.16172 0.651102 -0.634233 -0.462573 -0.7997 -0.0981349 -0.213083 0.249045 -0.700002 -0.367877 -0.332954 -0.651828 -0.596032 1.18007 -0.813571 0.344952 0.981605 0.63753 0.729465 -0.0866715 0.494872 -0.262413 1.06352 0.703216 0.105161 0.115198 -0.396079 -0.478581 0.679555 0.263049 -0.282137 0.0117157 -0.788958 0.60658 0.609162 -0.0748936 0.455364 -0.00997235 -0.0584653 0.500619 -0.361002 -0.606017 -0.28194 0.319237 0.665498 0.865114 0.894189 0.951714 0.42976 -0.720287 0.124086 0.821364 -0.802077 0.777688 0.847158 -0.528663 0.856778 -0.17306 0.893602 0.219322 -0.827411 -0.803058 -0.181498 -0.534314 0.703877 -0.624029 0.134185 0.647145 -0.422209 -0.632065 0.2634 -0.0680087 0.348689 0.724187 -0.781112 0.0995364 -0.228886 0.443317 -0.226954 0.984172 0.324081 0.898968 0.0577287 -0.963539 0.695407 0.520554 -0.818819 -0.714522 0.468871 0.325837 0.699434 -0.355574 0.775396 -0.518905 0.573414 -0.123006 -0.87774 -0.192436 -0.261575 -0.173879 0.523403 0.70034 -0.612766 0.224714 0.646833 0.369697 0.609363 -0.367628 -0.751999 0.771204 -0.476197 0.604523 -0.670804 0.0103456 0.267592 -0.809617 0.881922 -0.571207 0.354096 0.229747 -0.0355019 -0.475275 -0.521114 0.641144 -0.0231663 -0.841572 0.471861 -0.458016 -0.61508 -0.270979 -0.577312 -0.0924095 0.882888 -0.0882813 -0.409517 -0.18202 0.959204 -0.360788 0.242416 -0.38337 
-0.194733 -0.0643065 -0.578762 -0.887502 -0.456072 -0.553992 0.199153 0.796059 -0.127248 0.0231495 -0.894246 -0.737458 0.757536 0.346582 -0.053277 0.00480671 0.399627 -0.78127 -0.378027 0.760028 0.467001 0.816471 -0.519551 -0.223522 -0.103315 0.43389 0.309762 0.519047 -0.810621 0.458712 -0.654794 -0.770436 -0.681652 -0.888944 0.968544 0.710729 0.726503 0.290251 0.951712 -0.608593 0.396663 -0.237029 -0.096115 0.169256 -0.419464 1.00194 0.276836 0.0713472 0.722996 0.133861 0.528217 -0.858573 -0.345697 0.46091 0.569411 0.370731 -0.759061 -0.397278 -0.710831 0.736378 0.445341 0.333863 0.542786 -0.561035 0.0185561 0.554495 -0.0129965 -0.668921 -0.561235 -0.21296 0.553005 0.655009 -0.414367 -0.156338 0.83393 -0.273922 0.161233 0.305744 -0.449201 -0.557696 -0.654203 -0.161923 -0.54326 0.23327 -0.629556 -0.434065 -0.640936 -0.694192 0.036872 -0.690846 -0.229279 -0.567833 0.101399 1.09783 0.167987 -1.27368 -1.18723 -0.380045 -0.267778 -1.34207 -0.817421 0.125377 0.845441 0.584846 -0.411474 -0.0420194 0.887142 -0.19459 0.991122 0.177636 -0.259704 0.214672 0.00686751 -0.898504 0.210669 0.77062 -0.175597 0.215934 -0.407228 -0.567298 0.296441 -0.42289 0.625365 -1.4932 -0.195091 -0.215213 -1.71372 -0.224601 -0.106096 0.664442 -0.492417 1.28304 0.834751 0.0199037 0.16773 0.46067 -0.214593 -0.492899 -0.939714 -0.72124 -0.838732 -0.539739 -0.451826 0.802925 -0.181445 1.27426 0.792867 -0.341555 0.66759 0.070081 0.59046 0.531142 -1.33893 -1.32018 -0.980281 -1.21561 -0.381125 0.17172 1.01917 -0.0487844 0.894068 1.1752 1.18056 0.802225 0.463108 0.122547 -0.484416 -0.807711 0.566459 0.933202 -0.412131 0.77859 -0.0922937 1.08563 1.31448 0.380497 -0.0395679 -0.212749 0.0407098 0.560862 -0.288305 -0.904676 -1.56971 -0.763838 -1.01128 0.0621308 -0.0323787 1.47265 1.09978 1.44297 -0.344757 -0.0781063 0.959858 -0.370146 -0.828177 0.815547 -0.880698 0.0281501 -0.661077 0.581536 0.995195 -0.761128 -0.417231 0.833863 -0.350852 -0.821475 -0.627306 0.81254 -0.394678 0.250941 0.0408813 -1.35537 -1.53099 0.489944 -0.246434 1.44242 1.1017 0.700284 1.17675 1.24328 0.926019 0.865609 -0.559926 0.183833 -0.513082 0.0417554 0.701688 1.08703 0.0602673 0.885623 -0.435696 0.757924 -0.790021 -0.63403 -0.610887 -0.536464 1.15289 -0.452248 -1.21713 -1.35788 -1.52161 0.106781 0.379838 1.54642 1.2496 0.544751 -0.685908 -0.0273198 0.689783 -0.117329 0.779168 -0.767067 -0.847121 0.437694 0.748489 -0.549926 -0.65207 -0.124092 0.502576 -0.300727 0.193977 0.456723 0.391346 -0.0169855 -0.672566 -0.598678 -0.91034 -0.946377 -1.13607 -0.963428 1.33908 0.602107 0.444544 -0.304808 0.94636 -0.35528 0.498262 -0.852454 -0.086994 -0.535863 0.925326 0.834553 -1.04374 -0.159706 0.296082 0.501361 0.65266 -0.568111 0.211872 -0.592597 -0.227553 -0.2659 -0.454757 0.512724 -0.356866 0.217912 -0.629374 -0.362444 1.0789 1.06882 0.285839 0.575886 0.659281 -0.474 -0.335114 0.930995 -0.883412 -0.114447 0.725259 0.6121 -0.306464 -0.667474 0.38594 0.343017 -0.203939 -0.853135 -0.507447 0.586634 -0.535591 0.0705116 -0.161714 0.725579 -1.00757 -1.21409 -1.06495 1.24288 1.73463 0.345022 0.913332 0.14309 0.507488 -0.47995 0.252973 -0.579513 -0.70519 -0.332198 -0.521718 0.637326 0.713457 -0.581686 0.838022 -0.964367 -0.246281 -0.310997 -0.0799023 -0.0965275 0.0179495 0.519133 1.17498 -0.128744 -0.871316 -1.3108 0.518295 0.303645 0.430328 0.851434 -0.0205488 0.394697 1.18596 1.01851 -0.680759 -0.958352 0.286873 0.989867 0.763007 0.452962 -0.157265 -0.440127 0.868799 -0.595936 -0.0290809 -0.737952 -0.451427 -0.428243 1.20912 0.286162 -0.469417 -1.17283 0.172099 0.067974 0.359861 0.153232 0.846165 0.0937892 0.595565 -0.894982 -0.702988 -0.276153 -0.0567231 0.0116877 0.604974 0.137461 -0.186658 0.972458 -0.435307 -0.0930486 0.394326 0.363391 -0.495427 -0.0179595 0.734174 0.151218 -0.148859 0.352218 0.617987 -0.0655684 -0.820465 0.238593 -0.192411 0.309088 0.262707 -0.211994 1.18801 -0.00638215 0.319608 -0.0910897 -0.341509 -0.090233 0.715474 -0.307257 -0.188158 -0.840958 -0.8516 0.780854 -0.22072 0.137697 0.100332 -0.458681 -0.554764 0.126991 0.703573 0.741251 0.00506034 -0.12736 0.0279451 0.115363 0.252993 0.631156 0.103966 0.953437 0.389022 -1.07802 0.145296 0.467699 0.750514 0.304943 0.571615 -0.214404 -0.767249 -0.786667 -0.981091 -0.998488 0.502443 -0.369269 -0.194457 0.650856 -0.170308 -0.388843 -0.681841 -0.950498 0.778703 -0.649501 -0.230844 -0.991555 -1.01723 -0.82308 1.21995 -0.815736 0.502072 0.353825 0.465199 0.445534 1.08652 0.386279 0.725716 -0.0150837 -0.443003 -0.258812 -0.0369439 0.160772 -0.572578 -0.677165 0.495685 -0.441956 0.211669 0.590268 0.553601 0.199415 0.774463 -0.457748 -0.0508851 0.239177 0.727473 -0.24275 -0.586551 0.0858688 -0.00657053 -0.911974 -0.927239 -0.609127 0.0911846 -0.540213 -0.831777 -0.103078 -0.0732962 -0.889193 -0.304192 0.164272 -0.398846 -0.491755 -0.678709 -0.866411 -0.896488 -0.611819 -1.01016 -0.416966 -0.909033 -0.0124026 0.377313 -0.638737 -0.847634 -0.668453 0.133329 0.18402 0.264468 0.48806 -0.30287 -0.252581 0.639046 0.0403176 -0.532403 -0.460575 -0.863208 0.474601 -0.241772 -0.663836 -0.163552 0.652732 0.173953 -0.185798 0.232529 -1.1258 -0.189293 -0.759997 0.557869 -1.63876 0.161354 -0.438328 0.56302 0.95497 1.0818 0.0325608 -1.23258 0.427146 0.765683 -0.568386 0.801235 -0.496869 0.486761 0.274533 -0.833719 0.0987543 -0.323635 -0.538812 -0.837362 -0.577298 -0.0633273 -1.01506 -0.899466 -0.444058 -0.241905 -0.833006 -1.5639 -0.0174931 0.0211678 0.0589915 -0.754523 0.203337 0.651012 -0.239487 0.460126 -0.845915 0.00419862 -0.554145 -0.400181 0.855428 -0.891278 0.51653 0.196566 0.0191504 -0.796525 -0.897182 -0.190703 -0.570319 -0.508838 -0.596014 0.597982 -0.946871 -0.530639 -0.279784 -0.367817 -0.229915 -0.622816 0.723989 0.22629 0.552811 -0.208417 0.774528 -1.15815 0.0235256 -0.0588391 -0.507072 -0.867097 0.253737 -0.25078 -0.774238 -0.423238 0.123599 -0.638191 0.624532 0.272973 0.258681 -1.06214 -0.765732 -0.188095 -0.462503 -0.7582 -0.937464 0.255102 -0.727787 0.919441 -0.411426 -0.472893 1.25758 1.16399 0.799847 -1.16545 0.411147 -0.221673 0.683074 -0.987084 -0.466201 -0.162663 -0.718749 -0.638505 -0.75443 -0.473547 -0.662318 -0.343016 0.556938 -0.647045 0.0381228 -0.223208 -0.957008 -0.632551 -0.85754 -0.696597 -0.311252 -0.48644 0.181564 0.762952 0.182912 1.01946 -0.148698 -0.000732807 0.230424 0.442115 -0.119095 -0.299924 0.624766 -0.51464 0.000577387 -0.935154 -1.00494 -0.336999 0.66412 -0.990618 -1.13524 0.0173302 0.189274 -0.0874867 -1.08881 0.189154 -0.302372 -1.42886 -0.873812 0.0291915 0.203905 0.536542 0.642114 0.354523 1.04183 0.788602 0.927417 0.19634 0.396284 -0.786642 -0.237809 -0.598899 0.795384 0.558559 0.775719 0.134194 -0.312412 -0.223358 -0.201933 -0.604268 -0.0743388 0.580988 -0.191922 0.0682092 -0.79917 -0.14831 -1.22469 0.00214763 -0.261463 0.748247 -0.19964 0.600866 0.0146543 -0.897346 0.893116 -0.161895 -0.137602 0.271201 0.641957 -0.115952 -0.951263 -0.299027 0.940858 0.820412 -0.93883 -0.0939287 0.157436 0.504252 0.804412 -0.929906 0.275622 0.370292 -0.587605 0.965865 -0.272349 0.919911 0.262197 0.360456 -0.869165 -0.236646 -0.846105 -0.812903 0.93482 0.951021 0.130062 -0.00985563 0.783774 -0.761715 -0.599956 -0.440471 -0.135072 0.265679 0.761668 -0.230749 0.84097 0.376461 -0.472888 0.2603 -0.230099 -0.371565 0.702553 0.339698 0.520886 0.393089 0.0232749 -0.567786 0.406391 0.350458 -0.607338 -0.0207049 -0.915778 0.901487 0.439303 0.347413 -0.0232252 0.630265 0.640553 
0.150888 0.969564 0.738952 0.0985603 -0.737897 -0.812531 -0.99804 -0.668055 -0.069524 -0.19534 -0.0548636 0.696635 0.108435 -0.824365 -0.513073 -0.253853 0.0561289 -0.770645 -0.953651 0.375969 -0.936774 -0.373201 -0.829415 0.29208 -0.71643 0.24942 0.846214 0.516281 0.174482 0.549766 0.773319 0.775785 -0.721908 0.0128078 -0.172438 -0.337181 0.336128 -0.120515 -0.1033 0.426733 0.679965 -0.806617 -0.837969 0.0796738 0.35028 0.99832 0.432185 0.755856 -0.211813 -0.438466 -0.881517 -0.983665 0.224813 -0.410905 -0.407978 -0.396514 0.855652 -0.880658 0.768762 0.508842 -0.876141 -0.312133 -0.167149 -0.861971 -0.151224 0.0304416 0.105624 -0.195754 0.32494 0.661473 -0.878496 0.930618 -0.263194 -0.312077 1.27804 1.0874 -0.559883 0.339716 -0.103862 0.258358 -0.0116094 -0.417083 0.0189893 -0.130202 -0.850208 -0.296228 0.579408 -0.327468 -0.0136022 0.0248778 0.83633 0.0878496 0.433951 -0.0460218 -0.918439 -0.62955 -0.596542 -0.841455 0.501243 0.789129 0.359391 1.11478 1.38119 1.18873 -0.0526639 -0.26525 0.323086 0.516591 0.14694 0.529293 0.612016 0.812918 0.0805875 0.854867 0.167619 -0.871468 -0.382198 0.881096 0.636694 0.0700222 -0.697098 0.374655 -0.611532 -1.44499 -0.879947 -0.434359 1.0288 1.74585 1.49778 1.66192 -0.265258 0.562496 -0.945482 -0.480027 -1.14881 0.613606 -0.992836 -0.690909 -0.0341982 0.957191 -0.675553 0.582858 0.760726 -0.295126 0.670588 -0.473364 -0.663203 0.570292 0.175292 -0.695842 -1.24102 -0.613816 -0.23945 1.07517 0.853894 2.22902 1.55246 1.97563 1.39124 0.643891 -0.443722 -0.452769 -0.042531 -0.765424 -0.764502 0.827696 -0.907667 -0.626701 -0.00965432 -0.683016 0.477897 0.107773 0.665262 -0.390182 -0.638948 0.524652 -1.09213 -0.139449 -0.977855 -0.178672 -1.00886 0.922941 0.523962 0.940146 2.42239 0.552672 0.0580074 -0.494709 0.454252 -0.648232 0.163132 -0.25306 0.664343 0.430387 -0.522796 0.698599 0.602607 0.677172 0.371701 -0.170862 0.666991 0.359268 -0.750899 -0.11063 0.343065 0.0607132 -0.832204 -0.487704 -0.983174 0.41942 -0.191907 2.07114 2.39398 1.40782 0.46639 -0.306057 -0.802378 -0.84774 0.273254 -0.386337 -1.39873 -0.725883 0.0291786 0.741107 0.73372 -0.729574 -0.679145 -0.263413 0.19754 -0.337939 0.0538057 0.307153 -0.557677 -0.795728 0.355281 -0.689312 0.0468181 -0.0751632 -0.526698 1.51799 1.87264 1.69287 0.971127 -0.269094 0.0720489 -0.268581 -0.315556 0.103392 -0.129884 -0.577893 -0.117173 0.799072 -0.253823 -0.0686547 -0.666484 0.570304 -0.691212 -0.404394 -0.885514 0.705041 0.38431 -0.0141258 -0.755928 0.410917 -0.902196 -0.100496 -0.471612 0.581449 0.123353 1.0283 0.993242 1.25353 -0.0827693 0.365881 0.0520132 -0.0566971 -0.420141 0.469496 -0.0715338 -0.708417 0.199078 0.79026 0.767612 0.587657 0.468003 -0.888709 -0.859625 -0.848133 -0.385563 -0.55357 0.502042 0.295573 0.0528679 0.253106 -0.339895 -0.493358 0.544456 1.12165 1.82959 0.348536 -0.407111 -0.151701 -0.0116813 -0.799669 -0.190439 -0.295412 -0.436946 -0.883065 -0.625349 0.0271049 -0.745349 0.262906 -0.155325 -0.232027 0.0946686 0.724747 -0.408643 -0.31944 0.65834 -0.39659 0.596359 -0.719307 -0.65319 0.411538 0.243473 0.891591 1.44654 1.54315 0.582499 0.479457 -0.569307 -0.193068 -0.871796 -0.307552 -0.0745272 0.324956 -0.25855 -0.0359245 0.131152 0.820608 -0.188106 -0.470173 -0.328321 -0.469128 0.0234707 -0.551915 -0.557609 -0.0639132 0.331024 -0.23704 0.114235 -0.408322 0.487099 -0.194172 0.303899 1.32453 -0.267951 0.782756 -0.0763768 0.0619423 -0.192379 1.0037 0.295683 0.838237 -0.363086 -0.501271 1.09886 -0.63373 0.525724 0.313461 -0.59856 -0.146068 -0.423319 -0.522828 -0.627051 0.308143 -1.00866 0.106141 0.325551 0.71266 -0.982519 0.202652 0.699513 1.33428 -0.500786 0.11412 0.675395 -0.494604 0.474375 -0.684852 0.505985 0.999372 -0.461678 0.755717 -0.627717 -0.285864 -0.526387 -0.638158 0.634723 -0.482865 0.599664 0.138475 -0.299159 -0.852531 0.0516664 -1.26492 -1.31304 -0.0150666 -0.456617 -0.332993 0.710613 1.65036 -0.444259 -0.411842 0.759924 0.380958 0.508634 0.978378 -0.546075 -0.170139 -0.806544 -0.565943 -0.508363 -0.690188 0.764075 -0.891735 -0.247263 -0.232335 1.34338 0.612402 -0.927863 -0.317855 0.650415 -0.566362 0.478628 1.06541 -0.40219 -0.751454 0.479139 1.3095 -0.0936082 0.491971 -0.627203 0.776742 -0.67234 0.390063 -0.037673 0.728033 -0.339198 0.0880157 -0.27191 -1.09123 -0.00149042 -0.430374 0.619505 0.23722 -0.345961 -0.00781534 -0.839126 -1.10324 -0.510378 -0.564352 0.988847 -0.0341849 0.301821 -0.364523 0.600822 0.99194 -0.38983 0.440802 0.104973 -0.610607 0.299086 0.236171 -0.259148 0.110813 -0.353391 0.434456 0.269153 0.111833 0.128763 -0.365917 -0.0952466 0.800121 0.471923 0.647578 -0.377325 -0.388346 -0.886259 0.701482 0.170292 0.286094 0.241264 0.49058 0.784951 0.394648 -0.617258 -0.416608 -0.0671218 0.675245 0.440604 -0.956217 -0.743528 0.334453 0.383147 -0.0464678 0.482964 -0.44633 0.188381 -0.250061 0.082012 -0.456882 0.846177 -1.35549 0.392091 -0.788544 -0.567243 1.58862 0.426396 -0.101775 0.640682 -0.265537 -0.814776 -0.015016 0.0362099 -0.291072 0.103414 0.303428 0.0677706 0.635322 0.898595 0.186135 0.201983 0.326047 -0.714349 -0.446239 -0.275901 0.499539 -0.821881 0.467822 0.15335 0.615138 -0.823984 -0.470344 0.285256 0.350372 0.54885 1.05319 1.20345 0.701658 0.32081 -0.267659 -0.253415 -0.110315 -1.32552 0.692147 0.378662 -0.105368 0.585212 0.850665 -0.373503 -0.337583 -0.45131 -0.892111 0.211496 -0.0984601 0.369318 0.823521 -0.601148 0.465403 -1.27505 0.308097 0.515112 0.447555 -0.160907 -0.176188 1.25055 0.884379 0.765996 -0.158664 -0.261104 -0.82735 -0.285478 -0.354752 -0.0926484 0.47691 0.426143 0.457651 0.13194 0.0418523 0.309574 -1.14067 -1.21411 0.280832 -0.385039 -0.787828 -0.0897399 -0.123519 -0.00559236 0.791344 -0.0812195 -0.380207 0.180402 1.30263 1.49728 0.340362 1.13607 -0.576781 -0.0476649 0.417669 -0.421018 -0.477779 0.56069 -0.439627 -0.234303 -0.353794 -0.213823 -0.139747 0.182455 -0.35174 -0.716954 -0.402717 0.731005 0.550178 0.316906 -0.635618 -0.202989 0.614219 1.12203 0.349202 1.0786 -0.0877966 -0.304798 -0.250967 0.10429 0.726739 -0.354711 0.216312 0.32353 -1.14488 -0.55808 0.172388 0.184204 -0.810693 -0.182069 0.87179 0.2682 0.140059 -0.212789 -1.02968 -0.0483281 -0.975343 -0.557199 -0.930676 0.30356 0.678427 -0.466818 0.697313 0.075875 0.728369 1.45131 1.49841 -0.736601 -0.34289 0.591895 -0.340921 -0.464995 -0.809698 -0.872934 -0.78157 -0.887409 -0.800366 -0.62074 -0.929484 0.20459 -0.580225 0.520619 -0.867317 -0.106224 -0.314975 0.259974 -0.447622 0.332252 1.02874 -0.309753 -0.120214 0.821823 0.836354 0.930829 -0.0276972 0.444921 0.697894 -0.116382 0.123864 0.0837987 0.543448 -0.194613 -0.1566 0.19256 0.316126 -0.196034 -0.408686 -0.157853 -1.03629 -1.05584 0.470356 -1.21356 0.787629 0.985883 0.953416 -0.322234 -0.368153 -0.633441 -0.68819 0.711415 -0.165479 -0.25157 0.815848 0.00686447 0.851433 -0.0828634 0.885283 -0.804948 0.949101 0.337122 -0.184679 -0.173794 0.928574 -0.000922758 0.0816269 -0.966806 0.63256 -0.998202 -1.01081 -0.812936 1.01589 0.66414 -0.857052 -0.0733811 -0.352841 0.0467802 -0.239311 -0.683994 -0.496117 -0.381529 -0.12532 -0.781423 -0.00341833 -0.102932 0.644482 -0.791619 0.217308 0.141036 -0.90867 0.96351 -0.609641 -0.791077 -0.260954 0.330227 -0.373165 0.626817 0.796848 -0.56526 -0.336722 -0.3628 -0.140642 -0.675049 -0.218165 0.0844866 -0.19044 0.127921 0.526749 -0.916819 -0.605192 -0.455995 0.619598 0.911827 -0.734813 0.0837467 -0.944485 0.653297 -0.818324 -0.511033 0.224319 
0.104171 0.738423 0.901774 -0.28286 0.88545 0.229124 -0.262935 0.474434 0.487282 0.676255 0.652239 0.888441 -0.390741 0.33624 -0.84894 -0.429468 -0.511833 -0.397383 -0.66759 -0.425406 0.0844865 0.852596 -0.707918 -0.38773 -0.79319 -0.178912 -0.794913 0.367071 0.756358 -0.524617 0.260137 -0.830317 -0.0813291 -0.619983 0.258492 0.704499 -0.876865 0.253636 0.853567 0.617501 0.560895 0.860739 -0.0333233 -0.0450806 -0.00969779 0.745523 -0.511241 -0.372239 0.875647 0.469091 -0.412169 0.240333 -0.495174 0.405011 0.327321 0.0613985 0.428811 -0.587048 -0.352675 0.959904 -0.0352405 0.0863123 0.510935 -0.801897 -1.08269 -0.348875 0.68127 -0.727432 -0.737473 -0.0530589 0.288284 0.25624 0.0638809 -0.931818 -0.883453 -0.342856 -0.288674 -0.230726 -0.681353 -0.567354 0.15817 -0.157574 0.817531 0.684515 0.390562 0.677845 0.0922009 0.725739 0.0641888 -0.761778 0.660428 -0.249172 0.490147 0.0427266 -0.40246 0.196207 0.805617 -0.441462 -0.894199 -0.901879 -0.489312 -0.796511 -0.919159 0.377958 -0.619949 0.529162 -0.25177 1.02174 -0.146846 0.712071 0.174021 0.437582 0.746784 -0.110065 -0.968177 -0.777531 0.138724 -0.735233 0.436163 0.0576604 0.271455 -0.420869 -0.651648 0.764137 -0.758791 0.391327 -0.565938 -1.04969 0.637248 0.297191 -0.656866 0.550308 -0.431883 -0.613155 0.270183 -0.820151 -0.78938 0.718032 0.152923 -0.296852 0.847977 0.324456 0.130345 0.904368 -0.787869 -0.174703 0.527466 -0.191558 -1.00678 -0.90675 0.10789 -0.0903704 -1.29471 -0.666022 -1.09608 0.363782 0.0646459 0.234262 0.751465 -0.137456 -0.158467 0.145859 0.477474 -0.268558 -0.114558 -1.05615 -0.0601637 0.130884 -0.166835 -0.0925663 -0.547434 -0.535949 0.704211 0.341562 0.607442 -0.469231 -1.14583 0.524104 0.587767 -0.805543 -0.391926 0.432849 -0.696084 0.978236 -0.137181 -0.41684 -0.51813 -0.676688 -0.607955 0.187348 -0.722154 0.130502 -0.156751 0.133812 -0.817247 0.555969 -0.231048 0.0755125 1.01218 0.966621 -0.239787 -0.131911 0.67959 0.0519757 0.42744 -0.246565 -0.903013 0.719382 0.105594 -0.988381 0.535736 -0.0336299 0.975325 0.511091 0.580959 0.60853 0.664915 -0.301651 -0.750836 -0.829425 -0.0749158 0.202718 -0.953503 -0.848062 0.263339 0.369379 -0.36155 -0.531437 1.01522 0.227276 0.483522 0.670768 0.225523 0.0282263 -0.0565664 -0.231676 0.902675 0.623964 0.175905 -0.744101 0.28473 -0.00257701 0.309242 0.184249 0.557187 0.0556597 -0.516177 -0.750286 0.447437 -0.0865821 0.31641 -0.271892 -0.497074 -0.530833 0.979957 -0.583613 0.12932 0.799569 -0.704055 -0.356681 0.735401 0.272964 0.142433 0.970731 0.360155 0.80257 -0.649861 0.675004 -0.628913 0.207525 0.787428 0.809136 -0.668515 0.39385 -0.581602 0.386309 -0.767159 -1.0607 0.707149 0.275762 -0.829477 -0.554997 0.764672 0.415947 0.577223 0.0840574 -0.980017 -0.432992 0.23463 -0.138213 -0.72877 -0.487979 0.478914 0.63017 -0.468583 0.627543 0.734386 -0.140655 0.313673 0.3759 -0.164174 -0.854378 -0.334948 -0.33481 -0.493249 0.32026 0.211745 0.164556 -0.55497 0.243556 -0.621254 -0.984658 0.624251 -0.601258 0.581651 -0.537772 0.0547563 -0.392044 0.417021 0.0169705 0.227686 1.02452 0.438848 0.716437 -0.667631 -0.330112 -0.0325626 0.407162 0.569882 0.795481 0.0321419 -0.104871 -0.78035 0.609554 -0.868535 -0.953186 -0.963857 0.787017 0.782829 0.0348567 0.631486 0.363537 0.301342 -0.704051 -0.122425 0.280959 -1.17215 0.129596 -1.09891 0.429179 -0.953439 -0.54936 0.932677 -0.445833 -0.439133 0.245616 0.151668 0.0752877 0.369263 -0.224873 -0.107065 0.597912 0.260652 -0.471975 0.670187 0.81489 0.174816 0.0829245 0.435542 0.894313 -0.588505 0.330311 -1.16036 -1.23354 -0.119279 -0.0674247 0.0308847 0.207994 -0.0277924 -0.294345 -0.225781 0.782259 0.122258 0.701566 -0.320132 0.0419714 -0.0879267 -0.714124 -0.26245 -1.02957 -0.352467 0.546306 0.71511 -0.0301484 0.275825 0.287674 -0.256657 -0.530291 -0.176205 0.462128 -1.20504 0.608213 0.269797 0.522193 -1.42134 -0.726034 0.0861787 0.585945 -0.771395 -0.302423 0.327261 -0.397868 0.246699 -0.205204 0.108393 -0.0485993 0.337359 -0.390072 0.16538 -0.0410262 -0.805748 -0.489838 1.01478 1.18299 0.353474 0.647366 0.142899 0.0727619 -0.780928 -1.04964 -0.636913 -1.0359 0.612197 0.206746 0.0818887 0.594366 -0.781368 0.738091 0.813507 -0.443849 0.219193 0.35441 0.213434 -0.390491 0.908075 -0.597281 0.445552 0.116073 -0.478741 0.627099 -0.288127 0.301458 -0.505134 0.639482 -0.613897 -0.350435 0.633188 0.653037 -0.2852 0.286108 0.0187051 -0.279278 0.636181 0.720721 -0.560503 -0.842219 -0.539485 0.712431 0.109944 0.298758 0.35764 -0.0714272 0.65587 -0.618356 0.135126 0.186209 0.173659 0.746195 0.31745 0.478059 -0.0970122 1.27436 1.43168 0.117041 0.702524 0.898534 1.11052 0.952825 0.0900458 0.49738 -1.07786 -0.447395 1.21435 -0.514451 1.22995 0.462702 0.644921 6.62967e-05 0.220844 1.07942 0.751477 -0.222841 -0.547733 0.593583 0.517153 0.698387 1.06257 1.47602 1.123 1.23846 0.469388 1.67262 0.943591 1.00341 1.24558 1.05451 1.45168 0.178434 -0.137479 0.299496 -0.0508501 -0.852925 -0.77873 0.224793 0.607476 -0.882663 0.265468 0.620496 0.569209 0.341371 0.348547 -0.875296 0.853342 -0.643067 1.01675 -0.102168 1.08007 1.80496 0.904515 1.06037 1.55697 1.49851 0.670509 0.848286 0.307172 -0.435969 0.629055 -0.456906 -0.0456568 -0.884038 0.159953 0.846479 -0.70598 -0.230908 0.829287 -0.0148583 0.393496 0.0160575 0.327801 0.529635 -0.398818 -0.303527 0.937775 1.49799 1.16997 0.155079 0.225134 -0.149989 -0.363345 1.27151 0.219684 -0.774171 0.0988653 0.488508 -0.537125 -0.639988 0.12542 -0.107903 -0.0724412 -0.457659 0.317302 0.0813947 0.490809 0.495095 -0.157749 -0.228798 -0.310377 -0.198449 -0.928674 0.31485 -0.240487 0.19545 0.717139 -0.183557 0.494647 -0.467617 0.613827 -0.744605 0.174467 -0.836656 -0.445802 0.172152 -0.40982 -0.467877 -0.337836 0.276474 -0.222464 0.108587 -0.195262 0.495956 1.23923 -0.533592 0.839505 0.198308 -1.00213 0.730379 0.820558 -0.487598 0.527934 0.289023 -0.283903 0.257926 0.797933 0.0885346 -0.546539 0.261546 -0.229017 0.925163 -0.500084 0.259488 -0.233883 0.0966875 0.364164 0.404739 0.627323 1.03958 1.50884 0.250524 0.75508 -0.503395 0.0366311 0.195217 -0.375592 -0.266603 -0.845666 -0.475567 0.733832 0.659205 -0.41138 0.603493 -0.579502 -0.168143 0.786746 -0.564915 -0.365629 -0.481572 0.461262 0.463231 0.827309 0.235472 0.866543 0.0953502 0.967276 0.524491 -0.257425 0.568647 1.24807 0.866415 1.04953 -0.606892 0.543301 0.679173 -0.2302 0.689537 -0.200292 -0.510099 0.0674375 0.917867 -0.221034 0.451573 -0.223104 0.526518 -0.667796 0.368267 -0.0963287 -0.533636 -1.01953 -1.12866 0.54748 -0.415705 0.963009 0.0796545 0.636065 -0.0436526 0.0270392 -0.431254 0.367867 0.518489 0.00176398 -0.71815 -0.861134 -0.407485 -0.480094 -0.454185 -0.497184 0.0934485 0.466869 -0.63031 0.000618952 -0.825011 0.225495 0.0331715 0.47102 0.0624984 -0.348866 -0.509253 -0.0630061 -0.139084 -0.470906 0.257741 0.935443 0.628528 0.377634 0.390745 -0.294044 0.833659 0.40928 0.98875 0.839408 0.468954 0.0290455 -0.31147 0.699206 0.649517 0.977019 0.689154 0.409631 0.892993 -0.780138 0.266892 -0.983492 0.0889454 -0.314286 -0.263768 -0.309646 -0.182439 0.687426 0.0218039 -0.551297 0.615527 0.317956 -0.20427 -0.556064 -0.420009 0.881985 0.465345 -0.169419 -0.0835876 0.193184 0.45833 -0.15956 -0.522997 -0.79582 -0.0583669 -0.748247 -0.205348 0.142063 0.397116 -0.0199938 -0.433905 0.912231 -0.720718 0.682691 0.138304 -0.574592 -0.91994 -0.742075 0.348525 -0.893571 0.875558 0.728985 -0.981078 0.687426 -0.829117 
0.9965 0.108125 -0.553075 -0.0372118 0.731199 0.357583 -0.130041 -0.142389 0.312963 0.810601 -0.332418 0.28399 0.737908 0.0840479 0.43747 0.776893 0.762445 -0.508202 0.340531 0.0258619 -0.795628 -0.802336 0.614195 -0.683105 0.524449 0.636038 -0.408555 -0.283207 0.186698 -0.9633 0.691524 0.471884 0.134115 -0.626684 0.434626 -0.548675 -0.320973 -0.917763 0.255724 0.653307 -0.374196 -0.402663 0.610966 0.0604544 -0.28828 -0.620496 0.349308 0.0327074 -0.137054 -0.328238 0.209894 0.370698 -0.818809 -0.163796 0.0560512 0.303517 -0.61871 -0.384819 0.741097 0.124163 0.799011 -0.850446 -0.869123 -0.723725 0.0138063 0.0735986 -0.764439 -0.633426 0.40894 -0.625772 0.758576 0.719565 0.606329 0.184392 -0.344423 -0.382437 1.32758 -0.236139 -0.172983 0.0142381 -1.00711 -0.489572 0.432387 -0.474911 -0.634516 0.867992 0.429144 -0.150374 0.58763 0.701856 0.261461 0.63501 0.761653 0.84423 0.289744 -0.682717 0.53233 -0.0771902 -0.945205 0.462015 -0.518515 -0.235462 0.517044 0.992841 1.50317 -0.0207957 0.945198 0.00539626 0.685223 0.340928 -0.927853 0.143407 -0.853226 -0.355447 0.616099 0.777494 -0.797034 0.253152 0.536463 0.242203 1.09473 -0.447631 0.461653 -0.0703079 0.134036 -0.144174 -0.727725 -0.983035 -0.742741 0.975331 1.30588 1.51145 1.09854 0.121678 -0.2752 -0.442758 0.252155 -1.12786 -0.487682 0.944293 0.131232 0.25029 0.309946 0.568436 0.029949 1.02839 1.13829 0.226059 0.425247 -0.479658 -0.616246 0.556231 0.304865 -0.253073 -1.2273 -0.695022 -0.736333 0.660688 -0.38078 0.215725 0.0697335 0.824494 -0.815909 0.397178 -0.495663 0.397763 0.760646 0.363044 0.0896476 -0.676753 -0.249218 0.573633 0.102051 0.252056 0.968574 -0.434894 0.146453 -0.375981 -0.333907 0.511933 -0.523965 -0.611307 -0.538291 0.500199 0.330784 0.941908 -0.556799 0.369922 -0.259722 -0.1717 0.588026 -0.311215 -0.729011 -0.0210199 0.217234 -0.922472 -0.244051 -0.818499 0.353604 -0.59039 0.633007 -0.333669 1.16455 1.26766 1.20745 0.0779805 -0.651473 -0.490117 -1.20326 -0.14655 -1.21499 -1.11443 0.344043 0.246577 0.770278 0.13218 -0.668149 0.0702591 0.778769 0.602612 0.35834 -0.675129 0.814037 0.7786 -0.528395 -0.332794 -0.0259668 1.05448 0.473363 -0.108013 -0.252455 0.922569 0.598044 0.680522 -0.391301 -0.238477 -0.813547 0.0328028 -1.42833 -0.734454 0.205546 -0.896138 -0.42966 0.785852 -0.0626066 0.721197 -0.634953 0.0921784 -0.681245 0.11016 0.794244 -0.065856 0.722621 -0.158268 0.0331737 -0.89577 -0.74804 0.680112 0.446001 0.874698 0.431875 0.357027 -0.0322087 -1.07026 0.549072 -1.28833 0.318723 0.135501 -0.567176 -0.665337 -0.499546 0.775308 0.809921 -0.550078 0.000504485 -0.526972 0.369435 0.578592 -0.398922 -0.33779 0.69233 0.0698008 0.867577 0.345827 -0.320597 0.102597 -0.74446 0.165208 0.485544 -0.00108728 -0.855652 0.636322 -0.520714 -0.96116 -1.0691 -0.436566 -0.0121007 -0.520151 0.933432 -0.577891 0.674501 0.519725 0.691452 -0.807206 -0.324583 -0.642632 -0.32068 -0.522717 -0.248452 0.953185 -0.467996 -0.537967 -0.126741 -1.00851 0.611111 0.992198 0.778129 1.16878 0.210726 -0.7827 -0.362684 -0.816654 0.36219 0.0463969 -0.558391 -0.53091 0.323153 1.10105 0.461829 -0.450106 -0.356069 -0.133969 0.339723 0.174756 0.212915 0.93773 0.307659 -0.0183392 -0.089619 0.166895 -0.595856 0.0290253 -0.806566 0.994428 -0.24222 -0.573047 -0.684308 0.762053 -0.105246 0.279655 0.463764 -0.169478 0.146876 -0.429741 0.316484 0.956906 0.912403 -0.440627 -0.367008 -0.18215 -0.454846 0.279733 0.0190918 -0.390221 -0.253913 -0.910172 -0.185821 0.650856 -0.719075 -0.0888029 0.672532 -0.400921 -0.558188 0.150359 -0.701237 0.332565 0.698232 -0.372647 0.48006 0.145457 0.966391 0.917358 -0.38601 -0.210161 -0.465851 0.881816 0.20652 0.594171 -0.293707 0.871934 -0.358594 0.12062 0.785074 -0.661378 1.07374 -0.218607 -0.456199 0.808523 -0.891484 -1.04976 -0.0265807 -0.365944 -0.857659 -0.0484103 0.303469 -0.0950409 0.342561 -0.245611 0.851092 -0.652389 1.07121 -0.166405 0.61646 -1.08705 0.378272 0.385827 0.0882635 -0.835901 -0.632305 0.0754735 0.363005 0.366079 0.448409 -0.510878 -0.0985266 -0.548362 -0.159571 0.416966 0.258238 -0.422735 0.342353 -0.769468 -1.14361 0.333879 -0.390218 0.71529 0.217659 1.50783 0.238748 -0.51347 -0.43315 -0.471474 -0.510605 0.0385661 -0.040214 -0.187216 0.418062 0.38555 0.334408 -0.795646 -0.129853 0.917884 0.258289 -0.395284 0.00245966 0.470547 -1.10638 -0.805708 -0.746652 0.416181 -0.369542 -0.284322 -0.635068 -0.721426 0.409486 0.0426774 0.548799 -0.243312 0.224627 -0.289121 -0.266885 -0.226893 0.19074 0.95656 0.807081 0.574212 0.623434 0.481825 0.425645 0.136303 0.822269 -0.359834 -0.00622546 -0.612053 0.00922613 -1.09628 -1.07001 -0.505945 -0.901164 -0.300747 -1.0583 -0.376439 1.34819 0.938111 0.125451 0.423061 -0.594243 0.124134 -0.548511 0.33875 -0.175602 0.0788043 0.20785 0.693633 0.242732 0.250703 0.711843 -0.752254 1.01675 0.615555 -0.882525 -0.0626163 0.615842 0.0200587 -0.608332 0.449823 -0.677872 0.375802 -0.734843 0.460408 1.47379 1.35268 0.266503 0.509828 -0.599387 0.558307 0.326166 0.567978 -0.15045 0.561953 -0.206747 0.916295 0.930085 -0.197034 0.351495 0.113122 0.641445 -0.510543 0.164694 0.26556 1.23935 0.143098 -0.946675 -0.146193 -0.461989 0.0100493 -0.906519 1.24078 1.29198 0.441552 0.215288 1.16282 -0.814959 -1.00052 0.402441 0.611526 -0.444189 -0.0597541 0.781017 0.55064 0.649032 -0.733207 0.731857 -0.38547 -0.159973 0.874747 -0.695363 0.0785192 0.987579 -0.576085 0.193117 -0.496178 0.248009 -0.896854 0.187107 0.120321 1.7679 1.82119 1.35685 0.138158 -0.168041 0.784913 0.616909 -0.857113 -0.962125 -1.19991 0.21703 0.30775 -0.637212 0.215886 -0.372959 0.365207 -0.491892 -0.134465 -0.269293 0.180677 -0.03063 -0.357693 0.415497 -1.35716 -0.675966 1.01161 1.42814 1.25605 1.00894 0.674162 0.61221 -0.525223 -1.08313 -1.11128 0.0550006 -0.670847 0.571378 -0.846948 -0.977906 -0.982333 0.357153 -0.881847 -0.16479 1.08304 -0.350131 0.036904 0.954272 0.580788 0.882015 -0.502126 0.333026 0.0990559 1.1028 0.143022 0.54319 1.35565 0.936733 1.44418 0.822435 0.403047 0.46957 0.399808 -0.358875 -1.0179 0.495244 -0.906483 0.163386 0.0914283 -0.279806 -0.421476 -0.220196 -0.189229 -0.306117 -0.542042 -0.0479335 0.831136 -0.646114 -0.0155069 0.244665 0.391561 -0.524156 -0.375099 -0.173578 -0.0747771 1.39328 1.1475 0.916582 0.794326 -0.0402637 -0.187674 0.70194 -0.876746 -0.608862 0.335982 -0.340316 -0.150909 -0.789428 -0.436409 0.356008 0.482248 0.425342 0.801222 0.161044 0.213476 0.874044 -0.628565 0.657076 -0.72347 -0.49351 1.05347 -0.350814 1.33265 0.495761 1.29371 0.62714 1.07352 0.149729 0.296263 -0.828611 -0.307606 -0.0889134 -0.869625 -0.462025 0.674233 0.434384 0.447879 -0.596815 0.276189 0.872305 -0.51624 0.995728 -0.182282 -0.00106375 0.010778 -0.331303 0.214093 0.752655 0.934584 -0.657829 -0.651025 0.632602 1.13934 -0.310734 -0.64897 0.484121 0.629494 -0.327148 0.0197276 0.310984 -0.321472 -0.226706 -0.999106 -0.506722 -0.656236 0.814718 -0.336561 -0.263218 0.448519 0.18222 -0.80456 -0.696265 -0.853583 0.960497 0.574252 -0.100716 -0.257502 -0.681168 0.469764 0.204456 0.269783 -0.757749 0.427668 -0.118738 0.838602 -0.587841 -0.888862 -0.522233 -0.580599 -0.928476 -0.462478 -0.890012 -0.67435 0.889891 -0.165141 -0.919802 -0.166382 0.0504048 -0.669074 0.79982 -0.792667 -0.752502 0.0287696 -0.424437 0.00142639 -0.34265 0.748093 -0.494213 -0.34371 -0.468584 0.256471 0.846919 -0.367234 0.631693 0.307604 -0.924684 0.313293 -0.279482 -0.591951 
-0.0314081 -0.811002 0.295927 0.632819 0.621045 -0.555412 -0.00552051 -0.439886 -0.63402 -0.669089 -0.766373 0.0792382 0.578457 0.32143 -0.891271 0.627079 -0.971384 0.127868 -0.940917 -0.886231 0.0297329 -0.733526 0.7422 0.40841 0.55653 0.665542 -0.650334 0.884554 -0.440388 -0.318292 0.698849 0.0648701 0.993559 -0.498698 0.891808 -0.281187 -0.334019 0.398364 -0.257457 0.335518 0.141862 0.295796 0.832349 0.350458 0.477383 0.581622 0.800544 0.0706436 0.208892 0.412482 0.368333 -0.229221 0.405401 0.883705 -0.508284 0.172616 -0.602221 0.17497 -0.892633 0.370054 -0.622482 0.563858 0.814676 0.32123 0.107995 -0.331938 -0.566871 0.577022 -0.139242 -0.220015 -0.163386 0.3284 0.197549 0.449219 -0.576792 0.584866 0.0781129 -1.06752 -1.11081 0.367376 0.386824 0.308823 0.662346 0.522815 0.434317 -0.591306 0.160078 1.02997 -0.642072 0.285748 0.37063 -0.461643 -0.770776 -1.05586 0.0464023 -0.364665 1.24591 0.992539 0.119209 0.238488 -0.0887299 -0.716395 0.361615 -0.713158 -0.496904 -1.11236 -0.665008 -1.2761 0.172521 0.398299 -0.365503 0.428651 -0.0221533 -0.248543 0.121584 0.277971 0.434135 0.642441 -1.43243 0.447497 -1.11045 -0.354893 -1.07349 0.35562 0.0803061 0.738288 -0.486053 1.08338 0.465568 -0.166635 -0.931164 -1.06582 -0.338121 -1.15352 0.129918 -0.371579 -0.311646 1.05749 0.401043 -0.583135 0.762684 0.897772 0.923819 -0.818179 -0.258679 -0.808484 0.0987392 0.105604 -0.236008 -0.0516016 0.196127 0.489347 0.288182 0.791614 0.857806 -0.712411 0.171256 0.0419124 -1.51574 -1.34156 -1.33152 0.0859392 -0.954194 -0.558099 0.86679 1.10281 0.354604 -0.527334 0.995302 -0.651864 0.341845 -0.385059 0.0869626 0.375917 0.609181 -0.323784 -0.714248 0.462944 -0.427358 0.597079 0.47491 -0.196311 0.674833 0.540224 -0.890495 -0.0200735 -1.52114 -0.699558 -0.0681175 -0.940146 0.0258881 1.04959 1.47737 0.274253 -0.439077 0.613605 -0.789521 0.754021 0.786656 0.711909 0.771061 0.668151 0.150918 -0.702235 -0.673292 -0.0217443 -0.793919 0.0145413 0.500448 -0.450609 -0.714376 0.353189 -0.936168 -1.02463 -0.790626 0.308539 0.459345 0.496024 1.17598 1.4137 0.908666 0.313734 0.0652174 -0.041699 -0.0704525 0.867823 0.564968 -0.187545 -0.0932875 -0.457403 0.164375 0.364889 -0.795099 -0.0725289 0.367211 0.029597 -0.56416 0.661198 -0.55334 -0.555443 -1.1117 -0.258382 -0.812664 0.878908 -0.673366 0.103713 1.42472 1.82505 0.504819 0.825597 -0.466419 -0.472256 -0.937713 -0.46968 0.0567551 0.491201 0.414837 0.249953 -0.113684 -0.656476 -0.656803 0.251703 -0.523477 0.385159 -0.265275 -0.830259 0.341494 0.254743 -1.19027 -0.538029 -0.198811 -0.442714 1.30764 1.23542 0.818352 0.295145 0.59299 1.25163 0.957362 -0.866397 0.310402 0.58305 -0.891254 0.651026 0.941719 -0.853228 -0.427825 -0.41412 0.729567 -0.357028 -0.901044 -0.833661 -0.0875562 0.560591 -0.797196 -1.36233 -0.129543 1.15424 -0.139393 1.57273 1.50872 0.498763 0.616286 0.614493 1.68745 0.975587 -0.423579 0.458698 0.867264 0.87616 0.436493 0.865374 -0.158733 -0.0433977 -0.0165286 -0.141701 -0.747099 0.291197 -0.413198 0.831662 0.10829 0.101167 -0.00381087 -0.639688 -0.126699 -0.10989 1.65315 0.364711 1.04989 1.34442 0.216718 0.490111 0.821968 0.502367 -0.797358 0.238312 0.790118 0.307072 0.408613 -0.395068 0.531024 -0.0134083 -0.302377 0.209213 -0.672027 0.265154 0.502112 -0.160723 -0.0353513 -0.0828668 0.221639 0.350951 0.122098 -0.148187 1.41597 1.21804 -0.268766 0.500274 0.495118 0.261827 0.106595 0.378059 -0.515901 -0.697398 -0.38442 -0.611383 0.528688 -0.557679 0.84153 0.736533 -0.201164 0.761457 0.0453292 0.391411 -0.638488 1.15962 -0.0960164 0.0738383 -0.815353 1.22507 0.762711 0.546202 1.08699 -0.286498 0.520379 0.338374 0.437722 0.835405 0.877316 -0.293171 0.212582 0.211495 0.213796 -0.355738 -0.0897996 -0.591808 0.16224 0.509575 -0.874251 0.559441 0.76587 0.855457 -0.35539 -0.757837 0.410497 0.394253 0.665558 0.536486 0.817062 0.845117 0.764446 -0.449015 0.486226 -0.0561498 -0.672859 0.430353 -0.265 -0.014737 0.729166 -0.450171 -0.797144 -0.126578 0.576652 1.09116 0.0874583 -0.482098 0.581101 -0.0294839 0.279858 0.134698 -0.523844 -1.00813 0.66602 0.369091 -0.0534051 0.218778 0.53177 -0.323515 -0.922165 -0.297583 -0.490065 -0.454096 0.320588 -0.551604 0.904108 -0.00507341 0.650924 0.0439431 -0.745995 0.0925078 0.172983 -0.60991 0.356524 -0.398784 -0.393924 0.503115 -0.286007 0.534669 -0.519412 0.751865 0.79045 -0.0656436 -0.327696 -0.678838 0.521277 0.103595 -0.287167 -0.43041 0.491864 0.0274223 -0.389091 -0.877404 0.915419 -0.110692 -0.941509 -0.24283 -0.850174 -0.644245 -0.310235 -0.220989 -0.452753 -0.379525 0.607763 0.387412 -0.543839 0.0992532 -0.00816988 0.290445 0.311605 -0.0511129 0.457687 0.0367586 -0.813424 0.334913 -0.414761 -0.78336 0.467405 0.561007 0.818677 -0.644112 -0.942273 0.857808 0.787537 0.0243325 -0.727874 0.190402 0.784538 0.119658 1.02886 -0.541886 -0.500434 0.426428 -0.589208 -0.444161 0.716197 1.11595 -0.429561 0.531609 -1.06863 0.144224 0.00171844 0.331498 0.0519957 0.738748 -0.67309 -0.824121 -0.0611153 0.878788 0.338244 0.759216 -0.59184 -0.323965 0.698658 -0.708109 0.367455 0.140747 0.640453 -0.488064 0.299026 1.09811 0.414647 -0.44046 0.460484 -0.350973 -0.39157 -0.00275504 -0.184559 -0.964653 0.283769 0.31508 0.103429 0.478173 -1.00429 -0.365886 0.367858 0.788679 0.0170487 -0.0529746 0.161967 0.0437006 -0.14184 0.205338 0.964665 0.938879 -0.379756 0.676286 -0.147316 0.848656 0.192717 -0.313462 0.51621 -0.808933 -0.205815 0.710234 0.695131 -0.589487 0.511667 0.829714 -0.508902 0.878491 0.480964 -0.298058 -0.552013 0.335315 1.0449 0.878972 0.846938 -0.122782 -0.77096 0.575083 0.99925 -0.428864 0.291591 -0.151209 0.904814 -0.549732 -0.121129 0.420018 -0.0199904 -0.950303 0.423038 -0.0772571 -0.711654 0.444387 -0.323804 -0.861294 0.291739 0.732925 -0.603288 0.423192 -0.473479 0.0863786 -0.921779 -0.765091 0.789662 0.59595 0.584133 -0.7839 -0.721236 -0.449825 -0.670986 -0.0470821 0.773822 0.796029 -0.894752 0.40424 -0.268326 0.505479 -0.427745 0.312767 0.623654 -0.134502 -0.356846 0.216848 0.203412 0.576241 0.816634 -0.832102 -0.0999939 -0.105517 0.226481 -0.446509 -0.931611 0.896863 0.847434 0.810533 -0.58405 0.630088 0.626939 -0.633227 0.506716 0.0567783 0.822497 0.316513 -0.65781 -0.426787 -1.01981 0.469601 0.71164 0.723986 -0.250807 -0.706917 -0.641715 -0.180039 -0.327769 0.421248 0.702274 0.0981596 -0.207644 -0.927372 0.335166 0.142756 -0.620266 0.169603 -0.731982 0.931133 0.86026 -0.45437 -0.856597 -0.157063 0.0278981 0.00792359 0.0797873 0.386016 0.681651 0.180707 -0.17903 0.373803 0.543703 -0.748265 -0.859585 -0.658052 -0.140732 0.315838 0.0571065 -0.0843628 1.03993 0.786341 -0.692011 -0.556308 0.960469 -0.856471 -0.339942 -0.595903 -0.0329113 0.785845 0.406185 -1.00436 0.859713 0.610673 -0.0581944 0.471303 0.245299 0.805613 -0.794288 -0.257412 -0.362242 -0.0192306 -0.504793 0.145212 -0.0641066 -0.0137097 -0.684175 -0.821105 -0.781391 -0.753739 -0.860703 -0.208299 0.29113 -0.653751 -0.638121 -0.807556 0.56525 0.613271 -0.340654 -0.669857 0.299133 0.237182 -0.781361 -0.0824299 0.324105 -0.669138 -0.922294 0.133947 -0.983107 0.617545 -0.299513 0.618586 -0.165101 0.276839 0.647362 -0.577366 0.0201849 -0.98344 0.0670324 0.941364 -0.916416 0.424092 -0.55557 -0.787694 -0.220316 0.167028 -0.290072 -0.180329 -0.651658 -0.449932 -0.57815 0.258853 -0.416575 0.0745148 -0.810705 -0.737196 -0.946896 0.555735 -0.796408 0.211448 -0.32632 -0.381578 -0.350513 -0.916545 -0.252005 0.20742 -0.752611 -0.626739 
